{"learner":{"attributes":{"best_iteration":"119","best_score":"0.8133397078202973","scikit_learn":"{\"_estimator_type\": \"classifier\"}"},"feature_names":["hour_sin","hour_cos","month_sin","month_cos","pressure_msl","pressure_change_1h","pressure_change_3h","pressure_change_6h","pressure_accel_3h","temperature_2m","relative_humidity_2m","dew_point","dew_point_depression","humidity_change_1h","humidity_change_3h","vapour_pressure_deficit","vpd_change_3h","wind_speed_10m","wind_u","wind_v","wind_speed_change_1h","wind_speed_change_3h","is_sea_breeze","is_migjorn","is_garbi","is_ponent","llevantada_strength","llevantada_moisture","garbi_strength","tramuntana_strength","tramuntana_moisture","wind_dir_change_3h","temp_925","rh_925","wind_925_speed","wind_925_dir","wind_850_speed","wind_850_dir","temp_850","temp_500","rh_850","rh_700","temp_700","wind_300_speed","wind_300_dir","gph_300","vt_index","tt_index","li_index","li_unstable","moisture_flux_850","moisture_flux_925","theta_e_deficit","inversion_925","deep_layer_shear","jet_speed_300","wind_shear_speed","wind_shear_dir","precipitation","rain_accum_3h","rain_accum_6h","rained_last_3h","cloud_cover","cloud_change_1h","cloud_change_3h","is_overcast","weather_code","model_predicts_precip","wc_is_thunderstorm","wc_is_rain","wc_is_drizzle","nwp_dry_conflict","nwp_wet_conflict","cape_change_3h","shortwave_radiation","radar_dbz","radar_rain_rate","radar_has_echo","radar_frames_with_echo","radar_approaching","radar_max_intensity_1h","radar_nearest_echo_km","radar_max_dbz_20km","radar_coverage_20km","radar_upwind_nearest_echo_km","radar_upwind_max_dbz","radar_storm_velocity_kmh","radar_storm_approaching","radar_quadrant_max_dbz_N","radar_quadrant_max_dbz_E","radar_quadrant_max_dbz_S","radar_quadrant_max_dbz_W","radar_quadrant_coverage_N","radar_quadrant_coverage_E","radar_quadrant_coverage_S","radar_quadrant_coverage_W","radar_echo_bearing_sin","radar_echo_bearing_cos","sentinel_temp_diff","sentinel_humidity_diff","sentinel_precip","sentinel_raining","local_rain_xema","local_rain_xema_3h","ensemble_rain_agreement","ensemble_precip_spread","ensemble_temp_spread","ensemble_max_precip","ensemble_min_precip","ensemble_models_rain","forecast_temp_bias","forecast_humidity_bias","aemet_prob_precip","aemet_prob_storm","aemet_precip_today","lightning_count_30km","lightning_count_15km","lightning_nearest_km","lightning_cloud_ground","lightning_max_current_ka","lightning_approaching","lightning_has_activity","aemet_radar_dbz","aemet_radar_has_echo","aemet_radar_nearest_echo_km","aemet_radar_max_dbz_20km","aemet_radar_coverage_20km","aemet_radar_echoes_found","smc_prob_precip_1h","smc_prob_precip_6h","smc_precip_intensity"],"feature_types":["float","float","float","float","float","float","float","float","float","float","float","float","float","float","float","float","float","float","float","float","float","float","float","float","float","float","float","float","float","float","float","float","float","float","float","float","float","float","float","float","float","float","float","float","float","float","float","float","float","float","float","float","float","float","float","float","float","float","float","float","float","float","float","float","float","float","float","float","float","float","float","float","float","float","float","float","float","float","float","float","float","float","float","float","float","float","float","float","float","float","float","float","float","float","float","float","float","float","float","float","float","float","float","float","float","float","float","float","float","float","float","float","float","float","float","float","float","float","float","float","float","float","float","float","float","float","float","float","float","float","float"],"gradient_booster":{"model":{"cats":{"enc":[],"feature_segments":[],"sorted_idx":[]},"gbtree_model_param":{"num_parallel_tree":"1","num_trees":"150"},"iteration_indptr":[0,1,2,3,4,5,6,7,8,9,10,11,12,13,14,15,16,17,18,19,20,21,22,23,24,25,26,27,28,29,30,31,32,33,34,35,36,37,38,39,40,41,42,43,44,45,46,47,48,49,50,51,52,53,54,55,56,57,58,59,60,61,62,63,64,65,66,67,68,69,70,71,72,73,74,75,76,77,78,79,80,81,82,83,84,85,86,87,88,89,90,91,92,93,94,95,96,97,98,99,100,101,102,103,104,105,106,107,108,109,110,111,112,113,114,115,116,117,118,119,120,121,122,123,124,125,126,127,128,129,130,131,132,133,134,135,136,137,138,139,140,141,142,143,144,145,146,147,148,149,150],"tree_info":[0,0,0,0,0,0,0,0,0,0,0,0,0,0,0,0,0,0,0,0,0,0,0,0,0,0,0,0,0,0,0,0,0,0,0,0,0,0,0,0,0,0,0,0,0,0,0,0,0,0,0,0,0,0,0,0,0,0,0,0,0,0,0,0,0,0,0,0,0,0,0,0,0,0,0,0,0,0,0,0,0,0,0,0,0,0,0,0,0,0,0,0,0,0,0,0,0,0,0,0,0,0,0,0,0,0,0,0,0,0,0,0,0,0,0,0,0,0,0,0,0,0,0,0,0,0,0,0,0,0,0,0,0,0,0,0,0,0,0,0,0,0,0,0,0,0,0,0,0,0],"trees":[{"base_weights":[3.3269522E-3,-1.322117E0,1.7423315E0,-1.825736E0,-1.0082977E0,1.1947907E0,1.85791E0,-1.8576393E0,-3.3903972E-4,-1.1192056E0,4.2262858E-1,-4.6198818E-1,1.2225627E0,1.6922511E0,1.9258369E0,-1.9341581E0,-1.721676E0,-5.482795E-1,9.56705E-1,-1.2203987E0,1.1471223E-1,9.132088E-2,9.790901E-1,6.6703945E-1,-1.430947E0,5.916725E-1,1.2692183E0,1.1695126E0,1.720791E0,1.782288E0,1.9578987E0,-1.93847E0,-1.1603096E0,-1.76373E0,-8.4791607E-1,-1.2594887E0,3.950589E-1,1.4074866E0,-2.629827E-1,-5.618423E-1,-1.3331057E0,-1.2439075E0,2.7700448E-1,-1.2098743E0,2.4810506E-1,1.0449781E0,-8.462318E-2,-3.0525578E-2,7.924103E-2,-9.223941E-2,-3.0542964E-3,7.404098E-1,-8.807103E-2,1.0629015E0,1.3600283E0,-3.242656E-2,1.2608298E0,1.5916678E0,1.7887411E0,1.7969474E0,5.9994847E-1,1.6900572E0,1.9663581E0,-9.7033516E-2,-3.907311E-2,-9.266826E-2,1.2438062E-2,-9.250925E-2,-7.255121E-2,-6.365554E-2,2.311374E-2,2.2875303E-2,-9.5207475E-2,7.684689E-2,-2.1478327E-2,8.8777706E-2,1.5400092E-2,-8.462318E-2,7.597803E-2,-4.9199294E-2,-4.559976E-3,-8.957241E-2,-6.0248356E-2,1.8310068E-2,-7.644533E-2,4.9892332E-2,4.123752E-3,-9.550111E-2,6.214486E-3,-5.6837E-2,1.8705068E-2,-4.3104384E-3,5.9050966E-2,5.173574E-2,3.5967254E-3,5.4794025E-2,-8.5876934E-2,6.866758E-2,-1.4807207E-2,3.5600234E-2,7.347567E-2,6.34765E-2,8.3700724E-2,5.3701203E-2,8.9912E-2,5.565802E-2,9.0863615E-2,-3.242656E-2,7.544888E-2,4.6611995E-2,8.748024E-2,9.841277E-2,5.5460483E-2],"categories":[],"categories_nodes":[],"categories_segments":[],"categories_sizes":[],"default_left":[0,0,0,1,1,0,0,0,0,0,0,0,0,0,0,0,0,0,0,0,0,0,0,0,0,0,0,0,0,1,0,1,0,1,0,0,0,0,0,0,0,0,0,0,0,0,0,0,0,0,0,0,0,0,1,0,0,0,0,0,0,0,0,0,0,0,0,0,0,0,0,0,0,0,0,0,0,0,0,0,0,0,0,0,0,0,0,0,0,0,0,0,0,0,0,0,0,0,0,0,0,0,0,0,0,0,0,0,0,0,0,0,0],"id":0,"left_children":[1,3,5,7,9,11,13,15,17,19,21,23,25,27,29,31,33,35,37,39,41,43,45,47,49,51,53,55,57,59,61,63,65,67,69,71,73,75,77,79,81,83,85,87,89,91,-1,-1,-1,-1,-1,93,-1,95,97,-1,99,101,103,105,107,109,111,-1,-1,-1,-1,-1,-1,-1,-1,-1,-1,-1,-1,-1,-1,-1,-1,-1,-1,-1,-1,-1,-1,-1,-1,-1,-1,-1,-1,-1,-1,-1,-1,-1,-1,-1,-1,-1,-1,-1,-1,-1,-1,-1,-1,-1,-1,-1,-1,-1,-1],"loss_changes":[7.296348E4,2.8369219E3,8.639297E2,4.0134766E2,1.757294E3,1.1057886E2,1.2357422E2,6.680664E1,6.3144695E1,1.2830566E3,1.4672412E2,4.485313E1,6.82417E1,4.686621E1,3.299414E1,1.1880859E1,8.8265625E1,5.2034733E1,2.4567657E1,7.038262E2,1.721261E2,1.02357025E2,5.4016144E1,2.3501076E1,1.2124714E1,5.855178E1,3.929492E1,2.9752975E1,2.4213867E1,2.422754E1,1.1121094E1,9.1640625E0,2.6597397E1,6.0148438E1,6.4474884E1,4.974363E1,3.247081E1,1.2275364E1,3.4702675E1,2.7584872E2,4.7365918E2,3.88992E1,9.757734E1,5.080951E1,7.8480965E1,4.494507E1,0E0,0E0,0E0,0E0,0E0,3.02818E1,0E0,6.3572388E1,3.3943115E1,0E0,1.774704E1,2.6396973E1,1.1614258E1,1.7908691E1,2.3348429E1,7.4679565E0,7.798828E0,0E0,0E0,0E0,0E0,0E0,0E0,0E0,0E0,0E0,0E0,0E0,0E0,0E0,0E0,0E0,0E0,0E0,0E0,0E0,0E0,0E0,0E0,0E0,0E0,0E0,0E0,0E0,0E0,0E0,0E0,0E0,0E0,0E0,0E0,0E0,0E0,0E0,0E0,0E0,0E0,0E0,0E0,0E0,0E0,0E0,0E0,0E0,0E0,0E0,0E0],"parents":[2147483647,0,0,1,1,2,2,3,3,4,4,5,5,6,6,7,7,8,8,9,9,10,10,11,11,12,12,13,13,14,14,15,15,16,16,17,17,18,18,19,19,20,20,21,21,22,22,23,23,24,24,25,25,26,26,27,27,28,28,29,29,30,30,31,31,32,32,33,33,34,34,35,35,36,36,37,37,38,38,39,39,40,40,41,41,42,42,43,43,44,44,45,45,51,51,53,53,54,54,56,56,57,57,58,58,59,59,60,60,61,61,62,62],"right_children":[2,4,6,8,10,12,14,16,18,20,22,24,26,28,30,32,34,36,38,40,42,44,46,48,50,52,54,56,58,60,62,64,66,68,70,72,74,76,78,80,82,84,86,88,90,92,-1,-1,-1,-1,-1,94,-1,96,98,-1,100,102,104,106,108,110,112,-1,-1,-1,-1,-1,-1,-1,-1,-1,-1,-1,-1,-1,-1,-1,-1,-1,-1,-1,-1,-1,-1,-1,-1,-1,-1,-1,-1,-1,-1,-1,-1,-1,-1,-1,-1,-1,-1,-1,-1,-1,-1,-1,-1,-1,-1,-1,-1,-1,-1],"split_conditions":[5.1E1,2.3E1,2E-1,1E0,6.666667E-1,2.3E1,4E-1,5E0,4.39E2,1E0,3E0,-4E-1,5E-1,4E-1,8.8E1,2.38E1,3.8E0,1.2E0,9.5E0,-8.660254E-1,7.9E1,-2.6E-1,7.3E1,6.23E2,1.019E3,2.54E1,0E0,-2.3E1,-2.5881904E-1,2.95E1,6.666667E-1,2E-1,1E0,2.2E-1,9.659258E-1,-3.5E0,-3.946709E0,7.4E1,7.9E1,6.4E1,2.5E-1,-7E-1,-7.0710677E-1,9E-1,-1.9E1,-2.8E1,-8.462318E-2,-3.0525578E-2,7.924103E-2,-9.223941E-2,-3.0542964E-3,-2.5881904E-1,-8.807103E-2,1.9E0,5.17E1,-3.242656E-2,-2.5881904E-1,-3E0,6.6E1,2.9E1,8.6E1,1.8006886E1,1.2E0,-9.7033516E-2,-3.907311E-2,-9.266826E-2,1.2438062E-2,-9.250925E-2,-7.255121E-2,-6.365554E-2,2.311374E-2,2.2875303E-2,-9.5207475E-2,7.684689E-2,-2.1478327E-2,8.8777706E-2,1.5400092E-2,-8.462318E-2,7.597803E-2,-4.9199294E-2,-4.559976E-3,-8.957241E-2,-6.0248356E-2,1.8310068E-2,-7.644533E-2,4.9892332E-2,4.123752E-3,-9.550111E-2,6.214486E-3,-5.6837E-2,1.8705068E-2,-4.3104384E-3,5.9050966E-2,5.173574E-2,3.5967254E-3,5.4794025E-2,-8.5876934E-2,6.866758E-2,-1.4807207E-2,3.5600234E-2,7.347567E-2,6.34765E-2,8.3700724E-2,5.3701203E-2,8.9912E-2,5.565802E-2,9.0863615E-2,-3.242656E-2,7.544888E-2,4.6611995E-2,8.748024E-2,9.841277E-2,5.5460483E-2],"split_indices":[66,62,58,107,104,62,58,62,74,61,107,8,104,107,62,17,20,7,17,1,41,16,64,74,4,34,63,64,0,46,104,108,63,16,1,20,18,40,41,10,104,8,1,21,64,31,0,0,0,0,0,1,0,6,36,0,0,63,40,62,41,52,15,0,0,0,0,0,0,0,0,0,0,0,0,0,0,0,0,0,0,0,0,0,0,0,0,0,0,0,0,0,0,0,0,0,0,0,0,0,0,0,0,0,0,0,0,0,0,0,0,0,0],"split_type":[0,0,0,0,0,0,0,0,0,0,0,0,0,0,0,0,0,0,0,0,0,0,0,0,0,0,0,0,0,0,0,0,0,0,0,0,0,0,0,0,0,0,0,0,0,0,0,0,0,0,0,0,0,0,0,0,0,0,0,0,0,0,0,0,0,0,0,0,0,0,0,0,0,0,0,0,0,0,0,0,0,0,0,0,0,0,0,0,0,0,0,0,0,0,0,0,0,0,0,0,0,0,0,0,0,0,0,0,0,0,0,0,0],"sum_hessian":[3.1653062E4,1.7962494E4,1.3690569E4,6.893935E3,1.1068559E4,2.3883276E3,1.1302242E4,6.775445E3,1.1849013E2,1.0272637E4,7.959223E2,3.9057587E1,2.34927E3,3.2946626E3,8.007579E3,4.326547E3,2.4488977E3,7.568784E1,4.2802284E1,9.494121E3,7.785162E2,4.9973337E2,2.961889E2,1.813506E1,2.0922525E1,1.6285973E2,2.1864104E3,1.729205E2,3.1217422E3,1.472873E3,6.534706E3,4.3009478E3,2.5599264E1,2.3353638E3,1.13533936E2,4.3022697E1,3.266515E1,3.1199387E1,1.1602896E1,1.3884083E3,8.1057124E3,8.229637E1,6.962198E2,5.2948074E1,4.4678528E2,2.896906E2,6.4983144E0,7.6759615E0,1.0459098E1,1.5745915E1,5.17661E0,1.5386206E2,8.997666E0,6.724456E2,1.5139647E3,7.9258966E0,1.649946E2,1.0852937E3,2.0364485E3,1.4542382E3,1.863493E1,2.0657672E2,6.3281294E3,4.292022E3,8.925637E0,1.6995592E1,8.603674E0,1.8254414E3,5.0992245E2,8.579546E1,2.7738474E1,1.1780803E1,3.1241896E1,1.33862915E1,1.9278858E1,2.2845648E1,8.353739E0,6.4983144E0,5.1045814E0,7.312288E2,6.571795E2,1.7679858E3,6.3377266E3,1.2280673E1,7.001569E1,1.4696976E2,5.4925006E2,3.4491055E1,1.8457024E1,3.6524384E1,4.102609E2,3.105966E1,2.5863095E2,1.0634486E2,4.75172E1,6.651975E2,7.24812E0,1.5021119E3,1.1852831E1,4.6801247E1,1.1819336E2,2.2453821E2,8.6075543E2,2.8344223E1,2.0081042E3,4.3729996E1,1.4105082E3,7.9258966E0,1.0709033E1,1.6385513E1,1.9019121E2,6.3127437E3,1.5385773E1],"tree_param":{"num_deleted":"0","num_feature":"131","num_nodes":"113","size_leaf_vector":"1"}},{"base_weights":[-4.7038347E-3,-1.2580932E0,1.650834E0,-1.4624559E0,-4.0069023E-1,1.1348035E0,1.7636151E0,-1.5379324E0,-2.9833847E-1,-1.0250547E0,-1.390159E-1,-4.2162123E-1,1.159914E0,1.6068054E0,1.8290648E0,-1.8034519E0,-1.2920065E0,-5.674668E-1,7.484261E-1,-1.0942129E-1,-1.3298665E0,4.9775827E-1,-3.034733E-1,7.644129E-1,-8.939482E-2,1.4391549E0,1.0772314E0,1.304947E0,1.6439102E0,1.4238254E0,1.839621E0,-1.3283894E0,-1.8149832E0,-6.512525E-1,-1.4077942E0,-9.234344E-1,-1.0145816E-1,9.0378004E-1,-1.1435841E0,1.5983598E-1,-1.4249682E0,-1.4499257E0,3.5415027E-1,5.8115625E-1,-9.189555E-2,-1.238738E0,-1.9889939E-1,-2.0726614E-2,1.3182688E0,9.5647126E-1,1.5455198E0,2.9010573E-1,1.1187086E0,2.4944974E-2,1.3744247E0,1.5151802E0,1.6963077E0,-3.1291742E-2,1.5046847E0,1.5406841E-1,1.8425112E0,3.972773E-4,-7.9086274E-2,-9.306968E-2,-8.678351E-2,-5.938641E-2,-2.8510147E-3,-5.6748282E-2,-7.960205E-2,-3.2212656E-2,-8.529739E-2,2.282821E-2,-3.6170524E-2,1.272131E-2,6.133927E-2,-2.4649901E-3,-8.778601E-2,1.9000402E-2,-7.25623E-2,6.3339616E-3,-9.2631675E-2,-7.592084E-2,-1.9832334E-2,-5.2031983E-2,4.110257E-2,-2.5259083E-2,3.3232637E-2,4.5670327E-2,-7.017362E-2,-2.1353273E-2,1.4923903E-2,3.473277E-2,8.691902E-2,-2.3597766E-2,5.8501225E-2,8.363466E-2,5.8983415E-2,-4.5040287E-2,3.9985742E-2,4.736063E-2,6.505396E-2,7.969866E-2,-8.8587366E-2,4.0270586E-2,7.2014E-2,7.632159E-2,-9.945165E-3,3.5824534E-2,8.5121065E-2,7.73933E-2,1.997797E-2,-8.570582E-2,8.6304545E-2,8.867525E-2,9.408779E-2],"categories":[],"categories_nodes":[],"categories_segments":[],"categories_sizes":[],"default_left":[0,0,0,1,0,0,0,0,0,0,0,0,0,0,0,0,0,0,0,0,0,0,0,0,0,0,0,0,0,0,0,0,0,0,0,0,0,0,0,0,0,1,0,0,0,0,0,0,0,0,0,0,0,0,0,0,0,0,1,0,0,0,0,0,0,0,0,0,0,0,0,0,0,0,0,0,0,0,0,0,0,0,0,0,0,0,0,0,0,0,0,0,0,0,0,0,0,0,0,0,0,0,0,0,0,0,0,0,0,0,0,0,0,0,0],"id":1,"left_children":[1,3,5,7,9,11,13,15,17,19,21,23,25,27,29,31,33,35,37,39,41,43,45,47,-1,49,51,53,55,57,59,61,63,65,67,69,71,73,75,77,79,81,83,85,-1,87,89,-1,91,93,95,97,99,101,103,105,107,-1,109,111,113,-1,-1,-1,-1,-1,-1,-1,-1,-1,-1,-1,-1,-1,-1,-1,-1,-1,-1,-1,-1,-1,-1,-1,-1,-1,-1,-1,-1,-1,-1,-1,-1,-1,-1,-1,-1,-1,-1,-1,-1,-1,-1,-1,-1,-1,-1,-1,-1,-1,-1,-1,-1,-1,-1],"loss_changes":[6.5574086E4,3.1506094E3,7.9016016E2,1.2753984E3,5.65552E2,9.6124756E1,1.1137891E2,8.879238E2,2.4989233E2,2.8508777E2,2.5582661E2,6.5464096E1,5.3763428E1,3.450586E1,3.0740234E1,3.3185547E1,5.2446387E2,1.167719E2,5.4351997E1,9.122857E1,1.5568823E2,9.861343E1,1.8947076E2,1.4872704E1,0E0,2.6331787E1,6.029492E1,3.2394897E1,1.6894531E1,3.4935852E1,3.688867E1,5.409326E1,1.9957031E1,3.4608395E2,2.9947266E2,8.5944885E1,1.0676884E2,3.484317E1,9.220196E0,7.6281075E1,2.9439926E1,5.087085E1,3.4631992E1,4.433757E1,0E0,7.0442566E1,1.9843155E2,0E0,2.5130577E0,3.1579453E1,1.8495483E1,5.81416E1,5.3821533E1,5.904019E1,1.1628845E1,1.6993286E1,1.0973145E1,0E0,8.595337E0,4.4902466E1,1.7033203E1,0E0,0E0,0E0,0E0,0E0,0E0,0E0,0E0,0E0,0E0,0E0,0E0,0E0,0E0,0E0,0E0,0E0,0E0,0E0,0E0,0E0,0E0,0E0,0E0,0E0,0E0,0E0,0E0,0E0,0E0,0E0,0E0,0E0,0E0,0E0,0E0,0E0,0E0,0E0,0E0,0E0,0E0,0E0,0E0,0E0,0E0,0E0,0E0,0E0,0E0,0E0,0E0,0E0,0E0],"parents":[2147483647,0,0,1,1,2,2,3,3,4,4,5,5,6,6,7,7,8,8,9,9,10,10,11,11,12,12,13,13,14,14,15,15,16,16,17,17,18,18,19,19,20,20,21,21,22,22,23,23,25,25,26,26,27,27,28,28,29,29,30,30,31,31,32,32,33,33,34,34,35,35,36,36,37,37,38,38,39,39,40,40,41,41,42,42,43,43,45,45,46,46,48,48,49,49,50,50,51,51,52,52,53,53,54,54,55,55,56,56,58,58,59,59,60,60],"right_children":[2,4,6,8,10,12,14,16,18,20,22,24,26,28,30,32,34,36,38,40,42,44,46,48,-1,50,52,54,56,58,60,62,64,66,68,70,72,74,76,78,80,82,84,86,-1,88,90,-1,92,94,96,98,100,102,104,106,108,-1,110,112,114,-1,-1,-1,-1,-1,-1,-1,-1,-1,-1,-1,-1,-1,-1,-1,-1,-1,-1,-1,-1,-1,-1,-1,-1,-1,-1,-1,-1,-1,-1,-1,-1,-1,-1,-1,-1,-1,-1,-1,-1,-1,-1,-1,-1,-1,-1,-1,-1,-1,-1,-1,-1,-1,-1],"split_conditions":[1E-1,1E-1,2E-1,1E0,4.1E1,2.3E1,4E-1,2.8E1,6E-1,-5E-1,-7.0710677E-1,-4E-1,-8.660254E-1,2E-1,6.3E1,1.0055E3,-8.660254E-1,6E-1,-1.03E1,1.0191E3,1.2E0,1.0246E3,1E0,8.4E-1,-8.939482E-2,-4E0,1E0,-2.6E1,0E0,-3.5E-1,2.2E1,4.6E1,5E0,1.2252302E1,1.0161E3,8.062258E-1,-3.3E0,1.0522909E2,-3.5E-1,1.0793421E1,-6.7986965E0,9E-1,1.5E1,-2.1E1,-9.189555E-2,-7.9E1,1E2,-2.0726614E-2,5E-1,4.2E-1,1.0182E3,0E0,9.9E1,3E0,6.8E1,2.3E1,-1E1,-3.1291742E-2,2.55E2,4.7E0,1E2,3.972773E-4,-7.9086274E-2,-9.306968E-2,-8.678351E-2,-5.938641E-2,-2.8510147E-3,-5.6748282E-2,-7.960205E-2,-3.2212656E-2,-8.529739E-2,2.282821E-2,-3.6170524E-2,1.272131E-2,6.133927E-2,-2.4649901E-3,-8.778601E-2,1.9000402E-2,-7.25623E-2,6.3339616E-3,-9.2631675E-2,-7.592084E-2,-1.9832334E-2,-5.2031983E-2,4.110257E-2,-2.5259083E-2,3.3232637E-2,4.5670327E-2,-7.017362E-2,-2.1353273E-2,1.4923903E-2,3.473277E-2,8.691902E-2,-2.3597766E-2,5.8501225E-2,8.363466E-2,5.8983415E-2,-4.5040287E-2,3.9985742E-2,4.736063E-2,6.505396E-2,7.969866E-2,-8.8587366E-2,4.0270586E-2,7.2014E-2,7.632159E-2,-9.945165E-3,3.5824534E-2,8.5121065E-2,7.73933E-2,1.997797E-2,-8.570582E-2,8.6304545E-2,8.867525E-2,9.408779E-2],"split_indices":[58,60,58,109,62,62,58,62,108,1,1,8,1,108,10,4,1,105,39,4,59,4,109,15,0,13,109,64,63,16,62,10,62,11,4,106,53,51,16,18,18,105,9,14,0,31,62,0,7,15,4,5,62,56,40,14,13,0,35,21,62,0,0,0,0,0,0,0,0,0,0,0,0,0,0,0,0,0,0,0,0,0,0,0,0,0,0,0,0,0,0,0,0,0,0,0,0,0,0,0,0,0,0,0,0,0,0,0,0,0,0,0,0,0,0],"split_type":[0,0,0,0,0,0,0,0,0,0,0,0,0,0,0,0,0,0,0,0,0,0,0,0,0,0,0,0,0,0,0,0,0,0,0,0,0,0,0,0,0,0,0,0,0,0,0,0,0,0,0,0,0,0,0,0,0,0,0,0,0,0,0,0,0,0,0,0,0,0,0,0,0,0,0,0,0,0,0,0,0,0,0,0,0,0,0,0,0,0,0,0,0,0,0,0,0,0,0,0,0,0,0,0,0,0,0,0,0,0,0,0,0,0,0],"sum_hessian":[3.1599477E4,1.7984164E4,1.3615312E4,1.4522009E4,3.4621553E3,2.4441304E3,1.1171181E4,1.363741E4,8.845993E2,1.0215059E3,2.4406494E3,3.849218E1,2.4056382E3,3.2976038E3,7.873577E3,6.554237E3,7.0831733E3,7.0412E2,1.804793E2,2.555472E2,7.6595874E2,5.0041663E2,1.9402328E3,2.0801857E1,1.7690323E1,5.455519E2,1.8600863E3,3.652276E2,2.932376E3,2.035821E2,7.669995E3,1.5828107E2,6.3959556E3,1.0852164E3,5.9979565E3,3.985135E2,3.0560654E2,1.6731606E2,1.3163237E1,2.1279602E2,4.2751163E1,7.151702E2,5.0788483E1,4.8393124E2,1.6485369E1,1.9393741E2,1.7462954E3,6.671601E0,1.4130258E1,1.0048478E2,4.4506714E2,9.363072E1,1.7664556E3,1.8947727E1,3.4627988E2,8.5749915E2,2.074877E3,7.423796E0,1.9615831E2,1.328158E1,7.6567134E3,2.5315746E1,1.3296532E2,4.0199407E3,2.376015E3,5.697113E2,5.155051E2,2.4208767E3,3.57708E3,2.9515915E2,1.0335433E2,1.6113744E2,1.4446912E2,5.6276966E1,1.1103909E2,5.1682034E0,7.995033E0,1.8793839E2,2.4857647E1,9.338682E0,3.3412483E1,6.7100073E2,4.4169502E1,1.2396713E1,3.839177E1,3.409445E1,4.498368E2,1.3423022E1,1.8051439E2,1.1973619E3,5.489334E2,6.8514705E0,7.2787867E0,1.2850612E1,8.763416E1,3.274108E2,1.1765633E2,2.7770245E1,6.586048E1,9.1384515E2,8.526104E2,1.0204637E1,8.743092E0,3.7449646E1,3.0883023E2,8.5207385E2,5.425298E0,1.3700405E1,2.0611765E3,1.8830927E2,7.8490434E0,5.9987226E0,7.282858E0,2.793485E3,4.8632285E3],"tree_param":{"num_deleted":"0","num_feature":"131","num_nodes":"115","size_leaf_vector":"1"}},{"base_weights":[-1.7480772E-3,-1.2040157E0,1.5758592E0,-1.3947E0,-4.100622E-1,1.0809946E0,1.680985E0,-1.4530158E0,3.4128726E-2,-1.3788302E0,-2.512502E-1,5.2156526E-1,1.1248657E0,1.5286987E0,1.7450275E0,-1.7331936E0,-1.2444886E0,-3.7774977E-1,5.957475E-1,-1.5293422E0,7.515221E-1,-3.850091E-1,5.676499E-1,6.577464E-1,-8.6885795E-2,8.194465E-1,1.2080975E0,1.1728545E0,1.555148E0,1.7683779E0,1.6149108E0,-1.7670691E0,-1.5697984E0,-1.3365054E0,-7.001953E-1,-8.697381E-1,2.1603182E-1,7.201494E-1,-8.853792E-2,-1.6565322E0,-2.862981E-1,-3.2863784E-1,1.4020247E0,-1.0132562E0,-2.2649893E-1,-1.0442368E0,7.064801E-1,-1.9656883E-1,9.14628E-1,-9.073823E-2,8.683433E-1,1.1570337E0,1.5527877E0,1.2186168E0,-1.9224789E-2,1.5614035E0,6.038725E-1,1.6264241E0,1.7814811E0,1.6609539E0,1.444728E0,-8.86332E-2,-4.938085E-2,-8.011364E-2,-1.4735974E-2,-8.321131E-2,-6.1539244E-2,-6.037084E-2,-2.4918362E-2,2.875335E-2,-5.2432805E-2,-3.5501752E-2,3.338524E-2,3.9560378E-2,-8.165225E-2,-2.1530382E-2,-8.494868E-2,-6.652156E-2,3.6114674E-2,7.207268E-2,-8.2720794E-2,9.056755E-2,2.8366713E-2,-6.430664E-2,-2.8308367E-2,-2.404834E-2,6.9647143E-3,-9.362793E-2,5.7274777E-2,-1.2464935E-3,4.4917833E-2,3.5292506E-2,-6.57463E-2,6.0087766E-2,2.2685496E-2,5.7659518E-2,2.5239334E-2,5.387366E-2,6.609039E-2,8.5459605E-2,6.503867E-2,2.0909484E-2,6.615226E-2,2.0936498E-2,7.834477E-2,-2.8917661E-2,5.8049202E-2,4.518589E-2,8.202607E-2,8.0955654E-2,8.9629285E-2,6.0149934E-2,8.3985016E-2,7.517468E-2,3.9440695E-2],"categories":[],"categories_nodes":[],"categories_segments":[],"categories_sizes":[],"default_left":[0,0,0,1,0,0,0,0,0,1,1,0,0,0,0,0,0,0,0,0,0,0,0,0,0,0,1,0,0,0,0,1,0,0,0,0,0,0,0,0,0,0,0,0,0,0,0,0,0,0,0,0,0,0,0,0,0,0,0,0,0,0,0,0,0,0,0,0,0,0,0,0,0,0,0,0,0,0,0,0,0,0,0,0,0,0,0,0,0,0,0,0,0,0,0,0,0,0,0,0,0,0,0,0,0,0,0,0,0,0,0,0,0,0,0],"id":2,"left_children":[1,3,5,7,9,11,13,15,17,19,21,23,25,27,29,31,33,35,37,39,41,43,45,47,-1,49,51,53,55,57,59,61,63,65,67,69,71,73,-1,75,77,79,81,83,85,87,89,91,93,-1,95,97,99,101,-1,103,105,107,109,111,113,-1,-1,-1,-1,-1,-1,-1,-1,-1,-1,-1,-1,-1,-1,-1,-1,-1,-1,-1,-1,-1,-1,-1,-1,-1,-1,-1,-1,-1,-1,-1,-1,-1,-1,-1,-1,-1,-1,-1,-1,-1,-1,-1,-1,-1,-1,-1,-1,-1,-1,-1,-1,-1,-1],"loss_changes":[5.970501E4,2.7038027E3,7.0615234E2,1.2003926E3,5.3198773E2,5.7864502E1,1.0649414E2,8.061094E2,1.3111412E2,1.5743219E2,3.2606094E2,5.5094135E1,5.5078613E1,2.9264648E1,2.0794922E1,2.95625E1,3.964297E2,9.57494E1,7.178222E1,7.132947E1,2.3596605E1,2.5437552E2,9.424298E1,3.678753E1,0E0,6.297531E1,2.850879E1,1.7290314E1,1.7276855E1,9.193359E0,6.798828E0,1.9254883E1,4.169922E1,2.3287207E2,1.1697235E2,4.693785E1,6.2723007E1,3.943708E1,0E0,2.0535278E1,4.6887184E1,3.3080505E1,5.807865E0,6.1909363E1,1.9036215E2,6.2967926E1,5.421164E1,4.0570766E1,1.6263771E1,0E0,4.7865845E1,1.8225464E1,6.185547E0,1.836914E1,0E0,1.8457031E1,1.5203576E1,4.140503E0,7.765625E0,5.8291016E0,8.858948E0,0E0,0E0,0E0,0E0,0E0,0E0,0E0,0E0,0E0,0E0,0E0,0E0,0E0,0E0,0E0,0E0,0E0,0E0,0E0,0E0,0E0,0E0,0E0,0E0,0E0,0E0,0E0,0E0,0E0,0E0,0E0,0E0,0E0,0E0,0E0,0E0,0E0,0E0,0E0,0E0,0E0,0E0,0E0,0E0,0E0,0E0,0E0,0E0,0E0,0E0,0E0,0E0,0E0,0E0],"parents":[2147483647,0,0,1,1,2,2,3,3,4,4,5,5,6,6,7,7,8,8,9,9,10,10,11,11,12,12,13,13,14,14,15,15,16,16,17,17,18,18,19,19,20,20,21,21,22,22,23,23,25,25,26,26,27,27,28,28,29,29,30,30,31,31,32,32,33,33,34,34,35,35,36,36,37,37,39,39,40,40,41,41,42,42,43,43,44,44,45,45,46,46,47,47,48,48,50,50,51,51,52,52,53,53,55,55,56,56,57,57,58,58,59,59,60,60],"right_children":[2,4,6,8,10,12,14,16,18,20,22,24,26,28,30,32,34,36,38,40,42,44,46,48,-1,50,52,54,56,58,60,62,64,66,68,70,72,74,-1,76,78,80,82,84,86,88,90,92,94,-1,96,98,100,102,-1,104,106,108,110,112,114,-1,-1,-1,-1,-1,-1,-1,-1,-1,-1,-1,-1,-1,-1,-1,-1,-1,-1,-1,-1,-1,-1,-1,-1,-1,-1,-1,-1,-1,-1,-1,-1,-1,-1,-1,-1,-1,-1,-1,-1,-1,-1,-1,-1,-1,-1,-1,-1,-1,-1,-1,-1,-1,-1],"split_conditions":[5.1E1,1E-1,2E-1,4E-1,1E0,5E-1,4E-1,1E0,1.8E0,1.7E0,7.5E-1,3.282766E2,-4E0,6.666667E-1,5.1E-1,4.89E2,5.51E2,7.8E0,6.3E1,4.6E-1,5E-1,8E1,2.5E0,4.6E1,-8.6885795E-2,7.3E0,2.2E0,4.12E1,1.5142159E1,2.6E0,1E0,8.6E1,1.6E1,6.6E1,7.4E1,-5E-1,6.4E1,9.59194E3,-8.853792E-2,-8.332875E0,1.640862E1,3.0307318E1,-1E0,2.2E2,2E-1,3.6E0,-1.3E-1,6.36E1,3.3993465E-1,-9.073823E-2,-1E-1,1E-1,7.8E0,2.95E1,-1.9224789E-2,-1.1E1,5.3E0,-1.1E1,-1E1,-6.2E-1,8E-1,-8.86332E-2,-4.938085E-2,-8.011364E-2,-1.4735974E-2,-8.321131E-2,-6.1539244E-2,-6.037084E-2,-2.4918362E-2,2.875335E-2,-5.2432805E-2,-3.5501752E-2,3.338524E-2,3.9560378E-2,-8.165225E-2,-2.1530382E-2,-8.494868E-2,-6.652156E-2,3.6114674E-2,7.207268E-2,-8.2720794E-2,9.056755E-2,2.8366713E-2,-6.430664E-2,-2.8308367E-2,-2.404834E-2,6.9647143E-3,-9.362793E-2,5.7274777E-2,-1.2464935E-3,4.4917833E-2,3.5292506E-2,-6.57463E-2,6.0087766E-2,2.2685496E-2,5.7659518E-2,2.5239334E-2,5.387366E-2,6.609039E-2,8.5459605E-2,6.503867E-2,2.0909484E-2,6.615226E-2,2.0936498E-2,7.834477E-2,-2.8917661E-2,5.8049202E-2,4.518589E-2,8.202607E-2,8.0955654E-2,8.9629285E-2,6.0149934E-2,8.3985016E-2,7.517468E-2,3.9440695E-2],"split_indices":[66,60,58,107,66,104,58,66,107,105,104,51,64,104,15,74,74,17,64,16,60,41,38,74,0,32,107,56,18,107,71,41,64,41,41,5,41,45,0,18,11,51,13,74,59,107,16,43,106,0,8,16,38,54,0,13,21,14,64,16,8,0,0,0,0,0,0,0,0,0,0,0,0,0,0,0,0,0,0,0,0,0,0,0,0,0,0,0,0,0,0,0,0,0,0,0,0,0,0,0,0,0,0,0,0,0,0,0,0,0,0,0,0,0,0],"split_type":[0,0,0,0,0,0,0,0,0,0,0,0,0,0,0,0,0,0,0,0,0,0,0,0,0,0,0,0,0,0,0,0,0,0,0,0,0,0,0,0,0,0,0,0,0,0,0,0,0,0,0,0,0,0,0,0,0,0,0,0,0,0,0,0,0,0,0,0,0,0,0,0,0,0,0,0,0,0,0,0,0,0,0,0,0,0,0,0,0,0,0,0,0,0,0,0,0,0,0,0,0,0,0,0,0,0,0,0,0,0,0,0,0,0,0],"sum_hessian":[3.147628E4,1.786328E4,1.3613E4,1.4403177E4,3.4601013E3,2.3873098E3,1.122569E4,1.3838433E4,5.647445E2,4.8616113E2,2.9739402E3,1.747042E2,2.2126057E3,3.3311091E3,7.8945815E3,5.901442E3,7.9369907E3,3.2589203E2,2.3885251E2,4.5438718E2,3.177395E1,2.556942E3,4.1699823E2,1.6548265E2,9.221552E0,4.764221E2,1.7361835E3,2.3386478E2,3.0972444E3,6.6820767E3,1.2125045E3,4.879407E3,1.02203467E3,6.78782E3,1.1491705E3,1.780605E2,1.4783153E2,2.2762474E2,1.1227778E1,4.1183456E2,4.2552597E1,1.2071043E1,1.9702908E1,5.139408E2,2.0430011E3,3.2493282E1,3.8450494E2,3.821985E1,1.272628E2,7.98687E0,4.684352E2,1.5162126E3,2.1997087E2,2.2746257E2,6.4022E0,3.0762688E3,2.0975645E1,5.7588995E2,6.106187E3,9.469569E2,2.655476E2,4.8432397E3,3.6167774E1,9.9632465E2,2.5710032E1,1.6517885E3,5.1360312E3,3.2554752E2,8.2362305E2,1.9314928E1,1.5874557E2,4.8204414E1,9.962711E1,2.216383E2,5.986427E0,1.4232431E1,3.9760214E2,2.0799843E1,2.1752754E1,5.0996494E0,6.971394E0,1.2354471E1,7.348436E0,3.1784604E2,1.9609474E2,1.2048165E3,8.3818463E2,2.3713547E1,8.7797365E0,7.9979965E1,3.04525E2,2.1306639E1,1.6913208E1,7.7290634E1,4.997217E1,2.612772E2,2.0715804E2,1.0279952E3,4.8821744E2,1.3192009E2,8.805077E1,2.6939287E1,2.0052328E2,1.5171049E1,3.0610977E3,6.6488147E0,1.432683E1,1.23999405E1,5.6349E2,4.008541E2,5.705333E3,4.0011765E1,9.069451E2,2.4238667E2,2.3160946E1],"tree_param":{"num_deleted":"0","num_feature":"131","num_nodes":"115","size_leaf_vector":"1"}},{"base_weights":[8.719369E-5,-1.1568382E0,1.5064931E0,-1.3420599E0,-3.767634E-1,1.0234104E0,1.6138611E0,-1.6274744E0,-1.0945742E0,2.9749367E-1,-6.373481E-1,-4.3693343E-1,1.0466676E0,1.4943799E0,1.6889131E0,-1.6412504E0,2.5131324E-1,-1.1880667E0,-1.2886938E-1,4.3019095E-1,-8.6733615E-1,-1.188241E0,-2.8606015E-1,5.8471847E-1,-1.3141491E0,1.2205341E0,8.917652E-1,1.3716171E0,1.5589943E0,5.3282464E-1,1.6924703E0,-1.6474589E0,2.7195212E-1,6.409544E-1,-8.4005356E-2,-7.200616E-1,-1.337721E0,-3.593882E-1,6.4592427E-1,-1.2499116E-1,6.5594983E-1,1.2032926E-1,-1.3995467E0,-1.2367948E0,2.485383E-1,-1.214705E0,-1.8137692E-1,-2.8209029E-2,6.74434E-2,-8.642719E-2,-0E0,1.3131002E0,1.000657E0,4.4818193E-1,1.0359218E0,9.0120447E-1,1.4150938E0,1.0064759E0,1.572641E0,-3.205797E-2,1.1305473E0,1.7002835E0,1.3185741E0,-8.4154025E-2,-7.303002E-2,5.227945E-2,-8.162005E-2,5.744301E-2,-4.216798E-2,-5.2081257E-2,-1.8467801E-3,-8.413896E-2,-6.0718287E-2,-3.5638865E-2,1.3539656E-2,4.04527E-2,-8.703051E-2,-2.7847348E-2,4.3882247E-2,-2.6304936E-2,3.6537796E-2,8.298131E-2,-4.402043E-2,-8.370851E-2,4.500799E-2,-6.955594E-2,-4.082718E-2,-8.14821E-2,4.2059705E-2,-2.6007665E-2,-8.845262E-2,-2.3558885E-2,9.742086E-3,-9.748808E-3,6.6161856E-2,5.226639E-2,-3.9187673E-2,-7.0478455E-3,3.8721614E-2,5.2363206E-2,-2.5876492E-2,5.9357494E-2,8.916202E-3,7.1501896E-2,8.390862E-3,-2.091179E-2,5.719939E-2,2.6014686E-2,7.875123E-2,7.982969E-2,2.5111988E-2,8.574788E-2,7.757791E-2,4.5189623E-2,7.542968E-2],"categories":[],"categories_nodes":[],"categories_segments":[],"categories_sizes":[],"default_left":[0,0,0,0,0,0,0,1,1,0,0,0,0,0,0,1,0,0,0,0,0,1,0,0,0,0,0,0,0,0,0,0,0,0,0,0,0,0,0,1,0,0,0,0,0,0,0,0,0,0,0,0,1,0,1,0,0,0,0,0,0,1,0,0,0,0,0,0,0,0,0,0,0,0,0,0,0,0,0,0,0,0,0,0,0,0,0,0,0,0,0,0,0,0,0,0,0,0,0,0,0,0,0,0,0,0,0,0,0,0,0,0,0,0,0],"id":3,"left_children":[1,3,5,7,9,11,13,15,17,19,21,23,25,27,29,31,33,35,37,39,41,43,45,47,49,51,53,55,57,59,61,63,65,67,-1,69,71,73,75,77,79,81,83,85,87,89,91,-1,-1,-1,-1,93,95,97,99,101,103,105,107,-1,109,111,113,-1,-1,-1,-1,-1,-1,-1,-1,-1,-1,-1,-1,-1,-1,-1,-1,-1,-1,-1,-1,-1,-1,-1,-1,-1,-1,-1,-1,-1,-1,-1,-1,-1,-1,-1,-1,-1,-1,-1,-1,-1,-1,-1,-1,-1,-1,-1,-1,-1,-1,-1,-1],"loss_changes":[5.4424383E4,2.551377E3,7.0168164E2,1.00614844E3,5.959664E2,8.4394775E1,9.666406E1,1.7205664E2,6.9020605E2,1.46508E2,4.7285736E2,3.6109123E1,6.4180176E1,3.1600586E1,2.686914E1,7.872461E1,3.7884407E1,4.8718066E2,1.2098783E2,1.0663924E2,5.126922E1,6.681653E1,1.449725E2,1.7361115E1,1.1761185E1,2.1707886E1,8.186218E1,2.8932373E1,1.9294434E1,1.6511093E1,1.728125E1,4.0873047E1,3.4184845E1,3.2347015E1,0E0,3.714713E2,2.2248633E2,1.1647294E2,6.1785988E1,1.0715378E2,5.3846985E1,5.51637E1,4.1473656E1,5.8379883E1,3.678259E1,5.7058487E1,1.4674109E2,0E0,0E0,0E0,0E0,1.2608032E1,2.8186737E1,6.134765E1,1.772998E1,2.6288628E1,2.4958008E1,1.4366516E1,5.8271484E0,0E0,3.4622517E0,1.1509766E1,9.714661E0,0E0,0E0,0E0,0E0,0E0,0E0,0E0,0E0,0E0,0E0,0E0,0E0,0E0,0E0,0E0,0E0,0E0,0E0,0E0,0E0,0E0,0E0,0E0,0E0,0E0,0E0,0E0,0E0,0E0,0E0,0E0,0E0,0E0,0E0,0E0,0E0,0E0,0E0,0E0,0E0,0E0,0E0,0E0,0E0,0E0,0E0,0E0,0E0,0E0,0E0,0E0,0E0],"parents":[2147483647,0,0,1,1,2,2,3,3,4,4,5,5,6,6,7,7,8,8,9,9,10,10,11,11,12,12,13,13,14,14,15,15,16,16,17,17,18,18,19,19,20,20,21,21,22,22,23,23,24,24,25,25,26,26,27,27,28,28,29,29,30,30,31,31,32,32,33,33,35,35,36,36,37,37,38,38,39,39,40,40,41,41,42,42,43,43,44,44,45,45,46,46,51,51,52,52,53,53,54,54,55,55,56,56,57,57,58,58,60,60,61,61,62,62],"right_children":[2,4,6,8,10,12,14,16,18,20,22,24,26,28,30,32,34,36,38,40,42,44,46,48,50,52,54,56,58,60,62,64,66,68,-1,70,72,74,76,78,80,82,84,86,88,90,92,-1,-1,-1,-1,94,96,98,100,102,104,106,108,-1,110,112,114,-1,-1,-1,-1,-1,-1,-1,-1,-1,-1,-1,-1,-1,-1,-1,-1,-1,-1,-1,-1,-1,-1,-1,-1,-1,-1,-1,-1,-1,-1,-1,-1,-1,-1,-1,-1,-1,-1,-1,-1,-1,-1,-1,-1,-1,-1,-1,-1,-1,-1,-1,-1],"split_conditions":[5.1E1,1E-1,2E-1,2.8E1,-5E-1,2.3E1,5.3E1,1.2E0,1E0,1.0215E3,5.6E1,-4E-1,-5E-1,-2.5881904E-1,2.6E1,6E-1,1.0164E3,-7.0710677E-1,6E-1,6.3E1,-4.9E0,8E-1,1E0,6.23E2,8E-1,1.0178E3,8.1E1,-1.8E1,6.8E1,-2.7E1,7.684758E0,5.33E2,-2.5881904E-1,-1.2E0,-8.4005356E-2,1.4580222E1,7.3E1,2.94E2,2.22E1,1E0,-5.8E1,3.4E-1,1.8087038E1,2E-1,-2.8E0,1.82E2,9.9E1,-2.8209029E-2,6.74434E-2,-8.642719E-2,-0E0,2.9E1,2.43E2,2.7E-1,6.02E1,-2E-1,9.8033695E0,-1.6E1,1.74E1,-3.205797E-2,1.0083E3,2.6E1,5.94E2,-8.4154025E-2,-7.303002E-2,5.227945E-2,-8.162005E-2,5.744301E-2,-4.216798E-2,-5.2081257E-2,-1.8467801E-3,-8.413896E-2,-6.0718287E-2,-3.5638865E-2,1.3539656E-2,4.04527E-2,-8.703051E-2,-2.7847348E-2,4.3882247E-2,-2.6304936E-2,3.6537796E-2,8.298131E-2,-4.402043E-2,-8.370851E-2,4.500799E-2,-6.955594E-2,-4.082718E-2,-8.14821E-2,4.2059705E-2,-2.6007665E-2,-8.845262E-2,-2.3558885E-2,9.742086E-3,-9.748808E-3,6.6161856E-2,5.226639E-2,-3.9187673E-2,-7.0478455E-3,3.8721614E-2,5.2363206E-2,-2.5876492E-2,5.9357494E-2,8.916202E-3,7.1501896E-2,8.390862E-3,-2.091179E-2,5.719939E-2,2.6014686E-2,7.875123E-2,7.982969E-2,2.5111988E-2,8.574788E-2,7.757791E-2,4.5189623E-2,7.542968E-2],"split_indices":[66,60,58,62,1,62,66,105,109,4,62,8,1,0,62,108,4,1,108,10,53,108,109,74,8,4,62,63,40,63,12,74,1,53,0,11,40,74,32,109,64,15,11,59,53,35,62,0,0,0,0,74,35,15,36,6,12,64,46,0,4,46,74,0,0,0,0,0,0,0,0,0,0,0,0,0,0,0,0,0,0,0,0,0,0,0,0,0,0,0,0,0,0,0,0,0,0,0,0,0,0,0,0,0,0,0,0,0,0,0,0,0,0,0,0],"split_type":[0,0,0,0,0,0,0,0,0,0,0,0,0,0,0,0,0,0,0,0,0,0,0,0,0,0,0,0,0,0,0,0,0,0,0,0,0,0,0,0,0,0,0,0,0,0,0,0,0,0,0,0,0,0,0,0,0,0,0,0,0,0,0,0,0,0,0,0,0,0,0,0,0,0,0,0,0,0,0,0,0,0,0,0,0,0,0,0,0,0,0,0,0,0,0,0,0,0,0,0,0,0,0,0,0,0,0,0,0,0,0,0,0,0,0],"sum_hessian":[3.1226123E4,1.766189E4,1.3564232E4,1.427223E4,3.3896604E3,2.4686147E3,1.1095617E4,6.6254263E3,7.6468047E3,9.447125E2,2.4449478E3,3.8352173E1,2.4302627E3,4.289334E3,6.8062837E3,6.5773784E3,4.80478E1,6.9715376E3,6.752671E2,8.487406E2,9.597191E1,9.509665E2,1.4939813E3,1.7818844E1,2.053333E1,1.1414949E3,1.2887677E3,1.4873156E3,2.8020183E3,2.1426842E1,6.784857E3,6.5562935E3,2.108457E1,4.0580986E1,7.4668136E0,1.6907211E3,5.2808164E3,5.209406E2,1.5432652E2,2.4535977E2,6.0338086E2,3.381141E1,6.2160503E1,9.200824E2,3.0884047E1,1.5017958E2,1.3438018E3,7.169829E0,1.0649015E1,1.5382604E1,5.150726E0,7.994902E2,3.4200476E2,3.1727777E2,9.714899E2,1.2786462E2,1.3594509E3,6.951778E1,2.7325005E3,7.1478376E0,1.4279004E1,6.64224E3,1.4261647E2,5.4993813E3,1.0569125E3,1.5351526E1,5.7330446E0,3.0453657E1,1.012733E1,1.1491282E3,5.4159296E2,1.3871433E3,3.893673E3,3.3378845E2,1.8715213E2,1.4511049E2,9.2160225E0,1.7186229E2,7.3497475E1,3.5473694E1,5.6790717E2,1.3101186E1,2.0710222E1,5.5811203E1,6.349301E0,6.710957E2,2.4898674E2,6.947698E0,2.3936348E1,6.7600464E1,8.257912E1,7.590895E2,5.8471234E2,5.150427E0,7.943397E2,3.3411087E2,7.893879E0,1.1317292E2,2.0410483E2,9.648356E2,6.654384E0,9.106286E1,3.680176E1,1.3431317E3,1.6319227E1,5.8754697E0,6.3642303E1,6.765447E0,2.725735E3,7.221903E0,7.057101E0,6.035536E3,6.067041E2,4.6781864E1,9.583461E1],"tree_param":{"num_deleted":"0","num_feature":"131","num_nodes":"115","size_leaf_vector":"1"}},{"base_weights":[-7.924603E-3,-1.1033384E0,1.4446051E0,-1.5541227E0,-8.272645E-1,9.7832435E-1,1.5471615E0,-1.5865587E0,1.9207188E-1,-9.355266E-1,2.7542952E-1,-1.2841558E-1,9.981584E-1,1.3985875E0,1.6095998E0,-1.5976276E0,-9.8036885E-1,5.04853E-1,-1.3021349E0,-1.0258975E0,2.986348E-1,3.2021087E-1,-1.4196546E0,-7.5412893E-1,9.480234E-1,8.1153953E-1,1.1038731E0,9.940536E-1,1.4241598E0,7.901777E-1,1.6139556E0,-1.6220903E0,-1.3737348E0,-1.3832868E0,4.4754195E-1,7.745274E-3,1.100358E0,-0E0,-8.543131E-2,-1.4911242E0,-8.98992E-1,5.4692894E-2,7.494561E-1,1.311701E-1,6.846685E-1,3.5111313E-3,-9.028014E-2,5.9649665E-2,-1.3303362E0,7.304758E-2,-6.1508114E-3,-8.6519465E-2,8.661476E-1,9.188973E-1,1.2480441E0,-9.018184E-3,1.0950804E0,1.1866512E0,1.4572084E0,-2.7601048E-2,1.0442245E0,1.5445887E0,1.6556569E0,-8.1656985E-2,-6.5165356E-2,-7.567563E-2,-4.799209E-2,-8.426276E-2,1.0182078E-2,-7.375937E-2,5.820113E-2,-4.2618632E-2,5.0184052E-2,-1.6426371E-2,6.592616E-2,-7.64684E-2,-3.128913E-2,-3.686265E-2,-6.7080855E-2,-4.908522E-2,1.024814E-2,3.6765884E-3,4.640342E-2,-3.3910546E-2,1.25817405E-2,-8.72541E-2,3.7874788E-2,-6.126133E-5,-8.647903E-2,-3.880902E-2,5.4712858E-2,3.7319854E-2,6.0335964E-2,1.2898852E-2,5.029083E-2,4.475942E-2,6.781581E-2,-5.4730523E-2,6.4577386E-2,5.85679E-2,-3.469915E-2,4.9355434E-4,6.280067E-2,7.311284E-2,1.2436827E-2,6.931549E-2,-9.070456E-4,6.293007E-2,7.80345E-2,7.4519746E-2,8.339649E-2],"categories":[],"categories_nodes":[],"categories_segments":[],"categories_sizes":[],"default_left":[0,0,0,1,0,0,0,1,0,1,0,0,0,0,0,0,0,0,0,0,0,0,0,0,0,0,0,0,0,0,0,1,0,0,0,0,0,0,0,0,0,0,0,0,0,0,0,0,0,0,0,0,0,0,0,0,0,0,1,0,0,0,0,0,0,0,0,0,0,0,0,0,0,0,0,0,0,0,0,0,0,0,0,0,0,0,0,0,0,0,0,0,0,0,0,0,0,0,0,0,0,0,0,0,0,0,0,0,0,0,0],"id":4,"left_children":[1,3,5,7,9,11,13,15,17,19,21,23,25,27,29,31,33,35,37,39,41,43,45,47,49,51,53,55,57,59,61,63,65,67,69,71,73,-1,-1,75,77,79,81,83,85,-1,-1,-1,87,-1,-1,89,91,93,95,97,99,101,103,-1,105,107,109,-1,-1,-1,-1,-1,-1,-1,-1,-1,-1,-1,-1,-1,-1,-1,-1,-1,-1,-1,-1,-1,-1,-1,-1,-1,-1,-1,-1,-1,-1,-1,-1,-1,-1,-1,-1,-1,-1,-1,-1,-1,-1,-1,-1,-1,-1,-1,-1],"loss_changes":[4.9137977E4,2.1894883E3,6.3314453E2,3.7911816E2,1.3040654E3,5.282373E1,9.8390625E1,4.221875E1,5.795005E1,1.1095557E3,7.451041E1,2.965204E1,4.536621E1,3.1734863E1,2.580664E1,3.2765625E1,7.001463E1,3.0160278E1,1.1242325E1,5.4552344E2,7.457578E1,6.547205E1,1.4833366E1,3.279472E1,9.206644E0,4.211322E1,3.8639282E1,1.9925995E1,2.1815918E1,1.5135939E1,1.9144531E1,1.802246E1,3.5424194E1,4.5654068E1,3.917068E1,4.9567177E1,1.5008553E1,0E0,0E0,6.449707E1,5.2021436E2,6.8954285E1,2.8596756E1,6.143537E1,5.873085E1,0E0,0E0,0E0,1.1481281E1,0E0,0E0,4.141129E1,3.1806702E1,3.759381E1,3.0648682E1,2.791813E1,2.5107193E1,3.0575317E1,1.5682617E1,0E0,1.3314228E1,1.0988281E1,6.8095703E0,0E0,0E0,0E0,0E0,0E0,0E0,0E0,0E0,0E0,0E0,0E0,0E0,0E0,0E0,0E0,0E0,0E0,0E0,0E0,0E0,0E0,0E0,0E0,0E0,0E0,0E0,0E0,0E0,0E0,0E0,0E0,0E0,0E0,0E0,0E0,0E0,0E0,0E0,0E0,0E0,0E0,0E0,0E0,0E0,0E0,0E0,0E0,0E0],"parents":[2147483647,0,0,1,1,2,2,3,3,4,4,5,5,6,6,7,7,8,8,9,9,10,10,11,11,12,12,13,13,14,14,15,15,16,16,17,17,18,18,19,19,20,20,21,21,22,22,23,23,24,24,25,25,26,26,27,27,28,28,29,29,30,30,31,31,32,32,33,33,34,34,35,35,36,36,39,39,40,40,41,41,42,42,43,43,44,44,48,48,51,51,52,52,53,53,54,54,55,55,56,56,57,57,58,58,60,60,61,61,62,62],"right_children":[2,4,6,8,10,12,14,16,18,20,22,24,26,28,30,32,34,36,38,40,42,44,46,48,50,52,54,56,58,60,62,64,66,68,70,72,74,-1,-1,76,78,80,82,84,86,-1,-1,-1,88,-1,-1,90,92,94,96,98,100,102,104,-1,106,108,110,-1,-1,-1,-1,-1,-1,-1,-1,-1,-1,-1,-1,-1,-1,-1,-1,-1,-1,-1,-1,-1,-1,-1,-1,-1,-1,-1,-1,-1,-1,-1,-1,-1,-1,-1,-1,-1,-1,-1,-1,-1,-1,-1,-1,-1,-1,-1,-1],"split_conditions":[1E0,2.3E1,2E-1,1E0,1E0,2.3E1,4E-1,8.1E1,6E0,6E-1,1.0236E3,6.46E2,-2.5881904E-1,5E-1,2.9E1,1.7E1,2.9129011E1,4.39E2,2.7E0,1E-1,3E0,9.9E1,-7E0,7.4E0,9.5E0,1E-1,2.9E1,-1.7E0,-8E0,1.8569745E2,1E2,3.8E0,2.2E-1,8.4E1,-1.9E-1,1.2E0,6.1E1,-0E0,-8.543131E-2,7.7E0,1.0202E3,-2.4E-1,7.1E1,7.9E1,-3.8E1,3.5111313E-3,-9.028014E-2,5.9649665E-2,-4.3E0,7.304758E-2,-6.1508114E-3,2E1,1.5E0,6.8E1,-4E0,5E-1,2.7E2,6.9169927E0,1.61E1,-2.7601048E-2,3.985826E0,6.3E1,1.6E0,-8.1656985E-2,-6.5165356E-2,-7.567563E-2,-4.799209E-2,-8.426276E-2,1.0182078E-2,-7.375937E-2,5.820113E-2,-4.2618632E-2,5.0184052E-2,-1.6426371E-2,6.592616E-2,-7.64684E-2,-3.128913E-2,-3.686265E-2,-6.7080855E-2,-4.908522E-2,1.024814E-2,3.6765884E-3,4.640342E-2,-3.3910546E-2,1.25817405E-2,-8.72541E-2,3.7874788E-2,-6.126133E-5,-8.647903E-2,-3.880902E-2,5.4712858E-2,3.7319854E-2,6.0335964E-2,1.2898852E-2,5.029083E-2,4.475942E-2,6.781581E-2,-5.4730523E-2,6.4577386E-2,5.85679E-2,-3.469915E-2,4.9355434E-4,6.280067E-2,7.311284E-2,1.2436827E-2,6.931549E-2,-9.070456E-4,6.293007E-2,7.80345E-2,7.4519746E-2,8.339649E-2],"split_indices":[67,62,58,107,61,62,58,41,14,107,4,74,0,107,62,62,52,74,17,107,107,62,31,9,17,107,74,21,63,51,62,20,16,33,16,7,41,0,0,21,4,16,40,41,31,0,0,0,21,0,0,63,20,62,13,5,35,11,38,0,19,10,107,0,0,0,0,0,0,0,0,0,0,0,0,0,0,0,0,0,0,0,0,0,0,0,0,0,0,0,0,0,0,0,0,0,0,0,0,0,0,0,0,0,0,0,0,0,0,0,0],"split_type":[0,0,0,0,0,0,0,0,0,0,0,0,0,0,0,0,0,0,0,0,0,0,0,0,0,0,0,0,0,0,0,0,0,0,0,0,0,0,0,0,0,0,0,0,0,0,0,0,0,0,0,0,0,0,0,0,0,0,0,0,0,0,0,0,0,0,0,0,0,0,0,0,0,0,0,0,0,0,0,0,0,0,0,0,0,0,0,0,0,0,0,0,0,0,0,0,0,0,0,0,0,0,0,0,0,0,0,0,0,0,0],"sum_hessian":[3.0880633E4,1.7604584E4,1.3276048E4,6.684642E3,1.0919942E4,2.3956309E3,1.0880417E4,6.5628833E3,1.2175854E2,9.943896E3,9.760459E2,4.1991364E1,2.3536396E3,3.2269026E3,7.6535146E3,6.4434277E3,1.1945584E2,1.0128557E2,2.0472975E1,9.265672E3,6.782247E2,9.517717E2,2.427417E1,2.6803389E1,1.5187975E1,8.546118E2,1.4990277E3,1.9446155E2,3.032441E3,4.155449E1,7.61196E3,5.802726E3,6.407018E2,9.3245705E1,2.6210142E1,5.5847157E1,4.543841E1,5.150823E0,1.5322152E1,1.9833416E3,7.2823306E3,4.4096124E2,2.3726341E2,6.2778156E2,3.239902E2,5.1093755E0,1.9164795E1,5.836543E0,2.0966845E1,1.0086702E1,5.1012726E0,4.8848938E1,8.057629E2,6.6012885E2,8.3889886E2,1.7786303E1,1.7667525E2,3.7528995E2,2.6571511E3,6.3641906E0,3.51903E1,2.8731462E3,4.7388135E3,5.6040474E3,1.9867833E2,4.7678595E2,1.6391582E2,7.8339874E1,1.4905829E1,6.790044E0,1.9420097E1,2.9990376E1,2.5856781E1,5.890962E0,3.9547447E1,1.8985521E3,8.4789474E1,5.335562E3,1.9467687E3,5.505484E1,3.859064E2,5.0004066E1,1.8725934E2,8.062389E1,5.4715765E2,8.720238E0,3.1526996E2,5.1328344E0,1.583401E1,3.110731E1,1.7741629E1,5.9872626E2,2.0703664E2,7.7319824E1,5.82809E2,1.9936508E2,6.3953375E2,9.822573E0,7.963729E0,1.6983539E2,6.839858E0,2.1033026E1,3.5425693E2,2.6458052E3,1.1345778E1,2.6459461E1,8.730838E0,1.5768828E2,2.715458E3,3.3661792E2,4.402196E3],"tree_param":{"num_deleted":"0","num_feature":"131","num_nodes":"111","size_leaf_vector":"1"}},{"base_weights":[2.204016E-3,-1.0450206E0,1.3928865E0,-1.2252175E0,-3.145989E-1,9.3473226E-1,1.4940698E0,-1.2922161E0,2.3642441E-2,2.557383E-1,-5.311948E-1,-5.17775E-1,9.5656323E-1,1.3540297E0,1.5537269E0,-1.5604296E0,-1.0909551E0,-4.0584856E-1,5.4740876E-1,8.566311E-2,1.0522536E0,-1.1228119E0,-2.7128226E-1,-8.3330266E-2,2.465757E-1,9.6400464E-1,-9.437677E-2,1.3596706E0,-1.9657612E-2,1.4125125E0,1.5800111E0,-1.5664225E0,-7.018187E-1,-6.292908E-1,-1.2421204E0,-6.7332804E-1,5.906306E-1,7.694234E-1,-6.715622E-2,2.9000568E-1,-5.63958E-1,-5.9728193E-1,1.2107086E0,-1.2087289E0,1.801096E-1,-1.2683786E0,-1.4653265E-1,1.1577642E0,-4.1694228E-2,4.5636594E-1,1.0026141E0,1.370592E0,5.4371923E-1,5.9784687E-1,1.4310037E0,1.6014447E0,1.4892242E0,-7.861907E-2,-3.6027025E-2,-6.5270126E-2,6.151394E-2,-1.2718464E-2,-5.157828E-2,-2.8313357E-2,-6.518673E-2,-4.7388077E-2,8.03516E-3,-3.1113772E-2,5.599953E-2,2.2907099E-2,6.365121E-2,-9.054237E-2,1.828952E-2,1.8933602E-2,-6.0266603E-2,8.7637146E-4,-4.7833946E-2,-8.544823E-2,4.143891E-2,-2.6024077E-2,6.4646386E-2,-1.7228229E-2,-6.6028476E-2,3.120385E-2,-8.2126975E-2,5.251631E-2,-7.21315E-2,8.616363E-3,-2.1363357E-2,7.555645E-2,3.5110008E-2,-6.431426E-2,3.172111E-2,5.2692134E-2,3.3393677E-2,5.7185423E-2,7.040276E-2,5.631095E-2,-3.890391E-2,-2.501817E-2,7.0267454E-2,7.324561E-2,5.679155E-2,7.827016E-2,8.139193E-2,3.435854E-2,7.4722506E-2],"categories":[],"categories_nodes":[],"categories_segments":[],"categories_sizes":[],"default_left":[0,0,0,1,0,0,0,0,0,1,0,0,0,1,0,1,0,0,0,0,0,0,0,0,0,0,0,0,0,0,0,1,0,0,0,0,0,0,0,0,0,0,0,0,1,0,0,0,0,0,0,0,0,0,1,0,0,0,0,0,0,0,0,0,0,0,0,0,0,0,0,0,0,0,0,0,0,0,0,0,0,0,0,0,0,0,0,0,0,0,0,0,0,0,0,0,0,0,0,0,0,0,0,0,0,0,0],"id":5,"left_children":[1,3,5,7,9,11,13,15,17,19,21,23,25,27,29,31,33,35,37,39,41,43,45,-1,47,49,-1,51,-1,53,55,57,59,61,63,65,67,69,71,73,75,77,79,81,83,85,87,89,-1,91,93,95,97,99,101,103,105,-1,-1,-1,-1,-1,-1,-1,-1,-1,-1,-1,-1,-1,-1,-1,-1,-1,-1,-1,-1,-1,-1,-1,-1,-1,-1,-1,-1,-1,-1,-1,-1,-1,-1,-1,-1,-1,-1,-1,-1,-1,-1,-1,-1,-1,-1,-1,-1,-1,-1],"loss_changes":[4.4575207E4,2.2974922E3,6.0785547E2,1.171916E3,4.2714648E2,7.604761E1,8.756055E1,7.155039E2,1.6084088E2,1.2874756E2,3.8482935E2,3.2025085E1,5.1386475E1,3.2415527E1,2.546875E1,2.7981445E1,5.2920215E2,1.0508787E2,4.4083694E1,1.0442105E2,4.4512405E1,8.588202E1,2.1638138E2,0E0,2.299221E1,4.5279297E1,0E0,2.7711426E1,0E0,1.692456E1,9.6640625E0,2.7139648E1,4.9897934E1,2.8256512E2,2.373418E2,7.122696E1,5.440202E1,3.6379456E1,6.596218E1,7.9712616E1,4.308989E1,2.5722763E1,2.2530792E1,6.869946E1,3.983072E1,7.9741455E1,1.3881992E2,7.4406624E-1,0E0,5.2718884E1,3.641284E1,2.5091797E1,3.497337E1,2.5918987E1,9.750732E0,2.006836E0,3.9023438E0,0E0,0E0,0E0,0E0,0E0,0E0,0E0,0E0,0E0,0E0,0E0,0E0,0E0,0E0,0E0,0E0,0E0,0E0,0E0,0E0,0E0,0E0,0E0,0E0,0E0,0E0,0E0,0E0,0E0,0E0,0E0,0E0,0E0,0E0,0E0,0E0,0E0,0E0,0E0,0E0,0E0,0E0,0E0,0E0,0E0,0E0,0E0,0E0,0E0,0E0],"parents":[2147483647,0,0,1,1,2,2,3,3,4,4,5,5,6,6,7,7,8,8,9,9,10,10,11,11,12,12,13,13,14,14,15,15,16,16,17,17,18,18,19,19,20,20,21,21,22,22,24,24,25,25,27,27,29,29,30,30,31,31,32,32,33,33,34,34,35,35,36,36,37,37,38,38,39,39,40,40,41,41,42,42,43,43,44,44,45,45,46,46,47,47,49,49,50,50,51,51,52,52,53,53,54,54,55,55,56,56],"right_children":[2,4,6,8,10,12,14,16,18,20,22,24,26,28,30,32,34,36,38,40,42,44,46,-1,48,50,-1,52,-1,54,56,58,60,62,64,66,68,70,72,74,76,78,80,82,84,86,88,90,-1,92,94,96,98,100,102,104,106,-1,-1,-1,-1,-1,-1,-1,-1,-1,-1,-1,-1,-1,-1,-1,-1,-1,-1,-1,-1,-1,-1,-1,-1,-1,-1,-1,-1,-1,-1,-1,-1,-1,-1,-1,-1,-1,-1,-1,-1,-1,-1,-1,-1,-1,-1,-1,-1,-1,-1],"split_conditions":[1E-1,1E-1,2E-1,5E-1,-5E-1,2.2E1,4E-1,2.1E1,1.2E0,7.5E-1,4.3E1,7E-1,1.0314E3,1.54E2,8.3E1,8.6E1,-7.0710677E-1,8.9E1,4.4E0,1.0187E3,-2.36E1,1.2E0,5E-1,-8.3330266E-2,9E-1,5E-1,-9.437677E-2,9.920152E0,-1.9657612E-2,2.5E1,3.4E-1,5.7E0,3.0678175E1,6.123234E-17,1.0083E3,4.42E2,6.3E0,1.76E1,1.21E2,1.4359876E1,-1.8369701E-16,1.5499689E2,2.74E1,-5.3989496E0,7.6E0,-8.6E1,-3.747697E-1,9.7E0,-4.1694228E-2,1.0117E3,1.0205E3,-6E0,6E1,2.3E0,-4.3E0,9E-1,3.11712E1,-7.861907E-2,-3.6027025E-2,-6.5270126E-2,6.151394E-2,-1.2718464E-2,-5.157828E-2,-2.8313357E-2,-6.518673E-2,-4.7388077E-2,8.03516E-3,-3.1113772E-2,5.599953E-2,2.2907099E-2,6.365121E-2,-9.054237E-2,1.828952E-2,1.8933602E-2,-6.0266603E-2,8.7637146E-4,-4.7833946E-2,-8.544823E-2,4.143891E-2,-2.6024077E-2,6.4646386E-2,-1.7228229E-2,-6.6028476E-2,3.120385E-2,-8.2126975E-2,5.251631E-2,-7.21315E-2,8.616363E-3,-2.1363357E-2,7.555645E-2,3.5110008E-2,-6.431426E-2,3.172111E-2,5.2692134E-2,3.3393677E-2,5.7185423E-2,7.040276E-2,5.631095E-2,-3.890391E-2,-2.501817E-2,7.0267454E-2,7.324561E-2,5.679155E-2,7.827016E-2,8.139193E-2,3.435854E-2,7.4722506E-2],"split_indices":[58,60,58,104,1,62,58,62,107,104,62,20,4,57,62,41,1,41,42,4,39,59,104,0,21,104,0,12,0,62,15,20,52,3,4,74,17,9,35,18,3,51,43,18,34,31,18,9,0,4,4,63,62,21,53,58,50,0,0,0,0,0,0,0,0,0,0,0,0,0,0,0,0,0,0,0,0,0,0,0,0,0,0,0,0,0,0,0,0,0,0,0,0,0,0,0,0,0,0,0,0,0,0,0,0,0,0],"split_type":[0,0,0,0,0,0,0,0,0,0,0,0,0,0,0,0,0,0,0,0,0,0,0,0,0,0,0,0,0,0,0,0,0,0,0,0,0,0,0,0,0,0,0,0,0,0,0,0,0,0,0,0,0,0,0,0,0,0,0,0,0,0,0,0,0,0,0,0,0,0,0,0,0,0,0,0,0,0,0,0,0,0,0,0,0,0,0,0,0,0,0,0,0,0,0,0,0,0,0,0,0,0,0,0,0,0,0],"sum_hessian":[3.0605312E4,1.745863E4,1.3146683E4,1.4003192E4,3.455438E3,2.3802458E3,1.0766437E4,1.3290245E4,7.129475E2,9.5089996E2,2.504538E3,3.48408E1,2.345405E3,3.2239177E3,7.542519E3,5.694343E3,7.5959023E3,3.9174713E2,3.2120038E2,7.8460175E2,1.6629823E2,7.633298E2,1.7412084E3,1.3500204E1,2.1340595E1,2.3399788E3,5.426179E0,3.2138206E3,1.0097231E1,1.1927755E3,6.3497437E3,5.653939E3,4.0403812E1,1.8751002E3,5.720802E3,3.091802E2,8.256691E1,2.3589343E2,8.530694E1,5.973948E2,1.8720692E2,1.4276601E1,1.5202162E2,7.162481E2,4.7081623E1,1.9251431E2,1.548694E3,1.1588571E1,9.752026E0,1.664821E2,2.1734966E3,3.1705808E3,4.323977E1,2.7332321E1,1.1654432E3,5.12262E3,1.2271234E3,5.6134175E3,4.0521458E1,3.1072832E1,9.330981E0,9.715205E2,9.035797E2,4.7895096E2,5.241851E3,2.3262103E2,7.6559166E1,2.4975925E1,5.759099E1,1.4708612E2,8.880732E1,1.6380976E1,6.8925964E1,5.647231E2,3.267173E1,7.574911E1,1.1145782E2,7.950525E0,6.3260756E0,6.5957623E0,1.4542587E2,8.2645134E1,6.33603E2,3.843255E1,8.649073E0,1.3064725E1,1.7944958E2,7.251239E2,8.235701E2,5.097817E0,6.4907537E0,1.48044195E1,1.5167769E2,1.882893E3,2.9060376E2,4.5418027E2,2.7164004E3,3.01685E1,1.3071269E1,1.1690141E1,1.564218E1,1.041498E3,1.2394521E2,2.1926233E3,2.9299968E3,8.925246E0,1.2181982E3],"tree_param":{"num_deleted":"0","num_feature":"131","num_nodes":"107","size_leaf_vector":"1"}},{"base_weights":[-3.6979604E-3,-1.0143458E0,1.3397977E0,-1.1414614E0,4.710442E-3,8.834001E-1,1.4405706E0,-1.205367E0,6.2235307E-2,5.430627E-1,-1.5880826E-1,-2.885777E-1,9.047857E-1,1.303288E0,1.4999701E0,-1.4662802E0,-9.8963624E-1,-1.7055206E-1,6.76098E-1,1.2622151E-1,8.735504E-1,-1.087159E0,-5.4523814E-2,2.6332146E-1,-7.94611E-2,8.630192E-1,1.278317E0,1.3074095E0,-3.3670407E-2,1.3628507E0,1.5308623E0,-1.5073962E0,-1.2489486E0,-4.1577423E-1,-1.089828E0,-3.9921474E-1,4.0815356E-1,9.0955216E-1,-1.6138312E-1,-2.6491454E-1,8.201532E-1,9.9463093E-1,-4.7922787E-1,2.2638088E-2,-1.4059637E0,-6.133437E-1,8.03972E-2,6.32223E-1,-3.2763634E-2,9.006915E-1,3.85448E-1,1.3164772E0,4.1581747E-1,-1.5630396E-2,1.3124005E0,1.4411051E0,1.1728848E0,1.3998916E0,1.547219E0,-7.5819544E-2,-3.424286E-2,3.3106178E-2,-6.5608986E-2,-3.3579383E-2,1.5698941E-2,-4.1752227E-2,-6.417801E-2,-3.921015E-2,2.3424316E-3,-4.260112E-2,3.4800284E-2,5.0490554E-2,-8.55157E-2,3.1186689E-2,-7.0077986E-2,7.937314E-4,-9.083206E-2,-3.548863E-2,5.277155E-2,5.2914735E-2,-7.3136665E-2,-8.817949E-2,1.9715155E-2,4.0214457E-2,-7.701723E-2,-7.7153474E-2,-2.3479695E-2,4.7258665E-3,-5.0970454E-2,-3.7951858E-3,3.274902E-2,3.7328843E-3,7.446053E-2,-9.342759E-2,4.5478288E-2,-6.837887E-2,2.8078346E-2,2.0783689E-2,6.791677E-2,5.6046087E-2,-1.816178E-2,5.974215E-2,6.8881705E-2,7.429616E-2,5.7952203E-2,6.0054846E-2,-3.4032132E-2,7.357619E-2,6.278413E-2,7.080113E-2,7.7898465E-2],"categories":[],"categories_nodes":[],"categories_segments":[],"categories_sizes":[],"default_left":[0,0,0,1,0,0,0,0,0,0,0,0,1,1,0,0,0,0,0,1,0,0,0,0,0,1,0,0,0,0,0,1,0,0,0,0,0,0,0,0,0,0,0,1,1,0,1,0,0,0,0,0,0,0,0,0,1,0,0,0,0,0,0,0,0,0,0,0,0,0,0,0,0,0,0,0,0,0,0,0,0,0,0,0,0,0,0,0,0,0,0,0,0,0,0,0,0,0,0,0,0,0,0,0,0,0,0,0,0,0,0],"id":6,"left_children":[1,3,5,7,9,11,13,15,17,19,21,23,25,27,29,31,33,35,37,39,41,43,45,47,-1,49,51,53,-1,55,57,59,61,63,65,67,69,71,73,75,77,79,81,83,85,87,89,91,-1,93,95,97,99,-1,101,103,105,107,109,-1,-1,-1,-1,-1,-1,-1,-1,-1,-1,-1,-1,-1,-1,-1,-1,-1,-1,-1,-1,-1,-1,-1,-1,-1,-1,-1,-1,-1,-1,-1,-1,-1,-1,-1,-1,-1,-1,-1,-1,-1,-1,-1,-1,-1,-1,-1,-1,-1,-1,-1,-1],"loss_changes":[4.090901E4,2.2274512E3,5.933828E2,1.1761543E3,1.6807384E2,5.9025635E1,8.415039E1,8.154199E2,1.10425354E2,6.10728E1,1.4155994E2,3.1164167E1,3.4572998E1,2.7074219E1,2.8914062E1,5.653418E1,4.5648242E2,7.428172E1,4.176204E1,5.4021595E1,4.11205E1,5.2426804E1,9.9422516E1,1.0830818E1,0E0,3.6810547E1,6.8179626E0,2.6392578E1,0E0,1.8383545E1,1.0435547E1,3.9566406E1,1.2795203E2,2.2117072E2,3.3275293E2,6.916479E1,5.825645E1,4.5363495E1,4.6785336E1,5.5677837E1,2.6599617E1,3.7154648E1,2.4354954E1,4.254951E1,1.3815323E1,7.390311E1,9.546989E1,1.0494479E1,0E0,4.8787476E1,4.8070457E1,7.5068054E0,6.677608E0,0E0,2.2571777E1,1.0200684E1,2.2039734E1,4.89917E0,5.0302734E0,0E0,0E0,0E0,0E0,0E0,0E0,0E0,0E0,0E0,0E0,0E0,0E0,0E0,0E0,0E0,0E0,0E0,0E0,0E0,0E0,0E0,0E0,0E0,0E0,0E0,0E0,0E0,0E0,0E0,0E0,0E0,0E0,0E0,0E0,0E0,0E0,0E0,0E0,0E0,0E0,0E0,0E0,0E0,0E0,0E0,0E0,0E0,0E0,0E0,0E0,0E0,0E0],"parents":[2147483647,0,0,1,1,2,2,3,3,4,4,5,5,6,6,7,7,8,8,9,9,10,10,11,11,12,12,13,13,14,14,15,15,16,16,17,17,18,18,19,19,20,20,21,21,22,22,23,23,25,25,26,26,27,27,29,29,30,30,31,31,32,32,33,33,34,34,35,35,36,36,37,37,38,38,39,39,40,40,41,41,42,42,43,43,44,44,45,45,46,46,47,47,49,49,50,50,51,51,52,52,54,54,55,55,56,56,57,57,58,58],"right_children":[2,4,6,8,10,12,14,16,18,20,22,24,26,28,30,32,34,36,38,40,42,44,46,48,-1,50,52,54,-1,56,58,60,62,64,66,68,70,72,74,76,78,80,82,84,86,88,90,92,-1,94,96,98,100,-1,102,104,106,108,110,-1,-1,-1,-1,-1,-1,-1,-1,-1,-1,-1,-1,-1,-1,-1,-1,-1,-1,-1,-1,-1,-1,-1,-1,-1,-1,-1,-1,-1,-1,-1,-1,-1,-1,-1,-1,-1,-1,-1,-1,-1,-1,-1,-1,-1,-1,-1,-1,-1,-1,-1,-1],"split_conditions":[1E-1,1E-1,2E-1,4E-1,-7.0710677E-1,2.3E1,4E-1,2.8E1,3E0,-8E0,2.3E1,0E0,2.2E0,1.68E2,8.8E1,5.33E2,-8.660254E-1,2.9E0,2.62E2,2.272795E1,1.3E1,-3.633684E0,7.8E1,9.5E0,-7.94611E-2,-3E0,1.83E1,-5.9E1,-3.3670407E-2,-2.5881904E-1,3.4E0,8.6E1,1.0059E3,1E0,1.0162E3,1.032E2,2.002719E1,9.7E1,7.2E1,1.6E0,1E-1,1.0232E3,1.2E-1,4E0,8.2E1,2.37E2,1.7675777E1,5E-1,-3.2763634E-2,-5.3E1,-7.0710677E-1,1E1,6.2E1,-1.5630396E-2,-2.5881904E-1,7.359798E0,1.83E1,2.6E1,7.6E1,-7.5819544E-2,-3.424286E-2,3.3106178E-2,-6.5608986E-2,-3.3579383E-2,1.5698941E-2,-4.1752227E-2,-6.417801E-2,-3.921015E-2,2.3424316E-3,-4.260112E-2,3.4800284E-2,5.0490554E-2,-8.55157E-2,3.1186689E-2,-7.0077986E-2,7.937314E-4,-9.083206E-2,-3.548863E-2,5.277155E-2,5.2914735E-2,-7.3136665E-2,-8.817949E-2,1.9715155E-2,4.0214457E-2,-7.701723E-2,-7.7153474E-2,-2.3479695E-2,4.7258665E-3,-5.0970454E-2,-3.7951858E-3,3.274902E-2,3.7328843E-3,7.446053E-2,-9.342759E-2,4.5478288E-2,-6.837887E-2,2.8078346E-2,2.0783689E-2,6.791677E-2,5.6046087E-2,-1.816178E-2,5.974215E-2,6.8881705E-2,7.429616E-2,5.7952203E-2,6.0054846E-2,-3.4032132E-2,7.357619E-2,6.278413E-2,7.080113E-2,7.7898465E-2],"split_indices":[58,59,58,107,1,62,58,62,107,14,62,13,107,57,62,74,1,21,44,52,63,18,41,17,0,53,32,63,0,1,107,41,4,13,4,43,52,33,41,7,107,4,16,34,41,44,52,59,0,63,0,9,41,0,0,12,32,46,10,0,0,0,0,0,0,0,0,0,0,0,0,0,0,0,0,0,0,0,0,0,0,0,0,0,0,0,0,0,0,0,0,0,0,0,0,0,0,0,0,0,0,0,0,0,0,0,0,0,0,0,0],"split_type":[0,0,0,0,0,0,0,0,0,0,0,0,0,0,0,0,0,0,0,0,0,0,0,0,0,0,0,0,0,0,0,0,0,0,0,0,0,0,0,0,0,0,0,0,0,0,0,0,0,0,0,0,0,0,0,0,0,0,0,0,0,0,0,0,0,0,0,0,0,0,0,0,0,0,0,0,0,0,0,0,0,0,0,0,0,0,0,0,0,0,0,0,0,0,0,0,0,0,0,0,0,0,0,0,0,0,0,0,0,0,0],"sum_hessian":[3.0126895E4,1.7193422E4,1.2933474E4,1.5286573E4,1.9068485E3,2.3411638E3,1.059231E4,1.4515986E4,7.7058777E2,4.4385062E2,1.4629979E3,4.164706E1,2.2995168E3,3.206397E3,7.385912E3,6.567153E3,7.948833E3,5.5911926E2,2.1146846E2,1.970269E2,2.4682372E2,1.4669754E2,1.3163004E3,2.9745771E1,1.1901289E1,2.071473E3,2.2804385E2,3.2001138E3,6.2833214E0,1.3669343E3,6.018978E3,5.517019E3,1.0501337E3,1.1824335E3,6.7663994E3,4.0111182E2,1.5800746E2,1.6539633E2,4.607213E1,1.2630753E2,7.071937E1,2.268575E2,1.9966227E1,3.287411E1,1.13823425E2,2.5545294E2,1.0608474E3,2.1522917E1,8.222855E0,1.919001E3,1.5247202E2,2.1776672E2,1.0277126E1,9.577752E0,3.190536E3,9.6308765E2,4.0384668E2,6.7853876E2,5.340439E3,5.456387E3,6.0631786E1,3.3278698E1,1.016855E3,8.7568176E2,3.067517E2,2.9252004E3,3.8411992E3,2.150085E2,1.8610332E2,2.8952065E1,1.290554E2,1.5992879E2,5.4675393E0,2.8466995E1,1.7605133E1,1.07737465E2,1.8570063E1,9.100485E0,6.161889E1,2.2172328E2,5.1342163E0,7.7163506E0,1.2249876E1,2.228082E1,1.0593292E1,9.862741E1,1.5196019E1,9.3311485E1,1.6214145E2,8.3452875E2,2.2631871E2,1.3768673E1,7.7542434E0,5.4245157E0,1.9135764E3,1.32502985E1,1.3922173E2,1.0261223E1,2.075055E2,5.231627E0,5.0454993E0,1.1460627E3,2.0444733E3,8.270511E2,1.3603658E2,3.9819186E2,5.654834E0,4.467363E2,2.3180246E2,4.1520822E2,4.925231E3],"tree_param":{"num_deleted":"0","num_feature":"131","num_nodes":"111","size_leaf_vector":"1"}},{"base_weights":[1.139438E-2,-9.6736187E-1,1.2992303E0,-1.1477838E0,-2.4942908E-1,8.676334E-1,1.3948905E0,-1.1999432E0,1.4813505E-1,3.084476E-1,-4.6922252E-1,9.311594E-1,5.390556E-1,1.2636998E0,1.4514673E0,-1.4455824E0,-9.856831E-1,-2.3336259E-1,5.933821E-1,4.1319764E-1,-6.084838E-1,-1.054208E0,-2.2629902E-1,1.2012997E0,8.5170907E-1,-6.4665526E-1,6.683859E-1,9.7779244E-1,1.2968079E0,1.3154263E0,1.4855783E0,-1.4549172E0,-4.7090983E-1,-5.026651E-1,-1.1488798E0,-1.522402E0,-4.32558E-2,9.3551177E-1,-1.6926296E-1,-1.1697289E-1,6.2655854E-1,-1.154571E0,6.296778E-1,-1.1540005E0,3.0087605E-1,1.3822353E-1,-4.4648314E-1,1.2356645E0,-4.1703112E-2,2.7714347E-2,8.8931745E-1,-1.0014341E-1,2.4525206E-1,7.082128E-1,-4.6645876E-2,1.0120142E0,-3.521006E-2,1.1412026E0,1.3546271E0,1.322295E0,-2.6502391E-2,1.5001026E0,1.3391724E0,-4.6965152E-2,-7.347959E-2,-5.6590643E-2,6.397557E-2,-6.555473E-2,-1.723983E-2,-7.5410224E-2,-5.1835835E-2,5.3734155E-3,-8.963564E-2,-1.43640535E-2,3.5592556E-2,5.9544165E-2,1.3288006E-2,-3.8630877E-2,4.853497E-2,-1.7054532E-2,6.913208E-2,-2.2116706E-2,3.5884272E-2,2.9917855E-2,-6.927433E-2,5.7039935E-2,-2.956084E-2,-2.4629464E-2,-6.437071E-2,3.315618E-2,-7.8854404E-2,-6.616439E-3,3.1003475E-2,-4.663145E-2,-1.1929385E-2,3.6708243E-2,6.510691E-2,1.961156E-2,-8.989451E-2,3.6912176E-3,4.5835417E-2,4.15576E-2,-4.2164575E-2,1.9505728E-2,4.48143E-2,-7.5740255E-3,5.2925944E-2,5.8220115E-2,7.2160396E-3,4.7078747E-3,6.8061836E-2,2.0495197E-2,6.686794E-2,4.995578E-2,7.513209E-2,4.2329427E-2,6.87424E-2],"categories":[],"categories_nodes":[],"categories_segments":[],"categories_sizes":[],"default_left":[0,0,0,1,0,0,0,0,0,0,0,0,0,0,0,1,0,0,0,0,1,0,0,0,0,0,0,0,0,1,1,0,0,0,0,0,0,0,0,1,0,0,0,0,0,0,0,0,0,0,0,0,0,0,0,0,0,1,0,0,0,0,0,0,0,0,0,0,0,0,0,0,0,0,0,0,0,0,0,0,0,0,0,0,0,0,0,0,0,0,0,0,0,0,0,0,0,0,0,0,0,0,0,0,0,0,0,0,0,0,0,0,0,0,0,0,0],"id":7,"left_children":[1,3,5,7,9,11,13,15,17,19,21,23,25,27,29,31,33,35,37,39,41,43,45,47,49,51,53,55,57,59,61,63,65,67,69,71,73,75,77,79,81,83,85,87,89,91,93,95,-1,97,99,-1,101,103,-1,105,-1,107,109,111,-1,113,115,-1,-1,-1,-1,-1,-1,-1,-1,-1,-1,-1,-1,-1,-1,-1,-1,-1,-1,-1,-1,-1,-1,-1,-1,-1,-1,-1,-1,-1,-1,-1,-1,-1,-1,-1,-1,-1,-1,-1,-1,-1,-1,-1,-1,-1,-1,-1,-1,-1,-1,-1,-1,-1,-1],"loss_changes":[3.7754242E4,2.2039697E3,5.3256445E2,9.1956836E2,4.1942456E2,4.8391724E1,7.646484E1,6.8642773E2,8.969522E1,9.3098175E1,3.4827936E2,4.0992554E1,5.9208473E1,2.8774414E1,3.2052734E1,5.451758E1,5.4997266E2,6.9478165E1,6.379496E1,9.8359116E1,6.801303E1,9.7726074E1,1.3934155E2,3.215088E1,4.7105713E1,4.6784595E1,2.2713669E1,2.0098541E1,2.3959473E1,1.9674316E1,1.025293E1,4.4006836E1,7.008104E1,2.2480649E2,2.0860693E2,1.6424065E1,4.6038353E1,2.8340652E1,5.3136406E1,8.4359665E1,6.0689346E1,2.9004211E1,2.0089558E1,5.8345215E1,3.501976E1,8.537857E1,1.09016525E2,1.3422607E1,0E0,4.5591328E1,3.2381958E1,0E0,1.59084E1,1.9765259E1,0E0,1.8107727E1,0E0,1.7794006E1,1.706543E1,1.9692139E1,0E0,5.0634766E0,8.144836E0,0E0,0E0,0E0,0E0,0E0,0E0,0E0,0E0,0E0,0E0,0E0,0E0,0E0,0E0,0E0,0E0,0E0,0E0,0E0,0E0,0E0,0E0,0E0,0E0,0E0,0E0,0E0,0E0,0E0,0E0,0E0,0E0,0E0,0E0,0E0,0E0,0E0,0E0,0E0,0E0,0E0,0E0,0E0,0E0,0E0,0E0,0E0,0E0,0E0,0E0,0E0,0E0,0E0,0E0],"parents":[2147483647,0,0,1,1,2,2,3,3,4,4,5,5,6,6,7,7,8,8,9,9,10,10,11,11,12,12,13,13,14,14,15,15,16,16,17,17,18,18,19,19,20,20,21,21,22,22,23,23,24,24,25,25,26,26,27,27,28,28,29,29,30,30,31,31,32,32,33,33,34,34,35,35,36,36,37,37,38,38,39,39,40,40,41,41,42,42,43,43,44,44,45,45,46,46,47,47,49,49,50,50,52,52,53,53,55,55,57,57,58,58,59,59,61,61,62,62],"right_children":[2,4,6,8,10,12,14,16,18,20,22,24,26,28,30,32,34,36,38,40,42,44,46,48,50,52,54,56,58,60,62,64,66,68,70,72,74,76,78,80,82,84,86,88,90,92,94,96,-1,98,100,-1,102,104,-1,106,-1,108,110,112,-1,114,116,-1,-1,-1,-1,-1,-1,-1,-1,-1,-1,-1,-1,-1,-1,-1,-1,-1,-1,-1,-1,-1,-1,-1,-1,-1,-1,-1,-1,-1,-1,-1,-1,-1,-1,-1,-1,-1,-1,-1,-1,-1,-1,-1,-1,-1,-1,-1,-1,-1,-1,-1,-1,-1,-1],"split_conditions":[5.1E1,1E-1,2E-1,5E-1,-5E-1,1.0199E3,4E-1,2.8E1,7.8E0,1.0215E3,4.1E1,-8.660254E-1,5.2E1,1.3E0,9E1,8.6E1,-7.0710677E-1,1.12E1,2.09E1,6.3E1,2.4187588E1,1.2E0,-1.4235783E0,1.15380125E1,1E-1,5.6E-1,1.4E0,1.4E2,0E0,1.7E1,2.6E1,1.0059E3,2.9129011E1,5E1,1E-1,6.2E0,4.8E0,2.57E2,3.3570305E1,3.2E0,2E-1,1.7687584E0,-5.3427607E-1,-3.5748715E0,1.0168E3,1.1E0,-1E0,-5E0,-4.1703112E-2,2.2668542E2,3E1,-1.0014341E-1,8.9E0,2E-1,-4.6645876E-2,-4.8E1,-3.521006E-2,6.8E1,5E1,2.5E1,-2.6502391E-2,6.2E1,4E-1,-4.6965152E-2,-7.347959E-2,-5.6590643E-2,6.397557E-2,-6.555473E-2,-1.723983E-2,-7.5410224E-2,-5.1835835E-2,5.3734155E-3,-8.963564E-2,-1.43640535E-2,3.5592556E-2,5.9544165E-2,1.3288006E-2,-3.8630877E-2,4.853497E-2,-1.7054532E-2,6.913208E-2,-2.2116706E-2,3.5884272E-2,2.9917855E-2,-6.927433E-2,5.7039935E-2,-2.956084E-2,-2.4629464E-2,-6.437071E-2,3.315618E-2,-7.8854404E-2,-6.616439E-3,3.1003475E-2,-4.663145E-2,-1.1929385E-2,3.6708243E-2,6.510691E-2,1.961156E-2,-8.989451E-2,3.6912176E-3,4.5835417E-2,4.15576E-2,-4.2164575E-2,1.9505728E-2,4.48143E-2,-7.5740255E-3,5.2925944E-2,5.8220115E-2,7.2160396E-3,4.7078747E-3,6.8061836E-2,2.0495197E-2,6.686794E-2,4.995578E-2,7.513209E-2,4.2329427E-2,6.87424E-2],"split_indices":[66,60,58,107,1,4,58,62,17,4,62,1,62,107,62,41,1,9,9,10,52,59,18,12,107,15,59,57,63,38,46,4,52,41,107,9,107,44,52,107,107,12,48,18,4,60,63,13,0,51,62,0,17,21,0,31,0,57,10,62,0,10,107,0,0,0,0,0,0,0,0,0,0,0,0,0,0,0,0,0,0,0,0,0,0,0,0,0,0,0,0,0,0,0,0,0,0,0,0,0,0,0,0,0,0,0,0,0,0,0,0,0,0,0,0,0,0],"split_type":[0,0,0,0,0,0,0,0,0,0,0,0,0,0,0,0,0,0,0,0,0,0,0,0,0,0,0,0,0,0,0,0,0,0,0,0,0,0,0,0,0,0,0,0,0,0,0,0,0,0,0,0,0,0,0,0,0,0,0,0,0,0,0,0,0,0,0,0,0,0,0,0,0,0,0,0,0,0,0,0,0,0,0,0,0,0,0,0,0,0,0,0,0,0,0,0,0,0,0,0,0,0,0,0,0,0,0,0,0,0,0,0,0,0,0,0,0],"sum_hessian":[2.9950309E4,1.7017312E4,1.2932998E4,1.3599034E4,3.4182776E3,2.3484502E3,1.0584548E4,1.307301E4,5.260244E2,9.6586755E2,2.45241E3,1.9661783E3,3.822717E2,3.1968213E3,7.3877266E3,6.0876216E3,6.9853877E3,2.8342816E2,2.4259628E2,8.6743085E2,9.843668E1,7.1848083E2,1.7339292E3,4.4335187E2,1.5228265E3,3.7125835E1,3.4514587E2,3.352552E2,2.8615662E3,1.489565E3,5.8981616E3,6.029282E3,5.8339706E1,1.7652926E3,5.220095E3,3.5459183E1,2.4796896E2,1.6740245E2,7.519384E1,2.4890977E2,6.185211E2,6.841205E1,3.0024637E1,6.694059E2,4.9074924E1,6.529182E2,1.081011E3,4.3642535E2,6.926518E0,6.666216E1,1.4561643E3,1.4279415E1,2.284642E1,3.37375E2,7.7708626E0,3.2901877E2,6.2364035E0,7.8131885E2,2.080247E3,1.4843779E3,5.1870203E0,5.3568057E3,5.4135565E2,1.6883528E2,5.860447E3,4.26478E1,1.5691907E1,2.87107E2,1.4781855E3,1.2386443E3,3.981451E3,5.077329E0,3.0381855E1,1.8797403E2,5.999493E1,1.2052117E2,4.6881275E1,4.943765E1,2.575619E1,2.1727692E2,3.1632854E1,4.8199768E1,5.7032135E2,7.7274013E0,6.0684643E1,2.1268293E1,8.756345E0,1.1327498E2,5.561309E2,4.1726322E1,7.3486037E0,4.1846924E2,2.3444899E2,3.2262128E2,7.583897E2,5.2663494E1,3.8376187E2,5.6267254E1,1.0394907E1,4.755908E1,1.4086053E3,1.506573E1,7.7806892E0,1.26694984E2,2.1068002E2,1.2476013E1,3.1654276E2,7.6328705E2,1.8031828E1,1.1009877E1,2.0692373E3,2.467527E1,1.4597026E3,2.9200249E1,5.3276055E3,3.8419598E1,5.0293607E2],"tree_param":{"num_deleted":"0","num_feature":"131","num_nodes":"117","size_leaf_vector":"1"}},{"base_weights":[5.280192E-4,-9.4315296E-1,1.2511595E0,-1.1053458E0,-2.9654938E-1,8.285606E-1,1.3487767E0,-1.3864522E0,-8.7376994E-1,2.7262375E-1,-5.243762E-1,4.999564E-2,8.493315E-1,1.2007039E0,1.4118665E0,-1.4007344E0,-1.0589395E-2,-9.51297E-1,1.3616514E-1,4.5419034E-1,-4.4926384E-1,-9.417041E-1,-2.2365691E-1,4.8580804E-1,-8.245745E-2,6.759134E-1,9.446503E-1,8.4459996E-1,1.2231367E0,1.27521E0,1.4424932E0,-1.4385804E0,-1.2302208E0,-8.606609E-2,5.542956E-1,-5.4104733E-1,-1.0884635E0,2.7039126E-1,-8.963975E-1,-5.7242095E-1,5.5092007E-1,5.378759E-1,-6.921472E-1,-1.0309918E0,3.271148E-1,-4.3964404E-1,1.0200513E-1,-4.069624E-2,7.751418E-1,-2.9011557E-1,7.2294176E-1,7.780338E-1,1.0673207E0,9.384095E-1,-5.711397E-2,1.1198969E0,1.2825409E0,4.7282007E-1,1.291551E0,1.2716758E0,1.4551835E0,-7.225364E-2,-2.8548116E-2,-6.96307E-2,-4.078203E-2,4.2729016E-2,-8.0209956E-2,-4.0735543E-2,6.740451E-3,-7.1014866E-2,-4.81316E-2,1.7812614E-3,4.0417142E-2,-7.392236E-2,-1.1167754E-2,-6.44938E-2,1.7089097E-2,-8.815367E-2,2.9708965E-2,6.091855E-2,-7.555669E-2,-1.3386235E-2,-6.0050417E-2,-7.200854E-2,-4.2240318E-2,3.794868E-2,-8.067957E-2,-8.3673015E-2,-1.8652037E-2,1.2618174E-2,-4.5515444E-2,5.927673E-2,-4.0035892E-2,-1.0229484E-1,1.2504299E-2,3.743667E-2,-2.3753826E-2,4.1521452E-2,3.3486163E-4,5.6608427E-2,3.1954043E-2,-4.0383574E-2,5.0456297E-2,2.8528279E-2,5.760771E-2,3.390324E-2,6.454648E-2,-2.6865795E-2,6.120279E-2,6.7324445E-2,5.433808E-2,3.855748E-2,6.575799E-2,7.33895E-2,6.671267E-2],"categories":[],"categories_nodes":[],"categories_segments":[],"categories_sizes":[],"default_left":[0,0,0,0,0,0,0,1,1,0,0,0,0,0,0,0,0,0,0,0,0,1,0,0,0,0,0,0,0,0,0,1,0,0,0,0,0,0,0,0,0,0,0,0,0,0,0,0,0,0,1,1,0,0,0,0,0,0,0,0,0,0,0,0,0,0,0,0,0,0,0,0,0,0,0,0,0,0,0,0,0,0,0,0,0,0,0,0,0,0,0,0,0,0,0,0,0,0,0,0,0,0,0,0,0,0,0,0,0,0,0,0,0,0,0],"id":8,"left_children":[1,3,5,7,9,11,13,15,17,19,21,23,25,27,29,31,33,35,37,39,41,43,45,47,-1,49,51,53,55,57,59,61,63,-1,65,67,69,71,73,75,77,79,81,83,85,87,89,-1,91,93,95,97,99,101,-1,103,105,107,109,111,113,-1,-1,-1,-1,-1,-1,-1,-1,-1,-1,-1,-1,-1,-1,-1,-1,-1,-1,-1,-1,-1,-1,-1,-1,-1,-1,-1,-1,-1,-1,-1,-1,-1,-1,-1,-1,-1,-1,-1,-1,-1,-1,-1,-1,-1,-1,-1,-1,-1,-1,-1,-1,-1,-1],"loss_changes":[3.4718605E4,1.7578877E3,5.2056836E2,8.711006E2,4.363536E2,3.8303833E1,9.40332E1,1.1877539E2,5.758638E2,1.2630436E2,3.0120337E2,4.729874E1,3.746338E1,2.3342285E1,2.8021484E1,3.661914E1,6.2204494E1,3.8348877E2,7.293336E1,7.671115E1,4.6838688E1,1.1435333E2,9.840336E1,1.9775085E1,0E0,3.773047E1,2.9457153E1,3.569307E1,1.6062012E1,1.661621E1,1.0607422E1,2.6548828E1,7.23927E1,0E0,3.2582928E1,3.170321E2,2.1201758E2,5.8662968E1,2.3213196E1,4.42501E1,7.137085E1,5.582542E1,3.3223663E1,7.016522E1,5.713364E1,6.826756E1,8.510324E1,0E0,2.8293705E1,3.7596657E1,2.4701263E1,2.562378E1,2.2861084E1,2.2823212E1,0E0,1.8040405E1,8.199219E0,2.2119007E1,1.292041E1,7.8013306E0,6.0859375E0,0E0,0E0,0E0,0E0,0E0,0E0,0E0,0E0,0E0,0E0,0E0,0E0,0E0,0E0,0E0,0E0,0E0,0E0,0E0,0E0,0E0,0E0,0E0,0E0,0E0,0E0,0E0,0E0,0E0,0E0,0E0,0E0,0E0,0E0,0E0,0E0,0E0,0E0,0E0,0E0,0E0,0E0,0E0,0E0,0E0,0E0,0E0,0E0,0E0,0E0,0E0,0E0,0E0,0E0],"parents":[2147483647,0,0,1,1,2,2,3,3,4,4,5,5,6,6,7,7,8,8,9,9,10,10,11,11,12,12,13,13,14,14,15,15,16,16,17,17,18,18,19,19,20,20,21,21,22,22,23,23,25,25,26,26,27,27,28,28,29,29,30,30,31,31,32,32,34,34,35,35,36,36,37,37,38,38,39,39,40,40,41,41,42,42,43,43,44,44,45,45,46,46,48,48,49,49,50,50,51,51,52,52,53,53,55,55,56,56,57,57,58,58,59,59,60,60],"right_children":[2,4,6,8,10,12,14,16,18,20,22,24,26,28,30,32,34,36,38,40,42,44,46,48,-1,50,52,54,56,58,60,62,64,-1,66,68,70,72,74,76,78,80,82,84,86,88,90,-1,92,94,96,98,100,102,-1,104,106,108,110,112,114,-1,-1,-1,-1,-1,-1,-1,-1,-1,-1,-1,-1,-1,-1,-1,-1,-1,-1,-1,-1,-1,-1,-1,-1,-1,-1,-1,-1,-1,-1,-1,-1,-1,-1,-1,-1,-1,-1,-1,-1,-1,-1,-1,-1,-1,-1,-1,-1,-1,-1,-1,-1,-1,-1],"split_conditions":[5.1E1,1E-1,2E-1,2.8E1,-5E-1,2.7E1,4E-1,1.2E0,3E-1,1.0191E3,6.1E1,-2.5881904E-1,-2.5881904E-1,4E-1,8.8E1,1.5E1,4.6E0,-7.0710677E-1,1.64E1,5.356337E0,2.32E2,1.7E0,2E-1,1.0122E3,-8.245745E-2,4.1E1,-1.0494494E0,2.0675037E0,-2.5881904E-1,2.6E1,1.6E0,8.6E1,1.9E-1,-8.606609E-2,2.82E2,1.5039555E1,7.6E1,6E-1,9.8E1,7E-1,3.9859535E1,1.0246E3,5.0718074E0,1.6E1,3.6E-1,6.9E0,4.3263197E0,-4.069624E-2,1.018E3,6.123234E-17,-2.5E0,2.64E2,1.021E3,-4E1,-5.711397E-2,3.7E1,6.6E1,3.1E0,-1.8369701E-16,1.0088E3,4.6E-1,-7.225364E-2,-2.8548116E-2,-6.96307E-2,-4.078203E-2,4.2729016E-2,-8.0209956E-2,-4.0735543E-2,6.740451E-3,-7.1014866E-2,-4.81316E-2,1.7812614E-3,4.0417142E-2,-7.392236E-2,-1.1167754E-2,-6.44938E-2,1.7089097E-2,-8.815367E-2,2.9708965E-2,6.091855E-2,-7.555669E-2,-1.3386235E-2,-6.0050417E-2,-7.200854E-2,-4.2240318E-2,3.794868E-2,-8.067957E-2,-8.3673015E-2,-1.8652037E-2,1.2618174E-2,-4.5515444E-2,5.927673E-2,-4.0035892E-2,-1.0229484E-1,1.2504299E-2,3.743667E-2,-2.3753826E-2,4.1521452E-2,3.3486163E-4,5.6608427E-2,3.1954043E-2,-4.0383574E-2,5.0456297E-2,2.8528279E-2,5.760771E-2,3.390324E-2,6.454648E-2,-2.6865795E-2,6.120279E-2,6.7324445E-2,5.433808E-2,3.855748E-2,6.575799E-2,7.33895E-2,6.671267E-2],"split_indices":[66,60,58,62,1,62,58,107,107,4,62,1,0,107,62,62,17,1,38,11,44,107,59,4,0,41,19,48,0,62,107,41,16,0,44,11,40,108,62,60,47,4,12,62,15,32,18,0,4,3,53,37,4,31,0,62,40,21,1,4,15,0,0,0,0,0,0,0,0,0,0,0,0,0,0,0,0,0,0,0,0,0,0,0,0,0,0,0,0,0,0,0,0,0,0,0,0,0,0,0,0,0,0,0,0,0,0,0,0,0,0,0,0,0,0],"split_type":[0,0,0,0,0,0,0,0,0,0,0,0,0,0,0,0,0,0,0,0,0,0,0,0,0,0,0,0,0,0,0,0,0,0,0,0,0,0,0,0,0,0,0,0,0,0,0,0,0,0,0,0,0,0,0,0,0,0,0,0,0,0,0,0,0,0,0,0,0,0,0,0,0,0,0,0,0,0,0,0,0,0,0,0,0,0,0,0,0,0,0,0,0,0,0,0,0,0,0,0,0,0,0,0,0,0,0,0,0,0,0,0,0,0,0],"sum_hessian":[2.9415604E4,1.6765291E4,1.2650312E4,1.3402556E4,3.3627363E3,2.3757693E3,1.0274542E4,6.0514146E3,7.3511406E3,9.61075E2,2.4016614E3,6.194852E1,2.3138206E3,3.076219E3,7.1983237E3,5.9891533E3,6.226134E1,6.827211E3,5.239295E2,7.683354E2,1.9273962E2,1.0047877E3,1.3968735E3,4.9918022E1,1.2030498E1,8.239355E2,1.4898851E3,1.8485675E2,2.891362E3,1.3262905E3,5.872033E3,4.8947305E3,1.094423E3,1.4991124E1,4.7270218E1,1.7121218E3,5.1150894E3,4.6439615E2,5.9533363E1,6.564809E1,7.026873E2,3.7737705E1,1.550019E2,9.389774E2,6.581028E1,8.3983276E2,5.5704083E2,8.695909E0,4.1222115E1,3.7910248E1,7.8602527E2,6.35236E2,8.546491E2,1.770743E2,7.782449E0,1.0639105E3,1.8274517E3,2.7190847E1,1.2990996E3,4.1361865E2,5.4584146E3,4.857601E3,3.7129337E1,7.845217E2,3.0990128E2,4.20682E1,5.2020164E0,1.2186259E3,4.934959E2,1.4033074E3,3.711782E3,3.2417563E2,1.4022052E2,3.1203346E1,2.8330015E1,3.6613064E1,2.9035019E1,1.2123387E1,6.9056396E2,2.8670242E1,9.067464E0,8.545209E1,6.954982E1,2.9136765E2,6.476098E2,5.43716E1,1.1438681E1,4.170099E1,7.981318E2,4.857432E2,7.129764E1,3.29518E1,8.270315E0,8.307327E0,2.960292E1,7.699087E2,1.611656E1,5.946373E2,4.059871E1,7.406205E2,1.14028625E2,6.431712E0,1.7064258E2,6.0217266E1,1.00369324E3,2.6296618E1,1.801155E3,1.1661737E1,1.552911E1,1.0195311E3,2.7956848E2,3.474268E1,3.7887598E2,4.932278E3,5.261365E2],"tree_param":{"num_deleted":"0","num_feature":"131","num_nodes":"115","size_leaf_vector":"1"}},{"base_weights":[-3.973415E-3,-9.0673065E-1,1.2099966E0,-1.3497039E0,-6.732861E-1,7.905001E-1,1.3076166E0,-1.3773253E0,1.3901746E-1,-8.695116E-1,-1.3825332E-1,2.9547754E-1,8.2853085E-1,1.1603847E0,1.3706318E0,-1.3938884E0,-9.2970914E-1,-7.6562023E-1,6.6136706E-1,-9.479101E-1,1.013908E-1,3.8964018E-1,-2.6801336E-1,4.3028542E-1,-8.618925E-2,7.881215E-1,1.1867803E0,1.0198466E0,1.2360264E0,1.3813986E0,9.769981E-1,-9.462685E-1,-1.4084839E0,-1.1534905E0,2.1918596E-1,-1.3471892E0,5.9162285E-2,8.6783266E-1,-3.6754984E-2,-5.67722E-1,-1.0758252E0,2.1417333E-1,-9.4439787E-1,4.7171238E-1,-1.2497358E0,-3.402372E-1,5.5282736E-1,7.383442E-1,-3.7947637E-1,5.37466E-1,8.974475E-1,1.2485064E0,4.1976547E-1,1.0438873E0,-1.9949713E-1,6.650081E-1,1.2505636E0,1.3965014E0,1.2035285E0,1.0567117E0,-2.6236905E-2,-6.179362E-2,5.0001126E-2,-7.086207E-2,-4.0883794E-2,-2.3288112E-3,-6.497155E-2,5.8966737E-2,-4.3431483E-2,5.8777253E-3,-8.2356274E-2,5.389185E-2,-2.4815876E-2,-3.960372E-2,-1.4577893E-3,-4.29309E-2,-6.2090516E-2,5.5007488E-3,5.8913667E-2,-8.387714E-2,-1.3877114E-3,7.646493E-3,4.2809214E-2,-7.83396E-2,6.5138848E-3,-2.2190722E-2,1.3896147E-2,-8.229917E-2,3.2927122E-2,-2.9051885E-2,4.439963E-2,7.635253E-3,-9.41501E-2,-1.7194744E-2,3.348254E-2,-4.0192734E-2,4.5294695E-2,3.95445E-2,6.595905E-2,-4.0226072E-2,6.502878E-2,1.7574333E-2,5.4013144E-2,3.572121E-2,-1.0990673E-1,4.2757586E-2,-3.550888E-2,-5.305165E-3,6.280544E-2,6.3902855E-2,7.071651E-2,-7.811679E-4,6.1018467E-2,1.9805612E-2,6.0365018E-2],"categories":[],"categories_nodes":[],"categories_segments":[],"categories_sizes":[],"default_left":[0,0,0,1,0,0,0,1,0,1,0,0,0,0,0,0,1,0,0,0,0,0,0,0,0,0,0,1,0,1,0,0,0,0,0,0,0,0,0,0,0,0,0,0,1,0,0,0,0,0,0,0,0,0,0,0,0,0,0,0,0,0,0,0,0,0,0,0,0,0,0,0,0,0,0,0,0,0,0,0,0,0,0,0,0,0,0,0,0,0,0,0,0,0,0,0,0,0,0,0,0,0,0,0,0,0,0,0,0,0,0,0,0,0,0],"id":9,"left_children":[1,3,5,7,9,11,13,15,17,19,21,23,25,27,29,31,33,35,37,39,41,43,45,47,-1,49,51,53,55,57,59,61,63,65,67,69,-1,71,-1,73,75,77,79,81,83,85,87,89,91,93,95,97,99,101,103,105,107,109,111,113,-1,-1,-1,-1,-1,-1,-1,-1,-1,-1,-1,-1,-1,-1,-1,-1,-1,-1,-1,-1,-1,-1,-1,-1,-1,-1,-1,-1,-1,-1,-1,-1,-1,-1,-1,-1,-1,-1,-1,-1,-1,-1,-1,-1,-1,-1,-1,-1,-1,-1,-1,-1,-1,-1,-1],"loss_changes":[3.1589824E4,1.7084082E3,5.021875E2,2.34875E2,1.1366143E3,4.3384155E1,9.0666016E1,3.9992188E1,4.999353E1,6.0320654E2,1.9921988E2,4.6210224E1,3.0092163E1,3.035791E1,2.7981445E1,3.370117E1,5.255237E1,4.5514595E1,1.997225E1,3.557256E2,7.003916E1,7.7718636E1,1.3854623E2,3.969787E1,0E0,5.2578125E1,9.55481E0,3.1198486E1,1.5099121E1,1.6294922E1,2.3280975E1,9.918327E1,2.5655273E1,2.7297287E1,3.6432426E1,1.3676277E1,0E0,1.7467033E1,0E0,2.231615E2,1.9643262E2,5.3558792E1,3.8625095E1,6.684117E1,1.2412487E1,1.3755083E2,4.4926506E1,2.3211792E1,3.573013E1,6.928024E1,2.0139404E1,5.203003E0,2.0232044E1,2.552417E1,4.0340508E1,1.3832884E1,1.4486328E1,1.1121094E1,1.1206421E1,1.7292679E1,0E0,0E0,0E0,0E0,0E0,0E0,0E0,0E0,0E0,0E0,0E0,0E0,0E0,0E0,0E0,0E0,0E0,0E0,0E0,0E0,0E0,0E0,0E0,0E0,0E0,0E0,0E0,0E0,0E0,0E0,0E0,0E0,0E0,0E0,0E0,0E0,0E0,0E0,0E0,0E0,0E0,0E0,0E0,0E0,0E0,0E0,0E0,0E0,0E0,0E0,0E0,0E0,0E0,0E0,0E0],"parents":[2147483647,0,0,1,1,2,2,3,3,4,4,5,5,6,6,7,7,8,8,9,9,10,10,11,11,12,12,13,13,14,14,15,15,16,16,17,17,18,18,19,19,20,20,21,21,22,22,23,23,25,25,26,26,27,27,28,28,29,29,30,30,31,31,32,32,33,33,34,34,35,35,37,37,39,39,40,40,41,41,42,42,43,43,44,44,45,45,46,46,47,47,48,48,49,49,50,50,51,51,52,52,53,53,54,54,55,55,56,56,57,57,58,58,59,59],"right_children":[2,4,6,8,10,12,14,16,18,20,22,24,26,28,30,32,34,36,38,40,42,44,46,48,-1,50,52,54,56,58,60,62,64,66,68,70,-1,72,-1,74,76,78,80,82,84,86,88,90,92,94,96,98,100,102,104,106,108,110,112,114,-1,-1,-1,-1,-1,-1,-1,-1,-1,-1,-1,-1,-1,-1,-1,-1,-1,-1,-1,-1,-1,-1,-1,-1,-1,-1,-1,-1,-1,-1,-1,-1,-1,-1,-1,-1,-1,-1,-1,-1,-1,-1,-1,-1,-1,-1,-1,-1,-1,-1,-1,-1,-1,-1,-1],"split_conditions":[1E-1,1E0,2E-1,1E0,1E-1,5E-1,4E-1,3.8E0,6.5E0,5E-1,-7.0710677E-1,2.5E1,6.41E2,-2.5881904E-1,7.359798E0,1.0059E3,4.8255848E1,1.1E0,2.553331E2,-7.0710677E-1,1.74E1,1.0236E3,1.2E0,-2.5881904E-1,-8.618925E-2,1E0,1.17065325E1,5.5E0,6.8E1,2.63E1,6E-1,5.7E2,1.1E0,2.6141207E0,1.16E1,-7.0710677E-1,5.9162285E-2,6E0,-3.6754984E-2,1.5039555E1,1.0165E3,5.49E1,3.288462E1,7.2E1,7.9E1,9.659258E-1,7.316041E0,-9E0,4.031129E-1,-2.1E-1,5.4E1,-1.2E0,3E-1,-2.3E1,4.9180788E-1,9E-1,-1.3E1,1E0,-3.7E1,5.1E2,-2.6236905E-2,-6.179362E-2,5.0001126E-2,-7.086207E-2,-4.0883794E-2,-2.3288112E-3,-6.497155E-2,5.8966737E-2,-4.3431483E-2,5.8777253E-3,-8.2356274E-2,5.389185E-2,-2.4815876E-2,-3.960372E-2,-1.4577893E-3,-4.29309E-2,-6.2090516E-2,5.5007488E-3,5.8913667E-2,-8.387714E-2,-1.3877114E-3,7.646493E-3,4.2809214E-2,-7.83396E-2,6.5138848E-3,-2.2190722E-2,1.3896147E-2,-8.229917E-2,3.2927122E-2,-2.9051885E-2,4.439963E-2,7.635253E-3,-9.41501E-2,-1.7194744E-2,3.348254E-2,-4.0192734E-2,4.5294695E-2,3.95445E-2,6.595905E-2,-4.0226072E-2,6.502878E-2,1.7574333E-2,5.4013144E-2,3.572121E-2,-1.0990673E-1,4.2757586E-2,-3.550888E-2,-5.305165E-3,6.280544E-2,6.3902855E-2,7.071651E-2,-7.811679E-4,6.1018467E-2,1.9805612E-2,6.0365018E-2],"split_indices":[58,66,58,107,60,104,58,20,17,104,1,34,74,0,12,4,47,59,50,1,38,4,59,1,0,65,12,42,40,46,5,74,60,12,36,0,0,14,0,11,4,36,52,10,41,1,11,63,106,16,10,20,5,63,106,59,13,65,63,74,0,0,0,0,0,0,0,0,0,0,0,0,0,0,0,0,0,0,0,0,0,0,0,0,0,0,0,0,0,0,0,0,0,0,0,0,0,0,0,0,0,0,0,0,0,0,0,0,0,0,0,0,0,0,0],"split_type":[0,0,0,0,0,0,0,0,0,0,0,0,0,0,0,0,0,0,0,0,0,0,0,0,0,0,0,0,0,0,0,0,0,0,0,0,0,0,0,0,0,0,0,0,0,0,0,0,0,0,0,0,0,0,0,0,0,0,0,0,0,0,0,0,0,0,0,0,0,0,0,0,0,0,0,0,0,0,0,0,0,0,0,0,0,0,0,0,0,0,0,0,0,0,0,0,0,0,0,0,0,0,0,0,0,0,0,0,0,0,0,0,0,0,0],"sum_hessian":[2.8822955E4,1.6530523E4,1.2292431E4,5.7031973E3,1.0827327E4,2.322444E3,9.969986E3,5.5994487E3,1.037486E2,7.921332E3,2.9059946E3,1.6650832E2,2.1559358E3,2.9944995E3,6.9754873E3,5.3973926E3,2.0205655E2,3.773668E1,6.601191E1,7.3296074E3,5.917247E2,5.7282764E2,2.333167E3,1.5687184E2,9.63648E0,1.9405299E3,2.1540602E2,1.0533105E3,1.9411888E3,6.7870835E3,1.8840387E2,1.727305E2,5.2246616E3,1.6918567E2,3.2870888E1,2.9340967E1,8.395713E0,5.790143E1,8.110483E0,1.8467964E3,5.482811E3,5.349266E2,5.6798058E1,5.462537E2,2.6573881E1,2.1451294E3,1.880376E2,1.13793076E2,4.3078762E1,5.9141125E2,1.3491187E3,1.9866054E2,1.6745485E1,1.0331665E3,2.0144089E1,4.9523697E1,1.8916652E3,6.249062E3,5.3802124E2,1.7925194E2,9.151932E0,1.5072008E2,2.201043E1,5.146803E3,7.785863E1,1.9941292E1,1.4924437E2,1.7464144E1,1.5406744E1,5.0336623E0,2.4307304E1,5.042234E1,7.4790897E0,1.3032433E3,5.43553E2,2.377892E3,3.1049192E3,4.8386877E2,5.105784E1,3.1035902E1,2.5762154E1,2.9954535E2,2.4670836E2,2.1558065E1,5.015816E0,1.8376599E3,3.0746948E2,7.914051E0,1.8012354E2,1.1230243E1,1.02562836E2,3.2431408E1,1.0647355E1,7.682324E1,5.14588E2,6.1410847E0,1.3429775E3,2.8396835E1,1.702637E2,6.9953456E0,9.75014E0,5.2238205E1,9.809283E2,1.4229737E1,5.914352E0,4.390406E1,5.6196356E0,7.553102E0,1.884112E3,8.2781165E2,5.4212505E3,7.250779E0,5.3077045E2,3.4073486E1,1.4517845E2],"tree_param":{"num_deleted":"0","num_feature":"131","num_nodes":"115","size_leaf_vector":"1"}},{"base_weights":[1.6943899E-3,-8.737445E-1,1.1807195E0,-1.04059E0,-2.3708706E-1,7.72757E-1,1.2773331E0,-1.3344814E0,-8.3217704E-1,2.953847E-1,-4.5177153E-1,-3.860961E-1,7.9210556E-1,1.130123E0,1.3410866E0,-1.3536426E0,-4.190564E-1,-9.056268E-1,5.192428E-2,4.4968966E-1,-4.2649126E-1,-1.0380126E0,-2.1275167E-1,6.677985E-1,-1.2000153E0,8.820166E-1,5.7464695E-1,7.854046E-1,1.1581354E0,-1.7182568E-2,1.3443918E0,-1.3765134E0,-1.0864148E0,-7.5643755E-2,-1.6996065E-2,-4.225643E-1,-9.967973E-1,-2.0458946E-1,4.7956553E-1,-3.777774E-1,5.7795334E-1,3.450703E-1,-8.3404773E-1,-1.3157452E0,-8.406075E-1,-1.1240866E0,-9.6554555E-2,-2.059427E-2,6.830774E-2,-7.8773424E-2,2.84097E-3,1.1825508E0,7.983478E-1,-6.288078E-2,6.0248756E-1,1.1838959E-1,9.2207915E-1,-2.9947294E-2,1.1644185E0,4.8027083E-2,-5.0385546E-2,1.270054E0,1.3899317E0,-4.4866055E-2,-6.9417365E-2,-6.0322125E-2,-1.4506744E-2,-2.6963627E-2,4.080273E-2,-2.9609734E-2,2.786628E-2,-6.686314E-2,-4.408615E-2,-2.6016608E-2,2.4703337E-2,-5.1933683E-2,3.259906E-2,-4.3185826E-2,2.1053603E-2,-1.278653E-2,3.5276003E-2,-7.5038165E-2,3.531274E-2,-6.852516E-2,-7.1272627E-3,-6.865857E-2,1.39509095E-2,-4.4520408E-2,5.337718E-2,4.1671764E-2,-6.210668E-2,-1.0588842E-2,2.4831517E-2,1.4998023E-2,6.1231293E-2,4.0558126E-2,-9.796928E-2,-1.7936537E-2,3.191055E-2,2.7975088E-2,-1.053529E-1,5.7029974E-2,3.193336E-2,5.0685205E-2,-5.7872143E-2,5.362152E-2,6.1246645E-2,6.382537E-2,2.783753E-2,5.6169987E-2,6.9904E-2],"categories":[],"categories_nodes":[],"categories_segments":[],"categories_sizes":[],"default_left":[0,0,0,0,0,0,0,1,1,0,0,0,0,0,0,1,0,0,0,0,0,0,0,0,0,0,0,0,0,0,0,0,1,0,0,0,0,0,0,0,0,0,0,1,0,0,0,0,0,0,0,0,1,0,0,0,0,0,0,0,0,1,0,0,0,0,0,0,0,0,0,0,0,0,0,0,0,0,0,0,0,0,0,0,0,0,0,0,0,0,0,0,0,0,0,0,0,0,0,0,0,0,0,0,0,0,0,0,0,0,0],"id":10,"left_children":[1,3,5,7,9,11,13,15,17,19,21,23,25,27,29,31,33,35,37,39,41,43,45,47,49,51,53,55,57,59,61,63,65,-1,67,69,71,73,75,77,79,81,83,85,87,89,91,-1,-1,-1,-1,93,95,-1,97,99,101,103,105,-1,-1,107,109,-1,-1,-1,-1,-1,-1,-1,-1,-1,-1,-1,-1,-1,-1,-1,-1,-1,-1,-1,-1,-1,-1,-1,-1,-1,-1,-1,-1,-1,-1,-1,-1,-1,-1,-1,-1,-1,-1,-1,-1,-1,-1,-1,-1,-1,-1,-1,-1],"loss_changes":[2.9264115E4,1.7279697E3,4.7499023E2,7.883047E2,3.8653046E2,5.2276245E1,8.989551E1,9.304883E1,4.9012598E2,1.08427505E2,3.3725986E2,3.398327E1,4.3894287E1,2.7462158E1,3.0725586E1,3.0264648E1,4.871817E1,3.0627197E2,6.370947E1,8.52675E1,5.4272236E1,3.6916016E1,1.8115704E2,1.37917595E1,1.0718435E1,3.933484E1,3.485251E1,2.0362488E1,2.0553467E1,1.7865788E1,2.0963867E1,2.5858398E1,3.944696E1,0E0,3.625397E1,1.8451428E2,2.2818604E2,8.0306335E1,5.764426E1,4.233978E1,7.404643E1,4.092022E1,4.1428223E1,2.6848267E1,3.9956146E1,4.5792526E1,1.0399307E2,0E0,0E0,0E0,0E0,1.2411194E1,4.609131E1,0E0,2.2932678E1,3.9951363E1,1.0677597E1,1.9157469E1,1.359375E1,0E0,0E0,1.1041504E1,7.3012695E0,0E0,0E0,0E0,0E0,0E0,0E0,0E0,0E0,0E0,0E0,0E0,0E0,0E0,0E0,0E0,0E0,0E0,0E0,0E0,0E0,0E0,0E0,0E0,0E0,0E0,0E0,0E0,0E0,0E0,0E0,0E0,0E0,0E0,0E0,0E0,0E0,0E0,0E0,0E0,0E0,0E0,0E0,0E0,0E0,0E0,0E0,0E0,0E0],"parents":[2147483647,0,0,1,1,2,2,3,3,4,4,5,5,6,6,7,7,8,8,9,9,10,10,11,11,12,12,13,13,14,14,15,15,16,16,17,17,18,18,19,19,20,20,21,21,22,22,23,23,24,24,25,25,26,26,27,27,28,28,29,29,30,30,31,31,32,32,34,34,35,35,36,36,37,37,38,38,39,39,40,40,41,41,42,42,43,43,44,44,45,45,46,46,51,51,52,52,54,54,55,55,56,56,57,57,58,58,61,61,62,62],"right_children":[2,4,6,8,10,12,14,16,18,20,22,24,26,28,30,32,34,36,38,40,42,44,46,48,50,52,54,56,58,60,62,64,66,-1,68,70,72,74,76,78,80,82,84,86,88,90,92,-1,-1,-1,-1,94,96,-1,98,100,102,104,106,-1,-1,108,110,-1,-1,-1,-1,-1,-1,-1,-1,-1,-1,-1,-1,-1,-1,-1,-1,-1,-1,-1,-1,-1,-1,-1,-1,-1,-1,-1,-1,-1,-1,-1,-1,-1,-1,-1,-1,-1,-1,-1,-1,-1,-1,-1,-1,-1,-1,-1,-1],"split_conditions":[5.1E1,1E-1,2E-1,2.3E1,-5E-1,2.3E1,4E-1,5E-1,5E-1,1.0195E3,4.3E1,-5E-1,1.0178E3,7.5E-1,2.5E1,2.8E0,4.657759E1,-8.660254E-1,1E0,7.5E-1,-4.9E0,1.6E1,5E-1,6.23E2,8E-1,-8.660254E-1,5.7E1,-2E0,5.1E1,-6E0,1E2,1.0059E3,4.710985E1,-7.5643755E-2,3E0,3E0,6.9E1,3.55E2,-2.7E0,0E0,5.6E1,4.8E1,8E-1,1.59E2,8.4E0,-8.6E1,9.659258E-1,-2.059427E-2,6.830774E-2,-7.8773424E-2,2.84097E-3,1.04E1,-6E-1,-6.288078E-2,3.8326717E1,7.3E1,5.5E0,4.3E1,9.5E1,4.8027083E-2,-5.0385546E-2,1.42E2,7.5E-1,-4.4866055E-2,-6.9417365E-2,-6.0322125E-2,-1.4506744E-2,-2.6963627E-2,4.080273E-2,-2.9609734E-2,2.786628E-2,-6.686314E-2,-4.408615E-2,-2.6016608E-2,2.4703337E-2,-5.1933683E-2,3.259906E-2,-4.3185826E-2,2.1053603E-2,-1.278653E-2,3.5276003E-2,-7.5038165E-2,3.531274E-2,-6.852516E-2,-7.1272627E-3,-6.865857E-2,1.39509095E-2,-4.4520408E-2,5.337718E-2,4.1671764E-2,-6.210668E-2,-1.0588842E-2,2.4831517E-2,1.4998023E-2,6.1231293E-2,4.0558126E-2,-9.796928E-2,-1.7936537E-2,3.191055E-2,2.7975088E-2,-1.053529E-1,5.7029974E-2,3.193336E-2,5.0685205E-2,-5.7872143E-2,5.362152E-2,6.1246645E-2,6.382537E-2,2.783753E-2,5.6169987E-2,6.9904E-2],"split_indices":[66,60,58,62,1,62,58,104,104,4,62,8,4,104,62,20,47,1,105,104,53,62,104,74,8,1,33,64,10,14,62,4,47,0,21,13,41,74,21,13,10,62,60,57,21,31,1,0,0,0,0,32,53,0,47,41,56,10,62,0,0,57,104,0,0,0,0,0,0,0,0,0,0,0,0,0,0,0,0,0,0,0,0,0,0,0,0,0,0,0,0,0,0,0,0,0,0,0,0,0,0,0,0,0,0,0,0,0,0,0,0],"split_type":[0,0,0,0,0,0,0,0,0,0,0,0,0,0,0,0,0,0,0,0,0,0,0,0,0,0,0,0,0,0,0,0,0,0,0,0,0,0,0,0,0,0,0,0,0,0,0,0,0,0,0,0,0,0,0,0,0,0,0,0,0,0,0,0,0,0,0,0,0,0,0,0,0,0,0,0,0,0,0,0,0,0,0,0,0,0,0,0,0,0,0,0,0,0,0,0,0,0,0,0,0,0,0,0,0,0,0,0,0,0,0],"sum_hessian":[2.8350158E4,1.6269816E4,1.2080341E4,1.2890798E4,3.3790186E3,2.3150037E3,9.765337E3,5.3461304E3,7.5446675E3,9.706699E2,2.4083486E3,3.762119E1,2.2773826E3,2.9572312E3,6.808106E3,5.235946E3,1.1018457E2,6.96603E3,5.786377E2,8.0014923E2,1.7052072E2,6.964393E2,1.7119093E3,1.6418516E1,2.1202675E1,1.6087208E3,6.6866174E2,2.2469989E2,2.7325312E3,1.6443222E1,6.7916626E3,4.8189873E3,4.169587E2,2.8805826E1,8.1378746E1,1.10706E3,5.85897E3,3.6186597E2,2.1677174E2,1.070182E2,6.93131E2,5.8907852E1,1.1161287E2,2.8678485E2,4.0965442E2,1.925108E2,1.5193984E3,6.5535326E0,9.864983E0,1.6191767E1,5.010908E0,3.4721466E2,1.2615062E3,9.293132E0,6.593686E2,3.865399E1,1.860459E2,1.4271188E1,2.71826E3,8.239524E0,8.203698E0,2.5918655E3,4.1997974E3,1.18195435E2,4.700792E3,3.6178427E2,5.5174435E1,5.0309917E1,3.1068829E1,9.4411957E2,1.6294043E2,1.4771377E3,4.3818325E3,2.4950562E2,1.1236035E2,2.15352E1,1.9523654E2,6.656859E1,4.044961E1,9.174741E1,6.013836E2,9.078775E0,4.9829075E1,6.2218407E1,4.9394463E1,2.7701154E2,9.773313E0,3.998057E2,9.848709E0,1.0556118E1,1.8195468E2,1.2729481E3,2.464503E2,1.6277353E1,3.309373E2,1.2564099E3,5.0962377E0,2.3202873E1,6.361657E2,3.2921963E1,5.7320304E0,1.03142296E2,8.290361E1,7.4175043E0,6.8536835E0,1.0867155E3,1.6315446E3,2.567705E3,2.4160234E1,1.2906961E2,4.0707275E3],"tree_param":{"num_deleted":"0","num_feature":"131","num_nodes":"111","size_leaf_vector":"1"}},{"base_weights":[3.9324253E-3,-8.462173E-1,1.1450019E0,-1.2457027E0,-5.919603E-1,8.744867E-1,1.2854252E0,-1.2858375E0,1.6253477E-1,-7.843923E-1,-9.2739835E-2,7.5146306E-1,1.0365059E0,1.2988648E0,8.663984E-1,-1.3123381E0,-8.166952E-1,-2.1255031E-1,1.1094768E0,-8.660777E-1,1.3191062E-1,-8.0939573E-1,-4.130898E-3,5.1168644E-1,8.4405804E-1,3.849014E-1,1.0687015E0,-7.186586E-1,1.3022143E0,3.3767626E-1,1.0235115E0,-1.3450452E0,-1.1692804E0,-1.2202165E0,-2.970695E-1,4.6040967E-1,-5.839073E-1,1.2859188E0,-1.4875007E-2,-1.262724E0,-7.344838E-1,2.9882595E-1,-1.0651325E0,-2.1338014E-1,-1.2134477E0,-1.507005E-1,3.978705E-1,6.674259E-1,-5.06086E-2,7.9067504E-1,1.2153672E0,5.663744E-1,-1.0217136E-1,8.542157E-1,1.1119215E0,-9.728797E-2,5.0864723E-2,1.2273201E0,1.3502784E0,-1.1080326E-1,6.291456E-1,6.7057633E-1,1.1985528E0,-6.751149E-2,-1.4979717E-2,2.1220319E-2,-5.9938725E-2,-6.53523E-2,5.4543484E-2,1.2382316E-2,-5.0676644E-2,4.2531427E-2,-7.620934E-2,4.610329E-2,-4.4617128E-2,3.665634E-2,7.811791E-2,-6.616359E-2,-8.315466E-3,-4.7620352E-2,-2.1587718E-2,8.369848E-3,5.8185637E-2,-6.925261E-2,1.39349075E-2,1.1868251E-2,-7.9784974E-2,-6.73754E-2,8.570454E-4,1.51093425E-2,-1.7232941E-2,2.2738814E-2,-5.1312078E-2,4.3042023E-2,8.530167E-3,1.5147114E-2,-4.168601E-2,5.13718E-2,3.6038276E-2,6.31663E-2,2.0684883E-2,-2.9000372E-2,3.6765497E-2,5.6592952E-2,2.7552878E-2,5.712199E-2,2.8394027E-2,6.422056E-2,5.70738E-2,5.9792716E-2,6.803457E-2,4.9353573E-2,-1.3138137E-2,1.2922821E-2,6.380241E-2,1.6433094E-2,6.1957575E-2],"categories":[],"categories_nodes":[],"categories_segments":[],"categories_sizes":[],"default_left":[0,0,0,1,0,0,0,0,0,1,0,0,0,0,0,0,0,0,0,0,0,0,0,0,1,0,0,0,0,0,0,1,0,1,0,0,0,0,0,0,0,0,0,0,0,0,1,0,0,0,0,0,0,0,0,0,0,0,0,0,0,1,0,0,0,0,0,0,0,0,0,0,0,0,0,0,0,0,0,0,0,0,0,0,0,0,0,0,0,0,0,0,0,0,0,0,0,0,0,0,0,0,0,0,0,0,0,0,0,0,0,0,0,0,0,0,0],"id":11,"left_children":[1,3,5,7,9,11,13,15,17,19,21,23,25,27,29,31,33,35,37,39,41,43,45,47,49,51,53,55,57,59,61,63,65,67,69,71,73,75,-1,77,79,81,83,85,87,89,91,93,95,97,99,101,-1,103,105,-1,-1,107,109,-1,111,113,115,-1,-1,-1,-1,-1,-1,-1,-1,-1,-1,-1,-1,-1,-1,-1,-1,-1,-1,-1,-1,-1,-1,-1,-1,-1,-1,-1,-1,-1,-1,-1,-1,-1,-1,-1,-1,-1,-1,-1,-1,-1,-1,-1,-1,-1,-1,-1,-1,-1,-1,-1,-1,-1,-1],"loss_changes":[2.7012082E4,1.6198262E3,4.5026562E2,3.5101758E2,9.367488E2,8.0083496E1,4.2716797E1,7.372266E1,6.168632E1,5.270513E2,1.7230447E2,5.0830933E1,3.6194214E1,5.220508E1,1.9983887E1,2.4887695E1,6.7720566E1,3.1396446E1,1.2708015E1,3.362251E2,1.15512215E2,7.150473E1,1.4245433E2,5.6822586E1,3.190564E1,3.811039E1,1.43220215E1,3.0095892E1,2.532129E1,4.4464405E1,1.0703491E1,2.4576172E1,5.0905396E1,3.811908E1,5.640045E1,3.587523E1,3.833662E1,5.350998E0,0E0,1.064126E2,3.1978638E2,5.7322647E1,3.0911705E1,7.649863E1,2.9461578E1,1.557811E2,5.2753967E1,4.8515915E1,3.942508E1,2.3277649E1,7.2911987E0,1.5772039E1,0E0,2.3158493E1,2.217688E1,0E0,0E0,1.2844238E1,5.5097656E0,0E0,1.723268E1,1.5789856E1,3.85318E0,0E0,0E0,0E0,0E0,0E0,0E0,0E0,0E0,0E0,0E0,0E0,0E0,0E0,0E0,0E0,0E0,0E0,0E0,0E0,0E0,0E0,0E0,0E0,0E0,0E0,0E0,0E0,0E0,0E0,0E0,0E0,0E0,0E0,0E0,0E0,0E0,0E0,0E0,0E0,0E0,0E0,0E0,0E0,0E0,0E0,0E0,0E0,0E0,0E0,0E0,0E0,0E0,0E0,0E0],"parents":[2147483647,0,0,1,1,2,2,3,3,4,4,5,5,6,6,7,7,8,8,9,9,10,10,11,11,12,12,13,13,14,14,15,15,16,16,17,17,18,18,19,19,20,20,21,21,22,22,23,23,24,24,25,25,26,26,27,27,28,28,29,29,30,30,31,31,32,32,33,33,34,34,35,35,36,36,37,37,39,39,40,40,41,41,42,42,43,43,44,44,45,45,46,46,47,47,48,48,49,49,50,50,51,51,53,53,54,54,57,57,58,58,60,60,61,61,62,62],"right_children":[2,4,6,8,10,12,14,16,18,20,22,24,26,28,30,32,34,36,38,40,42,44,46,48,50,52,54,56,58,60,62,64,66,68,70,72,74,76,-1,78,80,82,84,86,88,90,92,94,96,98,100,102,-1,104,106,-1,-1,108,110,-1,112,114,116,-1,-1,-1,-1,-1,-1,-1,-1,-1,-1,-1,-1,-1,-1,-1,-1,-1,-1,-1,-1,-1,-1,-1,-1,-1,-1,-1,-1,-1,-1,-1,-1,-1,-1,-1,-1,-1,-1,-1,-1,-1,-1,-1,-1,-1,-1,-1,-1,-1,-1,-1,-1,-1,-1],"split_conditions":[5.1E1,2.8E1,3E-1,8E-1,1E-1,2E-1,7.359798E0,3E-1,6.23E2,5E-1,5E-1,-1E0,4E-1,2.5E1,5.1E2,4.74E2,1.7E1,-1.94E1,2.9E0,7.3E1,1.64E1,-4.3E0,1E2,1.0182E3,2.2E0,1.278E2,-5E0,8E-1,1E2,1.3E0,1.5E-1,1E0,1.003E3,3.710157E1,7.5153476E-1,2.95E2,-5E1,2E1,-1.4875007E-2,8.8E1,1.2252302E1,5.38E2,1.1172717E1,6.87E1,9.4E1,-5E-1,2.77E2,-1.8369701E-16,8.1E0,-8.660254E-1,1.42E1,-6E0,-1.0217136E-1,-7.0710677E-1,1.59E1,-9.728797E-2,5.0864723E-2,-2.5881904E-1,8.2E1,-1.1080326E-1,4.11E2,6E0,2.5206339E1,-6.751149E-2,-1.4979717E-2,2.1220319E-2,-5.9938725E-2,-6.53523E-2,5.4543484E-2,1.2382316E-2,-5.0676644E-2,4.2531427E-2,-7.620934E-2,4.610329E-2,-4.4617128E-2,3.665634E-2,7.811791E-2,-6.616359E-2,-8.315466E-3,-4.7620352E-2,-2.1587718E-2,8.369848E-3,5.8185637E-2,-6.925261E-2,1.39349075E-2,1.1868251E-2,-7.9784974E-2,-6.73754E-2,8.570454E-4,1.51093425E-2,-1.7232941E-2,2.2738814E-2,-5.1312078E-2,4.3042023E-2,8.530167E-3,1.5147114E-2,-4.168601E-2,5.13718E-2,3.6038276E-2,6.31663E-2,2.0684883E-2,-2.9000372E-2,3.6765497E-2,5.6592952E-2,2.7552878E-2,5.712199E-2,2.8394027E-2,6.422056E-2,5.70738E-2,5.9792716E-2,6.803457E-2,4.9353573E-2,-1.3138137E-2,1.2922821E-2,6.380241E-2,1.6433094E-2,6.1957575E-2],"split_indices":[66,62,58,107,60,58,12,60,74,104,104,63,107,62,74,74,62,39,20,40,38,53,62,4,107,43,63,8,62,107,16,104,4,52,18,44,31,31,0,41,11,74,19,54,41,1,35,1,17,1,38,63,0,1,17,0,0,1,40,0,74,31,52,0,0,0,0,0,0,0,0,0,0,0,0,0,0,0,0,0,0,0,0,0,0,0,0,0,0,0,0,0,0,0,0,0,0,0,0,0,0,0,0,0,0,0,0,0,0,0,0,0,0,0,0,0,0],"split_type":[0,0,0,0,0,0,0,0,0,0,0,0,0,0,0,0,0,0,0,0,0,0,0,0,0,0,0,0,0,0,0,0,0,0,0,0,0,0,0,0,0,0,0,0,0,0,0,0,0,0,0,0,0,0,0,0,0,0,0,0,0,0,0,0,0,0,0,0,0,0,0,0,0,0,0,0,0,0,0,0,0,0,0,0,0,0,0,0,0,0,0,0,0,0,0,0,0,0,0,0,0,0,0,0,0,0,0,0,0,0,0,0,0,0,0,0,0],"sum_hessian":[2.7843186E4,1.5955653E4,1.1887531E4,6.203887E3,9.751767E3,4.0648457E3,7.8226855E3,6.032129E3,1.7175789E2,7.038067E3,2.7136995E3,2.3140261E3,1.7508196E3,7.577317E3,2.453686E2,5.707706E3,3.244233E2,1.2350666E2,4.825123E1,6.4621514E3,5.759157E2,2.9758807E2,2.4161113E3,6.4678046E2,1.6672457E3,8.319052E1,1.667629E3,1.2155469E1,7.5651616E3,5.7076984E1,1.8829163E2,4.6381846E3,1.069521E3,1.817458E2,1.426775E2,4.3737686E1,7.9768974E1,4.301415E1,5.2370796E0,1.6075045E3,4.854647E3,5.061695E2,6.9746216E1,1.2095031E2,1.7663777E2,1.7712046E3,6.449068E2,5.0648862E2,1.4029182E2,1.4606478E3,2.0659798E2,7.8157616E1,5.0329037E0,2.8354977E2,1.3840792E3,7.08442E0,5.0710487E0,2.9683845E3,4.596777E3,5.135506E0,5.194148E1,6.421581E1,1.24075806E2,4.6149106E3,2.3273947E1,1.91289E1,1.0503921E3,1.7562514E2,6.120665E0,8.1346115E1,6.133139E1,3.7070515E1,6.667172E0,1.3166789E1,6.660219E1,1.567761E1,2.7336538E1,1.5230958E3,8.440869E1,2.8212566E3,2.0333903E3,4.405346E2,6.563488E1,5.6370167E1,1.337605E1,9.1779045E1,2.9171268E1,1.5927286E2,1.7364923E1,5.3077826E2,1.2404263E3,6.208493E2,2.4057497E1,3.6389084E2,1.4259778E2,9.6989494E1,4.3302326E1,3.2952515E2,1.1311227E3,1.9427513E2,1.2322838E1,9.649779E0,6.8507835E1,1.4640408E2,1.3714569E2,1.3093472E3,7.473208E1,1.7736682E3,1.1947162E3,2.9830966E2,4.2984673E3,3.7070415E1,1.4871061E1,3.915597E1,2.5059843E1,6.0479164E0,1.18027885E2],"tree_param":{"num_deleted":"0","num_feature":"131","num_nodes":"117","size_leaf_vector":"1"}},{"base_weights":[1.7686492E-3,-8.1731796E-1,1.1083136E0,-1.246818E0,-5.83217E-1,6.8497634E-1,1.2096125E0,-1.273511E0,3.0709742E-2,-6.902316E-1,2.5906825E-1,3.4160018E-1,7.4752766E-1,1.0855864E0,1.2903769E0,-1.2894E0,-7.0659906E-1,-3.7922242E-1,8.1951135E-1,-8.494408E-1,-2.1772549E-1,-1.4495821E-2,6.44188E-1,-7.708943E-2,6.883037E-1,6.880631E-1,1.0864499E0,9.603841E-1,1.1655542E0,3.1811434E-1,1.2949609E0,-1.2951413E0,-2.891973E-1,-1.034888E0,5.6633615E-1,-1.0546958E0,2.394382E-1,-1.556186E-1,1.2285857E0,-1.2476679E0,-7.256106E-1,-9.239255E-1,-7.7362604E-2,-2.4281901E-1,4.7115028E-1,7.128358E-1,-9.297927E-1,1.7562701E-1,-1.4829503E0,8.352354E-1,-6.1156906E-2,7.150776E-1,-1.0439038E-2,1.36401085E-2,1.1134694E0,9.7462547E-1,-3.1441632E-1,8.3721423E-1,1.187127E0,6.727784E-2,-2.4625885E-1,1.3049297E0,9.307677E-1,-6.6211365E-2,-5.5308312E-2,6.7411624E-2,-5.277255E-2,2.5720892E-2,-6.568803E-2,5.9907462E-2,-6.512393E-2,4.3640662E-2,-7.144675E-2,-3.3234555E-2,4.6543088E-2,6.603585E-2,-7.215703E-2,2.3990309E-2,7.175149E-2,-6.5291494E-2,-4.2862065E-2,-2.7710656E-2,-5.6693267E-2,-6.227852E-2,-2.4093578E-2,1.1542595E-2,-1.3306493E-2,-4.9599744E-2,-3.7566063E-4,3.0318702E-2,-7.912881E-2,3.74836E-2,-7.8577235E-2,4.477891E-2,-9.009557E-2,1.7269965E-2,-9.8267525E-2,-8.935767E-4,-1.09916404E-1,5.084752E-2,1.802523E-2,2.2116533E-2,-6.0276907E-2,2.4715155E-2,4.0547967E-2,-6.1022606E-2,2.1149239E-2,5.6694258E-2,2.1396248E-2,-5.0747573E-2,4.9170848E-2,3.145515E-2,-6.621566E-2,4.6010014E-2,-4.4923384E-2,6.0228754E-2,3.4339037E-2,-9.520316E-2,2.6761785E-2,5.6008708E-2,6.5882705E-2,5.18094E-2,7.1211695E-3],"categories":[],"categories_nodes":[],"categories_segments":[],"categories_sizes":[],"default_left":[0,0,0,1,1,0,0,0,0,0,0,0,1,0,0,1,0,0,0,0,0,0,0,0,1,1,0,1,0,0,0,0,0,0,1,0,0,0,0,0,0,0,0,0,0,0,0,0,0,0,0,0,0,0,0,0,0,0,0,0,0,0,0,0,0,0,0,0,0,0,0,0,0,0,0,0,0,0,0,0,0,0,0,0,0,0,0,0,0,0,0,0,0,0,0,0,0,0,0,0,0,0,0,0,0,0,0,0,0,0,0,0,0,0,0,0,0,0,0,0,0,0,0],"id":12,"left_children":[1,3,5,7,9,11,13,15,17,19,21,23,25,27,29,31,33,35,37,39,41,43,45,47,49,51,53,55,57,59,61,63,65,67,69,71,73,75,77,79,81,83,85,87,89,91,93,95,97,99,101,103,105,-1,107,109,111,113,115,-1,117,119,121,-1,-1,-1,-1,-1,-1,-1,-1,-1,-1,-1,-1,-1,-1,-1,-1,-1,-1,-1,-1,-1,-1,-1,-1,-1,-1,-1,-1,-1,-1,-1,-1,-1,-1,-1,-1,-1,-1,-1,-1,-1,-1,-1,-1,-1,-1,-1,-1,-1,-1,-1,-1,-1,-1,-1,-1,-1,-1,-1,-1],"loss_changes":[2.4825172E4,1.581626E3,4.9860352E2,1.8947266E2,9.186223E2,4.8006836E1,9.25166E1,4.7873047E1,3.7384983E1,6.7981934E2,1.211487E2,5.079255E1,3.7446777E1,3.5850586E1,2.477246E1,2.983496E1,6.3583115E1,3.2075554E1,1.6079721E1,3.3233594E2,2.2583292E2,7.468954E1,5.2231705E1,5.684944E1,2.1184204E1,3.0698242E1,5.7618103E0,2.676355E1,1.4819824E1,1.674357E1,1.9110352E1,2.719043E1,4.1002808E1,5.2676147E1,3.870595E1,2.768502E1,2.5890461E1,2.5691803E1,3.4567184E0,3.504883E1,3.6029883E2,5.2947662E1,1.1079397E2,8.070395E1,6.0665516E1,3.9647614E1,3.4064026E1,4.977943E1,2.5290592E1,1.3302116E1,1.91407E1,3.254315E1,3.272883E1,0E0,3.1752625E0,2.6146362E1,1.6852148E1,2.1437874E1,1.748291E1,0E0,2.5679537E1,1.1223633E1,1.257869E1,0E0,0E0,0E0,0E0,0E0,0E0,0E0,0E0,0E0,0E0,0E0,0E0,0E0,0E0,0E0,0E0,0E0,0E0,0E0,0E0,0E0,0E0,0E0,0E0,0E0,0E0,0E0,0E0,0E0,0E0,0E0,0E0,0E0,0E0,0E0,0E0,0E0,0E0,0E0,0E0,0E0,0E0,0E0,0E0,0E0,0E0,0E0,0E0,0E0,0E0,0E0,0E0,0E0,0E0,0E0,0E0,0E0,0E0,0E0,0E0],"parents":[2147483647,0,0,1,1,2,2,3,3,4,4,5,5,6,6,7,7,8,8,9,9,10,10,11,11,12,12,13,13,14,14,15,15,16,16,17,17,18,18,19,19,20,20,21,21,22,22,23,23,24,24,25,25,26,26,27,27,28,28,29,29,30,30,31,31,32,32,33,33,34,34,35,35,36,36,37,37,38,38,39,39,40,40,41,41,42,42,43,43,44,44,45,45,46,46,47,47,48,48,49,49,50,50,51,51,52,52,54,54,55,55,56,56,57,57,58,58,60,60,61,61,62,62],"right_children":[2,4,6,8,10,12,14,16,18,20,22,24,26,28,30,32,34,36,38,40,42,44,46,48,50,52,54,56,58,60,62,64,66,68,70,72,74,76,78,80,82,84,86,88,90,92,94,96,98,100,102,104,106,-1,108,110,112,114,116,-1,118,120,122,-1,-1,-1,-1,-1,-1,-1,-1,-1,-1,-1,-1,-1,-1,-1,-1,-1,-1,-1,-1,-1,-1,-1,-1,-1,-1,-1,-1,-1,-1,-1,-1,-1,-1,-1,-1,-1,-1,-1,-1,-1,-1,-1,-1,-1,-1,-1,-1,-1,-1,-1,-1,-1,-1,-1,-1,-1,-1,-1,-1],"split_conditions":[5.1E1,2.3E1,2E-1,1E0,5E-1,-9E0,5.3E1,1E-1,7.5E1,1E-1,1.8E0,3.17E2,1.3E0,9.5E1,2.9E1,1E0,1.8009106E1,6E0,-8E-2,4E-1,7.9E1,3.06E2,6.3E1,1.0195E3,-1.1E1,3.12E2,4.6E1,1.261E2,6.666667E-1,1.3263338E0,7.2997746E0,5.84E2,2.1E0,-5.3989496E0,-1.28E1,-6E-1,1.6781915E2,-5E1,2.09E2,5.74E2,1.0201E3,3E-2,-1.4493866E0,7.1E1,1.89E1,9.6E3,-8.660254E-1,6.149493E0,-7E-1,3.2335923E0,-2E1,-1.7874358E0,3.24E2,1.36401085E-2,9.9E1,1.4E1,-2.1E1,1.13E2,6.024745E0,6.727784E-2,1.790222E0,1.6E0,5E-1,-6.6211365E-2,-5.5308312E-2,6.7411624E-2,-5.277255E-2,2.5720892E-2,-6.568803E-2,5.9907462E-2,-6.512393E-2,4.3640662E-2,-7.144675E-2,-3.3234555E-2,4.6543088E-2,6.603585E-2,-7.215703E-2,2.3990309E-2,7.175149E-2,-6.5291494E-2,-4.2862065E-2,-2.7710656E-2,-5.6693267E-2,-6.227852E-2,-2.4093578E-2,1.1542595E-2,-1.3306493E-2,-4.9599744E-2,-3.7566063E-4,3.0318702E-2,-7.912881E-2,3.74836E-2,-7.8577235E-2,4.477891E-2,-9.009557E-2,1.7269965E-2,-9.8267525E-2,-8.935767E-4,-1.09916404E-1,5.084752E-2,1.802523E-2,2.2116533E-2,-6.0276907E-2,2.4715155E-2,4.0547967E-2,-6.1022606E-2,2.1149239E-2,5.6694258E-2,2.1396248E-2,-5.0747573E-2,4.9170848E-2,3.145515E-2,-6.621566E-2,4.6010014E-2,-4.4923384E-2,6.0228754E-2,3.4339037E-2,-9.520316E-2,2.6761785E-2,5.6008708E-2,6.5882705E-2,5.18094E-2,7.1211695E-3],"split_indices":[66,62,58,107,104,63,66,59,57,60,107,74,107,62,62,104,11,31,16,107,41,74,64,4,31,44,41,54,104,12,12,74,56,18,39,5,51,31,37,74,4,16,18,62,38,45,3,18,7,18,63,19,44,0,10,62,64,57,12,0,18,107,6,0,0,0,0,0,0,0,0,0,0,0,0,0,0,0,0,0,0,0,0,0,0,0,0,0,0,0,0,0,0,0,0,0,0,0,0,0,0,0,0,0,0,0,0,0,0,0,0,0,0,0,0,0,0,0,0,0,0,0,0],"split_type":[0,0,0,0,0,0,0,0,0,0,0,0,0,0,0,0,0,0,0,0,0,0,0,0,0,0,0,0,0,0,0,0,0,0,0,0,0,0,0,0,0,0,0,0,0,0,0,0,0,0,0,0,0,0,0,0,0,0,0,0,0,0,0,0,0,0,0,0,0,0,0,0,0,0,0,0,0,0,0,0,0,0,0,0,0,0,0,0,0,0,0,0,0,0,0,0,0,0,0,0,0,0,0,0,0,0,0,0,0,0,0,0,0,0,0,0,0,0,0,0,0,0,0],"sum_hessian":[2.7388053E4,1.5738369E4,1.1649684E4,5.550406E3,1.0187964E4,2.251057E3,9.398627E3,5.436887E3,1.1351861E2,9.03974E3,1.1482238E3,3.48118E2,1.9029388E3,3.712776E3,5.685851E3,5.287249E3,1.4963792E2,7.4956795E1,3.8561817E1,6.760728E3,2.2790117E3,6.717552E2,4.7646857E2,1.5791016E2,1.9020786E2,1.6217284E3,2.812104E2,1.4526627E3,2.2601133E3,2.711413E1,5.658737E3,5.25668E3,3.056891E1,1.1916972E2,3.0468208E1,3.5573425E1,3.9383366E1,1.1507049E1,2.7054768E1,1.6012777E3,5.15945E3,3.7682382E2,1.9021879E3,4.5741202E2,2.143432E2,4.571414E2,1.9327175E1,1.3453093E2,2.3379229E1,1.590459E2,3.116196E1,1.5614586E3,6.0269794E1,9.513865E0,2.7169653E2,1.4369241E3,1.5738605E1,1.420805E2,2.1180327E3,9.185301E0,1.792883E1,5.5051885E3,1.5354842E2,4.549855E3,7.0682513E2,9.461131E0,2.110778E1,1.799475E1,1.0117497E2,2.3078245E1,7.389963E0,5.523799E0,3.0049627E1,1.7020632E1,2.2362734E1,5.312279E0,6.1947694E0,6.670214E0,2.0384552E1,1.3913997E3,2.0987808E2,3.6356846E3,1.523766E3,2.1693494E2,1.598889E2,7.2221704E2,1.1799708E3,1.084581E2,3.4895392E2,2.0180891E2,1.2534288E1,4.505911E2,6.550295E0,6.2028522E0,1.3124323E1,1.25467186E2,9.063744E0,8.052547E0,1.5326681E1,1.14041046E2,4.500485E1,2.200613E1,9.155831E0,4.749807E2,1.0864779E3,1.5476917E1,4.4792877E1,2.6306253E2,8.633986E0,5.7679777E0,1.4311561E3,8.280447E0,7.458157E0,1.3610074E2,5.9797688E0,2.0451084E3,7.292432E1,5.3247733E0,1.2604056E1,3.6096054E2,5.144228E3,1.3504807E2,1.850035E1],"tree_param":{"num_deleted":"0","num_feature":"131","num_nodes":"123","size_leaf_vector":"1"}},{"base_weights":[2.9887308E-3,-7.889694E-1,1.0799538E0,-1.2290834E0,-5.7172626E-1,6.6192305E-1,1.1817561E0,-1.2468615E0,6.8123597E-1,-7.5439477E-1,-1.0413713E-1,6.174226E-1,1.0441303E0,1.0336375E0,1.2471709E0,-1.2607466E0,-4.4521686E-1,1.3300334E0,-2.2370957E-1,-8.2845545E-1,8.980046E-2,-4.4411E-1,1.2018896E-1,6.287583E-1,-1.02704965E-1,1.0736752E-3,1.0776601E0,6.1203027E-1,1.0595872E0,1.2573284E0,8.656343E-1,-1.2802618E0,-7.180629E-1,1.0191832E0,-7.4795073E-1,2.3710141E-2,1.5780097E0,-7.6729104E-2,5.4011196E-2,-6.092317E-1,-1.0677296E0,7.5756526E-1,-5.7504386E-2,-5.286901E-1,5.092766E-1,-9.0677774E-1,2.030819E-1,3.3449325E-1,6.9388074E-1,1.1140295E0,1.0391665E-2,7.363026E-1,-2.6700407E-1,9.069357E-1,1.114781E0,1.2594721E0,-7.558322E-3,9.269083E-1,-1.7384993E-2,-6.418818E-2,3.258767E-2,4.0259655E-3,-6.163776E-2,-1.948504E-3,8.9290075E-2,3.0815532E-2,-5.739951E-2,4.4825196E-2,8.866051E-2,-5.6438085E-2,-2.2517776E-2,-4.8780676E-2,-6.7964084E-2,-5.7835574E-3,6.001493E-2,-6.0231753E-2,1.4382515E-3,-3.0248625E-2,2.4718022E-2,-8.275841E-2,3.65849E-2,7.797227E-2,-5.4268297E-2,4.35596E-3,3.7074335E-2,-8.730804E-3,2.6777074E-2,3.633135E-2,8.0684543E-4,3.653919E-2,5.8856983E-2,1.7964112E-2,5.004672E-2,3.074642E-2,-1.0908786E-1,4.664747E-2,1.3027534E-2,4.2325082E-5,5.603516E-2,5.5405732E-2,6.37974E-2,6.0186096E-2,3.1057118E-2],"categories":[],"categories_nodes":[],"categories_segments":[],"categories_sizes":[],"default_left":[0,0,0,1,0,1,0,0,0,1,0,0,0,0,0,1,0,0,0,0,0,0,0,0,0,0,0,0,0,1,1,1,0,0,0,0,0,0,0,0,0,0,0,1,0,0,1,0,1,0,0,0,0,1,0,0,0,0,0,0,0,0,0,0,0,0,0,0,0,0,0,0,0,0,0,0,0,0,0,0,0,0,0,0,0,0,0,0,0,0,0,0,0,0,0,0,0,0,0,0,0,0,0],"id":13,"left_children":[1,3,5,7,9,11,13,15,17,19,21,23,25,27,29,31,33,35,37,39,41,43,45,47,-1,-1,49,51,53,55,57,59,61,63,65,-1,67,-1,-1,69,71,73,75,77,79,81,83,85,87,89,-1,91,93,95,97,99,-1,101,-1,-1,-1,-1,-1,-1,-1,-1,-1,-1,-1,-1,-1,-1,-1,-1,-1,-1,-1,-1,-1,-1,-1,-1,-1,-1,-1,-1,-1,-1,-1,-1,-1,-1,-1,-1,-1,-1,-1,-1,-1,-1,-1,-1,-1],"loss_changes":[2.2852732E4,1.4753447E3,4.8221777E2,1.7416309E2,8.8295483E2,3.704962E1,8.693457E1,5.553369E1,2.837509E1,4.6496582E2,2.2169603E2,6.1610962E1,7.769333E0,2.984961E1,2.3219727E1,5.1496582E1,3.96291E1,4.9785156E0,3.7054733E1,3.5771338E2,5.917318E1,9.345064E1,1.4919604E2,3.7778625E1,0E0,0E0,6.6918945E0,1.8279648E1,2.102002E1,1.8902344E1,1.2836098E1,3.333545E1,7.210705E1,1.2733871E1,4.078451E1,0E0,9.5718E-1,0E0,0E0,2.9396716E2,8.616919E1,4.2273396E1,4.8911846E1,8.318637E1,4.6648083E1,5.929458E1,1.0108286E2,3.7244057E1,3.6029297E1,4.118622E0,0E0,1.3973358E1,3.7103676E1,1.1518738E1,1.2640381E1,1.36875E1,0E0,1.259848E1,0E0,0E0,0E0,0E0,0E0,0E0,0E0,0E0,0E0,0E0,0E0,0E0,0E0,0E0,0E0,0E0,0E0,0E0,0E0,0E0,0E0,0E0,0E0,0E0,0E0,0E0,0E0,0E0,0E0,0E0,0E0,0E0,0E0,0E0,0E0,0E0,0E0,0E0,0E0,0E0,0E0,0E0,0E0,0E0,0E0],"parents":[2147483647,0,0,1,1,2,2,3,3,4,4,5,5,6,6,7,7,8,8,9,9,10,10,11,11,12,12,13,13,14,14,15,15,16,16,17,17,18,18,19,19,20,20,21,21,22,22,23,23,26,26,27,27,28,28,29,29,30,30,31,31,32,32,33,33,34,34,36,36,39,39,40,40,41,41,42,42,43,43,44,44,45,45,46,46,47,47,48,48,49,49,51,51,52,52,53,53,54,54,55,55,57,57],"right_children":[2,4,6,8,10,12,14,16,18,20,22,24,26,28,30,32,34,36,38,40,42,44,46,48,-1,-1,50,52,54,56,58,60,62,64,66,-1,68,-1,-1,70,72,74,76,78,80,82,84,86,88,90,-1,92,94,96,98,100,-1,102,-1,-1,-1,-1,-1,-1,-1,-1,-1,-1,-1,-1,-1,-1,-1,-1,-1,-1,-1,-1,-1,-1,-1,-1,-1,-1,-1,-1,-1,-1,-1,-1,-1,-1,-1,-1,-1,-1,-1,-1,-1,-1,-1,-1,-1],"split_conditions":[5.1E1,1E0,2E-1,2.5E0,1E-1,4E-1,4E-1,2E-1,5.8E0,5E-1,-5E-1,6.6E-1,-3.4E1,4E-1,7.359798E0,3.9E0,-5.3989496E0,2.5881904E-1,4.74E2,1.0176E3,1.0085E3,1.3E0,8E0,-7.0710677E-1,-1.02704965E-1,1.0736752E-3,-1.9E0,8.3E1,-5E-1,3.02E1,2.96E2,9.8E1,-1.5E1,8E-1,3.4E0,2.3710141E-2,-3E0,-7.6729104E-2,5.4011196E-2,7.3E1,1.0247E3,7.6E1,-2.7E1,1.7E0,9.3129E3,-8E0,7.5E-1,0E0,2.54E2,4.4E0,1.0391665E-2,8.5E1,-7.0710677E-1,2.07E2,5E1,2.5E0,-7.558322E-3,2.49E2,-1.7384993E-2,-6.418818E-2,3.258767E-2,4.0259655E-3,-6.163776E-2,-1.948504E-3,8.9290075E-2,3.0815532E-2,-5.739951E-2,4.4825196E-2,8.866051E-2,-5.6438085E-2,-2.2517776E-2,-4.8780676E-2,-6.7964084E-2,-5.7835574E-3,6.001493E-2,-6.0231753E-2,1.4382515E-3,-3.0248625E-2,2.4718022E-2,-8.275841E-2,3.65849E-2,7.797227E-2,-5.4268297E-2,4.35596E-3,3.7074335E-2,-8.730804E-3,2.6777074E-2,3.633135E-2,8.0684543E-4,3.653919E-2,5.8856983E-2,1.7964112E-2,5.004672E-2,3.074642E-2,-1.0908786E-1,4.664747E-2,1.3027534E-2,4.2325082E-5,5.603516E-2,5.5405732E-2,6.37974E-2,6.0186096E-2,3.1057118E-2],"split_indices":[66,66,58,107,60,108,58,59,56,104,0,30,64,107,12,20,18,0,74,4,4,59,9,0,0,0,53,57,0,46,44,41,64,20,17,0,13,0,0,40,4,41,64,107,45,21,104,5,35,17,0,40,1,35,10,107,0,35,0,0,0,0,0,0,0,0,0,0,0,0,0,0,0,0,0,0,0,0,0,0,0,0,0,0,0,0,0,0,0,0,0,0,0,0,0,0,0,0,0,0,0,0,0],"split_type":[0,0,0,0,0,0,0,0,0,0,0,0,0,0,0,0,0,0,0,0,0,0,0,0,0,0,0,0,0,0,0,0,0,0,0,0,0,0,0,0,0,0,0,0,0,0,0,0,0,0,0,0,0,0,0,0,0,0,0,0,0,0,0,0,0,0,0,0,0,0,0,0,0,0,0,0,