{"learner":{"attributes":{"best_iteration":"111","best_score":"0.8084036644087309","scikit_learn":"{\"_estimator_type\": \"classifier\"}"},"feature_names":["hour_sin","hour_cos","month_sin","month_cos","pressure_msl","pressure_change_1h","pressure_change_3h","pressure_change_6h","pressure_accel_3h","temperature_2m","relative_humidity_2m","dew_point","dew_point_depression","humidity_change_1h","humidity_change_3h","vapour_pressure_deficit","vpd_change_3h","wind_speed_10m","wind_u","wind_v","wind_speed_change_1h","wind_speed_change_3h","is_sea_breeze","is_migjorn","is_garbi","is_ponent","llevantada_strength","llevantada_moisture","garbi_strength","tramuntana_strength","tramuntana_moisture","wind_dir_change_3h","wind_850_speed","wind_850_dir","temp_850","temp_500","rh_850","rh_700","temp_700","vt_index","tt_index","li_index","li_unstable","wind_shear_speed","wind_shear_dir","precipitation","rain_accum_3h","rain_accum_6h","rained_last_3h","cloud_cover","cloud_change_1h","cloud_change_3h","is_overcast","weather_code","model_predicts_precip","shortwave_radiation","sentinel_temp_diff","sentinel_humidity_diff","sentinel_precip","sentinel_raining","local_rain_xema","local_rain_xema_3h","ensemble_rain_agreement","ensemble_precip_spread","ensemble_temp_spread","ensemble_max_precip","ensemble_min_precip","ensemble_models_rain"],"feature_types":["float","float","float","float","float","float","float","float","float","float","float","float","float","float","float","float","float","float","float","float","float","float","float","float","float","float","float","float","float","float","float","float","float","float","float","float","float","float","float","float","float","float","float","float","float","float","float","float","float","float","float","float","float","float","float","float","float","float","float","float","float","float","float","float","float","float","float","float"],"gradient_booster":{"model":{"cats":{"enc":[],"feature_segments":[],"sorted_idx":[]},"gbtree_model_param":{"num_parallel_tree":"1","num_trees":"142"},"iteration_indptr":[0,1,2,3,4,5,6,7,8,9,10,11,12,13,14,15,16,17,18,19,20,21,22,23,24,25,26,27,28,29,30,31,32,33,34,35,36,37,38,39,40,41,42,43,44,45,46,47,48,49,50,51,52,53,54,55,56,57,58,59,60,61,62,63,64,65,66,67,68,69,70,71,72,73,74,75,76,77,78,79,80,81,82,83,84,85,86,87,88,89,90,91,92,93,94,95,96,97,98,99,100,101,102,103,104,105,106,107,108,109,110,111,112,113,114,115,116,117,118,119,120,121,122,123,124,125,126,127,128,129,130,131,132,133,134,135,136,137,138,139,140,141,142],"tree_info":[0,0,0,0,0,0,0,0,0,0,0,0,0,0,0,0,0,0,0,0,0,0,0,0,0,0,0,0,0,0,0,0,0,0,0,0,0,0,0,0,0,0,0,0,0,0,0,0,0,0,0,0,0,0,0,0,0,0,0,0,0,0,0,0,0,0,0,0,0,0,0,0,0,0,0,0,0,0,0,0,0,0,0,0,0,0,0,0,0,0,0,0,0,0,0,0,0,0,0,0,0,0,0,0,0,0,0,0,0,0,0,0,0,0,0,0,0,0,0,0,0,0,0,0,0,0,0,0,0,0,0,0,0,0,0,0,0,0,0,0,0,0],"trees":[{"base_weights":[3.5485567E-3,-1.322848E0,1.7418319E0,-1.5395545E0,-4.2714286E-1,1.1959549E0,1.8569819E0,-1.6124799E0,-2.0624451E-1,-1.0446721E0,-1.0452263E-1,-4.6312267E-1,1.2237879E0,1.6916924E0,1.9247471E0,-1.8975652E0,-1.3910149E0,-4.5092824E-1,7.348766E-1,6.584139E-2,-1.2738813E0,-1.1704707E0,9.095065E-3,6.659212E-1,-1.4319732E0,6.908609E-1,1.273161E0,1.1728792E0,1.719975E0,1.9358554E0,1.5031444E0,-1.9052304E0,-7.8870934E-1,-9.1677475E-1,-1.5391448E0,-2.6975182E-1,-1.4256672E0,8.77069E-1,-8.663835E-2,2.4000314E-1,-9.2466146E-2,-1.3983084E0,-1.3467065E-2,-1.5279715E0,-2.5966957E-1,5.212643E-1,-1.9742046E-1,-3.0576373E-2,7.9189606E-2,-3.103627E-3,-9.2287056E-2,-9.603368E-1,7.888031E-1,1.0252877E0,1.3572874E0,-3.247742E-2,1.2645563E0,1.5905449E0,1.788098E0,7.36615E-1,1.9384657E0,1.5725361E0,1.9327666E-3,-9.640998E-2,-8.136136E-2,4.531631E-2,-6.600036E-2,-2.778452E-2,-6.4485475E-2,-9.251105E-2,-7.167679E-2,-2.413542E-2,2.408213E-2,-1.446286E-2,-9.684848E-2,1.4757383E-2,6.6048674E-2,2.0118596E-2,-9.107345E-2,-8.983383E-2,-5.7271242E-2,-4.3107864E-2,2.8032292E-2,-8.185204E-2,4.6293464E-2,1.0345462E-2,-9.144932E-2,-9.018643E-2,2.850735E-2,-2.354095E-2,1.630953E-2,-8.2544476E-2,-3.103627E-3,-1.1253421E-2,4.6298753E-2,3.820706E-2,7.132265E-2,-2.6425583E-2,6.830884E-2,3.5542592E-2,7.378064E-2,6.341928E-2,8.364498E-2,5.3645052E-2,8.988027E-2,-2.856254E-2,8.3151326E-2,9.347298E-2,9.890913E-2,5.893275E-2,8.682788E-2],"categories":[],"categories_nodes":[],"categories_segments":[],"categories_sizes":[],"default_left":[0,0,0,1,0,0,0,0,0,0,0,0,0,0,0,1,0,0,0,0,1,0,0,0,0,0,0,0,0,0,0,1,0,0,0,0,0,0,0,0,0,0,0,0,0,0,0,0,0,0,0,0,0,0,0,0,0,0,0,0,0,0,0,0,0,0,0,0,0,0,0,0,0,0,0,0,0,0,0,0,0,0,0,0,0,0,0,0,0,0,0,0,0,0,0,0,0,0,0,0,0,0,0,0,0,0,0,0,0,0,0],"id":0,"left_children":[1,3,5,7,9,11,13,15,17,19,21,23,25,27,29,31,33,35,37,39,41,43,45,47,49,51,53,55,57,59,61,63,65,67,69,71,73,75,-1,77,-1,79,81,83,85,87,89,-1,-1,-1,-1,91,93,95,97,-1,99,101,103,105,107,109,-1,-1,-1,-1,-1,-1,-1,-1,-1,-1,-1,-1,-1,-1,-1,-1,-1,-1,-1,-1,-1,-1,-1,-1,-1,-1,-1,-1,-1,-1,-1,-1,-1,-1,-1,-1,-1,-1,-1,-1,-1,-1,-1,-1,-1,-1,-1,-1,-1],"loss_changes":[7.291869E4,3.481045E3,8.578633E2,1.4038359E3,6.96271E2,1.1088428E2,1.2296875E2,8.61625E2,1.7306242E2,3.0551453E2,2.7838104E2,4.48467E1,6.0713135E1,4.604004E1,3.4248047E1,4.9089844E1,5.400283E2,1.0472126E2,5.5855797E1,6.9023186E1,1.5578674E2,7.151291E1,2.1983516E2,2.3500648E1,1.2120804E1,3.332254E1,4.3158203E1,2.9896225E1,2.434668E1,2.2716797E1,2.1146515E1,3.445117E1,3.985224E1,2.4659229E2,1.8999512E2,8.08812E1,5.33219E1,3.7512146E1,0E0,6.4134605E1,0E0,8.881262E1,4.4572777E1,4.4062378E1,4.717407E1,6.878706E1,2.1215811E2,0E0,0E0,0E0,0E0,6.968235E0,2.681334E1,5.616748E1,2.7630615E1,0E0,1.8100006E1,2.6401611E1,1.1635254E1,2.3636328E1,1.724414E1,1.0625763E1,0E0,0E0,0E0,0E0,0E0,0E0,0E0,0E0,0E0,0E0,0E0,0E0,0E0,0E0,0E0,0E0,0E0,0E0,0E0,0E0,0E0,0E0,0E0,0E0,0E0,0E0,0E0,0E0,0E0,0E0,0E0,0E0,0E0,0E0,0E0,0E0,0E0,0E0,0E0,0E0,0E0,0E0,0E0,0E0,0E0,0E0,0E0,0E0,0E0],"parents":[2147483647,0,0,1,1,2,2,3,3,4,4,5,5,6,6,7,7,8,8,9,9,10,10,11,11,12,12,13,13,14,14,15,15,16,16,17,17,18,18,19,19,20,20,21,21,22,22,23,23,24,24,25,25,26,26,27,27,28,28,29,29,30,30,31,31,32,32,33,33,34,34,35,35,36,36,37,37,39,39,41,41,42,42,43,43,44,44,45,45,46,46,51,51,52,52,53,53,54,54,56,56,57,57,58,58,59,59,60,60,61,61],"right_children":[2,4,6,8,10,12,14,16,18,20,22,24,26,28,30,32,34,36,38,40,42,44,46,48,50,52,54,56,58,60,62,64,66,68,70,72,74,76,-1,78,-1,80,82,84,86,88,90,-1,-1,-1,-1,92,94,96,98,-1,100,102,104,106,108,110,-1,-1,-1,-1,-1,-1,-1,-1,-1,-1,-1,-1,-1,-1,-1,-1,-1,-1,-1,-1,-1,-1,-1,-1,-1,-1,-1,-1,-1,-1,-1,-1,-1,-1,-1,-1,-1,-1,-1,-1,-1,-1,-1,-1,-1,-1,-1,-1,-1],"split_conditions":[5.1E1,1E-1,2E-1,2E-1,5E1,2.3E1,4E-1,2.1E1,2.9E0,-7.0710677E-1,1E-1,-4E-1,3E-1,4E-1,7.359798E0,8.6E1,-7.0710677E-1,1.61E1,6.3E1,1.0793421E1,7E-1,8.1E1,-5E-1,6.23E2,9.7E0,2.1E1,-1E0,-2.3E1,-2.5881904E-1,2.5E1,8E-1,2.8E0,-4E0,6.123234E-17,7E1,4.42E2,6.2E0,-2.4492937E-16,-8.663835E-2,4E-1,-9.2466146E-2,1.7E1,-2.5881904E-1,1.03E1,5E-1,-8.4E0,1E2,-3.0576373E-2,7.9189606E-2,-3.103627E-3,-9.2287056E-2,0E0,-3.9282455E0,3.83E2,-3.5E1,-3.247742E-2,-2.5881904E-1,-3E0,6.6E1,3.1E0,1E2,4E0,1.9327666E-3,-9.640998E-2,-8.136136E-2,4.531631E-2,-6.600036E-2,-2.778452E-2,-6.4485475E-2,-9.251105E-2,-7.167679E-2,-2.413542E-2,2.408213E-2,-1.446286E-2,-9.684848E-2,1.4757383E-2,6.6048674E-2,2.0118596E-2,-9.107345E-2,-8.983383E-2,-5.7271242E-2,-4.3107864E-2,2.8032292E-2,-8.185204E-2,4.6293464E-2,1.0345462E-2,-9.144932E-2,-9.018643E-2,2.850735E-2,-2.354095E-2,1.630953E-2,-8.2544476E-2,-3.103627E-3,-1.1253421E-2,4.6298753E-2,3.820706E-2,7.132265E-2,-2.6425583E-2,6.830884E-2,3.5542592E-2,7.378064E-2,6.341928E-2,8.364498E-2,5.3645052E-2,8.988027E-2,-2.856254E-2,8.3151326E-2,9.347298E-2,9.890913E-2,5.893275E-2,8.682788E-2],"split_indices":[53,47,45,65,49,49,45,49,65,1,65,8,65,65,12,37,1,34,51,18,63,37,1,55,9,37,51,51,0,49,8,20,13,3,36,55,38,2,0,5,0,49,0,21,3,38,49,0,0,0,0,0,19,55,50,0,0,50,36,21,49,50,0,0,0,0,0,0,0,0,0,0,0,0,0,0,0,0,0,0,0,0,0,0,0,0,0,0,0,0,0,0,0,0,0,0,0,0,0,0,0,0,0,0,0,0,0,0,0,0,0],"split_type":[0,0,0,0,0,0,0,0,0,0,0,0,0,0,0,0,0,0,0,0,0,0,0,0,0,0,0,0,0,0,0,0,0,0,0,0,0,0,0,0,0,0,0,0,0,0,0,0,0,0,0,0,0,0,0,0,0,0,0,0,0,0,0,0,0,0,0,0,0,0,0,0,0,0,0,0,0,0,0,0,0,0,0,0,0,0,0,0,0,0,0,0,0,0,0,0,0,0,0,0,0,0,0,0,0,0,0,0,0,0,0],"sum_hessian":[3.1624033E4,1.7937223E4,1.368681E4,1.4442242E4,3.4949807E3,2.3863594E3,1.130045E4,1.3693018E4,7.492244E2,1.1984576E3,2.296523E3,3.905624E1,2.3473032E3,3.293805E3,8.0066455E3,5.9831123E3,7.7099053E3,5.951242E2,1.5410027E2,2.0508788E2,9.933698E2,2.2039365E2,2.0761294E3,1.81337E1,2.0922539E1,2.0047044E2,2.1468328E3,1.7265483E2,3.1211501E3,7.797375E3,2.0927072E2,5.9412344E3,4.1877934E1,1.8369004E3,5.873005E3,5.0300845E2,9.211573E1,1.4635214E2,7.748118E0,1.8884183E2,1.6246054E1,9.0394434E2,8.942545E1,1.5770505E2,6.2688602E1,5.962811E2,1.4798481E3,7.6757565E0,1.0457943E1,5.1763635E0,1.5746176E1,1.0675028E1,1.8979543E2,5.476349E2,1.5991978E3,7.925696E0,1.6472913E2,1.0851794E3,2.0359707E3,1.7633821E1,7.779741E3,1.9966782E2,9.602909E0,5.482004E3,4.5923038E2,9.780487E0,3.2097446E1,9.346794E2,9.0222095E2,1.4840867E3,4.388918E3,3.9231195E2,1.10696495E2,2.913103E1,6.2984703E1,6.414873E1,8.2203415E1,1.7584499E2,1.2996843E1,3.4848108E2,5.5546326E2,3.595175E1,5.34737E1,1.5135135E2,6.3536983E0,4.894194E1,1.3746661E1,1.1497208E1,5.8478394E2,9.724069E2,5.0744125E2,5.4986644E0,5.1763635E0,2.2455029E1,1.673404E2,3.3361533E2,2.1401958E2,7.175878E0,1.5920219E3,4.6797703E1,1.1793143E2,2.2451703E2,8.606625E2,2.8341703E1,2.0076289E3,7.425817E0,1.0208004E1,2.8604443E3,4.919297E3,6.128753E1,1.383803E2],"tree_param":{"num_deleted":"0","num_feature":"68","num_nodes":"111","size_leaf_vector":"1"}},{"base_weights":[-4.837576E-3,-1.2594514E0,1.6503642E0,-1.3995075E0,-7.540734E-2,1.1360726E0,1.7626925E0,-1.4746101E0,9.3779035E-2,-2.1799557E-1,7.0335436E-1,9.059509E-1,1.2405857E0,1.6060654E0,1.8280618E0,-1.8122839E0,-1.2412338E0,-3.3262402E-1,6.252185E-1,-1.0062047E0,-3.355879E-2,-3.059696E-1,8.9632624E-1,9.384952E-1,-8.893027E-2,1.1774557E0,1.564602E0,1.197511E0,1.6368083E0,1.838792E0,1.4233711E0,-1.819133E0,-9.76311E-1,-1.6236718E0,-1.0957414E0,-1.5678153E0,-1.3236618E-1,7.169675E-1,-8.7919466E-2,-1.4603299E0,-5.770993E-1,-9.580072E-1,5.1353633E-2,-1.3575132E0,4.08203E-1,3.601496E-1,1.1444046E0,-3.151155E-1,9.891181E-1,1.1889987E0,-3.506417E-2,1.6020958E0,7.836168E-1,2.2456296E-1,1.272931E0,1.5043385E0,1.690282E0,1.6147286E-2,1.8403398E0,2.3612487E-1,1.4993486E0,-7.3249094E-2,-9.143084E-2,-8.080541E-2,4.3977614E-2,-8.4549144E-2,-4.2093072E-2,-4.6341445E-2,-7.592978E-2,-9.4351575E-2,1.12082455E-2,-1.9274611E-2,3.3413384E-2,8.536822E-3,4.530953E-2,-2.7434995E-2,-8.0347665E-2,-4.4757467E-2,2.5740787E-2,-1.5468811E-2,-8.545258E-2,2.7592475E-2,-4.5063123E-3,-1.9479247E-3,-9.092207E-2,5.4313786E-2,-8.4482804E-2,3.3092253E-2,-8.726511E-2,-2.4235046E-2,6.455514E-2,3.7167907E-2,-9.125467E-2,1.9379893E-2,5.401628E-2,5.9924662E-2,-2.8062886E-2,4.4495113E-2,8.179455E-2,-1.9283427E-2,8.571666E-2,7.580208E-2,-8.507207E-2,1.0501086E-2,6.813323E-2,7.623582E-2,1.7895607E-2,4.0484168E-2,8.483229E-2,8.399905E-2,9.269395E-2,-3.3248164E-2,7.471389E-2,7.9076245E-2,3.2127723E-2],"categories":[],"categories_nodes":[],"categories_segments":[],"categories_sizes":[],"default_left":[0,0,0,1,1,0,0,0,0,0,0,0,1,0,0,1,0,0,0,0,0,0,0,0,0,0,0,0,0,0,0,0,0,0,0,0,0,0,0,0,0,0,0,0,0,0,0,0,0,1,0,0,0,0,0,1,0,0,0,1,0,0,0,0,0,0,0,0,0,0,0,0,0,0,0,0,0,0,0,0,0,0,0,0,0,0,0,0,0,0,0,0,0,0,0,0,0,0,0,0,0,0,0,0,0,0,0,0,0,0,0,0,0,0,0],"id":1,"left_children":[1,3,5,7,9,11,13,15,17,19,21,23,25,27,29,31,33,35,37,39,41,43,45,47,-1,49,51,53,55,57,59,61,63,65,67,69,71,73,-1,75,77,79,81,83,85,87,89,91,93,95,-1,97,99,101,103,105,107,-1,109,111,113,-1,-1,-1,-1,-1,-1,-1,-1,-1,-1,-1,-1,-1,-1,-1,-1,-1,-1,-1,-1,-1,-1,-1,-1,-1,-1,-1,-1,-1,-1,-1,-1,-1,-1,-1,-1,-1,-1,-1,-1,-1,-1,-1,-1,-1,-1,-1,-1,-1,-1,-1,-1,-1,-1],"loss_changes":[6.5561125E4,2.9778691E3,7.8408203E2,1.8012754E3,2.111622E2,5.7420166E1,1.1108594E2,1.2023711E3,1.7469276E2,2.335398E2,5.7650482E1,6.8599E1,3.2188232E1,3.9177734E1,3.124414E1,3.3710938E1,5.0121094E2,1.0541408E2,7.62056E1,5.832318E1,1.02480385E2,3.661749E1,3.2342987E1,4.8517212E1,0E0,3.141455E1,6.4171753E0,1.6789886E1,1.8842773E1,1.7175781E1,1.8237793E1,1.7798828E1,6.447081E1,1.2937695E2,4.665625E2,3.4627563E1,7.504864E1,3.3970352E1,0E0,1.8585236E1,5.551386E1,5.2772026E1,8.4708336E1,1.1691811E1,4.3362354E1,5.176178E1,4.0986313E1,4.961117E1,3.9452637E1,2.3997192E1,0E0,4.470459E0,1.6526012E1,4.782442E1,2.0305878E1,2.0077026E1,1.0560059E1,0E0,1.3160156E1,1.6697145E1,1.250882E1,0E0,0E0,0E0,0E0,0E0,0E0,0E0,0E0,0E0,0E0,0E0,0E0,0E0,0E0,0E0,0E0,0E0,0E0,0E0,0E0,0E0,0E0,0E0,0E0,0E0,0E0,0E0,0E0,0E0,0E0,0E0,0E0,0E0,0E0,0E0,0E0,0E0,0E0,0E0,0E0,0E0,0E0,0E0,0E0,0E0,0E0,0E0,0E0,0E0,0E0,0E0,0E0,0E0,0E0],"parents":[2147483647,0,0,1,1,2,2,3,3,4,4,5,5,6,6,7,7,8,8,9,9,10,10,11,11,12,12,13,13,14,14,15,15,16,16,17,17,18,18,19,19,20,20,21,21,22,22,23,23,25,25,26,26,27,27,28,28,29,29,30,30,31,31,32,32,33,33,34,34,35,35,36,36,37,37,39,39,40,40,41,41,42,42,43,43,44,44,45,45,46,46,47,47,48,48,49,49,51,51,52,52,53,53,54,54,55,55,56,56,58,58,59,59,60,60],"right_children":[2,4,6,8,10,12,14,16,18,20,22,24,26,28,30,32,34,36,38,40,42,44,46,48,-1,50,52,54,56,58,60,62,64,66,68,70,72,74,-1,76,78,80,82,84,86,88,90,92,94,96,-1,98,100,102,104,106,108,-1,110,112,114,-1,-1,-1,-1,-1,-1,-1,-1,-1,-1,-1,-1,-1,-1,-1,-1,-1,-1,-1,-1,-1,-1,-1,-1,-1,-1,-1,-1,-1,-1,-1,-1,-1,-1,-1,-1,-1,-1,-1,-1,-1,-1,-1,-1,-1,-1,-1,-1,-1,-1,-1,-1,-1,-1],"split_conditions":[1E-1,1E-1,2E-1,4E-1,7.5E-1,0E0,4E-1,1E0,1.8E0,8.1E1,9.126381E0,2E0,1.3E0,7.5E-1,7.359798E0,8.6E1,7.6E1,-2.1E-1,6.3E1,4.679309E1,5.1956954E0,1.17E1,7.4E1,2.5E-1,-8.893027E-2,4.9E-1,5.5E0,-2.3E1,0E0,-6.4E1,-3.5E-1,1.0055E3,2.2E-1,6.2E0,1.0201E3,1.4E1,4.52E2,-6E0,-8.7919466E-2,-1.3E1,3E1,7.2695076E-1,-4.370956E0,4.205532E0,-1E-1,8E0,-2.8E1,1.31E1,1.5422014E0,4.49E1,-3.506417E-2,-4.3E0,7.8E0,3E0,1.16E2,8.7E1,5.1E1,1.6147286E-2,-9E0,1.4E0,5E-1,-7.3249094E-2,-9.143084E-2,-8.080541E-2,4.3977614E-2,-8.4549144E-2,-4.2093072E-2,-4.6341445E-2,-7.592978E-2,-9.4351575E-2,1.12082455E-2,-1.9274611E-2,3.3413384E-2,8.536822E-3,4.530953E-2,-2.7434995E-2,-8.0347665E-2,-4.4757467E-2,2.5740787E-2,-1.5468811E-2,-8.545258E-2,2.7592475E-2,-4.5063123E-3,-1.9479247E-3,-9.092207E-2,5.4313786E-2,-8.4482804E-2,3.3092253E-2,-8.726511E-2,-2.4235046E-2,6.455514E-2,3.7167907E-2,-9.125467E-2,1.9379893E-2,5.401628E-2,5.9924662E-2,-2.8062886E-2,4.4495113E-2,8.179455E-2,-1.9283427E-2,8.571666E-2,7.580208E-2,-8.507207E-2,1.0501086E-2,6.813323E-2,7.623582E-2,1.7895607E-2,4.0484168E-2,8.483229E-2,8.399905E-2,9.269395E-2,-3.3248164E-2,7.471389E-2,7.9076245E-2,3.2127723E-2],"split_indices":[45,46,45,65,62,50,45,53,65,37,11,6,65,62,12,37,37,16,51,40,11,43,37,62,0,30,38,51,50,50,16,4,16,21,4,13,55,51,0,14,31,18,18,11,8,14,31,32,12,43,0,21,38,43,33,44,10,0,50,64,6,0,0,0,0,0,0,0,0,0,0,0,0,0,0,0,0,0,0,0,0,0,0,0,0,0,0,0,0,0,0,0,0,0,0,0,0,0,0,0,0,0,0,0,0,0,0,0,0,0,0,0,0,0,0],"split_type":[0,0,0,0,0,0,0,0,0,0,0,0,0,0,0,0,0,0,0,0,0,0,0,0,0,0,0,0,0,0,0,0,0,0,0,0,0,0,0,0,0,0,0,0,0,0,0,0,0,0,0,0,0,0,0,0,0,0,0,0,0,0,0,0,0,0,0,0,0,0,0,0,0,0,0,0,0,0,0,0,0,0,0,0,0,0,0,0,0,0,0,0,0,0,0,0,0,0,0,0,0,0,0,0,0,0,0,0,0,0,0,0,0,0,0],"sum_hessian":[3.1568809E4,1.795758E4,1.36112295E4,1.6057885E4,1.8996946E3,2.4421104E3,1.1169119E4,1.5289026E4,7.688581E2,1.6064148E3,2.932798E2,7.6603784E2,1.6760724E3,3.2968538E3,7.8722656E3,6.2453667E3,9.04366E3,4.2668848E2,3.4216965E2,3.0366672E2,1.302748E3,4.689507E1,2.4638472E2,7.57542E2,8.495855E0,1.4069004E3,2.69172E2,2.3374403E2,3.0631096E3,7.665234E3,2.0703177E2,6.1933286E3,5.2037697E1,2.4893547E3,6.554305E3,5.850444E1,3.6818402E2,3.3020084E2,1.1968814E1,1.4625153E2,1.5741518E2,1.08827675E2,1.1939204E3,1.8659756E1,2.8235313E1,7.884036E1,1.6754436E2,2.912398E1,7.28418E2,1.398727E3,8.173446E0,2.557161E2,1.3455912E1,1.7197163E1,2.1654686E2,8.898057E2,2.173304E3,8.098367E0,7.6571357E3,1.2778319E1,1.9425345E2,1.6585648E2,6.027472E3,3.883325E1,1.320445E1,2.2908315E3,1.9852321E2,4.6859106E3,1.8683945E3,4.9660824E1,8.843616E0,2.802306E2,8.7953445E1,8.558192E1,2.4461893E2,2.1015018E1,1.2523651E2,1.2211704E2,3.5298134E1,5.922432E1,4.9603355E1,2.6263507E2,9.312853E2,5.170432E0,1.3489325E1,2.1738752E1,6.496562E0,6.960031E1,9.240053E0,1.3594094E1,1.5395026E2,1.7381361E1,1.1742619E1,9.674223E1,6.316758E2,1.3915507E3,7.1763334E0,1.2956905E1,2.4275919E2,6.17556E0,7.280352E0,1.0452822E1,6.744342E0,1.7205036E1,1.9934183E2,8.7385547E2,1.5950219E1,1.6625696E1,2.1566782E3,6.064755E2,7.05066E3,7.6741176E0,5.104202E0,1.7637456E2,1.787889E1],"tree_param":{"num_deleted":"0","num_feature":"68","num_nodes":"115","size_leaf_vector":"1"}},{"base_weights":[-1.8442987E-3,-1.2051497E0,1.5755312E0,-1.3941437E0,-4.1919172E-1,1.0824217E0,1.6802129E0,-1.4473429E0,1.3654196E-1,-1.4279782E0,-2.6336622E-1,-1.309819E-1,1.1040498E0,1.5281118E0,1.7441736E0,-1.7128569E0,-1.2070081E0,-3.012837E-1,5.836155E-1,-1.5891606E0,7.823207E-1,4.0025198E-1,-4.273065E-1,8.6547613E-1,-1.3444968E0,1.0494081E0,1.5236362E0,1.5322051E0,-2.5175452E-2,8.8302636E-1,1.7489947E0,-1.7516603E0,-1.53109E0,-5.7914007E-1,-1.320314E0,-9.4010013E-1,4.2805085E-1,7.007696E-1,-8.3179966E-2,-1.7638795E0,-1.0672333E0,-3.1844738E-1,1.4478655E0,4.8043293E-1,-9.1980405E-2,-5.297922E-1,6.1111945E-1,-2.3074737E-3,7.7037305E-2,-8.971988E-2,-2.7202948E-3,1.2120855E0,9.106671E-1,2.6905647E-2,1.5479727E0,1.2845243E0,1.5682065E0,1.1967397E0,-8.811845E-3,1.6730819E0,1.7946932E0,-8.812938E-2,-6.5734826E-2,8.60219E-3,-7.910977E-2,-5.1389884E-2,-1.4181589E-3,-5.301435E-2,-7.494762E-2,4.4606153E-2,-5.499652E-2,-3.610563E-2,4.4199962E-2,4.1735962E-2,-2.9495567E-2,-9.101379E-2,-6.535664E-2,3.1794854E-2,-7.139746E-2,7.338404E-2,-8.490839E-2,8.828187E-2,3.545223E-2,1.0520319E-2,4.3391254E-2,-5.827437E-2,-1.8223189E-2,3.5325177E-2,-8.623993E-2,6.204149E-2,-1.7238848E-2,2.2576973E-2,5.2987814E-2,8.325148E-2,6.816336E-2,3.2453166E-4,6.704312E-2,6.468571E-2,7.9878114E-2,1.3960414E-2,7.256852E-2,8.3972655E-2,4.7953974E-2,8.335221E-2,9.055894E-2],"categories":[],"categories_nodes":[],"categories_segments":[],"categories_sizes":[],"default_left":[0,0,0,1,0,0,0,0,0,1,0,0,1,1,0,0,0,0,0,0,0,0,1,0,0,0,0,0,0,0,0,1,0,0,0,0,0,0,0,0,0,0,0,0,0,0,0,0,0,0,0,0,0,0,0,0,0,0,0,1,0,0,0,0,0,0,0,0,0,0,0,0,0,0,0,0,0,0,0,0,0,0,0,0,0,0,0,0,0,0,0,0,0,0,0,0,0,0,0,0,0,0,0,0,0],"id":2,"left_children":[1,3,5,7,9,11,13,15,17,19,21,23,25,27,29,31,33,35,37,39,41,43,45,47,49,51,53,55,-1,57,59,61,63,65,67,69,71,73,-1,75,77,79,81,83,-1,85,87,-1,-1,-1,-1,89,91,-1,93,95,97,99,-1,101,103,-1,-1,-1,-1,-1,-1,-1,-1,-1,-1,-1,-1,-1,-1,-1,-1,-1,-1,-1,-1,-1,-1,-1,-1,-1,-1,-1,-1,-1,-1,-1,-1,-1,-1,-1,-1,-1,-1,-1,-1,-1,-1,-1,-1],"loss_changes":[5.9693543E4,2.649252E3,7.0041797E2,1.1714258E3,5.4332666E2,6.2864258E1,1.06203125E2,8.845371E2,9.492095E1,1.6613715E2,3.2636398E2,5.272445E1,5.1897705E1,2.8577148E1,3.0964844E1,4.354883E1,5.182871E2,1.1461128E2,6.422028E1,3.7187622E1,2.4069376E1,1.07489845E2,2.562535E2,1.4967274E1,1.1119675E1,4.55813E1,5.3796387E0,2.7348145E1,0E0,1.5626411E1,2.3878906E1,2.33125E1,1.0221631E2,2.7606094E2,2.8531543E2,3.936515E1,6.0972157E1,4.0061287E1,0E0,5.5928955E0,6.912299E1,3.41758E1,3.2486076E0,5.982112E1,0E0,2.295343E2,4.933338E1,0E0,0E0,0E0,0E0,4.3168213E1,7.643152E1,0E0,3.062561E0,3.066101E1,2.0996094E1,7.775036E0,0E0,1.1614258E1,6.911133E0,0E0,0E0,0E0,0E0,0E0,0E0,0E0,0E0,0E0,0E0,0E0,0E0,0E0,0E0,0E0,0E0,0E0,0E0,0E0,0E0,0E0,0E0,0E0,0E0,0E0,0E0,0E0,0E0,0E0,0E0,0E0,0E0,0E0,0E0,0E0,0E0,0E0,0E0,0E0,0E0,0E0,0E0,0E0,0E0],"parents":[2147483647,0,0,1,1,2,2,3,3,4,4,5,5,6,6,7,7,8,8,9,9,10,10,11,11,12,12,13,13,14,14,15,15,16,16,17,17,18,18,19,19,20,20,21,21,22,22,23,23,24,24,25,25,26,26,27,27,29,29,30,30,31,31,32,32,33,33,34,34,35,35,36,36,37,37,39,39,40,40,41,41,42,42,43,43,45,45,46,46,51,51,52,52,54,54,55,55,56,56,57,57,59,59,60,60],"right_children":[2,4,6,8,10,12,14,16,18,20,22,24,26,28,30,32,34,36,38,40,42,44,46,48,50,52,54,56,-1,58,60,62,64,66,68,70,72,74,-1,76,78,80,82,84,-1,86,88,-1,-1,-1,-1,90,92,-1,94,96,98,100,-1,102,104,-1,-1,-1,-1,-1,-1,-1,-1,-1,-1,-1,-1,-1,-1,-1,-1,-1,-1,-1,-1,-1,-1,-1,-1,-1,-1,-1,-1,-1,-1,-1,-1,-1,-1,-1,-1,-1,-1,-1,-1,-1,-1,-1,-1],"split_conditions":[5.1E1,1E-1,2E-1,6E-1,1.9E1,2.3E1,4E-1,2.8E1,1.8E0,1.7E0,-7.0710677E-1,-4E-1,2.2E0,1.68E2,2.9E1,4.89E2,-8.660254E-1,7.8E0,6.3E1,2.82E2,5E-1,1.0247E3,1.7E0,6.23E2,7E-1,-5E-1,-6.2E1,-8E0,-2.5175452E-2,4E0,1E2,3.9E0,1.0059E3,1.25846615E1,1.0161E3,3.7181614E1,6.4E1,-1.03E1,-8.3179966E-2,1.6E1,5.1231556E0,-3.6E1,0E0,-6E0,-9.1980405E-2,7.9E1,5.9E1,-2.3074737E-3,7.7037305E-2,-8.971988E-2,-2.7202948E-3,1.0265E3,8.1E1,2.6905647E-2,8E0,6.643868E0,1.3E0,-2.7E1,-8.811845E-3,1.4E2,3.8E0,-8.812938E-2,-6.5734826E-2,8.60219E-3,-7.910977E-2,-5.1389884E-2,-1.4181589E-3,-5.301435E-2,-7.494762E-2,4.4606153E-2,-5.499652E-2,-3.610563E-2,4.4199962E-2,4.1735962E-2,-2.9495567E-2,-9.101379E-2,-6.535664E-2,3.1794854E-2,-7.139746E-2,7.338404E-2,-8.490839E-2,8.828187E-2,3.545223E-2,1.0520319E-2,4.3391254E-2,-5.827437E-2,-1.8223189E-2,3.5325177E-2,-8.623993E-2,6.204149E-2,-1.7238848E-2,2.2576973E-2,5.2987814E-2,8.325148E-2,6.816336E-2,3.2453166E-4,6.704312E-2,6.468571E-2,7.9878114E-2,1.3960414E-2,7.256852E-2,8.3972655E-2,4.7953974E-2,8.335221E-2,9.055894E-2],"split_indices":[53,47,45,65,49,49,45,49,65,63,1,8,65,44,49,55,1,17,51,55,47,4,65,55,46,1,31,50,0,14,49,20,4,11,4,40,37,35,0,49,12,31,14,14,0,37,31,0,0,0,0,4,49,0,34,11,65,50,0,44,65,0,0,0,0,0,0,0,0,0,0,0,0,0,0,0,0,0,0,0,0,0,0,0,0,0,0,0,0,0,0,0,0,0,0,0,0,0,0,0,0,0,0,0,0],"split_type":[0,0,0,0,0,0,0,0,0,0,0,0,0,0,0,0,0,0,0,0,0,0,0,0,0,0,0,0,0,0,0,0,0,0,0,0,0,0,0,0,0,0,0,0,0,0,0,0,0,0,0,0,0,0,0,0,0,0,0,0,0,0,0,0,0,0,0,0,0,0,0,0,0,0,0,0,0,0,0,0,0,0,0,0,0,0,0,0,0,0,0,0,0,0,0,0,0,0,0,0,0,0,0,0,0],"sum_hessian":[3.1447715E4,1.7839273E4,1.360844E4,1.4380411E4,3.4588625E3,2.3851829E3,1.1223258E4,1.38975205E4,4.828907E2,4.616188E2,2.997244E3,4.1600235E1,2.3435825E3,3.3302542E3,7.8930034E3,6.599767E3,7.2977534E3,2.4402037E2,2.3887032E2,4.3054807E2,3.1070745E1,5.933511E2,2.4038928E3,2.2955278E1,1.8644957E1,2.076858E3,2.6672464E2,3.3238523E3,6.4018564E0,4.5082535E1,7.847921E3,5.431145E3,1.1686217E3,1.1167026E3,6.181051E3,1.3000153E2,1.14018845E2,2.277307E2,1.1139631E1,3.206403E2,1.0990777E2,1.1847319E1,1.9223427E1,5.7364624E2,1.9704834E1,2.1884895E3,2.1540317E2,1.0101565E1,1.2853713E1,1.3476722E1,5.1682334E0,9.5207166E2,1.1247863E3,7.0837445E0,2.5964087E2,4.268289E2,2.8970232E3,3.475427E1,1.0328266E1,2.9640088E3,4.883912E3,5.2954585E3,1.3568686E2,3.3918922E1,1.1347028E3,6.148247E2,5.0187796E2,2.5201697E3,3.660881E3,1.0012728E1,1.1998881E2,3.2140064E1,8.187878E1,2.0670876E2,2.1021933E1,2.8254868E2,3.8091625E1,1.9027725E1,9.088004E1,5.1038527E0,6.7434654E0,1.237549E1,6.8479366E0,3.3908957E2,2.3455666E2,4.5032303E2,1.7381665E3,2.0766385E2,7.7393155E0,9.350746E2,1.6997053E1,2.7686517E2,8.479211E2,1.5368646E2,1.0595442E2,1.8143002E1,4.0868588E2,2.8457468E2,2.6124487E3,8.090471E0,2.6663797E1,2.936315E3,2.7693792E1,5.709778E2,4.3129346E3],"tree_param":{"num_deleted":"0","num_feature":"68","num_nodes":"105","size_leaf_vector":"1"}},{"base_weights":[-1.14643204E-4,-1.1580474E0,1.5059447E0,-1.341645E0,-3.8568306E-1,1.0233297E0,1.6131761E0,-1.4075576E0,-6.327266E-2,2.8007355E-1,-6.432865E-1,1.1903688E0,8.7313753E-1,1.493618E0,1.6882665E0,-1.6640917E0,-1.2151172E0,-5.0625736E-1,4.9153146E-1,4.1494018E-1,-9.049456E-1,-1.2404064E0,-3.1715187E-1,1.2857157E0,9.6401465E-1,2.0125249E-1,9.622301E-1,1.158459E0,1.5183871E0,1.6965626E0,1.3073595E0,-1.1685542E0,-1.6768444E0,-7.5639945E-1,-1.3621004E0,-8.198998E-1,3.6569187E-1,5.603273E-1,-8.738863E-2,-1.3882595E-1,6.4014137E-1,-1.2757772E0,7.4611336E-1,-4.3742615E-1,-1.3478723E0,-1.2313452E0,-1.9825098E-1,1.3961518E0,1.0336857E0,-4.4645246E-2,1.0139232E0,-5.7733464E-1,6.1422235E-1,1.8202716E-1,1.0078974E0,1.1976895E0,-2.7229784E-2,1.4104888E0,1.5740646E0,1.7119358E0,1.5415732E0,1.3756634E0,5.7255044E-3,-7.931485E-2,4.8204154E-2,-8.458531E-2,-6.0883116E-2,-7.230144E-2,-2.9490087E-2,-8.3813146E-2,-6.238971E-2,-2.8550303E-2,-7.651412E-2,4.2361133E-2,-6.58892E-2,9.3323534E-4,3.8933773E-2,-2.7920375E-2,4.6405647E-2,-2.6793156E-2,3.5728794E-2,-9.255092E-2,-2.3007287E-2,-1.2099444E-3,8.496582E-2,7.482505E-3,-7.6348E-2,-7.291943E-2,-4.0287785E-2,-2.2699127E-2,-7.852508E-2,-1.635912E-2,2.2732908E-2,7.0563845E-2,-9.729709E-3,-1.4585278E-2,5.6224674E-2,2.0928206E-2,5.5607945E-2,-9.5808186E-2,4.418665E-3,3.9851297E-2,-8.845586E-2,-4.1776206E-2,3.995871E-2,3.8467284E-2,5.4398593E-2,2.1690033E-2,6.351019E-2,7.09845E-2,-2.6810858E-2,4.2187303E-2,7.903473E-2,8.655395E-2,8.2922846E-2,7.792566E-2,4.1352935E-2,4.948592E-2,7.738933E-2],"categories":[],"categories_nodes":[],"categories_segments":[],"categories_sizes":[],"default_left":[0,0,0,1,0,0,0,0,0,0,0,0,0,0,0,0,0,0,0,0,1,0,0,0,0,0,0,0,0,1,1,0,1,0,0,0,0,0,0,1,0,0,0,0,0,0,1,1,0,0,0,0,0,0,0,0,0,0,0,0,0,0,0,0,0,0,0,0,0,0,0,0,0,0,0,0,0,0,0,0,0,0,0,0,0,0,0,0,0,0,0,0,0,0,0,0,0,0,0,0,0,0,0,0,0,0,0,0,0,0,0,0,0,0,0,0,0,0,0],"id":3,"left_children":[1,3,5,7,9,11,13,15,17,19,21,23,25,27,29,31,33,35,37,39,41,43,45,47,49,51,53,55,57,59,61,63,65,67,69,71,73,75,-1,77,79,81,83,85,87,89,91,93,95,-1,97,99,101,103,105,107,-1,109,111,113,115,117,-1,-1,-1,-1,-1,-1,-1,-1,-1,-1,-1,-1,-1,-1,-1,-1,-1,-1,-1,-1,-1,-1,-1,-1,-1,-1,-1,-1,-1,-1,-1,-1,-1,-1,-1,-1,-1,-1,-1,-1,-1,-1,-1,-1,-1,-1,-1,-1,-1,-1,-1,-1,-1,-1,-1,-1,-1],"loss_changes":[5.4407242E4,2.500412E3,6.998672E2,1.200459E3,5.814204E2,6.067578E1,9.675586E1,6.6666797E2,1.7224309E2,1.5152307E2,4.753745E2,2.3688965E1,7.772882E1,3.3578125E1,1.8988281E1,3.4441406E1,5.210664E2,1.0692386E2,4.8787094E1,1.0615886E2,6.0336998E1,7.368823E1,1.7157816E2,2.1046509E1,3.3329742E1,4.9883163E1,4.0695435E1,2.0736755E1,2.1452148E1,1.2896484E1,1.1889236E1,1.344655E2,3.625586E1,2.15198E2,2.0824707E2,4.9661987E1,8.513631E1,3.5697884E1,0E0,1.108183E2,5.3330704E1,3.6241333E1,1.3685979E1,6.6528046E1,4.4156128E1,4.701349E1,1.1809387E2,1.3984863E1,3.0858124E1,0E0,1.9331024E1,4.8315178E1,4.5409595E1,4.1462914E1,1.9735107E1,1.552298E1,0E0,2.5359863E1,1.1123047E1,2.9824219E0,5.8723145E0,7.6080933E0,0E0,0E0,0E0,0E0,0E0,0E0,0E0,0E0,0E0,0E0,0E0,0E0,0E0,0E0,0E0,0E0,0E0,0E0,0E0,0E0,0E0,0E0,0E0,0E0,0E0,0E0,0E0,0E0,0E0,0E0,0E0,0E0,0E0,0E0,0E0,0E0,0E0,0E0,0E0,0E0,0E0,0E0,0E0,0E0,0E0,0E0,0E0,0E0,0E0,0E0,0E0,0E0,0E0,0E0,0E0,0E0,0E0],"parents":[2147483647,0,0,1,1,2,2,3,3,4,4,5,5,6,6,7,7,8,8,9,9,10,10,11,11,12,12,13,13,14,14,15,15,16,16,17,17,18,18,19,19,20,20,21,21,22,22,23,23,24,24,25,25,26,26,27,27,28,28,29,29,30,30,31,31,32,32,33,33,34,34,35,35,36,36,37,37,39,39,40,40,41,41,42,42,43,43,44,44,45,45,46,46,47,47,48,48,50,50,51,51,52,52,53,53,54,54,55,55,57,57,58,58,59,59,60,60,61,61],"right_children":[2,4,6,8,10,12,14,16,18,20,22,24,26,28,30,32,34,36,38,40,42,44,46,48,50,52,54,56,58,60,62,64,66,68,70,72,74,76,-1,78,80,82,84,86,88,90,92,94,96,-1,98,100,102,104,106,108,-1,110,112,114,116,118,-1,-1,-1,-1,-1,-1,-1,-1,-1,-1,-1,-1,-1,-1,-1,-1,-1,-1,-1,-1,-1,-1,-1,-1,-1,-1,-1,-1,-1,-1,-1,-1,-1,-1,-1,-1,-1,-1,-1,-1,-1,-1,-1,-1,-1,-1,-1,-1,-1,-1,-1,-1,-1,-1,-1,-1,-1],"split_conditions":[5.1E1,1E-1,2E-1,5E-1,-5E-1,-5E-1,5.3E1,1E0,1.2E0,1.0215E3,2E0,1.0178E3,-1.4E1,6.666667E-1,7.684758E0,1.0059E3,-7.0710677E-1,4.29E2,1E0,6.3E1,4.842296E1,-5.357088E0,5E-1,3.2693856E0,-1.6E-1,1.57E1,5E-1,1.47E2,-2.5881904E-1,2.6E1,2.67E2,5.7E2,3.8E0,6.6E1,7.3E1,2.75E1,1.61E1,7E1,-8.738863E-2,5E-1,-5.8E1,1.81E1,5.020458E0,1.01E1,1.8E0,1.78E2,7.5E-1,1.69E1,-1.1110125E0,-4.4645246E-2,-7E-1,-4E-2,8.3E-1,-2E-1,-4E0,-1.6E0,-2.7229784E-2,1.3600108E1,-1.1E1,2.9E-1,3.02E1,5.94E2,5.7255044E-3,-7.931485E-2,4.8204154E-2,-8.458531E-2,-6.0883116E-2,-7.230144E-2,-2.9490087E-2,-8.3813146E-2,-6.238971E-2,-2.8550303E-2,-7.651412E-2,4.2361133E-2,-6.58892E-2,9.3323534E-4,3.8933773E-2,-2.7920375E-2,4.6405647E-2,-2.6793156E-2,3.5728794E-2,-9.255092E-2,-2.3007287E-2,-1.2099444E-3,8.496582E-2,7.482505E-3,-7.6348E-2,-7.291943E-2,-4.0287785E-2,-2.2699127E-2,-7.852508E-2,-1.635912E-2,2.2732908E-2,7.0563845E-2,-9.729709E-3,-1.4585278E-2,5.6224674E-2,2.0928206E-2,5.5607945E-2,-9.5808186E-2,4.418665E-3,3.9851297E-2,-8.845586E-2,-4.1776206E-2,3.995871E-2,3.8467284E-2,5.4398593E-2,2.1690033E-2,6.351019E-2,7.09845E-2,-2.6810858E-2,4.2187303E-2,7.903473E-2,8.655395E-2,8.2922846E-2,7.792566E-2,4.1352935E-2,4.948592E-2,7.738933E-2],"split_indices":[53,47,45,62,1,1,53,53,65,4,53,4,51,62,12,4,1,55,1,10,40,18,62,18,16,9,62,44,0,39,33,55,20,36,36,39,34,36,0,62,51,9,19,17,47,33,62,34,19,0,8,16,15,21,19,7,0,18,13,15,39,55,0,0,0,0,0,0,0,0,0,0,0,0,0,0,0,0,0,0,0,0,0,0,0,0,0,0,0,0,0,0,0,0,0,0,0,0,0,0,0,0,0,0,0,0,0,0,0,0,0,0,0,0,0,0,0,0,0],"split_type":[0,0,0,0,0,0,0,0,0,0,0,0,0,0,0,0,0,0,0,0,0,0,0,0,0,0,0,0,0,0,0,0,0,0,0,0,0,0,0,0,0,0,0,0,0,0,0,0,0,0,0,0,0,0,0,0,0,0,0,0,0,0,0,0,0,0,0,0,0,0,0,0,0,0,0,0,0,0,0,0,0,0,0,0,0,0,0,0,0,0,0,0,0,0,0,0,0,0,0,0,0,0,0,0,0,0,0,0,0,0,0,0,0,0,0,0,0,0,0],"sum_hessian":[3.1196348E4,1.763669E4,1.3559659E4,1.4248769E4,3.38792E3,2.4671707E3,1.1092488E4,1.3549956E4,6.988127E2,9.4504565E2,2.4428743E3,1.1644805E3,1.3026902E3,4.2877715E3,6.8047173E3,5.8043096E3,7.745646E3,3.8871225E2,3.1010046E2,8.491396E2,9.590605E1,8.6183356E2,1.5810406E3,8.157438E2,3.487368E2,1.530273E2,1.149663E3,2.9863568E2,3.9891355E3,6.656032E3,1.486848E2,1.4814677E2,5.656163E3,1.8812634E3,5.864383E3,2.8600858E2,1.02703674E2,3.016283E2,8.472182E0,2.4547064E2,6.0366895E2,7.855115E1,1.7354902E1,1.02436104E2,7.5939746E2,1.8079153E2,1.4002491E3,5.6377075E2,2.5197298E2,8.633157E0,3.401036E2,5.281434E1,1.0021295E2,6.396847E1,1.0856945E3,2.9225885E2,6.376846E0,1.3673878E3,2.6217478E3,6.04568E3,6.103525E2,1.4040779E2,8.277005E0,1.24134315E2,2.4012465E1,5.4760234E3,1.8013934E2,3.6443E2,1.5168334E3,1.5606125E3,4.30377E3,2.1324083E2,7.276773E1,8.029324E1,2.2410429E1,8.7100075E1,2.1452821E2,1.7659407E2,6.8876564E1,3.548545E1,5.681835E2,4.5247425E1,3.3303722E1,1.0079255E1,7.275648E0,6.706835E1,3.5367744E1,6.2924445E2,1.3015298E2,5.571759E1,1.25073944E2,1.169882E3,2.3036716E2,5.586348E2,5.1359386E0,1.5944254E1,2.3602873E2,4.9059055E1,2.9104456E2,1.6965748E1,3.584859E1,9.373125E1,6.4817014E0,2.395523E1,4.001324E1,2.7582755E2,8.0986694E2,2.6063084E1,2.6619577E2,1.3612759E3,6.1119394E0,2.4875916E1,2.5968718E3,4.4275576E3,1.6181221E3,5.9492645E2,1.5425973E1,4.556664E1,9.4841156E1],"tree_param":{"num_deleted":"0","num_feature":"68","num_nodes":"119","size_leaf_vector":"1"}},{"base_weights":[-7.915107E-3,-1.1043426E0,1.4443877E0,-1.2859874E0,-3.649432E-1,9.8042655E-1,1.5463995E0,-1.3504101E0,-5.477233E-2,-6.20194E-1,2.0880431E-1,4.6404263E-1,1.0207428E0,1.3978748E0,1.6088059E0,-1.4614161E0,-1.0653559E0,-5.362431E-1,5.2705795E-1,-7.5486964E-1,3.651488E-1,-2.9111657E-1,4.959149E-1,-6.2083346E-1,7.276601E-1,8.5427856E-1,1.1155463E0,1.2596914E0,1.4710288E0,1.6184168E0,1.2525482E0,-1.5367495E0,-1.0548801E0,-1.5902596E0,-9.0709543E-1,-2.3061602E-1,-1.16376E0,-4.6328563E-2,7.7150667E-1,-1.009288E0,-4.4684505E-1,-8.35175E-2,4.345118E-1,-1.141219E0,-5.6531806E-2,2.0705563E-1,7.4660367E-1,-9.403678E-2,1.8751784E-1,-4.782515E-2,8.5485375E-1,7.3695195E-1,1.1882727E0,1.1650643E0,6.558488E-1,4.9696606E-1,1.3005345E0,7.2372097E-1,1.4869847E0,1.5052643E0,1.6361762E0,1.3194361E0,6.086693E-1,-7.7289596E-2,-2.2254381E-2,-6.0710467E-2,2.8456682E-3,-8.096934E-2,-1.0080051E-2,-3.0714056E-2,-5.7195313E-2,-4.31307E-3,-8.580568E-2,8.216916E-2,-6.8129025E-2,1.046016E-2,-8.9474216E-2,4.3339552E-3,5.1104277E-2,-6.2309373E-2,-2.7782777E-2,-4.991324E-2,-1.1580465E-2,2.5159333E-2,-8.208376E-2,5.8273446E-2,-6.644976E-2,2.8555516E-2,-2.187829E-2,-6.932788E-2,1.6894124E-2,-7.88351E-3,4.8385218E-2,4.8496917E-2,-8.608518E-2,5.717216E-2,1.8276729E-2,4.8533555E-2,2.6840243E-2,6.1476152E-2,-1.4838067E-2,4.9386322E-2,6.529361E-2,-4.0044725E-2,4.2102937E-2,5.1120794E-3,6.18407E-2,6.8373315E-2,4.8308328E-2,-1.8194633E-2,5.279989E-2,3.3535216E-2,7.4652545E-2,7.612085E-2,3.8671684E-2,7.0070446E-2,8.218901E-2,3.8929153E-2,7.059344E-2,5.8529675E-2,-3.0437274E-2],"categories":[],"categories_nodes":[],"categories_segments":[],"categories_sizes":[],"default_left":[0,0,0,1,0,0,0,0,0,1,0,0,0,0,0,0,0,0,0,0,0,0,0,0,0,0,0,0,0,0,0,1,0,1,0,0,0,0,0,0,0,0,0,0,0,0,0,0,0,0,0,0,0,0,0,0,0,0,0,1,0,0,0,0,0,0,0,0,0,0,0,0,0,0,0,0,0,0,0,0,0,0,0,0,0,0,0,0,0,0,0,0,0,0,0,0,0,0,0,0,0,0,0,0,0,0,0,0,0,0,0,0,0,0,0,0,0,0,0,0,0],"id":4,"left_children":[1,3,5,7,9,11,13,15,17,19,21,23,25,27,29,31,33,35,37,39,41,43,45,47,49,51,53,55,57,59,61,63,65,67,69,71,73,75,77,79,81,-1,83,85,87,89,91,-1,93,-1,95,97,99,101,103,105,107,109,111,113,115,117,119,-1,-1,-1,-1,-1,-1,-1,-1,-1,-1,-1,-1,-1,-1,-1,-1,-1,-1,-1,-1,-1,-1,-1,-1,-1,-1,-1,-1,-1,-1,-1,-1,-1,-1,-1,-1,-1,-1,-1,-1,-1,-1,-1,-1,-1,-1,-1,-1,-1,-1,-1,-1,-1,-1,-1,-1,-1,-1],"loss_changes":[4.912616E4,2.3604531E3,6.263789E2,1.1191406E3,5.081305E2,4.9239258E1,9.827734E1,4.2252734E2,1.9716608E2,3.1891925E2,1.5354192E2,5.0643196E1,3.3894043E1,3.048877E1,2.3888672E1,2.936211E2,3.108672E2,7.3461426E1,4.4771423E1,1.6496411E2,4.1445133E1,7.7654884E1,4.8937912E1,3.592978E1,3.1160759E1,3.0688904E1,3.1176758E1,3.4196777E1,2.378125E1,1.2189453E1,7.8637085E0,7.944531E1,2.679956E2,3.468701E1,1.9975342E2,5.5504704E1,7.2420395E1,4.3322674E1,3.8168518E1,1.23359375E2,1.133E2,0E0,4.0718998E1,3.8066566E1,7.366953E1,6.64901E1,7.2828E1,0E0,3.451764E1,0E0,1.81176E1,2.7516266E1,1.3250214E1,3.0254639E1,3.8576607E1,1.6936352E1,2.2310791E1,1.7093946E1,8.973633E0,1.1442139E1,8.859375E0,7.9482727E0,1.5378416E1,0E0,0E0,0E0,0E0,0E0,0E0,0E0,0E0,0E0,0E0,0E0,0E0,0E0,0E0,0E0,0E0,0E0,0E0,0E0,0E0,0E0,0E0,0E0,0E0,0E0,0E0,0E0,0E0,0E0,0E0,0E0,0E0,0E0,0E0,0E0,0E0,0E0,0E0,0E0,0E0,0E0,0E0,0E0,0E0,0E0,0E0,0E0,0E0,0E0,0E0,0E0,0E0,0E0,0E0,0E0,0E0,0E0,0E0],"parents":[2147483647,0,0,1,1,2,2,3,3,4,4,5,5,6,6,7,7,8,8,9,9,10,10,11,11,12,12,13,13,14,14,15,15,16,16,17,17,18,18,19,19,20,20,21,21,22,22,23,23,24,24,25,25,26,26,27,27,28,28,29,29,30,30,31,31,32,32,33,33,34,34,35,35,36,36,37,37,38,38,39,39,40,40,42,42,43,43,44,44,45,45,46,46,48,48,50,50,51,51,52,52,53,53,54,54,55,55,56,56,57,57,58,58,59,59,60,60,61,61,62,62],"right_children":[2,4,6,8,10,12,14,16,18,20,22,24,26,28,30,32,34,36,38,40,42,44,46,48,50,52,54,56,58,60,62,64,66,68,70,72,74,76,78,80,82,-1,84,86,88,90,92,-1,94,-1,96,98,100,102,104,106,108,110,112,114,116,118,120,-1,-1,-1,-1,-1,-1,-1,-1,-1,-1,-1,-1,-1,-1,-1,-1,-1,-1,-1,-1,-1,-1,-1,-1,-1,-1,-1,-1,-1,-1,-1,-1,-1,-1,-1,-1,-1,-1,-1,-1,-1,-1,-1,-1,-1,-1,-1,-1,-1,-1,-1,-1,-1,-1,-1,-1,-1,-1],"split_conditions":[1E0,1E-1,2E-1,5E-1,1E0,5E-1,4E-1,1E0,1.2E0,7.5E-1,-6E0,4.6E1,-2.5881904E-1,-2.5881904E-1,7.359798E0,5.74E2,6.4E1,2.72E1,1E0,0E0,4E-1,9.62006E0,-2.5881904E-1,5E-1,1.0114E3,1.5E0,1.0218E3,4E-1,6.6E1,1E0,5E-1,5.7E0,6.5E1,3E-1,1.0161E3,1.6E0,-1.2E0,2.1E0,7.1E1,1.93E2,9.2E1,-8.35175E-2,2.0438446E1,-1.2E0,1.013E3,6.6E1,9.126381E0,-9.403678E-2,1.7853571E-1,-4.782515E-2,7.5870376E0,6.5E0,1.0214E3,-4E-1,-1E0,6.28E2,5.8257403E0,2.2E1,-1.3E1,2.79E1,7.5E-1,4.74E2,4.63E2,-7.7289596E-2,-2.2254381E-2,-6.0710467E-2,2.8456682E-3,-8.096934E-2,-1.0080051E-2,-3.0714056E-2,-5.7195313E-2,-4.31307E-3,-8.580568E-2,8.216916E-2,-6.8129025E-2,1.046016E-2,-8.9474216E-2,4.3339552E-3,5.1104277E-2,-6.2309373E-2,-2.7782777E-2,-4.991324E-2,-1.1580465E-2,2.5159333E-2,-8.208376E-2,5.8273446E-2,-6.644976E-2,2.8555516E-2,-2.187829E-2,-6.932788E-2,1.6894124E-2,-7.88351E-3,4.8385218E-2,4.8496917E-2,-8.608518E-2,5.717216E-2,1.8276729E-2,4.8533555E-2,2.6840243E-2,6.1476152E-2,-1.4838067E-2,4.9386322E-2,6.529361E-2,-4.0044725E-2,4.2102937E-2,5.1120794E-3,6.18407E-2,6.8373315E-2,4.8308328E-2,-1.8194633E-2,5.279989E-2,3.3535216E-2,7.4652545E-2,7.612085E-2,3.8671684E-2,7.0070446E-2,8.218901E-2,3.8929153E-2,7.059344E-2,5.8529675E-2,-3.0437274E-2],"split_indices":[54,47,45,62,48,62,45,52,65,62,51,55,0,0,12,55,36,39,62,51,34,11,0,21,4,20,4,65,36,52,6,20,10,63,4,6,5,20,36,55,36,0,11,8,4,37,11,0,64,0,19,17,4,19,51,55,12,55,13,39,62,55,55,0,0,0,0,0,0,0,0,0,0,0,0,0,0,0,0,0,0,0,0,0,0,0,0,0,0,0,0,0,0,0,0,0,0,0,0,0,0,0,0,0,0,0,0,0,0,0,0,0,0,0,0,0,0,0,0,0,0],"split_type":[0,0,0,0,0,0,0,0,0,0,0,0,0,0,0,0,0,0,0,0,0,0,0,0,0,0,0,0,0,0,0,0,0,0,0,0,0,0,0,0,0,0,0,0,0,0,0,0,0,0,0,0,0,0,0,0,0,0,0,0,0,0,0,0,0,0,0,0,0,0,0,0,0,0,0,0,0,0,0,0,0,0,0,0,0,0,0,0,0,0,0,0,0,0,0,0,0,0,0,0,0,0,0,0,0,0,0,0,0,0,0,0,0,0,0,0,0,0,0,0,0],"sum_hessian":[3.0849484E4,1.757865E4,1.3270833E4,1.4111154E4,3.467497E3,2.394043E3,1.087679E4,1.3409339E4,7.018149E2,2.39991E3,1.067587E3,1.7446196E2,2.219581E3,3.2254255E3,7.6513643E3,9.647806E3,3.7615334E3,3.841647E2,3.1765018E2,2.1116301E3,2.8827994E2,3.8932568E2,6.782614E2,3.3766567E1,1.4069539E2,8.094128E2,1.4101682E3,1.1232527E3,2.1021729E3,7.4466494E3,2.0471483E2,8.1369556E3,1.5108499E3,8.69147E2,2.8923865E3,2.5936832E2,1.24796394E2,9.506475E1,2.2258542E2,1.1550197E3,9.5661035E2,8.691767E0,2.7958817E2,8.327123E1,3.0605444E2,3.161725E2,3.6208893E2,1.2727098E1,2.103947E1,9.366599E0,1.313288E2,6.0159E2,2.0782275E2,1.2714569E3,1.387113E2,5.7885563E1,1.0653672E3,4.5045876E1,2.057127E3,1.0226084E3,6.424041E3,1.8435867E2,2.0356161E1,8.069607E3,6.734873E1,1.3214701E3,1.8937973E2,8.510578E2,1.808918E1,1.295066E3,1.5973206E3,2.37422E2,2.1946321E1,7.7404575E0,1.1705593E2,8.362819E1,1.1436562E1,6.0094154E1,1.6249127E2,7.5747675E2,3.9754297E2,2.6741315E2,6.891972E2,2.7141623E2,8.171938E0,5.8363876E0,7.7434845E1,1.15326485E2,1.9072797E2,2.3200642E1,2.9297183E2,7.1106606E1,2.9098233E2,1.5309722E1,5.7297482E0,8.1638855E1,4.9689934E1,2.7551343E2,3.260766E2,2.0243892E2,5.3838224E0,5.66595E2,7.0486194E2,1.5286335E1,1.2342497E2,3.8577183E1,1.9308382E1,8.8485364E2,1.805135E2,1.0448755E1,3.4597122E1,1.6119238E1,2.0410077E3,9.9800006E2,2.4608337E1,2.077666E2,6.2162744E3,2.8441816E1,1.5591685E2,1.40100975E1,6.346064E0],"tree_param":{"num_deleted":"0","num_feature":"68","num_nodes":"121","size_leaf_vector":"1"}},{"base_weights":[1.9371797E-3,-1.0465297E0,1.3923734E0,-1.2231668E0,-3.3307806E-1,9.3617976E-1,1.4932405E0,-1.2894127E0,1.6337112E-2,-8.9692926E-1,-1.1357956E-1,-6.5074056E-1,9.6024096E-1,1.3529183E0,1.5530063E0,-1.5641578E0,-1.0825794E0,-4.1008437E-1,5.314884E-1,-7.6763645E-2,-1.1776192E0,-1.0790683E0,1.9286893E-3,7.99969E-1,-1.4602094E0,7.600477E-1,1.0688691E0,-9.496607E-2,1.3607974E0,5.356161E-1,1.5565995E0,-1.5701165E0,-7.01306E-1,-6.195876E-1,-1.2345227E0,-6.850625E-1,6.0157996E-1,7.526057E-1,-7.8985244E-2,-5.998266E-1,5.506625E-1,-1.2728621E0,2.037006E-1,7.6511276E-1,-1.2473838E0,-1.22788705E-1,6.283763E-1,-7.2350875E-3,7.056193E-2,-9.1789685E-2,-4.0283133E-3,-1.8957214E-1,8.275083E-1,1.0871617E0,-2.667032E-1,5.7326075E-2,-1.0005998E-1,1.366299E0,-1.630538E-2,-5.4041E-1,1.3369637E0,1.4413412E0,1.5826032E0,-6.3613795E-2,-7.92025E-2,3.251798E-2,-6.46449E-2,-1.9965345E-2,-5.8239978E-2,-2.887768E-2,-6.471612E-2,-4.803552E-2,6.881293E-3,-3.0392006E-2,5.6429464E-2,2.15216E-2,6.3679226E-2,-2.6914764E-2,4.854745E-2,-4.9251046E-2,5.8923632E-2,3.4172956E-2,-7.840197E-2,-3.037253E-2,-7.106062E-2,-7.901492E-2,3.0743217E-2,7.191166E-2,-2.3217259E-2,-3.0493563E-2,-7.313437E-2,1.1544105E-2,-1.6857479E-2,7.8270305E-3,4.4619225E-2,4.716087E-2,-4.5930788E-2,4.317518E-2,-2.9898321E-2,5.4863196E-2,-4.2487353E-2,-6.3761376E-2,6.2911324E-2,5.6937587E-2,7.01893E-2,5.6285083E-2,-9.378209E-2,7.910557E-2,3.803367E-2,7.515723E-2,6.4706735E-2,8.014705E-2,7.442815E-2],"categories":[],"categories_nodes":[],"categories_segments":[],"categories_sizes":[],"default_left":[0,0,0,1,0,0,0,0,0,0,0,0,0,0,0,1,0,0,0,0,0,0,1,0,0,0,0,0,1,0,0,0,0,0,0,0,0,0,0,1,1,0,0,0,0,0,0,0,0,0,0,0,1,0,1,0,0,0,0,0,0,0,0,0,0,0,0,0,0,0,0,0,0,0,0,0,0,0,0,0,0,0,0,0,0,0,0,0,0,0,0,0,0,0,0,0,0,0,0,0,0,0,0,0,0,0,0,0,0,0,0,0,0],"id":5,"left_children":[1,3,5,7,9,11,13,15,17,19,21,23,25,27,29,31,33,35,37,39,41,43,45,47,49,51,53,55,57,59,61,63,65,67,69,71,73,75,77,79,81,83,85,87,89,91,93,-1,-1,-1,-1,95,97,99,101,-1,-1,103,-1,105,107,109,111,-1,-1,-1,-1,-1,-1,-1,-1,-1,-1,-1,-1,-1,-1,-1,-1,-1,-1,-1,-1,-1,-1,-1,-1,-1,-1,-1,-1,-1,-1,-1,-1,-1,-1,-1,-1,-1,-1,-1,-1,-1,-1,-1,-1,-1,-1,-1,-1,-1,-1],"loss_changes":[4.4578816E4,2.1964082E3,6.032578E2,1.1475137E3,4.2815735E2,9.165234E1,8.7875E1,7.518047E2,1.5615839E2,2.229848E2,2.7808362E2,4.3659607E1,5.0066406E1,3.702832E1,2.6527344E1,2.7949219E1,5.3165137E2,1.0858346E2,4.359355E1,8.184585E1,9.537604E1,8.370422E1,1.7412999E2,8.150032E0,1.1882736E1,5.3373016E1,3.749048E1,4.5716194E1,3.0303223E1,2.5086155E1,1.9935547E1,2.116504E1,3.367199E1,2.2430658E2,2.2295996E2,6.9666824E1,5.3991795E1,3.8994156E1,4.2148174E1,9.431061E1,3.2876095E1,6.564441E1,3.56267E1,1.9677925E1,3.2471252E1,1.4095303E2,4.5854385E1,0E0,0E0,0E0,0E0,4.6903343E1,4.0306274E1,3.0289795E1,3.429824E1,0E0,0E0,2.5407715E1,0E0,3.0395008E1,8.908806E-1,1.0467529E1,9.008789E0,0E0,0E0,0E0,0E0,0E0,0E0,0E0,0E0,0E0,0E0,0E0,0E0,0E0,0E0,0E0,0E0,0E0,0E0,0E0,0E0,0E0,0E0,0E0,0E0,0E0,0E0,0E0,0E0,0E0,0E0,0E0,0E0,0E0,0E0,0E0,0E0,0E0,0E0,0E0,0E0,0E0,0E0,0E0,0E0,0E0,0E0,0E0,0E0,0E0,0E0],"parents":[2147483647,0,0,1,1,2,2,3,3,4,4,5,5,6,6,7,7,8,8,9,9,10,10,11,11,12,12,13,13,14,14,15,15,16,16,17,17,18,18,19,19,20,20,21,21,22,22,23,23,24,24,25,25,26,26,27,27,28,28,29,29,30,30,31,31,32,32,33,33,34,34,35,35,36,36,37,37,38,38,39,39,40,40,41,41,42,42,43,43,44,44,45,45,46,46,51,51,52,52,53,53,54,54,57,57,59,59,60,60,61,61,62,62],"right_children":[2,4,6,8,10,12,14,16,18,20,22,24,26,28,30,32,34,36,38,40,42,44,46,48,50,52,54,56,58,60,62,64,66,68,70,72,74,76,78,80,82,84,86,88,90,92,94,-1,-1,-1,-1,96,98,100,102,-1,-1,104,-1,106,108,110,112,-1,-1,-1,-1,-1,-1,-1,-1,-1,-1,-1,-1,-1,-1,-1,-1,-1,-1,-1,-1,-1,-1,-1,-1,-1,-1,-1,-1,-1,-1,-1,-1,-1,-1,-1,-1,-1,-1,-1,-1,-1,-1,-1,-1,-1,-1,-1,-1,-1,-1],"split_conditions":[1E0,1E-1,2E-1,5E-1,4E1,2.2E1,4E-1,2.1E1,1.2E0,-5E-1,5E-1,-6E-1,-2.5881904E-1,5.1E1,2.5E1,8.6E1,-7.0710677E-1,8.9E1,4.4E0,2.23E1,1.2E0,-6.9E1,7.5E-1,-7E-1,8E-1,5E-1,1.0276E3,4.4E1,1.54E2,2.3E0,8.8E1,1.0083E3,3.5E0,1.0202E3,1.0083E3,4.42E2,6.3E0,1.76E1,1.35E0,2.3E0,6.4E0,-3.5767217E0,1.9E0,5E-2,-5E-1,-2.5881904E-1,-2.5881904E-1,-7.2350875E-3,7.056193E-2,-9.1789685E-2,-4.0283133E-3,8.1E0,5E0,1.1709052E1,4.7E1,5.7326075E-2,-1.0005998E-1,-6E0,-1.630538E-2,1.0102E3,-4.7E1,-2.5881904E-1,3.4E-1,-6.3613795E-2,-7.92025E-2,3.251798E-2,-6.46449E-2,-1.9965345E-2,-5.8239978E-2,-2.887768E-2,-6.471612E-2,-4.803552E-2,6.881293E-3,-3.0392006E-2,5.6429464E-2,2.15216E-2,6.3679226E-2,-2.6914764E-2,4.854745E-2,-4.9251046E-2,5.8923632E-2,3.4172956E-2,-7.840197E-2,-3.037253E-2,-7.106062E-2,-7.901492E-2,3.0743217E-2,7.191166E-2,-2.3217259E-2,-3.0493563E-2,-7.313437E-2,1.1544105E-2,-1.6857479E-2,7.8270305E-3,4.4619225E-2,4.716087E-2,-4.5930788E-2,4.317518E-2,-2.9898321E-2,5.4863196E-2,-4.2487353E-2,-6.3761376E-2,6.2911324E-2,5.6937587E-2,7.01893E-2,5.6285083E-2,-9.378209E-2,7.910557E-2,3.803367E-2,7.515723E-2,6.4706735E-2,8.014705E-2,7.442815E-2],"split_indices":[54,47,45,62,49,49,45,49,65,1,62,8,0,10,49,37,1,37,38,9,46,31,62,8,8,62,4,10,44,21,49,4,17,4,4,55,17,9,15,65,38,18,65,64,1,1,0,0,0,0,0,32,38,12,44,0,0,50,0,4,51,1,15,0,0,0,0,0,0,0,0,0,0,0,0,0,0,0,0,0,0,0,0,0,0,0,0,0,0,0,0,0,0,0,0,0,0,0,0,0,0,0,0,0,0,0,0,0,0,0,0,0,0],"split_type":[0,0,0,0,0,0,0,0,0,0,0,0,0,0,0,0,0,0,0,0,0,0,0,0,0,0,0,0,0,0,0,0,0,0,0,0,0,0,0,0,0,0,0,0,0,0,0,0,0,0,0,0,0,0,0,0,0,0,0,0,0,0,0,0,0,0,0,0,0,0,0,0,0,0,0,0,0,0,0,0,0,0,0,0,0,0,0,0,0,0,0,0,0,0,0,0,0,0,0,0,0,0,0,0,0,0,0,0,0,0,0,0,0],"sum_hessian":[3.057694E4,1.7432234E4,1.3144705E4,1.3972142E4,3.460092E3,2.3821526E3,1.0762553E4,1.3263316E4,7.088245E2,9.685427E2,2.4915493E3,3.5128174E1,2.3470244E3,3.2223137E3,7.540239E3,5.693441E3,7.569876E3,3.8781598E2,3.2100858E2,2.4736916E2,7.211736E2,2.654318E2,2.2261177E3,1.2540896E1,2.258728E1,8.2870404E2,1.5183203E3,1.7311903E1,3.2050017E3,2.7162834E1,7.513076E3,5.653464E3,3.997732E1,1.8718457E3,5.6980303E3,3.0526443E2,8.255154E1,2.356028E2,8.540578E1,1.3501517E2,1.1235399E2,6.747968E2,4.637673E1,2.18532E1,2.4357858E2,1.8570483E3,3.6906927E2,5.1624317E0,7.378464E0,1.7437191E1,5.1500893E0,5.4747635E1,7.739564E2,1.4980631E3,2.0257174E1,1.0693527E1,6.618376E0,3.1948315E3,1.0170154E1,1.1680045E1,1.5482789E1,1.394109E3,6.1189673E3,2.571061E2,5.3963574E3,1.2088721E1,2.7888601E1,1.3345616E3,5.37284E2,4.7641263E2,5.2216177E3,2.2861803E2,7.66464E1,2.4950394E1,5.7601143E1,1.4682454E2,8.877826E1,5.9819405E1,2.5586378E1,1.1138959E2,2.3625587E1,1.06409065E2,5.944923E0,1.2406841E2,5.507284E2,8.108417E0,3.8268314E1,1.4064502E1,7.7887E0,6.257917E1,1.809994E2,7.005982E2,1.1564501E3,1.3312314E2,2.3594612E2,2.1268951E1,3.3478683E1,7.5534717E2,1.8609241E1,1.4907728E3,7.290291E0,1.2331175E1,7.925998E0,4.5669788E2,2.7381338E3,5.232689E0,6.4473557E0,9.515945E0,5.9668436E0,9.749103E2,4.191987E2,5.0168716E3,1.1020955E3],"tree_param":{"num_deleted":"0","num_feature":"68","num_nodes":"113","size_leaf_vector":"1"}},{"base_weights":[-3.705428E-3,-1.0153073E0,1.3397356E0,-1.1408854E0,-1.1628025E-2,8.8632196E-1,1.4398504E0,-1.2042443E0,5.7204198E-2,5.149018E-1,-1.7182066E-1,-4.0400222E-1,9.101492E-1,1.3274037E0,1.512441E0,-1.4708552E0,-9.83063E-1,-1.7494532E-1,6.6487044E-1,5.733333E-1,-8.519698E-2,-1.1455816E0,-6.0947157E-2,6.701316E-1,-1.3748235E0,1.1427532E0,8.467102E-1,1.0917516E0,1.3608211E0,6.795539E-1,1.5167942E0,-1.5108207E0,-1.2601763E0,-3.9503938E-1,-1.0856888E0,-4.138492E-1,4.2578956E-1,7.4775606E-1,-7.829365E-2,6.3312083E-1,-8.264058E-2,-1.5821179E0,-3.751171E-1,-3.3285576E-1,2.075861E-1,-1.8667074E-2,1.1332362E0,-8.724109E-2,-2.9391542E-3,6.8834543E-1,1.2598193E0,8.569741E-1,-9.1599874E-2,1.4166636E0,9.5269614E-1,1.0644957E0,1.3814356E0,9.6427417E-1,-2.9198308E-2,1.534791E0,1.3581418E0,-7.625705E-2,-5.08877E-2,2.4881706E-2,-6.5987274E-2,-3.2681152E-2,1.7116329E-2,-4.1910943E-2,-6.371803E-2,-6.9290094E-2,-1.2925166E-2,-1.1272192E-3,4.8787504E-2,4.159425E-2,-4.5165706E-2,-8.3018206E-2,3.3778805E-2,-7.4960114E-3,-8.4019154E-2,4.2993147E-2,-5.8315303E-2,-2.0968368E-2,3.1823635E-2,2.9171541E-2,-5.555886E-3,2.7131299E-2,7.7202715E-2,4.1528277E-2,-4.2605724E-2,6.818765E-2,4.9883135E-2,1.2575211E-2,4.4770237E-2,7.272613E-2,3.5583716E-2,-2.3433515E-4,5.0430663E-2,-3.8184058E-2,5.6034226E-2,6.952353E-2,3.6166187E-2,-1.2868071E-2,6.1842855E-2,7.343685E-2,7.8179136E-2,6.8574205E-2,6.5839933E-3],"categories":[],"categories_nodes":[],"categories_segments":[],"categories_sizes":[],"default_left":[0,0,0,1,0,0,0,0,0,0,0,0,0,0,0,0,0,0,0,0,0,0,0,0,0,0,1,0,0,0,1,1,0,0,0,0,0,0,0,0,0,0,0,0,0,0,0,0,0,0,0,0,0,1,0,0,0,0,0,0,0,0,0,0,0,0,0,0,0,0,0,0,0,0,0,0,0,0,0,0,0,0,0,0,0,0,0,0,0,0,0,0,0,0,0,0,0,0,0,0,0,0,0,0,0,0,0],"id":6,"left_children":[1,3,5,7,9,11,13,15,17,19,21,23,25,27,29,31,33,35,37,39,-1,41,43,45,47,49,51,53,55,57,59,61,63,65,67,69,71,73,-1,75,-1,77,79,81,83,-1,85,-1,-1,87,89,91,-1,93,95,97,99,101,-1,103,105,-1,-1,-1,-1,-1,-1,-1,-1,-1,-1,-1,-1,-1,-1,-1,-1,-1,-1,-1,-1,-1,-1,-1,-1,-1,-1,-1,-1,-1,-1,-1,-1,-1,-1,-1,-1,-1,-1,-1,-1,-1,-1,-1,-1,-1,-1],"loss_changes":[4.0907117E4,2.164086E3,5.854043E2,1.1586621E3,1.612033E2,7.240088E1,8.414258E1,8.530625E2,1.0842279E2,5.8660004E1,1.5806169E2,4.5901787E1,3.276123E1,3.105127E1,2.205371E1,5.3140625E1,4.7770654E2,7.996307E1,4.037233E1,5.885959E1,0E0,4.9555817E1,9.625134E1,1.0680419E1,1.09155655E1,2.4977356E1,5.125647E1,2.2017883E1,2.0528809E1,1.3317863E1,1.5878906E1,3.7148438E1,1.1111084E2,2.2513455E2,3.1375195E2,5.962937E1,3.9212276E1,2.9298424E1,0E0,4.2359467E1,0E0,1.2956818E1,5.5292885E1,5.5172615E1,7.953927E1,0E0,2.570385E0,0E0,0E0,2.3195385E1,8.970947E0,4.1648804E1,0E0,2.8668518E0,1.986618E1,2.5701294E1,1.9004883E1,1.0169739E1,0E0,8.305664E0,1.0478149E1,0E0,0E0,0E0,0E0,0E0,0E0,0E0,0E0,0E0,0E0,0E0,0E0,0E0,0E0,0E0,0E0,0E0,0E0,0E0,0E0,0E0,0E0,0E0,0E0,0E0,0E0,0E0,0E0,0E0,0E0,0E0,0E0,0E0,0E0,0E0,0E0,0E0,0E0,0E0,0E0,0E0,0E0,0E0,0E0,0E0,0E0],"parents":[2147483647,0,0,1,1,2,2,3,3,4,4,5,5,6,6,7,7,8,8,9,9,10,10,11,11,12,12,13,13,14,14,15,15,16,16,17,17,18,18,19,19,21,21,22,22,23,23,24,24,25,25,26,26,27,27,28,28,29,29,30,30,31,31,32,32,33,33,34,34,35,35,36,36,37,37,39,39,41,41,42,42,43,43,44,44,46,46,49,49,50,50,51,51,53,53,54,54,55,55,56,56,57,57,59,59,60,60],"right_children":[2,4,6,8,10,12,14,16,18,20,22,24,26,28,30,32,34,36,38,40,-1,42,44,46,48,50,52,54,56,58,60,62,64,66,68,70,72,74,-1,76,-1,78,80,82,84,-1,86,-1,-1,88,90,92,-1,94,96,98,100,102,-1,104,106,-1,-1,-1,-1,-1,-1,-1,-1,-1,-1,-1,-1,-1,-1,-1,-1,-1,-1,-1,-1,-1,-1,-1,-1,-1,-1,-1,-1,-1,-1,-1,-1,-1,-1,-1,-1,-1,-1,-1,-1,-1,-1,-1,-1,-1,-1],"split_conditions":[1E-1,1E-1,2E-1,4E-1,-7.0710677E-1,2.3E1,5.3E1,2.8E1,3E0,1.5142159E1,2.3E1,-4E-1,-8.660254E-1,-8E0,2.9E1,5.33E2,-8.660254E-1,2.9E0,6.3E1,1.0244E3,-8.519698E-2,1.4E0,8.5E1,8.4E-1,1.0187E3,-4E0,5.88E1,-8.660254E-1,7.5E-1,3E-1,2.59E1,3.9E0,1.0059E3,1E0,1.0162E3,1.6E1,2E-1,1.3E0,-7.829365E-2,-1.4E1,-8.264058E-2,-9.325751E0,1.8E0,3.8E0,-3.747697E-1,-1.8667074E-2,5E-1,-8.724109E-2,-2.9391542E-3,1.0224E3,1.0182E3,5E-1,-9.1599874E-2,2.07E1,2.9E1,-1.3E1,1.1184249E1,-4.9E1,-2.9198308E-2,9.9E1,1.83E1,-7.625705E-2,-5.08877E-2,2.4881706E-2,-6.5987274E-2,-3.2681152E-2,1.7116329E-2,-4.1910943E-2,-6.371803E-2,-6.9290094E-2,-1.2925166E-2,-1.1272192E-3,4.8787504E-2,4.159425E-2,-4.5165706E-2,-8.3018206E-2,3.3778805E-2,-7.4960114E-3,-8.4019154E-2,4.2993147E-2,-5.8315303E-2,-2.0968368E-2,3.1823635E-2,2.9171541E-2,-5.555886E-3,2.7131299E-2,7.7202715E-2,4.1528277E-2,-4.2605724E-2,6.818765E-2,4.9883135E-2,1.2575211E-2,4.4770237E-2,7.272613E-2,3.5583716E-2,-2.3433515E-4,5.0430663E-2,-3.8184058E-2,5.6034226E-2,6.952353E-2,3.6166187E-2,-1.2868071E-2,6.1842855E-2,7.343685E-2,7.8179136E-2,6.8574205E-2,6.5839933E-3],"split_indices":[45,46,45,65,1,49,53,49,65,18,49,8,1,50,49,55,1,21,51,4,0,47,10,15,4,13,32,1,62,8,39,20,4,13,4,49,66,47,0,13,0,18,47,20,18,0,7,0,0,4,4,62,0,32,49,51,18,50,0,49,34,0,0,0,0,0,0,0,0,0,0,0,0,0,0,0,0,0,0,0,0,0,0,0,0,0,0,0,0,0,0,0,0,0,0,0,0,0,0,0,0,0,0,0,0,0,0],"split_type":[0,0,0,0,0,0,0,0,0,0,0,0,0,0,0,0,0,0,0,0,0,0,0,0,0,0,0,0,0,0,0,0,0,0,0,0,0,0,0,0,0,0,0,0,0,0,0,0,0,0,0,0,0,0,0,0,0,0,0,0,0,0,0,0,0,0,0,0,0,0,0,0,0,0,0,0,0,0,0,0,0,0,0,0,0,0,0,0,0,0,0,0,0,0,0,0,0,0,0,0,0,0,0,0,0,0,0],"sum_hessian":[3.009831E4,1.716985E4,1.2928461E4,1.5260283E4,1.9095676E3,2.3402898E3,1.0588171E4,1.4493877E4,7.664057E2,4.4478516E2,1.4647825E3,4.2067078E1,2.298223E3,4.161874E3,6.426297E3,6.5692397E3,7.924637E3,5.54945E2,2.1146066E2,4.3413913E2,1.0646046E1,1.4868683E2,1.3160957E3,2.0069048E1,2.199803E1,4.8850232E2,1.8097205E3,5.214433E2,3.6404307E3,3.4348816E1,6.391948E3,5.5161807E3,1.0530588E3,1.1784133E3,6.746224E3,3.9738724E2,1.575578E2,2.045693E2,6.891364E0,4.2352502E2,1.0614081E1,9.415593E1,5.45309E1,6.5400397E2,6.620917E2,6.162198E0,1.390685E1,1.6856976E1,5.141054E0,1.01653656E2,3.8684866E2,1.8035273E3,6.1930957E0,1.5331232E2,3.6813098E2,2.4052058E2,3.3999102E3,2.8289963E1,6.0588517E0,5.732389E3,6.5955896E2,5.358264E3,1.5791682E2,3.422055E1,1.01883826E3,8.7264014E2,3.057732E2,2.92095E3,3.8252742E3,5.3581215E1,3.4380603E2,8.722675E1,7.033105E1,1.9518076E2,9.388548E0,6.9620624E0,4.1656296E2,6.2728963E0,8.788303E1,2.121026E1,3.332064E1,6.0103296E2,5.2971043E1,3.0357333E2,3.5851837E2,6.7569785E0,7.1498713E0,9.3543205E1,8.110455E0,2.7373938E2,1.1310927E2,1.0824734E2,1.69528E3,1.4435521E2,8.957111E0,2.0266502E1,3.4786447E2,6.7434254E0,2.3377715E2,3.3526187E3,4.7291435E1,5.1040606E0,2.3185902E1,1.756988E3,3.975401E3,6.522634E2,7.295542E0],"tree_param":{"num_deleted":"0","num_feature":"68","num_nodes":"107","size_leaf_vector":"1"}},{"base_weights":[1.1604248E-2,-9.677949E-1,1.2991189E0,-1.1447271E0,-2.6655304E-1,8.6947775E-1,1.3943428E0,-1.2049296E0,-1.0062066E-2,-8.241233E-1,-4.5299288E-2,-2.2580619E-1,8.919743E-1,1.2624199E0,1.4512002E0,-1.4513987E0,-9.860325E-1,-5.100429E-1,2.9176256E-1,4.029918E-1,-9.8691106E-1,5.587277E-1,-2.0581478E-1,6.388152E-1,-1.3577332E0,7.091741E-1,9.938349E-1,1.2676754E0,-1.7138453E-2,1.3131211E0,1.4857935E0,-1.4838388E0,-1.2591752E0,-5.0679564E-1,-1.1475098E0,-1.4563944E0,-1.7686401E-1,-5.1547086E-1,4.5910102E-1,-3.136725E-1,1.0604054E0,-1.0952841E0,7.7576794E-2,-9.4158673E-1,6.531869E-1,-3.157184E-1,4.6816164E-1,-3.7900943E-2,1.2794905E0,-8.838283E-2,-2.2426015E-3,-8.739621E-2,7.695272E-1,8.169883E-1,1.1387635E0,-3.453709E-2,1.2715782E0,3.7101358E-1,1.3285314E0,1.5002594E0,1.3400158E0,-7.459598E-2,-3.1376075E-2,-6.784754E-2,-4.0555883E-2,-7.9222275E-3,-4.392944E-2,-7.572496E-2,-5.1350772E-2,-8.569119E-2,6.320282E-2,-2.2425009E-2,4.6601932E-2,-5.502835E-2,6.368538E-2,8.103366E-3,4.3641157E-2,3.70408E-2,-5.0113358E-2,6.080669E-2,-1.2650343E-2,-5.86055E-2,-1.1549956E-2,2.0240841E-2,-7.9254314E-2,-7.259139E-2,2.9920364E-2,4.0062517E-2,4.4699204E-3,-5.0070047E-2,-7.5762407E-3,-8.5011095E-2,2.8178403E-2,7.447181E-2,3.47048E-2,-7.900303E-2,2.7917081E-2,3.0372253E-2,5.1945187E-2,1.0871134E-2,4.5602325E-2,-3.6891412E-2,5.7751443E-2,5.3568818E-2,6.543602E-2,-4.410323E-2,4.8832584E-2,6.6785015E-2,-2.8954526E-2,5.0648123E-2,7.513653E-2,3.877177E-2,6.8444125E-2],"categories":[],"categories_nodes":[],"categories_segments":[],"categories_sizes":[],"default_left":[0,0,0,1,0,0,0,0,0,0,0,0,0,1,0,0,0,0,0,0,1,0,1,0,0,0,0,0,0,0,1,1,0,0,0,0,0,0,0,0,0,0,0,0,0,0,0,0,0,0,0,0,0,0,0,0,0,0,1,0,0,0,0,0,0,0,0,0,0,0,0,0,0,0,0,0,0,0,0,0,0,0,0,0,0,0,0,0,0,0,0,0,0,0,0,0,0,0,0,0,0,0,0,0,0,0,0,0,0,0,0,0,0],"id":7,"left_children":[1,3,5,7,9,11,13,15,17,19,21,23,25,27,29,31,33,35,37,39,41,43,45,47,49,51,53,55,-1,57,59,61,63,65,67,69,71,73,75,77,79,81,83,85,87,89,91,-1,93,-1,-1,95,97,99,101,-1,103,105,107,109,111,-1,-1,-1,-1,-1,-1,-1,-1,-1,-1,-1,-1,-1,-1,-1,-1,-1,-1,-1,-1,-1,-1,-1,-1,-1,-1,-1,-1,-1,-1,-1,-1,-1,-1,-1,-1,-1,-1,-1,-1,-1,-1,-1,-1,-1,-1,-1,-1,-1,-1,-1,-1],"loss_changes":[3.77343E4,2.1082568E3,5.274961E2,9.269043E2,4.224826E2,5.81333E1,7.726367E1,6.936074E2,1.0352056E2,1.9482257E2,2.3797723E2,4.7889736E1,4.1978027E1,2.7480469E1,3.3052734E1,3.564258E1,5.276987E2,8.101951E1,5.7987556E1,5.4399513E1,9.9329346E1,7.361186E1,1.4378772E2,2.5925589E1,1.111935E1,3.9911835E1,3.6680298E1,2.5280273E1,0E0,2.0956055E1,1.0145508E1,3.4685547E1,3.7322266E1,2.2290643E2,2.2401123E2,4.9161438E1,5.8279106E1,7.862466E1,4.335437E1,4.1087738E1,1.269062E1,5.139026E1,4.419132E1,2.5208866E1,4.0360367E1,1.8754681E2,5.7153786E1,0E0,1.1442509E0,0E0,0E0,5.7903923E1,3.279355E1,3.7773376E1,2.5552124E1,0E0,2.1998535E1,2.0191027E1,2.0878418E1,4.6777344E0,7.565796E0,0E0,0E0,0E0,0E0,0E0,0E0,0E0,0E0,0E0,0E0,0E0,0E0,0E0,0E0,0E0,0E0,0E0,0E0,0E0,0E0,0E0,0E0,0E0,0E0,0E0,0E0,0E0,0E0,0E0,0E0,0E0,0E0,0E0,0E0,0E0,0E0,0E0,0E0,0E0,0E0,0E0,0E0,0E0,0E0,0E0,0E0,0E0,0E0,0E0,0E0,0E0,0E0],"parents":[2147483647,0,0,1,1,2,2,3,3,4,4,5,5,6,6,7,7,8,8,9,9,10,10,11,11,12,12,13,13,14,14,15,15,16,16,17,17,18,18,19,19,20,20,21,21,22,22,23,23,24,24,25,25,26,26,27,27,29,29,30,30,31,31,32,32,33,33,34,34,35,35,36,36,37,37,38,38,39,39,40,40,41,41,42,42,43,43,44,44,45,45,46,46,48,48,51,51,52,52,53,53,54,54,56,56,57,57,58,58,59,59,60,60],"right_children":[2,4,6,8,10,12,14,16,18,20,22,24,26,28,30,32,34,36,38,40,42,44,46,48,50,52,54,56,-1,58,60,62,64,66,68,70,72,74,76,78,80,82,84,86,88,90,92,-1,94,-1,-1,96,98,100,102,-1,104,106,108,110,112,-1,-1,-1,-1,-1,-1,-1,-1,-1,-1,-1,-1,-1,-1,-1,-1,-1,-1,-1,-1,-1,-1,-1,-1,-1,-1,-1,-1,-1,-1,-1,-1,-1,-1,-1,-1,-1,-1,-1,-1,-1,-1,-1,-1,-1,-1,-1,-1,-1,-1,-1,-1],"split_conditions":[5.1E1,1E-1,2E-1,5E-1,4.1E1,2.4E1,4E-1,2.8E1,7E1,-8.660254E-1,-7.0710677E-1,-7E0,-2.5881904E-1,1.54E2,9E1,5.7E2,-7.0710677E-1,-1.3E0,1.12E1,-1.1E1,7E-1,-2.1E1,7.5E-1,-1.2E1,1.4E0,5.4E1,-3.9801022E-16,-7E1,-1.7138453E-2,2.5E1,2.6E1,5.2E0,7E0,6.123234E-17,2E-1,6.5E0,8.9E1,4.28E1,1.6E1,5.773335E0,7E-1,3.3E0,1E1,2.7E1,5E0,8.1E1,-7.8E0,-3.7900943E-2,7.8E0,-8.838283E-2,-2.2426015E-3,8E0,1E2,6.8E1,-4.8E1,-3.453709E-2,-5E0,2E-1,1.7E1,6.2E1,3.3333334E-1,-7.459598E-2,-3.1376075E-2,-6.784754E-2,-4.0555883E-2,-7.9222275E-3,-4.392944E-2,-7.572496E-2,-5.1350772E-2,-8.569119E-2,6.320282E-2,-2.2425009E-2,4.6601932E-2,-5.502835E-2,6.368538E-2,8.103366E-3,4.3641157E-2,3.70408E-2,-5.0113358E-2,6.080669E-2,-1.2650343E-2,-5.86055E-2,-1.1549956E-2,2.0240841E-2,-7.9254314E-2,-7.259139E-2,2.9920364E-2,4.0062517E-2,4.4699204E-3,-5.0070047E-2,-7.5762407E-3,-8.5011095E-2,2.8178403E-2,7.447181E-2,3.47048E-2,-7.900303E-2,2.7917081E-2,3.0372253E-2,5.1945187E-2,1.0871134E-2,4.5602325E-2,-3.6891412E-2,5.7751443E-2,5.3568818E-2,6.543602E-2,-4.410323E-2,4.8832584E-2,6.6785015E-2,-2.8954526E-2,5.0648123E-2,7.513653E-2,3.877177E-2,6.8444125E-2],"split_indices":[53,47,45,62,49,49,45,49,36,1,1,14,0,44,49,55,1,21,9,14,63,14,62,14,6,37,19,51,0,49,39,20,51,3,63,66,37,43,51,12,6,20,14,50,50,37,38,0,17,0,0,51,49,49,50,0,50,21,34,10,62,0,0,0,0,0,0,0,0,0,0,0,0,0,0,0,0,0,0,0,0,0,0,0,0,0,0,0,0,0,0,0,0,0,0,0,0,0,0,0,0,0,0,0,0,0,0,0,0,0,0,0,0],"split_type":[0,0,0,0,0,0,0,0,0,0,0,0,0,0,0,0,0,0,0,0,0,0,0,0,0,0,0,0,0,0,0,0,0,0,0,0,0,0,0,0,0,0,0,0,0,0,0,0,0,0,0,0,0,0,0,0,0,0,0,0,0,0,0,0,0,0,0,0,0,0,0,0,0,0,0,0,0,0,0,0,0,0,0,0,0,0,0,0,0,0,0,0,0,0,0,0,0,0,0,0,0,0,0,0,0,0,0,0,0,0,0,0,0],"sum_hessian":[2.9922309E4,1.699475E4,1.2927561E4,1.3570072E4,3.4246765E3,2.3474167E3,1.0580144E4,1.2886212E4,6.838604E2,9.720035E2,2.452673E3,4.6972885E1,2.3004438E3,3.1940837E3,7.3860596E3,6.058503E3,6.8277095E3,2.5729144E2,4.26569E2,1.135979E2,8.584056E2,5.1428644E2,1.9383867E3,2.6827795E1,2.0145092E1,8.26372E2,1.4740719E3,3.183932E3,1.0151795E1,1.4881063E3,5.8979536E3,5.1774966E3,8.8100635E2,1.721967E3,5.1057427E3,6.6040535E1,1.9125092E2,7.278403E1,3.5378494E2,5.4527145E1,5.9070755E1,7.791474E2,7.925819E1,2.9867552E1,4.8441888E2,1.6672004E3,2.7118625E2,8.32907E0,1.8498724E1,1.5029758E1,5.1153326E0,5.8053135E1,7.6831885E2,6.6722705E2,8.0684485E2,5.9315157E0,3.1780002E3,2.4457632E1,1.4636487E3,5.356442E3,5.415116E2,5.1282446E3,4.9251858E1,7.213423E2,1.5966406E2,8.898853E2,8.3208167E2,1.258953E3,3.8467893E3,6.0703133E1,5.337402E0,1.54171E2,3.7079914E1,5.5179897E1,1.7604132E1,2.0688461E2,1.4690033E2,2.1453295E1,3.3073853E1,5.2943554E1,6.127202E0,7.151098E2,6.403757E1,6.690653E1,1.235166E1,2.2526207E1,7.3413453E0,3.831869E2,1.0123199E2,3.2099557E2,1.3462048E3,1.0675942E1,2.605103E2,1.2353215E1,6.145509E0,1.7140266E1,4.091287E1,4.8195544E2,2.8636343E2,9.190281E1,5.753243E2,6.4991846E0,8.003457E2,5.0241904E2,2.6755813E3,7.766675E0,1.6690956E1,1.4585199E3,5.128835E0,2.9303698E1,5.327138E3,2.7864288E1,5.136473E2],"tree_param":{"num_deleted":"0","num_feature":"68","num_nodes":"113","size_leaf_vector":"1"}},{"base_weights":[8.4701926E-4,-9.430525E-1,1.2510216E0,-1.3724797E0,-6.91758E-1,8.301407E-1,1.3482294E0,-1.399632E0,1.361742E-1,-7.817716E-1,2.4803603E-1,-3.9032158E-1,8.456409E-1,1.1995642E0,1.4115247E0,-1.4667041E0,-1.265287E0,-1.0237845E0,4.9852812E-1,-1.2925034E0,-6.519106E-1,-1.5164301E-1,5.3870803E-1,8.48893E-1,-8.264657E-2,8.0592376E-1,1.1946642E0,1.2041734E0,-3.8236152E-2,1.2719755E0,1.4427583E0,6.8694423E-3,-1.4690472E0,-7.981975E-1,-1.3315372E0,-8.388888E-2,4.931606E-2,-1.0375482E0,7.849784E-1,-1.3345045E0,-4.6350798E-1,-2.0643997E-1,-7.967946E-1,4.3881524E-1,-5.058763E-1,5.8799666E-1,-8.2532875E-2,-7.0679965E-3,6.719236E-2,6.3582325E-1,9.0185E-1,6.0207224E-1,1.2516303E0,9.556499E-1,1.2399455E0,4.2980853E-1,1.288995E0,1.263723E0,1.4560152E0,-1.2768953E-2,-7.356843E-2,-6.1925817E-2,-7.5289696E-3,-4.8893888E-2,-6.914176E-2,-0E0,-8.2694255E-2,5.213949E-2,-4.2360272E-2,-6.970736E-2,-4.0851515E-2,-4.705056E-2,3.6697652E-2,-2.1263449E-2,2.0633152E-2,-4.7063295E-2,-1.5569287E-2,-8.0933794E-2,2.7263423E-2,-6.975165E-2,-1.4404977E-2,1.5250866E-2,4.5303654E-2,3.5417806E-2,-1.2273225E-2,4.640343E-2,4.008856E-3,6.802961E-2,-3.6736075E-3,3.655168E-2,6.6460304E-2,-8.073935E-3,5.0944693E-2,-1.4370461E-2,6.2241286E-2,-2.793164E-2,5.866889E-2,6.72114E-2,5.4151844E-2,1.9630397E-2,6.414278E-2,7.343696E-2,6.66939E-2],"categories":[],"categories_nodes":[],"categories_segments":[],"categories_sizes":[],"default_left":[0,0,0,1,1,0,0,0,0,0,0,0,1,1,0,0,0,0,0,0,0,0,0,0,0,0,0,0,0,0,0,0,0,0,0,0,0,0,0,0,0,0,0,0,0,0,0,0,0,1,0,0,0,0,0,0,0,0,0,0,0,0,0,0,0,0,0,0,0,0,0,0,0,0,0,0,0,0,0,0,0,0,0,0,0,0,0,0,0,0,0,0,0,0,0,0,0,0,0,0,0,0,0],"id":8,"left_children":[1,3,5,7,9,11,13,15,17,19,21,23,25,27,29,31,33,35,37,39,41,43,45,47,-1,49,51,53,-1,55,57,-1,59,61,63,-1,-1,65,67,69,71,73,75,77,79,81,-1,-1,-1,83,85,87,89,91,93,95,97,99,101,-1,-1,-1,-1,-1,-1,-1,-1,-1,-1,-1,-1,-1,-1,-1,-1,-1,-1,-1,-1,-1,-1,-1,-1,-1,-1,-1,-1,-1,-1,-1,-1,-1,-1,-1,-1,-1,-1,-1,-1,-1,-1,-1,-1],"loss_changes":[3.4684293E4,1.8061289E3,5.1599805E2,2.5352734E2,8.9417773E2,4.5310547E1,9.46875E1,5.2586914E1,4.6747307E1,6.3858984E2,1.07504745E2,4.903645E1,3.1356812E1,2.8797363E1,2.9264648E1,1.553125E1,6.153711E1,3.6529106E1,3.8037888E1,6.723193E1,4.9613086E2,8.176418E1,5.8651093E1,8.132141E0,0E0,3.3694702E1,7.0734253E0,2.5864746E1,0E0,1.8270752E1,1.1827148E1,0E0,1.0829102E1,7.234059E1,3.0632568E1,0E0,0E0,8.732313E0,3.1189003E1,5.601465E1,5.552632E1,2.5610196E2,4.065354E2,3.2885162E1,4.6720135E1,4.6811966E1,0E0,0E0,0E0,4.9085724E1,2.882434E1,1.1961081E1,7.5234375E0,2.7851501E1,2.0411621E1,2.1200752E1,1.3072266E1,6.211975E0,6.2470703E0,0E0,0E0,0E0,0E0,0E0,0E0,0E0,0E0,0E0,0E0,0E0,0E0,0E0,0E0,0E0,0E0,0E0,0E0,0E0,0E0,0E0,0E0,0E0,0E0,0E0,0E0,0E0,0E0,0E0,0E0,0E0,0E0,0E0,0E0,0E0,0E0,0E0,0E0,0E0,0E0,0E0,0E0,0E0,0E0],"parents":[2147483647,0,0,1,1,2,2,3,3,4,4,5,5,6,6,7,7,8,8,9,9,10,10,11,11,12,12,13,13,14,14,15,15,16,16,17,17,18,18,19,19,20,20,21,21,22,22,23,23,25,25,26,26,27,27,29,29,30,30,32,32,33,33,34,34,37,37,38,38,39,39,40,40,41,41,42,42,43,43,44,44,45,45,49,49,50,50,51,51,52,52,53,53,54,54,55,55,56,56,57,57,58,58],"right_children":[2,4,6,8,10,12,14,16,18,20,22,24,26,28,30,32,34,36,38,40,42,44,46,48,-1,50,52,54,-1,56,58,-1,60,62,64,-1,-1,66,68,70,72,74,76,78,80,82,-1,-1,-1,84,86,88,90,92,94,96,98,100,102,-1,-1,-1,-1,-1,-1,-1,-1,-1,-1,-1,-1,-1,-1,-1,-1,-1,-1,-1,-1,-1,-1,-1,-1,-1,-1,-1,-1,-1,-1,-1,-1,-1,-1,-1,-1,-1,-1,-1,-1,-1,-1,-1,-1],"split_conditions":[1E0,2.3E1,2E-1,1.2E0,4E-1,2.1E1,4E-1,6E0,-8E-2,1E-1,1E-1,-5E-1,2.2E0,1.59E2,8.8E1,-5.3E0,-8.660254E-1,1E0,4.4E0,7.5E0,-7.0710677E-1,-2E-1,7.5E1,1.3068099E1,-8.264657E-2,-2.5881904E-1,-1.3E1,-8E0,-3.8236152E-2,2.6E1,1.6E0,6.8694423E-3,1E-1,1.42824745E1,-5E-1,-8.388888E-2,4.931606E-2,1.2246469E-16,6.123234E-17,5.0095192E1,1.5969281E1,1E0,9.9E1,-2.9E0,1.29E1,3E0,-8.2532875E-2,-7.0679965E-3,6.719236E-2,2.3E0,1E0,-3.4E0,4E0,6.858407E0,3.373405E1,3.1E0,-1.8369701E-16,6.3E1,4.6E-1,-1.2768953E-2,-7.356843E-2,-6.1925817E-2,-7.5289696E-3,-4.8893888E-2,-6.914176E-2,-0E0,-8.2694255E-2,5.213949E-2,-4.2360272E-2,-6.970736E-2,-4.0851515E-2,-4.705056E-2,3.6697652E-2,-2.1263449E-2,2.0633152E-2,-4.7063295E-2,-1.5569287E-2,-8.0933794E-2,2.7263423E-2,-6.975165E-2,-1.4404977E-2,1.5250866E-2,4.5303654E-2,3.5417806E-2,-1.2273225E-2,4.640343E-2,4.008856E-3,6.802961E-2,-3.6736075E-3,3.655168E-2,6.6460304E-2,-8.073935E-3,5.0944693E-2,-1.4370461E-2,6.2241286E-2,-2.793164E-2,5.866889E-2,6.72114E-2,5.4151844E-2,1.9630397E-2,6.414278E-2,7.343696E-2,6.66939E-2],"split_indices":[54,49,45,65,65,49,45,49,16,65,66,8,65,44,49,7,1,23,17,21,1,5,51,11,0,0,50,50,0,49,65,0,43,11,8,0,0,0,3,40,11,13,49,20,9,65,0,0,0,38,3,21,17,11,40,21,1,10,15,0,0,0,0,0,0,0,0,0,0,0,0,0,0,0,0,0,0,0,0,0,0,0,0,0,0,0,0,0,0,0,0,0,0,0,0,0,0,0,0,0,0,0,0],"split_type":[0,0,0,0,0,0,0,0,0,0,0,0,0,0,0,0,0,0,0,0,0,0,0,0,0,0,0,0,0,0,0,0,0,0,0,0,0,0,0,0,0,0,0,0,0,0,0,0,0,0,0,0,0,0,0,0,0,0,0,0,0,0,0,0,0,0,0,0,0,0,0,0,0,0,0,0,0,0,0,0,0,0,0,0,0,0,0,0,0,0,0,0,0,0,0,0,0,0,0,0,0,0,0],"sum_hessian":[2.9390467E4,1.6746664E4,1.2643803E4,6.180386E3,1.0566278E4,2.3743123E3,1.026949E4,6.071256E3,1.0913022E2,9.642949E3,9.2332855E2,2.939213E1,2.34492E3,3.0730852E3,7.1964053E3,4.0424082E3,2.0288478E3,2.547593E1,8.365429E1,1.9528477E3,7.6901016E3,3.888236E2,5.3450494E2,1.4958887E1,1.4433242E1,2.1085706E3,2.3634938E2,3.066328E3,6.757285E0,1.3243345E3,5.872071E3,5.749896E0,4.0366584E3,2.5382681E2,1.775021E3,1.9384281E1,6.091649E0,1.2681131E1,7.097315E1,1.8579824E3,9.486527E1,1.8880581E3,5.8020435E3,1.4560274E2,2.4322087E2,5.234967E2,1.1008243E1,5.1558857E0,9.803001E0,7.634531E2,1.3451176E3,2.1896341E1,2.1445305E2,3.89667E2,2.676661E3,2.6870066E1,1.2974644E3,4.1198846E2,5.4600825E3,8.000378E0,4.028658E3,1.5046088E2,1.0336594E2,2.2763861E2,1.5473823E3,5.1044383E0,7.5766926E0,6.1656574E1,9.316582E0,1.664275E3,1.9370741E2,6.803364E1,2.6831635E1,1.3953356E3,4.927226E2,4.470386E3,1.3316572E3,6.417752E0,1.39185E2,4.669711E1,1.9652376E2,2.782355E2,2.452612E2,7.0568286E2,5.7770267E1,1.3032803E3,4.183727E1,9.906739E0,1.1989602E1,2.9330904E1,1.8512215E2,2.0710268E1,3.6895673E2,8.275526E0,2.6683855E3,1.1584624E1,1.5285441E1,1.0183545E3,2.791099E2,9.428948E0,4.025595E2,4.934207E3,5.258754E2],"tree_param":{"num_deleted":"0","num_feature":"68","num_nodes":"103","size_leaf_vector":"1"}},{"base_weights":[-4.0361756E-3,-9.071999E-1,1.2100163E0,-1.3156149E0,-6.3867104E-1,7.935561E-1,1.3069233E0,-1.347223E0,8.69569E-2,-7.7091676E-1,6.178324E-2,-2.7446505E-1,8.1202453E-1,1.1587422E0,1.3703071E0,-1.3708774E0,-6.9579524E-1,-2.2840197E-1,1.4093966E0,-8.4709096E-1,2.142161E-1,-4.2503375E-1,1.8139291E-1,2.4007234E-1,-7.824143E-2,3.27413E-1,8.491562E-1,1.0165427E0,1.2351973E0,1.2552133E0,1.4099073E0,-1.3773731E0,-1.9579388E-1,5.7175046E-1,-8.9709157E-1,-5.712736E-1,7.9443896E-1,8.827602E-2,-3.7646915E-3,-1.2614582E0,-7.14281E-1,-1.0654079E-2,6.407853E-1,-7.6779217E-1,3.47254E-1,-9.07891E-1,2.4098057E-1,6.482413E-2,-2.2490095E-1,8.2682747E-1,-1.8251425E-1,9.282833E-1,6.585302E-1,1.0408663E0,-2.1995308E-1,6.387599E-1,1.2502803E0,-2.5861913E-2,1.2615843E0,1.2733797E0,1.4268765E0,-7.229287E-2,-6.4875074E-2,2.5603611E-2,-7.741085E-2,-1.5754655E-2,6.1227646E-2,-5.9904188E-2,-7.6536625E-3,-5.0086975E-2,5.5810243E-2,-2.9433398E-2,6.8048246E-2,-6.7450665E-2,-2.9964218E-2,-2.735104E-2,-5.6174215E-2,-2.8997248E-2,1.301189E-2,1.3299453E-2,4.9286917E-2,-5.772381E-2,-2.690005E-3,-5.927514E-2,3.0375002E-2,-5.166489E-3,-7.558448E-2,7.7683525E-3,4.6237163E-2,-7.97258E-2,2.4868837E-2,-3.282914E-2,4.7575887E-2,1.61654E-2,-9.7759195E-2,3.2991942E-2,4.936051E-2,4.298524E-3,3.859164E-2,1.7279608E-2,5.3870153E-2,-1.1096652E-1,3.4761667E-2,-2.9967764E-2,4.7618233E-2,8.728981E-3,6.288221E-2,6.639842E-2,5.614063E-2,6.764193E-2,5.44382E-2,7.205942E-2,6.740754E-2],"categories":[],"categories_nodes":[],"categories_segments":[],"categories_sizes":[],"default_left":[0,0,0,1,0,0,0,0,0,1,0,0,0,0,0,1,0,0,0,0,0,1,0,0,0,0,0,1,0,0,0,0,0,0,0,0,0,0,0,0,0,0,0,0,0,0,0,0,0,0,0,0,0,0,0,0,0,0,0,0,0,0,0,0,0,0,0,0,0,0,0,0,0,0,0,0,0,0,0,0,0,0,0,0,0,0,0,0,0,0,0,0,0,0,0,0,0,0,0,0,0,0,0,0,0,0,0,0,0,0,0,0,0],"id":9,"left_children":[1,3,5,7,9,11,13,15,17,19,21,23,25,27,29,31,33,35,37,39,41,43,45,47,-1,49,51,53,55,57,59,61,63,65,67,69,71,-1,-1,73,75,77,79,81,83,85,87,-1,89,91,93,95,97,99,101,103,105,-1,107,109,111,-1,-1,-1,-1,-1,-1,-1,-1,-1,-1,-1,-1,-1,-1,-1,-1,-1,-1,-1,-1,-1,-1,-1,-1,-1,-1,-1,-1,-1,-1,-1,-1,-1,-1,-1,-1,-1,-1,-1,-1,-1,-1,-1,-1,-1,-1,-1,-1,-1,-1,-1,-1],"loss_changes":[3.1584584E4,1.8104629E3,4.9466016E2,2.9066895E2,9.234263E2,4.608264E1,9.176758E1,9.75625E1,6.101513E1,6.294458E2,9.227404E1,2.715197E1,4.068799E1,3.1057373E1,2.9751953E1,4.6753906E1,5.8380272E1,4.1842827E1,1.5195484E1,4.272251E2,5.78638E1,8.3034485E1,8.273299E1,1.488985E1,0E0,4.2058407E1,3.1204834E1,3.196875E1,1.6476074E1,2.0999268E1,9.915039E0,3.1472656E1,3.4624134E1,1.8774681E1,4.3588272E1,6.5822365E1,2.4377588E1,0E0,0E0,1.084353E2,4.027981E2,6.1153397E1,2.6523567E1,5.9687683E1,3.922136E1,3.1798565E1,7.041511E1,0E0,2.1945358E1,1.6059898E1,7.4336845E1,2.2835938E1,4.0433655E1,2.5715088E1,4.0217674E1,2.005448E1,1.4625977E1,0E0,1.4745605E1,6.829956E0,2.9589844E0,0E0,0E0,0E0,0E0,0E0,0E0,0E0,0E0,0E0,0E0,0E0,0E0,0E0,0E0,0E0,0E0,0E0,0E0,0E0,0E0,0E0,0E0,0E0,0E0,0E0,0E0,0E0,0E0,0E0,0E0,0E0,0E0,0E0,0E0,0E0,0E0,0E0,0E0,0E0,0E0,0E0,0E0,0E0,0E0,0E0,0E0,0E0,0E0,0E0,0E0,0E0,0E0],"parents":[2147483647,0,0,1,1,2,2,3,3,4,4,5,5,6,6,7,7,8,8,9,9,10,10,11,11,12,12,13,13,14,14,15,15,16,16,17,17,18,18,19,19,20,20,21,21,22,22,23,23,25,25,26,26,27,27,28,28,29,29,30,30,31,31,32,32,33,33,34,34,35,35,36,36,39,39,40,40,41,41,42,42,43,43,44,44,45,45,46,46,48,48,49,49,50,50,51,51,52,52,53,53,54,54,55,55,56,56,58,58,59,59,60,60],"right_children":[2,4,6,8,10,12,14,16,18,20,22,24,26,28,30,32,34,36,38,40,42,44,46,48,-1,50,52,54,56,58,60,62,64,66,68,70,72,-1,-1,74,76,78,80,82,84,86,88,-1,90,92,94,96,98,100,102,104,106,-1,108,110,112,-1,-1,-1,-1,-1,-1,-1,-1,-1,-1,-1,-1,-1,-1,-1,-1,-1,-1,-1,-1,-1,-1,-1,-1,-1,-1,-1,-1,-1,-1,-1,-1,-1,-1,-1,-1,-1,-1,-1,-1,-1,-1,-1,-1,-1,-1,-1,-1,-1,-1,-1,-1],"split_conditions":[1E-1,2.8E1,2E-1,6.666667E-1,1E-1,2.3E1,4E-1,1E-1,6.4E-1,4E-1,7.9E1,0E0,5E-1,-2.5881904E-1,9.6E1,1.2E0,-8.660254E-1,6E-1,-3E0,7.4E1,6E-1,8E-1,8E0,4.682706E0,-7.824143E-2,-7.0710677E-1,1.0178E3,5.5E0,6.8E1,1.8E1,3.4E0,3E0,5E-1,8.9397335E0,1E0,1.1E0,1.0124E3,8.827602E-2,-3.7646915E-3,8E1,1.02E3,-2.8678963E0,4E-1,1.1E0,-3.2E0,1.1E-1,9.659258E-1,6.482413E-2,2.18E1,3.8769596E1,4.9686518E-1,-7.0710677E-1,-4E0,-2.3E1,6.28E2,1.8E1,-1.2E1,-2.5861913E-2,-2.5881904E-1,2.6E1,3.1E-1,-7.229287E-2,-6.4875074E-2,2.5603611E-2,-7.741085E-2,-1.5754655E-2,6.1227646E-2,-5.9904188E-2,-7.6536625E-3,-5.0086975E-2,5.5810243E-2,-2.9433398E-2,6.8048246E-2,-6.7450665E-2,-2.9964218E-2,-2.735104E-2,-5.6174215E-2,-2.8997248E-2,1.301189E-2,1.3299453E-2,4.9286917E-2,-5.772381E-2,-2.690005E-3,-5.927514E-2,3.0375002E-2,-5.166489E-3,-7.558448E-2,7.7683525E-3,4.6237163E-2,-7.97258E-2,2.4868837E-2,-3.282914E-2,4.7575887E-2,1.61654E-2,-9.7759195E-2,3.2991942E-2,4.936051E-2,4.298524E-3,3.859164E-2,1.7279608E-2,5.3870153E-2,-1.1096652E-1,3.4761667E-2,-2.9967764E-2,4.7618233E-2,8.728981E-3,6.288221E-2,6.639842E-2,5.614063E-2,6.764193E-2,5.44382E-2,7.205942E-2,6.740754E-2],"split_indices":[45,49,45,62,46,49,45,46,16,65,37,13,62,0,49,63,1,5,50,36,66,65,9,11,0,1,4,38,36,49,65,49,1,19,22,46,4,0,0,37,4,19,63,20,21,15,1,0,9,40,64,0,50,50,55,44,13,0,1,39,15,0,0,0,0,0,0,0,0,0,0,0,0,0,0,0,0,0,0,0,0,0,0,0,0,0,0,0,0,0,0,0,0,0,0,0,0,0,0,0,0,0,0,0,0,0,0,0,0,0,0,0,0],"split_type":[0,0,0,0,0,0,0,0,0,0,0,0,0,0,0,0,0,0,0,0,0,0,0,0,0,0,0,0,0,0,0,0,0,0,0,0,0,0,0,0,0,0,0,0,0,0,0,0,0,0,0,0,0,0,0,0,0,0,0,0,0,0,0,0,0,0,0,0,0,0,0,0,0,0,0,0,0,0,0,0,0,0,0,0,0,0,0,0,0,0,0,0,0,0,0,0,0,0,0,0,0,0,0,0,0,0,0,0,0,0,0,0,0],"sum_hessian":[2.880325E4,1.651653E4,1.2286722E4,6.5500522E3,9.966477E3,2.3212644E3,9.965457E3,6.4058027E3,1.4424905E2,8.383681E3,1.5827958E3,3.9129852E1,2.2821345E3,2.9918484E3,6.9736084E3,6.1801353E3,2.2566783E2,1.1708077E2,2.7168287E1,7.782175E3,6.0150574E2,3.115171E2,1.2712787E3,2.8501299E1,1.06285515E1,1.6330629E2,2.1188284E3,1.0515903E3,1.9402579E3,1.7941968E3,5.1794116E3,6.1459043E3,3.423086E1,3.060619E1,1.9506165E2,8.80907E1,2.8990074E1,2.181408E1,5.354208E0,1.886631E3,5.895544E3,3.943571E2,2.0714867E2,2.1585236E2,9.566474E1,6.511103E1,1.2061677E3,8.2299E0,2.02714E1,8.228871E1,8.101758E1,1.4942039E3,6.246244E2,1.0315376E3,2.0052711E1,4.9088688E1,1.8911693E3,6.0827703E0,1.788114E3,5.816441E2,4.5977676E3,3.298938E3,2.8469663E3,2.28293E1,1.1401563E1,1.3131269E1,1.747492E1,1.3834824E2,5.6713398E1,7.055752E1,1.7533182E1,8.361311E0,2.0628763E1,1.6652563E3,2.2137466E2,4.186791E3,1.708753E3,1.26899864E2,2.674572E2,1.0026758E2,1.06881096E2,1.3952913E2,7.632322E1,1.3313481E1,8.235126E1,2.8487803E1,3.662323E1,1.0731702E3,1.3299754E2,6.630044E0,1.36413555E1,5.9876304E0,7.630108E1,6.3624E1,1.7393581E1,2.7145773E2,1.2227461E3,1.0362263E2,5.210018E2,5.216004E1,9.7937756E2,5.8834968E0,1.4169215E1,9.672296E0,3.9416393E1,1.31186E1,1.8780507E3,1.2032346E3,5.8487933E2,4.0182748E2,1.7981664E2,3.8747761E3,7.229916E2],"tree_param":{"num_deleted":"0","num_feature":"68","num_nodes":"113","size_leaf_vector":"1"}},{"base_weights":[1.6732316E-3,-8.7410295E-1,1.1807995E0,-1.3045449E0,-6.310134E-1,7.750905E-1,1.2768769E0,-1.3310711E0,-1.2068236E-2,-7.64186E-1,6.667427E-2,-4.138812E-1,7.9502827E-1,1.1291645E0,1.3407981E0,-1.3475736E0,-7.603992E-1,-7.623982E-2,2.7707776E-1,-8.346901E-1,1.5516879E-1,-7.673689E-1,1.5348482E-1,6.192696E-1,-1.2092366E0,-2.2266221E-1,8.1125295E-1,7.101845E-1,1.1539743E0,-2.441688E-2,1.3441038E0,-1.3715535E0,-1.0765616E0,-1.3317372E0,-3.714907E-3,6.313061E-1,-1.1966174E0,-1.241832E0,-7.149385E-1,-1.6481996E-1,4.75695E-1,-9.191579E-3,-1.4226303E0,-1.8449008E-1,3.6334428E-1,-2.3896808E-2,6.71771E-2,-7.906362E-2,2.1774878E-3,-9.9531785E-2,3.07951E-1,7.6946676E-1,1.1880503E0,3.7343064E-3,9.690206E-1,-1.1293123E-1,1.1609457E0,4.587925E-2,-4.834762E-2,1.3535523E0,9.8324263E-1,-6.9804534E-2,-5.934434E-2,-6.135064E-2,2.48944E-3,-1.8703593E-2,-7.6107554E-2,6.680158E-2,-5.8621477E-2,-3.6642812E-2,4.0271323E-2,-7.999941E-2,-1.7153014E-3,-6.410625E-2,-2.4079587E-2,-1.5847147E-2,-4.2121258E-2,-1.6856631E-2,3.8900666E-2,-7.35509E-3,3.6700513E-2,-1.92596E-2,7.3938124E-2,-1.6170634E-3,-7.631981E-2,-1.7092323E-2,2.6714418E-2,3.710128E-2,5.6814435E-3,3.922483E-2,-4.5556456E-2,3.351946E-2,4.622805E-2,1.7820071E-2,6.26462E-2,3.2989334E-2,-4.5696843E-2,5.6017794E-2,1.2788514E-2,4.8984684E-2,-5.7232883E-2,5.0346714E-2,6.0973562E-2,6.441369E-2,6.956739E-2,5.3998947E-2,9.903434E-3],"categories":[],"categories_nodes":[],"categories_segments":[],"categories_sizes":[],"default_left":[0,0,0,1,0,0,0,0,0,1,0,0,0,0,0,1,0,0,0,0,0,0,0,0,0,0,1,0,0,0,0,0,1,0,0,0,0,0,0,0,0,0,0,1,0,0,0,0,0,0,1,0,0,0,0,0,0,0,0,0,0,0,0,0,0,0,0,0,0,0,0,0,0,0,0,0,0,0,0,0,0,0,0,0,0,0,0,0,0,0,0,0,0,0,0,0,0,0,0,0,0,0,0,0,0,0,0],"id":10,"left_children":[1,3,5,7,9,11,13,15,17,19,21,23,25,27,29,31,33,-1,35,37,39,41,43,45,47,49,51,53,55,57,59,61,63,65,67,69,71,73,75,77,79,81,83,85,87,-1,-1,-1,-1,-1,89,91,93,95,97,99,101,-1,-1,103,105,-1,-1,-1,-1,-1,-1,-1,-1,-1,-1,-1,-1,-1,-1,-1,-1,-1,-1,-1,-1,-1,-1,-1,-1,-1,-1,-1,-1,-1,-1,-1,-1,-1,-1,-1,-1,-1,-1,-1,-1,-1,-1,-1,-1,-1,-1],"loss_changes":[2.9257865E4,1.7001123E3,4.6948828E2,2.0098242E2,9.656748E2,5.5240112E1,9.04043E1,5.290039E1,5.262693E1,5.658379E2,1.2071458E2,3.265051E1,3.783728E1,2.9711914E1,3.0885742E1,3.4578125E1,7.077371E1,0E0,5.32933E1,3.940952E2,6.3935944E1,7.7920815E1,1.07206665E2,1.4605656E1,1.0610985E1,3.49474E1,3.418396E1,3.0624031E1,2.4860352E1,1.6298485E1,2.1589844E1,2.131836E1,7.7966736E1,1.6269318E1,1.1373039E2,2.0059631E1,9.071745E0,5.558838E1,3.17531E2,5.0906307E1,5.0248642E1,4.1824764E1,1.1945251E1,6.5654755E1,8.798796E1,0E0,0E0,0E0,0E0,0E0,1.7453917E1,3.027478E1,1.1353638E1,2.8369894E1,1.2837936E1,1.9276743E1,2.354419E1,0E0,0E0,1.4258789E1,1.3117233E1,0E0,0E0,0E0,0E0,0E0,0E0,0E0,0E0,0E0,0E0,0E0,0E0,0E0,0E0,0E0,0E0,0E0,0E0,0E0,0E0,0E0,0E0,0E0,0E0,0E0,0E0,0E0,0E0,0E0,0E0,0E0,0E0,0E0,0E0,0E0,0E0,0E0,0E0,0E0,0E0,0E0,0E0,0E0,0E0,0E0,0E0],"parents":[2147483647,0,0,1,1,2,2,3,3,4,4,5,5,6,6,7,7,8,8,9,9,10,10,11,11,12,12,13,13,14,14,15,15,16,16,18,18,19,19,20,20,21,21,22,22,23,23,24,24,25,25,26,26,27,27,28,28,29,29,30,30,31,31,32,32,33,33,34,34,35,35,36,36,37,37,38,38,39,39,40,40,41,41,42,42,43,43,44,44,50,50,51,51,52,52,53,53,54,54,55,55,56,56,59,59,60,60],"right_children":[2,4,6,8,10,12,14,16,18,20,22,24,26,28,30,32,34,-1,36,38,40,42,44,46,48,50,52,54,56,58,60,62,64,66,68,70,72,74,76,78,80,82,84,86,88,-1,-1,-1,-1,-1,90,92,94,96,98,100,102,-1,-1,104,106,-1,-1,-1,-1,-1,-1,-1,-1,-1,-1,-1,-1,-1,-1,-1,-1,-1,-1,-1,-1,-1,-1,-1,-1,-1,-1,-1,-1,-1,-1,-1,-1,-1,-1,-1,-1,-1,-1,-1,-1,-1,-1,-1,-1,-1,-1],"split_conditions":[5.1E1,2.3E1,2E-1,6.666667E-1,1E-1,2.3E1,4E-1,1E-1,-1.5E-1,4E-1,5E-1,-5E-1,-4.4E1,4E-1,2.5E1,2.8E0,2.82E2,-7.623982E-2,8.660254E-1,5E-1,7.1E0,5E-2,-5E-1,6.23E2,8E-1,1.6E1,2.5E0,-2.5881904E-1,5.1E1,-6E0,7.359798E0,5.99E2,4.8291363E1,-3.633684E0,5.871155E0,1.67E2,2.97E1,7.5E0,-2.1649947E0,7.6E0,7.2E1,5.1270443E1,2.6E1,7.8E1,-1.4235783E0,-2.3896808E-2,6.71771E-2,-7.906362E-2,2.1774878E-3,-9.9531785E-2,-1.7E1,8E-2,-9E0,-1.82E1,1.2E0,4.3E1,0E0,4.587925E-2,-4.834762E-2,1E2,5E-1,-6.9804534E-2,-5.934434E-2,-6.135064E-2,2.48944E-3,-1.8703593E-2,-7.6107554E-2,6.680158E-2,-5.8621477E-2,-3.6642812E-2,4.0271323E-2,-7.999941E-2,-1.7153014E-3,-6.410625E-2,-2.4079587E-2,-1.5847147E-2,-4.2121258E-2,-1.6856631E-2,3.8900666E-2,-7.35509E-3,3.6700513E-2,-1.92596E-2,7.3938124E-2,-1.6170634E-3,-7.631981E-2,-1.7092323E-2,2.6714418E-2,3.710128E-2,5.6814435E-3,3.922483E-2,-4.5556456E-2,3.351946E-2,4.622805E-2,1.7820071E-2,6.26462E-2,3.2989334E-2,-4.5696843E-2,5.6017794E-2,1.2788514E-2,4.8984684E-2,-5.7232883E-2,5.0346714E-2,6.0973562E-2,6.441369E-2,6.956739E-2,5.3998947E-2,9.903434E-3],"split_indices":[53,49,45,62,46,49,45,46,16,65,62,8,50,65,49,20,55,0,0,62,17,64,0,55,8,9,65,0,10,14,12,55,40,18,12,33,39,21,18,65,36,40,49,37,18,0,0,0,0,0,35,16,50,35,7,10,50,0,0,49,6,0,0,0,0,0,0,0,0,0,0,0,0,0,0,0,0,0,0,0,0,0,0,0,0,0,0,0,0,0,0,0,0,0,0,0,0,0,0,0,0,0,0,0,0,0,0],"split_type":[0,0,0,0,0,0,0,0,0,0,0,0,0,0,0,0,0,0,0,0,0,0,0,0,0,0,0,0,0,0,0,0,0,0,0,0,0,0,0,0,0,0,0,0,0,0,0,0,0,0,0,0,0,0,0,0,0,0,0,0,0,0,0,0,0,0,0,0,0,0,0,0,0,0,0,0,0,0,0,0,0,0,0,0,0,0,0,0,0,0,0,0,0,0,0,0,0,0,0,0,0,0,0,0,0,0,0],"sum_hessian":[2.833075E4,1.62566045E4,1.20741455E4,5.8655747E3,1.039103E4,2.3137812E3,9.760364E3,5.747508E3,1.1806666E2,8.725566E3,1.6654633E3,3.7751137E1,2.27603E3,2.9541025E3,6.8062617E3,5.584482E3,1.6302618E2,1.831585E1,9.975081E1,8.104263E3,6.213037E2,1.561586E2,1.5093047E3,1.646243E1,2.1288706E1,3.542015E1,2.2406099E3,1.6702911E2,2.7870735E3,1.635196E1,6.7899097E3,5.1264497E3,4.5803214E2,9.238122E1,7.064497E1,8.093592E1,1.8814888E1,1.839605E3,6.264658E3,3.109995E2,3.1030423E2,7.2935E1,8.3223595E1,5.7803467E2,9.3127E2,6.626277E0,9.836153E0,1.6273607E1,5.0150986E0,7.5848246E0,2.7835325E1,2.0199124E3,2.2069753E2,4.516353E1,1.2186559E2,1.5090654E1,2.7719827E3,8.138471E0,8.213489E0,6.613713E3,1.761968E2,4.5189077E3,6.0754175E2,4.0405966E2,5.397248E1,1.5900612E1,7.6480606E1,3.2807564E1,3.783741E1,8.733021E0,7.2202896E1,1.3624144E1,5.1907434E0,1.7462361E3,9.336894E1,1.5208978E3,4.7437603E3,2.635766E2,4.7422897E1,9.098448E1,2.1931973E2,5.8867687E1,1.4067312E1,5.938115E0,7.728548E1,4.747623E2,1.0327237E2,3.691302E2,5.6213983E2,2.0327644E1,7.507681E0,1.2361808E3,7.8373157E2,1.6551468E1,2.0414606E2,2.6563211E1,1.8600315E1,9.994796E1,2.191763E1,7.306447E0,7.784208E0,7.6879474E2,2.003188E3,2.4389675E3,4.1747456E3,1.564222E2,1.9774601E1],"tree_param":{"num_deleted":"0","num_feature":"68","num_nodes":"107","size_leaf_vector":"1"}},{"base_weights":[3.5974644E-3,-8.465984E-1,1.1448812E0,-1.0115467E0,-2.1879733E-1,9.821269E-1,1.3161346E0,-1.0738869E0,3.804931E-2,-1.1405922E0,-1.10763066E-1,7.282676E-1,1.0398374E0,3.1521043E-1,1.3206354E0,-1.3179394E0,-8.6738485E-1,1.9634375E-1,-7.114186E-1,-1.2752603E0,4.7727624E-1,3.0305237E-1,-2.7908725E-1,9.116499E-1,3.5821265E-1,7.199844E-1,1.0718709E0,1.0525315E0,-4.3649906E-1,1.3297359E0,9.0633565E-1,-1.3570591E0,-1.1853564E0,-1.0564115E0,-5.917582E-1,-4.9904275E-1,3.6052227E-1,6.441206E-1,-1.2006131E0,-1.3687301E0,-2.966962E-1,-6.6678114E-2,9.578936E-1,4.7142264E-2,6.927072E-1,-4.5269117E-1,2.1571381E-1,1.0165282E0,4.5772383E-1,-3.6529598E-1,5.445967E-1,-8.7453896E-1,7.646819E-1,9.90388E-1,1.1450304E0,7.224209E-2,2.2967717E-2,-5.8936756E-2,3.7658103E-2,1.1269901E0,1.3429354E0,1.0009409E0,-9.856026E-2,-6.920268E-2,-6.1901536E-2,-3.8740348E-2,-6.345334E-2,-6.7688845E-2,-4.805703E-2,9.963008E-3,-3.8868807E-2,-3.845836E-2,6.6446565E-2,1.0202496E-3,3.140644E-2,-1.7649328E-2,6.332704E-2,-3.832855E-3,-7.7568956E-2,-6.998315E-2,1.50407255E-2,-7.5231925E-2,8.3351135E-2,-3.0367307E-3,6.443422E-2,6.1271642E-3,-8.875229E-2,5.2269906E-2,1.9532053E-2,-3.216509E-2,-9.010695E-4,-2.4382727E-2,1.9489644E-2,-8.441079E-3,5.1601958E-2,3.0550556E-4,4.2261884E-2,-6.2238634E-2,4.383094E-3,-5.3604912E-2,3.1433266E-2,-1.02864675E-1,2.2607123E-2,4.5106556E-2,2.4361774E-2,4.025584E-2,5.2778102E-2,5.5627745E-2,6.430494E-2,1.4504226E-2,5.8370646E-2,6.3732885E-2,6.8405375E-2,-5.5192537E-3,5.354635E-2,-5.2778818E-2,4.8935164E-2],"categories":[],"categories_nodes":[],"categories_segments":[],"categories_sizes":[],"default_left":[0,0,0,1,0,0,0,0,0,1,0,0,0,0,0,0,0,0,0,0,0,0,0,1,0,0,0,0,0,0,0,0,0,0,0,0,0,0,0,1,0,0,0,0,0,0,0,0,1,0,0,0,0,0,1,0,0,0,0,0,0,0,0,0,0,0,0,0,0,0,0,0,0,0,0,0,0,0,0,0,0,0,0,0,0,0,0,0,0,0,0,0,0,0,0,0,0,0,0,0,0,0,0,0,0,0,0,0,0,0,0,0,0,0,0,0,0],"id":11,"left_children":[1,3,5,7,9,11,13,15,17,19,21,23,25,27,29,31,33,35,37,39,41,43,45,47,49,51,53,55,57,59,61,63,65,67,69,71,73,75,77,79,81,-1,83,85,87,89,91,93,95,97,99,101,103,105,107,-1,-1,-1,-1,109,111,113,115,-1,-1,-1,-1,-1,-1,-1,-1,-1,-1,-1,-1,-1,-1,-1,-1,-1,-1,-1,-1,-1,-1,-1,-1,-1,-1,-1,-1,-1,-1,-1,-1,-1,-1,-1,-1,-1,-1,-1,-1,-1,-1,-1,-1,-1,-1,-1,-1,-1,-1,-1,-1,-1,-1],"loss_changes":[2.7006072E4,1.6513691E3,3.2965723E2,8.266133E2,3.3038907E2,8.8381836E1,2.5488281E1,5.995244E2,8.420447E1,7.6530365E1,2.071719E2,7.642505E1,4.9915527E1,1.5661663E1,2.029004E1,2.6469727E1,3.358579E2,6.7100174E1,8.288704E1,2.8850098E1,2.510323E1,8.564605E1,1.81722E2,3.5409912E1,5.1083527E1,3.310579E1,2.554004E1,2.4389381E0,1.3439358E1,1.3316406E1,1.2280441E1,1.1552246E1,4.1875366E1,1.0701123E2,3.86529E2,5.6409645E1,4.315534E1,2.1274475E1,3.572592E1,1.5676025E1,7.227078E1,0E0,7.7129955E0,7.1537605E1,3.5741898E1,1.2962692E2,6.747696E1,1.1543274E1,2.5112759E1,3.1200394E1,4.146499E1,2.1206608E1,1.6332611E1,2.4826416E1,9.18457E0,0E0,0E0,0E0,0E0,1.139212E1,7.0742188E0,9.269485E0,1.3168096E1,0E0,0E0,0E0,0E0,0E0,0E0,0E0,0E0,0E0,0E0,0E0,0E0,0E0,0E0,0E0,0E0,0E0,0E0,0E0,0E0,0E0,0E0,0E0,0E0,0E0,0E0,0E0,0E0,0E0,0E0,0E0,0E0,0E0,0E0,0E0,0E0,0E0,0E0,0E0,0E0,0E0,0E0,0E0,0E0,0E0,0E0,0E0,0E0,0E0,0E0,0E0,0E0,0E0,0E0],"parents":[2147483647,0,0,1,1,2,2,3,3,4,4,5,5,6,6,7,7,8,8,9,9,10,10,11,11,12,12,13,13,14,14,15,15,16,16,17,17,18,18,19,19,20,20,21,21,22,22,23,23,24,24,25,25,26,26,27,27,28,28,29,29,30,30,31,31,32,32,33,33,34,34,35,35,36,36,37,37,38,38,39,39,40,40,42,42,43,43,44,44,45,45,46,46,47,47,48,48,49,49,50,50,51,51,52,52,53,53,54,54,59,59,60,60,61,61,62,62],"right_children":[2,4,6,8,10,12,14,16,18,20,22,24,26,28,30,32,34,36,38,40,42,44,46,48,50,52,54,56,58,60,62,64,66,68,70,72,74,76,78,80,82,-1,84,86,88,90,92,94,96,98,100,102,104,106,108,-1,-1,-1,-1,110,112,114,116,-1,-1,-1,-1,-1,-1,-1,-1,-1,-1,-1,-1,-1,-1,-1,-1,-1,-1,-1,-1,-1,-1,-1,-1,-1,-1,-1,-1,-1,-1,-1,-1,-1,-1,-1,-1,-1,-1,-1,-1,-1,-1,-1,-1,-1,-1,-1,-1,-1,-1,-1,-1,-1,-1],"split_conditions":[5.1E1,1E-1,5.3E1,5E-1,1.6E1,-4E0,2.9E1,2.8E1,1.59E1,1.7E0,-5E-1,-2.5881904E-1,6.666667E-1,2.58E2,7.684758E0,4.18E2,1.2257018E1,1.12E1,-8.660254E-1,4.6E-1,-5E-2,1.54823E1,1E2,-1.1E1,4.5E1,-1.7E0,1E2,1.3905587E1,6.75E2,8.1E1,-5E-1,9.659258E-1,7.22924E0,6.6E1,-8.660254E-1,6.4E1,9E-1,7.1E1,6.6E0,1.65E2,6.9E1,-6.6678114E-2,1.5E1,2.39E1,1.67E1,1E0,6.666667E-1,1.55E2,5E-1,1.2976742E1,6E-1,3E1,-2.5881904E-1,-5E-1,2E0,7.224209E-2,2.2967717E-2,-5.8936756E-2,3.7658103E-2,5.8E1,9.8E1,-1.91E1,1.3E1,-6.920268E-2,-6.1901536E-2,-3.8740348E-2,-6.345334E-2,-6.7688845E-2,-4.805703E-2,9.963008E-3,-3.8868807E-2,-3.845836E-2,6.6446565E-2,1.0202496E-3,3.140644E-2,-1.7649328E-2,6.332704E-2,-3.832855E-3,-7.7568956E-2,-6.998315E-2,1.50407255E-2,-7.5231925E-2,8.3351135E-2,-3.0367307E-3,6.443422E-2,6.1271642E-3,-8.875229E-2,5.2269906E-2,1.9532053E-2,-3.216509E-2,-9.010695E-4,-2.4382727E-2,1.9489644E-2,-8.441079E-3,5.1601958E-2,3.0550556E-4,4.2261884E-2,-6.2238634E-2,4.383094E-3,-5.3604912E-2,3.1433266E-2,-1.02864675E-1,2.2607123E-2,4.5106556E-2,2.4361774E-2,4.025584E-2,5.2778102E-2,5.5627745E-2,6.430494E-2,1.4504226E-2,5.8370646E-2,6.3732885E-2,6.8405375E-2,-5.5192537E-3,5.354635E-2,-5.2778818E-2,4.8935164E-2],"split_indices":[53,47,53,62,49,50,49,49,34,65,1,1,62,33,12,55,11,9,1,16,16,11,49,31,49,6,49,11,55,36,1,1,12,37,1,32,65,44,32,44,10,0,44,9,34,48,62,33,65,11,63,31,1,0,65,0,0,0,0,49,49,35,14,0,0,0,0,0,0,0,0,0,0,0,0,0,0,0,0,0,0,0,0,0,0,0,0,0,0,0,0,0,0,0,0,0,0,0,0,0,0,0,0,0,0,0,0,0,0,0,0,0,0,0,0,0,0],"split_type":[0,0,0,0,0,0,0,0,0,0,0,0,0,0,0,0,0,0,0,0,0,0,0,0,0,0,0,0,0,0,0,0,0,0,0,0,0,0,0,0,0,0,0,0,0,0,0,0,0,0,0,0,0,0,0,0,0,0,0,0,0,0,0,0,0,0,0,0,0,0,0,0,0,0,0,0,0,0,0,0,0,0,0,0,0,0,0,0,0,0,0,0,0,0,0,0,0,0,0,0,0,0,0,0,0,0,0,0,0,0,0,0,0,0,0,0,0],"sum_hessian":[2.783025E4,1.594915E4,1.18811E4,1.262998E4,3.31917E3,6.0954614E3,5.785638E3,1.1921956E4,7.080247E2,3.4709787E2,2.972072E3,1.1318756E3,4.9635854E3,2.631727E1,5.7593213E3,5.4614824E3,6.460473E3,5.852798E2,1.2274496E2,3.206788E2,2.6419079E1,8.5896387E2,2.1131084E3,7.556677E2,3.7620795E2,4.5427527E2,4.5093105E3,1.3150918E1,1.3166351E1,5.6331333E3,1.2618788E2,4.209456E3,1.2520261E3,3.8303782E3,2.6300952E3,1.1128361E2,4.7399615E2,3.241185E1,9.033311E1,2.9226184E2,2.8416954E1,5.125355E0,2.1293724E1,5.1929126E2,3.396726E2,1.5644861E3,5.486222E2,6.1265564E2,1.4301207E2,7.675658E1,2.994514E2,1.1819713E1,4.4245554E2,2.140824E3,2.3684863E3,6.9500227E0,6.2008953E0,8.165249E0,5.0011024E0,3.5006546E2,5.283068E3,1.1542474E2,1.0763142E1,3.421932E3,7.8752435E2,2.1398878E2,1.0380374E3,9.259593E2,2.9044187E3,4.9975528E2,2.1303398E3,9.750846E1,1.37751465E1,2.0935905E2,2.6463712E2,1.256121E1,1.9850641E1,2.1843576E1,6.848953E1,2.8716293E2,5.09892E0,1.7770496E1,1.064646E1,5.345873E0,1.5947852E1,4.996055E2,1.968574E1,1.5541681E2,1.842558E2,1.0870743E3,4.774118E2,1.08371216E2,4.4025098E2,7.702433E0,6.049532E2,6.663204E1,7.638003E1,2.5573997E1,5.1182575E1,1.4162125E1,2.8528925E2,5.9975157E0,5.822197E0,2.9412943E2,1.4832611E2,5.609865E2,1.5798375E3,1.9330687E3,4.354176E2,1.661989E1,3.334456E2,1.438047E3,3.8450208E3,6.719419E0,1.0870532E2,5.7594967E0,5.003645E0],"tree_param":{"num_deleted":"0","num_feature":"68","num_nodes":"117","size_leaf_vector":"1"}},{"base_weights":[1.2721369E-3,-8.180249E-1,1.1078895E0,-1.2626987E0,-5.944679E-1,9.353475E-1,1.288027E0,-1.2851325E0,2.606042E-1,-7.2263634E-1,6.671723E-2,4.4698837E-1,9.620352E-1,1.0329735E0,1.3022411E0,-1.2940823E0,-2.1220854E-1,-3.8244078E-1,7.6431054E-1,-8.0573356E-1,1.24782205E-1,3.6214164E-1,-1.4885978E-1,6.8530846E-1,-1.2389174E-1,8.408542E-1,1.0314755E0,1.3848287E-1,1.0700979E0,1.1342863E0,1.3161638E0,-3.570452E-1,-1.2990243E0,-9.722374E-1,1.2657804E0,5.7928454E-2,-9.3810725E-1,-2.282134E-1,1.1039532E0,-2.7292895E-1,-9.03938E-1,5.342489E-1,-1.0038879E-1,-7.186609E-2,6.56731E-1,1.9932884E-1,-4.201837E-1,-5.0676893E-2,7.5501716E-1,4.7659045E-1,-6.127509E-1,5.330553E-1,8.956303E-1,1.1133866E0,9.4661105E-1,5.479774E-2,-5.4431487E-2,6.282827E-1,1.1232562E0,8.1148255E-1,1.1820118E0,1.0090837E0,1.3202074E0,-6.5905854E-2,4.0448647E-2,-6.549567E-2,-4.165646E-2,1.6951486E-2,-7.66845E-2,9.055306E-2,2.6867736E-2,3.540029E-2,-8.040487E-2,-7.368808E-2,5.7078768E-2,6.587759E-2,-1.202226E-3,-4.3078158E-2,3.9396025E-3,-3.2491144E-2,-5.4555405E-2,2.9177422E-2,-7.2804146E-2,-1.6427323E-2,2.463149E-2,2.1968774E-2,-1.9555032E-2,-8.747491E-2,3.6327004E-2,1.6324263E-2,-3.2465715E-2,-7.212663E-2,-1.6416077E-2,-2.8519884E-2,3.963597E-2,4.6839695E-2,-5.491655E-2,-5.482964E-2,1.9563515E-2,2.894235E-2,-6.0582586E-2,1.6420515E-3,4.5460235E-2,-7.8320755E-3,5.6183238E-2,-1.16783045E-2,4.8143923E-2,-2.31053E-2,5.102035E-2,5.9717596E-2,3.0806905E-2,4.7229897E-2,-9.888315E-3,1.9211924E-2,5.960926E-2,1.2476682E-2,5.509725E-2,6.6948004E-2,6.340635E-2],"categories":[],"categories_nodes":[],"categories_segments":[],"categories_sizes":[],"default_left":[0,0,0,1,0,0,0,1,0,1,0,0,0,0,0,0,0,0,0,0,0,0,0,0,0,0,0,0,0,0,0,0,0,0,0,0,0,0,0,0,0,0,0,0,0,0,0,0,0,0,0,1,0,0,0,0,0,0,0,0,0,0,0,0,0,0,0,0,0,0,0,0,0,0,0,0,0,0,0,0,0,0,0,0,0,0,0,0,0,0,0,0,0,0,0,0,0,0,0,0,0,0,0,0,0,0,0,0,0,0,0,0,0,0,0,0,0,0,0],"id":12,"left_children":[1,3,5,7,9,11,13,15,17,19,21,23,25,27,29,31,33,35,37,39,41,43,45,47,49,51,53,55,57,59,61,63,65,67,69,-1,71,73,75,77,79,81,83,85,87,89,91,-1,93,95,97,99,101,103,105,-1,-1,107,109,111,113,115,117,-1,-1,-1,-1,-1,-1,-1,-1,-1,-1,-1,-1,-1,-1,-1,-1,-1,-1,-1,-1,-1,-1,-1,-1,-1,-1,-1,-1,-1,-1,-1,-1,-1,-1,-1,-1,-1,-1,-1,-1,-1,-1,-1,-1,-1,-1,-1,-1,-1,-1,-1,-1,-1,-1,-1,-1],"loss_changes":[2.482172E4,1.5628652E3,3.6056445E2,1.8024902E2,8.873833E2,7.701123E1,1.9066406E1,4.9368164E1,2.5313969E1,6.177549E2,1.0839587E2,4.2385906E1,4.643164E1,9.886871E0,1.0866211E1,2.3185547E1,5.083628E1,3.0571802E1,1.5061729E1,4.175625E2,7.237854E1,9.190764E1,9.304864E1,2.6713844E1,2.7362576E1,3.4138916E1,2.3643066E1,1.6988628E1,6.009674E0,5.318115E0,4.607422E0,3.30151E1,2.4642578E1,2.2571898E1,4.906946E0,0E0,2.9822918E1,2.1998545E1,8.060089E0,2.5783478E2,3.1986328E2,2.8086403E1,6.867524E1,4.7672596E1,7.305333E1,4.673136E1,5.1324097E1,0E0,1.1034203E1,3.1333323E1,2.543854E1,2.5741196E1,2.0353394E1,2.398706E1,3.421765E1,0E0,0E0,1.5056153E1,8.471741E0,8.0010605E0,2.3368225E0,4.4683456E0,2.8291016E0,0E0,0E0,0E0,0E0,0E0,0E0,0E0,0E0,0E0,0E0,0E0,0E0,0E0,0E0,0E0,0E0,0E0,0E0,0E0,0E0,0E0,0E0,0E0,0E0,0E0,0E0,0E0,0E0,0E0,0E0,0E0,0E0,0E0,0E0,0E0,0E0,0E0,0E0,0E0,0E0,0E0,0E0,0E0,0E0,0E0,0E0,0E0,0E0,0E0,0E0,0E0,0E0,0E0,0E0,0E0,0E0],"parents":[2147483647,0,0,1,1,2,2,3,3,4,4,5,5,6,6,7,7,8,8,9,9,10,10,11,11,12,12,13,13,14,14,15,15,16,16,17,17,18,18,19,19,20,20,21,21,22,22,23,23,24,24,25,25,26,26,27,27,28,28,29,29,30,30,31,31,32,32,33,33,34,34,36,36,37,37,38,38,39,39,40,40,41,41,42,42,43,43,44,44,45,45,46,46,48,48,49,49,50,50,51,51,52,52,53,53,54,54,57,57,58,58,59,59,60,60,61,61,62,62],"right_children":[2,4,6,8,10,12,14,16,18,20,22,24,26,28,30,32,34,36,38,40,42,44,46,48,50,52,54,56,58,60,62,64,66,68,70,-1,72,74,76,78,80,82,84,86,88,90,92,-1,94,96,98,100,102,104,106,-1,-1,108,110,112,114,116,118,-1,-1,-1,-1,-1,-1,-1,-1,-1,-1,-1,-1,-1,-1,-1,-1,-1,-1,-1,-1,-1,-1,-1,-1,-1,-1,-1,-1,-1,-1,-1,-1,-1,-1,-1,-1,-1,-1,-1,-1,-1,-1,-1,-1,-1,-1,-1,-1,-1,-1,-1,-1,-1,-1,-1,-1],"split_conditions":[5.1E1,1E0,5.3E1,1.1E0,1E-1,5E-1,6.8E1,2E-1,7.2E0,5E-1,-1.0766187E0,-2.5881904E-1,-2.5881904E-1,-8.660254E-1,8.5E1,9.968E2,9.5E1,-3.9E0,6E-1,-8.660254E-1,-5E-1,-5E-1,-2.5881904E-1,-1.6E0,-1.7918397E0,-1.4E1,-5E-1,6E0,-3.2E-1,0E0,6E-1,1.13E1,1E-1,-1.7E1,-2.2E1,5.7928454E-2,-3.3E0,2.7E0,7E1,9.682093E0,1.0161E3,2.97E1,6E-1,-9E-1,-1.7E1,1.0204E3,8E0,-5.0676893E-2,-9.9E1,2.8E-1,2.75E1,9.6E1,3.6E1,4.8E1,-4.6E1,5.479774E-2,-5.4431487E-2,6.3E1,7E-1,2.6E0,-1.2279324E1,-5E-1,2.7E-1,-6.5905854E-2,4.0448647E-2,-6.549567E-2,-4.165646E-2,1.6951486E-2,-7.66845E-2,9.055306E-2,2.6867736E-2,3.540029E-2,-8.040487E-2,-7.368808E-2,5.7078768E-2,6.587759E-2,-1.202226E-3,-4.3078158E-2,3.9396025E-3,-3.2491144E-2,-5.4555405E-2,2.9177422E-2,-7.2804146E-2,-1.6427323E-2,2.463149E-2,2.1968774E-2,-1.9555032E-2,-8.747491E-2,3.6327004E-2,1.6324263E-2,-3.2465715E-2,-7.212663E-2,-1.6416077E-2,-2.8519884E-2,3.963597E-2,4.6839695E-2,-5.491655E-2,-5.482964E-2,1.9563515E-2,2.894235E-2,-6.0582586E-2,1.6420515E-3,4.5460235E-2,-7.8320755E-3,5.6183238E-2,-1.16783045E-2,4.8143923E-2,-2.31053E-2,5.102035E-2,5.9717596E-2,3.0806905E-2,4.7229897E-2,-9.888315E-3,1.9211924E-2,5.960926E-2,1.2476682E-2,5.509725E-2,6.6948004E-2,6.340635E-2],"split_indices":[53,53,53,63,46,62,10,66,17,62,18,1,0,0,36,4,44,20,20,1,1,0,1,6,18,51,1,17,16,51,46,9,46,14,31,0,38,63,37,11,4,9,66,7,14,4,9,0,44,15,39,36,37,10,51,0,0,10,6,20,18,2,15,0,0,0,0,0,0,0,0,0,0,0,0,0,0,0,0,0,0,0,0,0,0,0,0,0,0,0,0,0,0,0,0,0,0,0,0,0,0,0,0,0,0,0,0,0,0,0,0,0,0,0,0,0,0,0,0],"split_type":[0,0,0,0,0,0,0,0,0,0,0,0,0,0,0,0,0,0,0,0,0,0,0,0,0,0,0,0,0,0,0,0,0,0,0,0,0,0,0,0,0,0,0,0,0,0,0,0,0,0,0,0,0,0,0,0,0,0,0,0,0,0,0,0,0,0,0,0,0,0,0,0,0,0,0,0,0,0,0,0,0,0,0,0,0,0,0,0,0,0,0,0,0,0,0,0,0,0,0,0,0,0,0,0,0,0,0,0,0,0,0,0,0,0,0,0,0,0,0],"sum_hessian":[2.737542E4,1.5729829E4,1.1645591E4,5.2607183E3,1.046911E4,5.9516455E3,5.6939453E3,5.1845864E3,7.6131905E1,8.769275E3,1.6998356E3,3.0950482E2,5.6421406E3,3.0483096E2,5.3891147E3,5.1414004E3,4.3186203E1,3.345921E1,4.26727E1,7.986311E3,7.829642E2,7.170213E2,9.828143E2,2.1833376E2,9.117107E1,2.0606436E3,3.581497E3,1.2443235E1,2.9238773E2,4.19399E2,4.969716E3,2.74643E1,5.113936E3,2.879087E1,1.4395331E1,8.532198E0,2.4927011E1,1.0888204E1,3.1784496E1,1.2436622E3,6.7426484E3,2.7746814E2,5.05496E2,2.9007745E2,4.2694388E2,4.3039163E2,5.5242267E2,8.015543E0,2.1031822E2,4.083392E1,5.0337147E1,3.1320905E2,1.7474344E3,1.8156953E3,1.7658019E3,7.095358E0,5.3478775E0,3.298007E1,2.5940765E2,5.660896E1,3.6279004E2,6.8166176E1,4.9015493E3,1.5030757E1,1.2433542E1,4.9951606E3,1.1877553E2,8.697048E0,2.0093824E1,7.3041124E0,7.091219E0,7.1511645E0,1.7775846E1,5.7012024E0,5.1870008E0,2.6657265E1,5.127231E0,4.6473105E2,7.7893115E2,2.8620017E3,3.8806467E3,2.7150027E2,5.9678764E0,3.6549155E2,1.4000443E2,1.1124053E2,1.7883691E2,1.1318429E1,4.1562546E2,3.749449E2,5.5446735E1,4.4243034E1,5.0817963E2,5.3530135E0,2.0496521E2,3.1962826E1,8.871094E0,3.3972878E1,1.6364273E1,3.0590576E2,7.303273E0,2.723391E1,1.7202006E3,1.43836775E1,1.8013116E3,2.3743456E1,1.7420583E3,8.6085615E0,2.4371506E1,2.2615007E2,3.325759E1,5.0156662E1,6.4522963E0,5.1800056E0,3.5761002E2,7.94497E0,6.022121E1,3.5843096E3,1.3172399E3],"tree_param":{"num_deleted":"0","num_feature":"68","num_nodes":"119","size_leaf_vector":"1"}},{"base_weights":[2.7731042E-3,-7.892144E-1,1.0795339E0,-1.2177876E0,-5.5800015E-1,6.4710575E-1,1.1840097E0,-1.2379422E0,6.1765254E-1,-6.794266E-1,5.930978E-2,-4.374023E-1,6.622938E-1,1.0399779E0,1.2478042E0,-1.2550423E0,-4.26302E-1,-7.739779E-2,9.152963E-1,-1.1878061E0,-5.567801E-1,-2.6806635E-1,2.692632E-1,5.197265E-1,-1.1128848E0,9.130049E-1,5.9045947E-1,6.220869E-1,1.0655705E0,1.1115617E0,1.2818737E0,-1.274301E0,-7.408994E-1,-7.6564986E-1,5.8963454E-1,-2.1590305E-2,1.1295981E0,-1.2356651E0,-2.8108487E-1,-4.032186E-1,-1.0707172E0,-4.0685123E-1,5.823469E-1,2.153202E-2,6.154788E-1,-1.5618448E-2,5.573805E-2,-0E0,-7.710396E-2,2.9159975E-1,1.057518E0,2.0683958E-1,6.467444E-1,7.530888E-1,-3.2055813E-1,9.165863E-1,1.1195334E0,1.1222086E0,-2.3387061E-2,1.1278932E0,1.2991476E0,-6.3880906E-2,3.1045744E-2,2.8645739E-2,-5.0501585E-2,-5.9832543E-2,1.1786166E-2,5.296735E-2,-2.4666138E-2,7.138785E-2,2.6774501E-2,-6.493331E-2,-4.2066365E-2,6.0905017E-2,-3.9098363E-2,-2.675626E-2,6.580046E-3,-5.649838E-2,2.7111648E-2,-1.274684E-2,-4.6461117E-2,-3.127407E-2,5.1909674E-2,-1.1970974E-2,1.8942924E-2,-4.052763E-2,3.6071885E-2,-6.4671494E-2,2.2686027E-2,5.9640195E-2,3.372344E-2,-3.7755687E-2,1.9529616E-2,3.0249586E-2,5.5913467E-2,-3.8029708E-2,4.076828E-2,2.6929576E-2,-1.054981E-1,-4.15353E-2,4.6569735E-2,1.3010685E-3,5.6268167E-2,6.016913E-2,4.6373334E-2,1.604715E-2,5.734796E-2,5.561011E-2,6.54774E-2],"categories":[],"categories_nodes":[],"categories_segments":[],"categories_sizes":[],"default_left":[0,0,0,1,0,0,0,0,0,0,0,0,0,0,0,1,0,0,0,0,0,0,0,0,0,0,0,0,0,1,0,1,0,0,0,0,0,0,0,0,0,0,0,0,0,0,0,0,0,0,0,0,1,0,0,0,0,0,0,0,0,0,0,0,0,0,0,0,0,0,0,0,0,0,0,0,0,0,0,0,0,0,0,0,0,0,0,0,0,0,0,0,0,0,0,0,0,0,0,0,0,0,0,0,0,0,0,0,0],"id":13,"left_children":[1,3,5,7,9,11,13,15,17,19,21,23,25,27,29,31,33,-1,35,37,39,41,43,45,47,49,51,53,55,57,59,61,63,65,67,-1,69,71,73,75,77,79,81,83,85,-1,-1,-1,-1,87,89,91,93,95,97,99,101,103,-1,105,107,-1,-1,-1,-1,-1,-1,-1,-1,-1,-1,-1,-1,-1,-1,-1,-1,-1,-1,-1,-1,-1,-1,-1,-1,-1,-1,-1,-1,-1,-1,-1,-1,-1,-1,-1,-1,-1,-1,-1,-1,-1,-1,-1,-1,-1,-1,-1,-1],"loss_changes":[2.284386E4,1.5286016E3,5.1194922E2,2.008789E2,7.5176416E2,3.673932E1,8.247461E1,7.3543945E1,3.961026E1,5.216494E2,1.1341835E2,2.0715405E1,3.85979E1,2.925122E1,2.7720703E1,5.0725586E1,3.9087563E1,0E0,1.5814255E1,7.0132324E1,5.3238135E2,7.630507E1,8.615454E1,7.097376E0,8.836905E0,4.2993042E1,3.6460632E1,2.0653896E1,2.0065674E1,2.2020142E1,1.1743164E1,3.2591797E1,6.841129E1,3.6838284E1,1.5096346E1,0E0,7.1761475E0,3.709326E1,6.3237373E1,3.6704034E2,1.4907263E2,4.3679497E1,5.0659622E1,5.4863514E1,6.3908295E1,0E0,0E0,0E0,0E0,2.4342804E1,1.9318512E1,3.8978317E1,2.8302551E1,1.4314613E1,3.3170284E1,1.9163208E1,1.2220459E1,1.8688354E1,0E0,7.458496E0,7.128418E0,0E0,0E0,0E0,0E0,0E0,0E0,0E0,0E0,0E0,0E0,0E0,0E0,0E0,0E0,0E0,0E0,0E0,0E0,0E0,0E0,0E0,0E0,0E0,0E0,0E0,0E0,0E0,0E0,0E0,0E0,0E0,0E0,0E0,0E0,0E0,0E0,0E0,0E0,0E0,0E0,0E0,0E0,0E0,0E0,0E0,0E0,0E0,0E0],"parents":[2147483647,0,0,1,1,2,2,3,3,4,4,5,5,6,6,7,7,8,8,9,9,10,10,11,11,12,12,13,13,14,14,15,15,16,16,18,18,19,19,20,20,21,21,22,22,23,23,24,24,25,25,26,26,27,27,28,28,29,29,30,30,31,31,32,32,33,33,34,34,36,36,37,37,38,38,39,39,40,40,41,41,42,42,43,43,44,44,49,49,50,50,51,51,52,52,53,53,54,54,55,55,56,56,57,57,59,59,60,60],"right_children":[2,4,6,8,10,12,14,16,18,20,22,24,26,28,30,32,34,-1,36,38,40,42,44,46,48,50,52,54,56,58,60,62,64,66,68,-1,70,72,74,76,78,80,82,84,86,-1,-1,-1,-1,88,90,92,94,96,98,100,102,104,-1,106,108,-1,-1,-1,-1,-1,-1,-1,-1,-1,-1,-1,-1,-1,-1,-1,-1,-1,-1,-1,-1,-1,-1,-1,-1,-1,-1,-1,-1,-1,-1,-1,-1,-1,-1,-1,-1,-1,-1,-1,-1,-1,-1,-1,-1,-1,-1,-1,-1],"split_conditions":[5.1E1,2.3E1,2E-1,2.3E0,1E-1,2.1E1,4E-1,2E-1,4.4E0,1E-1,-5E-1,-5E-1,-8.660254E-1,4E-1,9E1,3.9E0,1.7297335E1,-7.739779E-2,-2.5881904E-1,7.7E0,1.0206E3,1.3E0,9.9E1,1.3068099E1,1.21E1,-4E0,-2.2E-1,8.3E1,-5E-1,3.02E1,3E0,9.8E1,3.4E0,1E0,-2E-1,-2.1590305E-2,5.8E0,7.6E1,2.16E1,1E2,7.6E-1,1.15E1,1.3975246E1,1.88E1,5.8354216E0,-1.5618448E-2,5.573805E-2,-0E0,-7.710396E-2,-2.1E1,1.0182E3,5.5E1,8E-1,-5E1,-7.0710677E-1,-4.8E1,5E1,-2.5881904E-1,-2.3387061E-2,-3.7E0,7.4E1,-6.3880906E-2,3.1045744E-2,2.8645739E-2,-5.0501585E-2,-5.9832543E-2,1.1786166E-2,5.296735E-2,-2.4666138E-2,7.138785E-2,2.6774501E-2,-6.493331E-2,-4.2066365E-2,6.0905017E-2,-3.9098363E-2,-2.675626E-2,6.580046E-3,-5.649838E-2,2.7111648E-2,-1.274684E-2,-4.6461117E-2,-3.127407E-2,5.1909674E-2,-1.1970974E-2,1.8942924E-2,-4.052763E-2,3.6071885E-2,-6.4671494E-2,2.2686027E-2,5.9640195E-2,3.372344E-2,-3.7755687E-2,1.9529616E-2,3.0249586E-2,5.5913467E-2,-3.8029708E-2,4.076828E-2,2.6929576E-2,-1.054981E-1,-4.15353E-2,4.6569735E-2,1.3010685E-3,5.6268167E-2,6.016913E-2,4.6373334E-2,1.604715E-2,5.734796E-2,5.561011E-2,6.54774E-2],"split_indices":[53,49,45,65,46,49,45,46,17,65,0,8,1,65,49,20,11,0,0,21,4,46,49,11,9,13,16,44,0,39,65,37,43,22,21,0,43,37,39,49,27,17,11,9,11,0,0,0,0,35,4,49,66,31,1,50,10,1,0,7,10,0,0,0,0,0,0,0,0,0,0,0,0,0,0,0,0,0,0,0,0,0,0,0,0,0,0,0,0,0,0,0,0,0,0,0,0,0,0,0,0,0,0,0,0,0,0,0,0],"split_type":[0,0,0,0,0,0,0,0,0,0,0,0,0,0,0,0,0,0,0,0,0,0,0,0,0,0,0,0,0,0,0,0,0,0,0,0,0,0,0,0,0,0,0,0,0,0,0,0,0,0,0,0,0,0,0,0,0,0,0,0,0,0,0,0,0,0,0,0,0,0,0,0,0,0,0,0,0,0,0,0,0,0,0,0,0,0,0,0,0,0,0,0,0,0,0,0,0,0,0,0,0,0,0,0,0,0,0,0,0],"sum_hessian":[2.6785451E4,1.5433706E4,1.1351746E4,5.4069014E3,1.0026805E4,2.2105151E3,9.14123E3,5.3485503E3,5.8351353E1,8.378745E3,1.6480596E3,3.0054846E1,2.1804602E3,2.811792E3,6.329439E3,5.237533E3,1.1101696E2,6.502625E0,5.184873E1,1.6266506E3,6.7520947E3,6.4366016E2,1.00439935E3,1.2469151E1,1.7585695E1,4.826941E2,1.6977661E3,1.6394879E2,2.647843E3,1.2734663E3,5.0559727E3,5.046817E3,1.9071623E2,8.3478035E1,2.753893E1,6.91286E0,4.4935867E1,1.5446473E3,8.20033E1,5.200264E3,1.5518306E3,5.5390393E2,8.975626E1,5.862587E2,4.1814066E2,5.3269434E0,7.1422076E0,5.1898117E0,1.2395884E1,9.177452E1,3.909196E2,2.180512E2,1.4797148E3,1.4421414E2,1.973465E1,7.0932715E2,1.938516E3,1.2652891E3,8.17728E0,5.172503E2,4.538722E3,5.0383774E3,8.439584E0,3.2170467E1,1.5854578E2,5.8293E1,2.5185034E1,1.9287485E1,8.251446E0,2.8873774E1,1.6062094E1,1.3296674E3,2.1497989E2,2.0127718E1,6.1875584E1,4.1715815E3,1.0286825E3,1.4971937E3,5.4636772E1,4.3041217E2,1.23491745E2,2.4431128E1,6.5325134E1,3.3885028E2,2.4740843E2,2.8395168E1,3.8974548E2,7.811147E0,8.396337E1,2.8713412E2,1.0378544E2,3.4385906E1,1.836653E2,1.3616394E3,1.1807549E2,5.192322E0,1.3902182E2,1.3767542E1,5.967108E0,5.441297E0,7.0388586E2,1.0400141E1,1.9281158E3,8.8902496E2,3.7626407E2,1.2471808E1,5.047785E2,2.4539253E2,4.2933296E3],"tree_param":{"num_deleted":"0","num_feature":"68","num_nodes":"109","size_leaf_vector":"1"}},{"base_weights":[-3.041112E-3,-7.468564E-1,1.0399053E0,-9.104312E-1,-1.542493E-1,8.781574E-1,1.1448721E0,-9.7155464E-1,7.125181E-2,3.1765902E-1,-3.473915E-1,5.141843E-1,9.153129E-1,9.0023744E-1,1.1848755E0,-5.398489E-1,-1.0476443E0,-6.2665105E-2,7.233026E-1,1.8361749E-1,9.294006E-1,-1.2914854E-2,-5.8260244E-1,7.135448E-2,7.11483E-1,7.4498594E-1,9.8570585E-1,-7.083951E-1,9.258715E-1,9.7837937E-1,1.2065274E0,-8.05643E-1,-6.213994E-2,-1.1487085E0,-8.0555785E-1,-4.6463373E-1,1.9365233E-1,-6.70713E-1,9.427693E-1,-5.459148E-1,3.040759E-1,-1.7792144E-1,1.0757928E0,-2.5060174E-1,4.6294785E-1,-8.679691E-1,-3.320687E-1,-1.0310873E-1,1.9532254E-1,2.01465E-1,8.7472093E-1,4.983464E-1,8.348942E-1,8.571295E-1,1.0799513E0,-1.14160955E-1,3.098636E-2,9.550386E-1,-4.416005E-1,7.911622E-1,1.0840299E0,1.2279936E0,1.0591047E0,-4.393069E-2,3.4985155E-2,4.3694604E-2,-2.7552769E-2,-5.79417E-2,5.02859E-4,-5.9994604E-2,-3.1556133E-2,-1.2321893E-2,-7.108112E-2,1.4300446E-2,-5.3788822E-2,3.5700135E-2,-8.4938385E-2,5.9340484E-2,-3.413391E-3,1.3314888E-2,-6.202957E-2,1.8762767E-2,-4.6517715E-2,-8.231975E-2,3.456977E-2,6.0541328E-2,2.5667552E-2,-3.950103E-2,2.485897E-3,1.2595596E-3,3.9709948E-2,-4.541703E-2,5.331971E-2,-6.2309068E-2,-1.0193791E-2,2.0400891E-2,-3.554992E-2,2.946421E-2,-4.778422E-2,-3.23402E-2,4.5880537E-2,3.935035E-2,7.801637E-3,2.3193058E-2,4.473242E-2,1.8675989E-2,4.455119E-2,5.4639906E-2,2.1933636E-2,3.9835002E-2,5.654018E-2,-7.691978E-2,1.988667E-2,-1.3967998E-2,4.4940308E-2,-0E0,5.51601E-2,5.1138677E-2,6.1933167E-2,