{"learner":{"attributes":{"best_iteration":"405","best_score":"0.8149697846509337","scikit_learn":"{\"_estimator_type\": \"classifier\"}"},"feature_names":["hour_sin","hour_cos","month_sin","month_cos","pressure_msl","pressure_change_1h","pressure_change_3h","pressure_change_6h","pressure_accel_3h","temperature_2m","relative_humidity_2m","dew_point","dew_point_depression","humidity_change_1h","humidity_change_3h","vapour_pressure_deficit","vpd_change_3h","wind_speed_10m","wind_u","wind_v","wind_speed_change_1h","wind_speed_change_3h","is_sea_breeze","is_migjorn","is_garbi","is_ponent","llevantada_strength","llevantada_moisture","garbi_strength","tramuntana_strength","tramuntana_moisture","wind_dir_change_3h","temp_925","rh_925","wind_925_speed","wind_925_dir","wind_850_speed","wind_850_dir","temp_850","temp_500","rh_850","rh_700","temp_700","wind_300_speed","wind_300_dir","gph_300","vt_index","tt_index","li_index","li_unstable","moisture_flux_850","moisture_flux_925","theta_e_deficit","inversion_925","deep_layer_shear","jet_speed_300","wind_shear_speed","wind_shear_dir","precipitation","rain_accum_3h","rain_accum_6h","rained_last_3h","cloud_cover","cloud_change_1h","cloud_change_3h","is_overcast","weather_code","model_predicts_precip","wc_is_thunderstorm","wc_is_rain","wc_is_drizzle","nwp_dry_conflict","nwp_wet_conflict","nwp_rain_amount","nwp_rain_drying","nwp_rain_confirmed","afternoon_fp_risk","nwp_rain_dry_air","showers","nwp_showers_fraction","et0_fao_evapotranspiration","soil_temperature_0_to_7cm","soil_air_temp_diff","sunshine_duration","sunshine_accum_3h","wind_speed_100m","boundary_layer_shear","wind_dir_shear_100m","snowfall","nwp_lifted_index","gph_850","gph_850_change_3h","rh_500","dry_intrusion_500","wind_700_speed","wind_700_dir","steering_onshore_700","rain_ending_signal","cloud_thickness_proxy","radiation_rain_conflict","moisture_flux_change_3h","cape_change_3h","shortwave_radiation","radar_dbz","radar_rain_rate","radar_has_echo","radar_frames_with_echo","radar_approaching","radar_max_intensity_1h","radar_nearest_echo_km","radar_max_dbz_20km","radar_coverage_20km","radar_upwind_nearest_echo_km","radar_upwind_max_dbz","radar_storm_velocity_kmh","radar_storm_approaching","radar_quadrant_max_dbz_N","radar_quadrant_max_dbz_E","radar_quadrant_max_dbz_S","radar_quadrant_max_dbz_W","radar_quadrant_coverage_N","radar_quadrant_coverage_E","radar_quadrant_coverage_S","radar_quadrant_coverage_W","radar_echo_bearing_sin","radar_echo_bearing_cos","sentinel_temp_diff","sentinel_humidity_diff","sentinel_precip","sentinel_raining","local_rain_xema","local_rain_xema_3h","ensemble_rain_agreement","ensemble_precip_spread","ensemble_temp_spread","ensemble_max_precip","ensemble_min_precip","ensemble_models_rain","forecast_temp_bias","forecast_humidity_bias","aemet_prob_precip","aemet_prob_storm","aemet_precip_today","lightning_count_30km","lightning_count_15km","lightning_nearest_km","lightning_cloud_ground","lightning_max_current_ka","lightning_approaching","lightning_has_activity","aemet_radar_dbz","aemet_radar_has_echo","aemet_radar_nearest_echo_km","aemet_radar_max_dbz_20km","aemet_radar_coverage_20km","aemet_radar_echoes_found","smc_prob_precip_1h","smc_prob_precip_6h","smc_precip_intensity","orographic_forcing","frontal_passage","convective_composite","thermal_buildup","low_level_convergence","dry_intrusion_700","soil_moisture_0_to_7cm","soil_moisture_7_to_28cm","soil_moisture_change_24h","convective_inhibition","sst_med","cloud_cover_low","cloud_cover_mid","cloud_cover_high","cloud_low_fraction","wet_bulb_temperature_2m","wet_bulb_depression","direct_radiation","diffuse_radiation","diffuse_fraction","wind_gusts_10m","gust_factor","visibility","freezing_level_height"],"feature_types":["float","float","float","float","float","float","float","float","float","float","float","float","float","float","float","float","float","float","float","float","float","float","float","float","float","float","float","float","float","float","float","float","float","float","float","float","float","float","float","float","float","float","float","float","float","float","float","float","float","float","float","float","float","float","float","float","float","float","float","float","float","float","float","float","float","float","float","float","float","float","float","float","float","float","float","float","float","float","float","float","float","float","float","float","float","float","float","float","float","float","float","float","float","float","float","float","float","float","float","float","float","float","float","float","float","float","float","float","float","float","float","float","float","float","float","float","float","float","float","float","float","float","float","float","float","float","float","float","float","float","float","float","float","float","float","float","float","float","float","float","float","float","float","float","float","float","float","float","float","float","float","float","float","float","float","float","float","float","float","float","float","float","float","float","float","float","float","float","float","float","float","float","float","float","float","float","float","float","float","float","float","float","float"],"gradient_booster":{"model":{"cats":{"enc":[],"feature_segments":[],"sorted_idx":[]},"gbtree_model_param":{"num_parallel_tree":"1","num_trees":"481"},"iteration_indptr":[0,1,2,3,4,5,6,7,8,9,10,11,12,13,14,15,16,17,18,19,20,21,22,23,24,25,26,27,28,29,30,31,32,33,34,35,36,37,38,39,40,41,42,43,44,45,46,47,48,49,50,51,52,53,54,55,56,57,58,59,60,61,62,63,64,65,66,67,68,69,70,71,72,73,74,75,76,77,78,79,80,81,82,83,84,85,86,87,88,89,90,91,92,93,94,95,96,97,98,99,100,101,102,103,104,105,106,107,108,109,110,111,112,113,114,115,116,117,118,119,120,121,122,123,124,125,126,127,128,129,130,131,132,133,134,135,136,137,138,139,140,141,142,143,144,145,146,147,148,149,150,151,152,153,154,155,156,157,158,159,160,161,162,163,164,165,166,167,168,169,170,171,172,173,174,175,176,177,178,179,180,181,182,183,184,185,186,187,188,189,190,191,192,193,194,195,196,197,198,199,200,201,202,203,204,205,206,207,208,209,210,211,212,213,214,215,216,217,218,219,220,221,222,223,224,225,226,227,228,229,230,231,232,233,234,235,236,237,238,239,240,241,242,243,244,245,246,247,248,249,250,251,252,253,254,255,256,257,258,259,260,261,262,263,264,265,266,267,268,269,270,271,272,273,274,275,276,277,278,279,280,281,282,283,284,285,286,287,288,289,290,291,292,293,294,295,296,297,298,299,300,301,302,303,304,305,306,307,308,309,310,311,312,313,314,315,316,317,318,319,320,321,322,323,324,325,326,327,328,329,330,331,332,333,334,335,336,337,338,339,340,341,342,343,344,345,346,347,348,349,350,351,352,353,354,355,356,357,358,359,360,361,362,363,364,365,366,367,368,369,370,371,372,373,374,375,376,377,378,379,380,381,382,383,384,385,386,387,388,389,390,391,392,393,394,395,396,397,398,399,400,401,402,403,404,405,406,407,408,409,410,411,412,413,414,415,416,417,418,419,420,421,422,423,424,425,426,427,428,429,430,431,432,433,434,435,436,437,438,439,440,441,442,443,444,445,446,447,448,449,450,451,452,453,454,455,456,457,458,459,460,461,462,463,464,465,466,467,468,469,470,471,472,473,474,475,476,477,478,479,480,481],"tree_info":[0,0,0,0,0,0,0,0,0,0,0,0,0,0,0,0,0,0,0,0,0,0,0,0,0,0,0,0,0,0,0,0,0,0,0,0,0,0,0,0,0,0,0,0,0,0,0,0,0,0,0,0,0,0,0,0,0,0,0,0,0,0,0,0,0,0,0,0,0,0,0,0,0,0,0,0,0,0,0,0,0,0,0,0,0,0,0,0,0,0,0,0,0,0,0,0,0,0,0,0,0,0,0,0,0,0,0,0,0,0,0,0,0,0,0,0,0,0,0,0,0,0,0,0,0,0,0,0,0,0,0,0,0,0,0,0,0,0,0,0,0,0,0,0,0,0,0,0,0,0,0,0,0,0,0,0,0,0,0,0,0,0,0,0,0,0,0,0,0,0,0,0,0,0,0,0,0,0,0,0,0,0,0,0,0,0,0,0,0,0,0,0,0,0,0,0,0,0,0,0,0,0,0,0,0,0,0,0,0,0,0,0,0,0,0,0,0,0,0,0,0,0,0,0,0,0,0,0,0,0,0,0,0,0,0,0,0,0,0,0,0,0,0,0,0,0,0,0,0,0,0,0,0,0,0,0,0,0,0,0,0,0,0,0,0,0,0,0,0,0,0,0,0,0,0,0,0,0,0,0,0,0,0,0,0,0,0,0,0,0,0,0,0,0,0,0,0,0,0,0,0,0,0,0,0,0,0,0,0,0,0,0,0,0,0,0,0,0,0,0,0,0,0,0,0,0,0,0,0,0,0,0,0,0,0,0,0,0,0,0,0,0,0,0,0,0,0,0,0,0,0,0,0,0,0,0,0,0,0,0,0,0,0,0,0,0,0,0,0,0,0,0,0,0,0,0,0,0,0,0,0,0,0,0,0,0,0,0,0,0,0,0,0,0,0,0,0,0,0,0,0,0,0,0,0,0,0,0,0,0,0,0,0,0,0,0,0,0,0,0,0,0,0,0,0,0,0,0,0,0,0,0,0,0,0,0,0,0,0,0,0,0,0,0,0,0,0,0,0,0,0,0,0,0,0,0,0,0,0,0,0,0,0,0,0,0,0,0,0,0,0,0,0,0,0,0,0,0,0,0,0],"trees":[{"base_weights":[3.291807E-3,-1.3221534E0,1.7424724E0,-1.722986E0,-4.5586002E-1,1.1951299E0,1.8579994E0,-1.7883552E0,-5.814595E-1,-9.9056524E-1,-3.443737E-2,-4.6152568E-1,1.2228937E0,1.6924133E0,1.9258945E0,-1.8393779E0,-1.1810081E0,3.6214474E-1,-8.4610456E-1,-1.0864818E0,3.408872E-1,-1.7995255E-1,9.1917676E-1,-3.7188195E-2,7.580158E-1,5.921406E-1,1.269535E0,1.2797679E0,1.7233282E0,1.9369961E0,1.5045065E0,-1.8631897E0,-1.1199145E0,-1.6895514E0,-7.91588E-1,-3.618313E-2,5.6964606E-1,-1.0359226E0,5.858103E-1,-1.4905949E0,-9.146418E-1,-7.071426E-1,5.862411E-1,-4.929042E-1,2.8286564E-1,5.2253735E-1,1.2101959E0,-2.2802638E-1,3.667372E-2,7.4085426E-1,-3.5228327E-2,1.0632769E0,1.3603156E0,-1.0542224E-2,1.3397298E0,1.5894574E0,1.792101E0,7.381601E-1,1.9396049E0,1.5738657E0,8.038229E-4,-3.8403366E-2,-3.357681E-2,-3.4715194E-2,-1.4512417E-2,-3.5632055E-2,1.0121926E-2,-1.1651959E-2,-3.8838793E-2,1.2618523E-3,2.285402E-2,-9.873793E-4,-2.4925066E-2,1.8795587E-2,-3.4498192E-2,-3.0727658E-2,7.966154E-3,-3.1295903E-2,-1.4549951E-2,-2.8614976E-2,1.4416466E-2,-8.211902E-3,2.1197064E-2,-1.5907926E-2,-1.6949727E-3,-5.4266285E-3,1.1624763E-2,-1.0158842E-2,1.781275E-2,5.575905E-3,2.7255343E-2,-3.3000503E-2,2.2766912E-2,-1.5205827E-3,2.0762004E-2,2.1924943E-2,-3.4350693E-2,2.7472688E-2,-5.9139137E-3,8.934835E-3,2.845915E-2,2.546086E-2,3.3362605E-2,3.0571805E-2,3.640322E-2,-1.1397076E-2,3.3284232E-2,3.759643E-2,3.9716512E-2,2.360265E-2,3.4756042E-2],"categories":[],"categories_nodes":[],"categories_segments":[],"categories_sizes":[],"default_left":[0,0,0,0,0,0,0,0,0,1,1,0,0,0,0,1,0,0,1,0,0,0,0,0,0,0,0,0,0,0,0,0,0,0,0,0,0,0,0,0,0,0,0,0,0,0,0,0,0,0,0,0,1,0,0,0,0,0,0,0,0,0,0,0,0,0,0,0,0,0,0,0,0,0,0,0,0,0,0,0,0,0,0,0,0,0,0,0,0,0,0,0,0,0,0,0,0,0,0,0,0,0,0,0,0,0,0,0,0,0,0],"id":0,"left_children":[1,3,5,7,9,11,13,15,17,19,21,23,25,27,29,31,33,35,37,39,41,43,45,-1,47,49,51,53,55,57,59,61,63,65,67,-1,69,71,73,75,77,79,81,83,85,87,89,91,-1,93,-1,95,97,-1,99,101,103,105,107,109,-1,-1,-1,-1,-1,-1,-1,-1,-1,-1,-1,-1,-1,-1,-1,-1,-1,-1,-1,-1,-1,-1,-1,-1,-1,-1,-1,-1,-1,-1,-1,-1,-1,-1,-1,-1,-1,-1,-1,-1,-1,-1,-1,-1,-1,-1,-1,-1,-1,-1,-1],"loss_changes":[7.300925E4,6.240164E3,8.636367E2,9.156367E2,1.2813762E3,1.1058154E2,1.23515625E2,3.5765625E2,1.6694295E2,3.2054614E2,4.4158652E2,6.98214E1,6.82334E1,3.955664E1,3.422461E1,1.8124219E2,1.7735986E2,6.701706E1,1.4236084E2,1.6077979E2,4.389059E1,4.0010727E2,4.7823517E1,0E0,2.398696E1,5.8573223E1,3.92854E1,2.6130768E1,2.502539E1,2.2707031E1,2.114273E1,1.0538672E2,8.252011E1,8.002893E1,1.2212207E2,0E0,3.891905E1,9.541876E1,5.1927525E1,6.091455E1,1.9859705E2,3.4641243E1,6.5493614E1,2.0329666E2,1.844692E2,6.884244E1,3.385849E1,2.5935772E1,0E0,3.7790802E1,0E0,6.3588562E1,3.394214E1,0E0,1.602884E1,2.3702637E1,1.1788574E1,2.36378E1,1.7392578E1,1.0617096E1,0E0,0E0,0E0,0E0,0E0,0E0,0E0,0E0,0E0,0E0,0E0,0E0,0E0,0E0,0E0,0E0,0E0,0E0,0E0,0E0,0E0,0E0,0E0,0E0,0E0,0E0,0E0,0E0,0E0,0E0,0E0,0E0,0E0,0E0,0E0,0E0,0E0,0E0,0E0,0E0,0E0,0E0,0E0,0E0,0E0,0E0,0E0,0E0,0E0,0E0,0E0],"parents":[2147483647,0,0,1,1,2,2,3,3,4,4,5,5,6,6,7,7,8,8,9,9,10,10,11,11,12,12,13,13,14,14,15,15,16,16,17,17,18,18,19,19,20,20,21,21,22,22,24,24,25,25,26,26,27,27,28,28,29,29,30,30,31,31,32,32,33,33,34,34,36,36,37,37,38,38,39,39,40,40,41,41,42,42,43,43,44,44,45,45,46,46,47,47,49,49,51,51,52,52,54,54,55,55,56,56,57,57,58,58,59,59],"right_children":[2,4,6,8,10,12,14,16,18,20,22,24,26,28,30,32,34,36,38,40,42,44,46,-1,48,50,52,54,56,58,60,62,64,66,68,-1,70,72,74,76,78,80,82,84,86,88,90,92,-1,94,-1,96,98,-1,100,102,104,106,108,110,-1,-1,-1,-1,-1,-1,-1,-1,-1,-1,-1,-1,-1,-1,-1,-1,-1,-1,-1,-1,-1,-1,-1,-1,-1,-1,-1,-1,-1,-1,-1,-1,-1,-1,-1,-1,-1,-1,-1,-1,-1,-1,-1,-1,-1,-1,-1,-1,-1,-1,-1],"split_conditions":[5.1E1,1.4E1,2E-1,1E-1,9E-2,2.3E1,4E-1,1.51E2,-7.0710677E-1,6.666667E-1,7.5E-1,3.1818182E0,5E-1,7.5E-1,7.3595476E0,5E-1,3.448276E-2,3.3333334E-1,1.1E0,2.7E1,1.06E1,1.88E1,5.6E1,-3.7188195E-2,5.18E2,2.53E1,0E0,5.1E1,-2.5881904E-1,2.5E1,8E-1,2E0,4.6511628E-2,3.5E-2,3.3E0,-3.618313E-2,1.6479164E1,-5.3989496E0,3E0,1E0,7.3E0,1.18E2,4.2E1,5.1E1,5E1,-2.5881904E-1,8.3E0,5E-1,3.667372E-2,1.04E2,-3.5228327E-2,1.9E0,5.17E1,-1.0542224E-2,5.2E1,-3E0,5E-2,3.1E0,6.9E1,4E0,8.038229E-4,-3.8403366E-2,-3.357681E-2,-3.4715194E-2,-1.4512417E-2,-3.5632055E-2,1.0121926E-2,-1.1651959E-2,-3.8838793E-2,1.2618523E-3,2.285402E-2,-9.873793E-4,-2.4925066E-2,1.8795587E-2,-3.4498192E-2,-3.0727658E-2,7.966154E-3,-3.1295903E-2,-1.4549951E-2,-2.8614976E-2,1.4416466E-2,-8.211902E-3,2.1197064E-2,-1.5907926E-2,-1.6949727E-3,-5.4266285E-3,1.1624763E-2,-1.0158842E-2,1.781275E-2,5.575905E-3,2.7255343E-2,-3.3000503E-2,2.2766912E-2,-1.5205827E-3,2.0762004E-2,2.1924943E-2,-3.4350693E-2,2.7472688E-2,-5.9139137E-3,8.934835E-3,2.845915E-2,2.546086E-2,3.3362605E-2,3.0571805E-2,3.640322E-2,-1.1397076E-2,3.3284232E-2,3.759643E-2,3.9716512E-2,2.360265E-2,3.4756042E-2],"split_indices":[66,171,58,59,173,62,58,177,1,132,132,180,132,132,12,132,173,132,133,171,174,81,172,0,176,34,63,40,0,62,8,171,173,167,82,0,11,18,82,59,174,177,171,171,62,0,32,59,0,177,0,6,36,0,62,63,173,21,171,63,0,0,0,0,0,0,0,0,0,0,0,0,0,0,0,0,0,0,0,0,0,0,0,0,0,0,0,0,0,0,0,0,0,0,0,0,0,0,0,0,0,0,0,0,0,0,0,0,0,0,0],"split_type":[0,0,0,0,0,0,0,0,0,0,0,0,0,0,0,0,0,0,0,0,0,0,0,0,0,0,0,0,0,0,0,0,0,0,0,0,0,0,0,0,0,0,0,0,0,0,0,0,0,0,0,0,0,0,0,0,0,0,0,0,0,0,0,0,0,0,0,0,0,0,0,0,0,0,0,0,0,0,0,0,0,0,0,0,0,0,0,0,0,0,0,0,0,0,0,0,0,0,0,0,0,0,0,0,0,0,0,0,0,0,0],"sum_hessian":[3.1669684E4,1.7972705E4,1.3696979E4,1.2286607E4,5.6860977E3,2.389281E3,1.1307697E4,1.1620508E4,6.660991E2,2.505503E3,3.1805947E3,3.9064934E1,2.350216E3,3.2961843E3,8.011513E3,1.0717912E4,9.025958E2,1.4573343E2,5.2036566E2,2.3373794E3,1.6812352E2,2.7603064E3,4.2028827E2,1.799533E1,2.1069603E1,1.629124E2,2.1873035E3,2.3291548E2,3.0632688E3,7.8021294E3,2.0938406E2,1.0372877E4,3.4503583E2,3.898698E2,5.12726E2,1.1996887E1,1.3373654E2,4.5976456E2,6.060113E1,6.9491174E2,1.6424677E3,3.1458551E1,1.3666496E2,1.6468673E3,1.1134391E3,1.7919571E2,2.4109254E2,1.1355411E1,9.714193E0,1.5391473E2,8.997665E0,6.7270294E2,1.5146006E3,7.177316E0,2.2573817E2,1.0482826E3,2.0149863E3,1.7641315E1,7.784488E3,1.997782E2,9.605865E0,7.916184E3,2.4566926E3,1.3325296E2,2.1178287E2,3.744071E2,1.5462702E1,4.3524612E2,7.74799E1,7.166908E1,6.2067467E1,8.109581E1,3.7866873E2,5.3103077E1,7.4980545E0,6.786993E2,1.6212507E1,3.653429E2,1.2771248E3,2.092375E1,1.05348015E1,4.3992836E1,9.267213E1,9.451811E2,7.016862E2,3.8958304E2,7.238561E2,4.6992058E1,1.3220366E2,3.4424496E1,2.0666805E2,5.4985733E0,5.8568373E0,4.1172745E1,1.12742E2,6.6545483E2,7.2481194E0,1.5027454E3,1.1855281E1,1.9890732E1,2.0584744E2,2.1241655E2,8.3586597E2,1.9959906E2,1.8153873E3,7.4272513E0,1.0214064E1,3.4133635E3,4.3711245E3,6.1317657E1,1.3846053E2],"tree_param":{"num_deleted":"0","num_feature":"183","num_nodes":"111","size_leaf_vector":"1"}},{"base_weights":[-4.9882354E-3,-1.2956324E0,1.701496E0,-1.672348E0,-7.4070644E-1,1.192348E0,1.8170089E0,-1.7094374E0,-2.7520582E-1,-9.448357E-1,9.0849265E-2,-4.2612234E-1,1.2176542E0,1.655064E0,1.8842682E0,-1.7472804E0,-7.387291E-1,6.658981E-1,-8.0364597E-1,-1.0778804E0,3.861349E-1,6.8967986E-1,-1.07819855E-1,7.9268205E-1,-3.6561202E-2,9.1857564E-1,1.3173435E0,1.3319274E0,1.6918715E0,1.8034589E0,1.9450246E0,-1.8615656E0,-1.5399556E0,-1.0670718E0,-1.3289304E-1,-8.8258374E-1,1.0399138E0,-1.0584898E0,7.5223005E-1,-1.2706181E0,-3.4197628E-1,-1.4969996E-2,8.2826984E-1,-3.533129E-2,7.63668E-1,-9.069814E-1,1.0030511E-1,1.3629549E0,-8.448695E-3,-1.1826912E0,9.6768993E-1,9.964224E-1,1.3756006E0,3.1760582E-1,1.3971832E0,1.5549055E0,1.7479936E0,1.0073315E0,1.813869E0,1.7196457E0,3.8977575E-2,-3.7950523E-2,-3.3300396E-2,-3.5017204E-2,-2.3963723E-2,-3.4654923E-2,-1.2712373E-2,-2.386959E-2,6.064708E-3,1.4883106E-2,-3.5775617E-2,-7.4223108E-3,2.6081672E-2,-2.476298E-2,1.0863615E-2,-6.2504136E-3,3.453863E-2,-3.3229604E-2,-2.1605184E-2,1.0274475E-3,-1.5961478E-2,-5.6677125E-3,1.5400092E-2,1.827143E-2,-3.4542635E-2,7.4782944E-3,2.1035355E-2,1.2935341E-2,-2.2261746E-2,-1.3649172E-2,5.642628E-3,1.6340131E-2,3.356448E-2,-1.4595322E-3,-3.5388134E-2,2.038595E-2,-3.1034627E-3,2.5859509E-2,5.6175888E-3,2.103133E-2,2.8514272E-2,-3.3344235E-2,2.182387E-2,-8.133888E-3,2.871966E-2,-4.552067E-3,3.1342354E-2,3.5246704E-2,2.563966E-2,2.7063372E-2,-1.2492756E-2,3.666975E-2,2.9203527E-2,3.6225837E-2,1.252664E-2],"categories":[],"categories_nodes":[],"categories_segments":[],"categories_sizes":[],"default_left":[0,0,0,1,0,0,0,0,0,1,0,0,0,0,0,0,0,0,0,0,0,0,0,0,0,0,0,0,0,0,0,0,0,0,0,0,0,0,0,0,0,0,0,0,0,0,0,0,0,0,1,0,0,0,0,0,0,0,0,1,0,0,0,0,0,0,0,0,0,0,0,0,0,0,0,0,0,0,0,0,0,0,0,0,0,0,0,0,0,0,0,0,0,0,0,0,0,0,0,0,0,0,0,0,0,0,0,0,0,0,0,0,0,0,0],"id":1,"left_children":[1,3,5,7,9,11,13,15,17,19,21,23,25,27,29,31,33,35,37,39,41,43,45,47,-1,49,51,53,55,57,59,61,63,65,67,69,71,73,75,77,79,81,83,-1,85,87,89,91,-1,93,95,97,99,101,103,105,107,109,111,113,-1,-1,-1,-1,-1,-1,-1,-1,-1,-1,-1,-1,-1,-1,-1,-1,-1,-1,-1,-1,-1,-1,-1,-1,-1,-1,-1,-1,-1,-1,-1,-1,-1,-1,-1,-1,-1,-1,-1,-1,-1,-1,-1,-1,-1,-1,-1,-1,-1,-1,-1,-1,-1,-1,-1],"loss_changes":[6.973303E4,3.7670898E3,7.9939844E2,5.5570703E2,1.2378345E3,1.0398779E2,1.1755078E2,3.826621E2,1.3925983E2,1.0371768E3,1.7119878E2,6.91181E1,7.267969E1,3.632715E1,3.4623047E1,2.3529297E2,7.816777E1,5.929884E1,7.185765E1,7.543589E2,9.456353E1,6.639351E1,1.7987636E2,1.5784478E1,0E0,6.56225E1,3.3200195E1,2.184143E1,1.9480469E1,2.590625E1,1.5820312E-1,4.2308594E1,2.558711E2,7.202768E1,6.512838E1,3.1058006E1,3.1024239E1,4.5171402E1,2.7396667E1,3.1173193E2,1.9857289E2,5.9201626E1,5.675981E1,0E0,3.862114E1,7.231984E1,1.22269295E2,9.848652E-1,0E0,9.243267E0,3.56687E1,6.1003387E1,2.3793945E1,3.5379173E1,2.297052E1,1.924292E1,1.1273926E1,2.6882431E1,2.0136719E1,7.0366974E0,0E0,0E0,0E0,0E0,0E0,0E0,0E0,0E0,0E0,0E0,0E0,0E0,0E0,0E0,0E0,0E0,0E0,0E0,0E0,0E0,0E0,0E0,0E0,0E0,0E0,0E0,0E0,0E0,0E0,0E0,0E0,0E0,0E0,0E0,0E0,0E0,0E0,0E0,0E0,0E0,0E0,0E0,0E0,0E0,0E0,0E0,0E0,0E0,0E0,0E0,0E0,0E0,0E0,0E0,0E0],"parents":[2147483647,0,0,1,1,2,2,3,3,4,4,5,5,6,6,7,7,8,8,9,9,10,10,11,11,12,12,13,13,14,14,15,15,16,16,17,17,18,18,19,19,20,20,21,21,22,22,23,23,25,25,26,26,27,27,28,28,29,29,30,30,31,31,32,32,33,33,34,34,35,35,36,36,37,37,38,38,39,39,40,40,41,41,42,42,44,44,45,45,46,46,47,47,49,49,50,50,51,51,52,52,53,53,54,54,55,55,56,56,57,57,58,58,59,59],"right_children":[2,4,6,8,10,12,14,16,18,20,22,24,26,28,30,32,34,36,38,40,42,44,46,48,-1,50,52,54,56,58,60,62,64,66,68,70,72,74,76,78,80,82,84,-1,86,88,90,92,-1,94,96,98,100,102,104,106,108,110,112,114,-1,-1,-1,-1,-1,-1,-1,-1,-1,-1,-1,-1,-1,-1,-1,-1,-1,-1,-1,-1,-1,-1,-1,-1,-1,-1,-1,-1,-1,-1,-1,-1,-1,-1,-1,-1,-1,-1,-1,-1,-1,-1,-1,-1,-1,-1,-1,-1,-1,-1,-1,-1,-1,-1,-1],"split_conditions":[5.1E1,4E0,2E-1,6E-1,1E-1,2.3E1,4E-1,1E-1,-5E-1,4E-1,-7.0710677E-1,-4E-1,-5E-1,1.3E0,6.3E1,4.4E1,1.37E2,6.2E1,4.1E0,1.39E2,1.8E0,2.6E1,7.8E1,4E0,-3.6561202E-2,3.7E1,8E0,-2.3E1,0E0,2.9E1,-4E-1,1.1E2,-6E-1,-1.5E1,1.94E-1,-9E-1,7.7E0,3.36E1,9.659258E-1,3.5E1,-8.660254E-1,3.15E-1,6.2E1,-3.533129E-2,-8E0,2.6209815E-5,4.4E1,1.64E2,-8.448695E-3,1.14E1,3.8E3,-3.45E-1,-9E0,1.5E-1,-7.3E-1,6.4E0,4.855925E-1,6E0,7.3595476E0,7.1E1,3.8977575E-2,-3.7950523E-2,-3.3300396E-2,-3.5017204E-2,-2.3963723E-2,-3.4654923E-2,-1.2712373E-2,-2.386959E-2,6.064708E-3,1.4883106E-2,-3.5775617E-2,-7.4223108E-3,2.6081672E-2,-2.476298E-2,1.0863615E-2,-6.2504136E-3,3.453863E-2,-3.3229604E-2,-2.1605184E-2,1.0274475E-3,-1.5961478E-2,-5.6677125E-3,1.5400092E-2,1.827143E-2,-3.4542635E-2,7.4782944E-3,2.1035355E-2,1.2935341E-2,-2.2261746E-2,-1.3649172E-2,5.642628E-3,1.6340131E-2,3.356448E-2,-1.4595322E-3,-3.5388134E-2,2.038595E-2,-3.1034627E-3,2.5859509E-2,5.6175888E-3,2.103133E-2,2.8514272E-2,-3.3344235E-2,2.182387E-2,-8.133888E-3,2.871966E-2,-4.552067E-3,3.1342354E-2,3.5246704E-2,2.563966E-2,2.7063372E-2,-1.2492756E-2,3.666975E-2,2.9203527E-2,3.6225837E-2,1.252664E-2],"split_indices":[66,170,73,135,59,62,73,59,1,135,1,8,0,135,170,62,177,41,20,177,135,41,41,170,0,41,170,64,63,62,98,177,98,64,165,6,34,34,1,62,1,98,64,0,14,162,62,177,0,9,182,98,63,16,98,9,162,14,12,41,0,0,0,0,0,0,0,0,0,0,0,0,0,0,0,0,0,0,0,0,0,0,0,0,0,0,0,0,0,0,0,0,0,0,0,0,0,0,0,0,0,0,0,0,0,0,0,0,0,0,0,0,0,0,0],"split_type":[0,0,0,0,0,0,0,0,0,0,0,0,0,0,0,0,0,0,0,0,0,0,0,0,0,0,0,0,0,0,0,0,0,0,0,0,0,0,0,0,0,0,0,0,0,0,0,0,0,0,0,0,0,0,0,0,0,0,0,0,0,0,0,0,0,0,0,0,0,0,0,0,0,0,0,0,0,0,0,0,0,0,0,0,0,0,0,0,0,0,0,0,0,0,0,0,0,0,0,0,0,0,0,0,0,0,0,0,0,0,0,0,0,0,0],"sum_hessian":[3.1659393E4,1.8026178E4,1.3633216E4,1.0735861E4,7.2903154E3,2.5233203E3,1.11098955E4,1.0457943E4,2.7791843E2,5.853411E3,1.4369042E3,3.8542328E1,2.484778E3,3.2681187E3,7.841777E3,1.006467E4,3.9327325E2,9.977638E1,1.7814203E2,5.3217144E3,5.3169684E2,3.5746402E2,1.0794401E3,2.0812119E1,1.7730207E1,6.23982E2,1.860796E3,3.3827515E2,2.9298435E3,3.3793677E3,4.462409E3,6.4827007E3,3.581969E3,2.5444583E2,1.3882742E2,1.9094624E1,8.068176E1,1.5339993E2,2.4742104E1,4.21652E3,1.1051943E3,2.7917197E2,2.5252486E2,9.744371E0,3.4771967E2,2.2243878E2,8.5700134E2,1.4137709E1,6.674411E0,1.3677972E1,6.103041E2,2.889387E2,1.5718574E3,2.0894526E1,3.173806E2,8.6043616E2,2.0694075E3,4.50038E1,3.3343638E3,8.2983116E1,4.3794263E3,5.4723057E3,1.01039545E3,2.2123318E3,1.3696372E3,9.8785385E1,1.5566045E2,4.001379E1,9.881363E1,6.855891E0,1.2238732E1,1.2599537E1,6.808222E1,1.381887E2,1.521122E1,1.2100477E1,1.2641625E1,1.3782723E3,2.8382478E3,5.937765E2,5.1141782E2,2.0860692E2,7.056505E1,2.4502725E2,7.4976063E0,1.4891125E2,1.988084E2,2.5743763E1,1.9669502E2,1.6092302E2,6.960783E2,6.6062975E0,7.531411E0,5.1783857E0,8.499586E0,5.8365985E2,2.6644169E1,2.0360779E2,8.533091E1,2.1374565E2,1.3581117E3,5.4995995E0,1.5394925E1,6.428931E0,3.109517E2,5.6791277E0,8.54757E2,2.0047156E3,6.469187E1,3.732601E1,7.6777883E0,3.1549016E3,1.7946216E2,7.587481E1,7.108306E0],"tree_param":{"num_deleted":"0","num_feature":"183","num_nodes":"115","size_leaf_vector":"1"}},{"base_weights":[-1.9386363E-3,-1.2740345E0,1.669075E0,-1.6564986E0,-4.5160457E-1,1.1473783E0,1.779543E0,-1.7192388E0,-5.475586E-1,-9.352236E-1,-6.581292E-2,7.735523E-1,1.2215635E0,1.6201271E0,1.8464864E0,-1.7570975E0,-9.512608E-1,-7.180159E-1,9.902918E-1,-1.5263276E0,-7.770555E-1,-1.5803435E-1,1.1606795E0,4.0626156E-1,1.1762727E0,7.213046E-1,1.2656759E0,1.288214E0,1.6528307E0,1.7045403E0,1.8784531E0,-1.8178885E0,-1.4356118E0,-1.2880459E0,-1.6773409E-1,-1.415599E0,-4.7384763E-1,-1.80641E-2,1.3528172E0,-1.574025E0,1.9625565E-2,-8.739011E-1,2.5256762E-1,-4.7578296E-1,1.7786637E-1,6.7035574E-1,1.597097E0,-3.6061592E-2,5.3461343E-1,1.2744646E0,-2.973609E-1,-4.606635E-1,9.447591E-1,1.0815794E0,1.418201E0,1.3798987E0,-2.6473132E-1,1.3895746E0,1.6851964E0,9.714265E-1,1.7270485E0,1.7020887E0,1.8974206E0,-3.693893E-2,-2.9990256E-2,-3.2907136E-2,-2.0644937E-2,-2.7677255E-2,5.9012393E-3,2.666895E-3,-3.677052E-2,-2.5171333E-3,-3.3759795E-2,-2.4324413E-2,-3.70445E-3,8.841516E-3,3.1676736E-2,-3.2429885E-2,1.0664896E-3,-2.8513364E-2,-1.4569306E-2,-2.2546751E-2,9.964756E-3,-6.5580406E-3,-2.5523692E-2,-7.383906E-4,1.3974348E-2,1.6579151E-2,-3.3742428E-2,9.549999E-3,3.3397663E-2,1.8564655E-2,-1.8983114E-3,2.9155549E-2,1.3646591E-2,-3.3956688E-2,2.4315324E-2,1.4498692E-2,-3.6487564E-2,2.3164291E-2,-7.203324E-4,2.239316E-2,-9.559173E-3,2.5160365E-2,3.0458314E-2,-5.55616E-3,2.8984841E-2,-3.555646E-2,2.1413837E-2,-4.846999E-3,2.8367616E-2,2.8995242E-2,3.4317847E-2,2.615664E-2,-2.7355796E-3,3.027522E-2,3.55353E-2,-2.4823674E-3,3.4347255E-2,3.7019305E-2,3.836312E-2],"categories":[],"categories_nodes":[],"categories_segments":[],"categories_sizes":[],"default_left":[0,0,0,0,0,0,0,1,1,0,1,0,0,0,0,0,0,0,0,1,0,0,0,0,0,0,0,0,0,0,0,0,0,0,0,0,0,0,0,0,0,0,0,0,0,0,0,0,0,0,0,0,0,1,0,0,0,0,0,0,0,0,0,0,0,0,0,0,0,0,0,0,0,0,0,0,0,0,0,0,0,0,0,0,0,0,0,0,0,0,0,0,0,0,0,0,0,0,0,0,0,0,0,0,0,0,0,0,0,0,0,0,0,0,0,0,0,0,0,0,0],"id":2,"left_children":[1,3,5,7,9,11,13,15,17,19,21,23,25,27,29,31,33,35,37,39,41,43,45,47,49,51,53,55,57,59,61,63,65,67,69,71,73,-1,75,77,-1,79,81,83,85,87,89,-1,91,93,95,97,99,101,103,105,107,109,111,113,115,117,119,-1,-1,-1,-1,-1,-1,-1,-1,-1,-1,-1,-1,-1,-1,-1,-1,-1,-1,-1,-1,-1,-1,-1,-1,-1,-1,-1,-1,-1,-1,-1,-1,-1,-1,-1,-1,-1,-1,-1,-1,-1,-1,-1,-1,-1,-1,-1,-1,-1,-1,-1,-1,-1,-1,-1,-1,-1,-1],"loss_changes":[6.729378E4,5.652828E3,7.862383E2,8.5239844E2,1.0646152E3,6.524805E1,1.1714844E2,3.3563672E2,1.7329735E2,2.3532861E2,3.5928656E2,5.8437714E1,4.2928467E1,3.3913086E1,3.248633E1,2.1329297E2,1.4418863E2,1.0021573E2,4.6617363E1,6.539758E1,1.9969495E2,3.1546466E2,4.623578E1,6.0538666E1,2.7946655E1,4.3858337E1,4.9670166E1,4.391156E1,2.3283203E1,2.2333008E1,1.80625E1,8.293945E1,1.4731372E2,5.8594788E1,8.387675E1,5.3443695E1,9.4163284E1,0E0,1.0857399E1,4.0708984E1,0E0,1.4545435E2,5.901655E1,1.7918661E2,1.6083443E2,4.1109497E1,8.497498E0,0E0,4.9677845E1,1.8138031E1,2.882705E1,4.4621075E1,2.9152061E1,5.017401E1,1.4556641E1,3.3657227E1,3.791019E1,1.640924E1,1.6746582E1,1.7538246E1,1.2105469E1,1.8190918E1,1.6953125E0,0E0,0E0,0E0,0E0,0E0,0E0,0E0,0E0,0E0,0E0,0E0,0E0,0E0,0E0,0E0,0E0,0E0,0E0,0E0,0E0,0E0,0E0,0E0,0E0,0E0,0E0,0E0,0E0,0E0,0E0,0E0,0E0,0E0,0E0,0E0,0E0,0E0,0E0,0E0,0E0,0E0,0E0,0E0,0E0,0E0,0E0,0E0,0E0,0E0,0E0,0E0,0E0,0E0,0E0,0E0,0E0,0E0,0E0],"parents":[2147483647,0,0,1,1,2,2,3,3,4,4,5,5,6,6,7,7,8,8,9,9,10,10,11,11,12,12,13,13,14,14,15,15,16,16,17,17,18,18,19,19,20,20,21,21,22,22,23,23,24,24,25,25,26,26,27,27,28,28,29,29,30,30,31,31,32,32,33,33,34,34,35,35,36,36,38,38,39,39,41,41,42,42,43,43,44,44,45,45,46,46,48,48,49,49,50,50,51,51,52,52,53,53,54,54,55,55,56,56,57,57,58,58,59,59,60,60,61,61,62,62],"right_children":[2,4,6,8,10,12,14,16,18,20,22,24,26,28,30,32,34,36,38,40,42,44,46,48,50,52,54,56,58,60,62,64,66,68,70,72,74,-1,76,78,-1,80,82,84,86,88,90,-1,92,94,96,98,100,102,104,106,108,110,112,114,116,118,120,-1,-1,-1,-1,-1,-1,-1,-1,-1,-1,-1,-1,-1,-1,-1,-1,-1,-1,-1,-1,-1,-1,-1,-1,-1,-1,-1,-1,-1,-1,-1,-1,-1,-1,-1,-1,-1,-1,-1,-1,-1,-1,-1,-1,-1,-1,-1,-1,-1,-1,-1,-1,-1,-1,-1,-1,-1,-1],"split_conditions":[5.1E1,1.4E1,2E-1,1E-1,9E-2,-7E0,4E-1,1E0,1.7E0,2.3E1,5E-1,1.62E2,1.3333334E-2,5E-2,8.8E1,1.18E2,3.48E2,1E1,-5E-1,2.7E0,3E-1,1.224394E1,1.6E0,5.551115E-17,1.54E1,3.9E1,3.2E1,4.7928613E-1,2E-1,2.9E1,-5E-1,1.3E-1,2.9166666E-1,1.1E1,2.81E1,-1.1E0,2.8E-1,-1.80641E-2,6E-1,1.4E1,1.9625565E-2,9.7E0,-1E1,1.0217E3,4.6E1,1.9E1,1.875E0,-3.6061592E-2,2.278589E-2,3.06E1,3.548387E0,2.7E0,6.1538464E-1,2.62E2,-8.478425E-1,7E1,6E-1,3.636085E1,-9E0,2E0,2.2222222E-1,9E0,7E-1,-3.693893E-2,-2.9990256E-2,-3.2907136E-2,-2.0644937E-2,-2.7677255E-2,5.9012393E-3,2.666895E-3,-3.677052E-2,-2.5171333E-3,-3.3759795E-2,-2.4324413E-2,-3.70445E-3,8.841516E-3,3.1676736E-2,-3.2429885E-2,1.0664896E-3,-2.8513364E-2,-1.4569306E-2,-2.2546751E-2,9.964756E-3,-6.5580406E-3,-2.5523692E-2,-7.383906E-4,1.3974348E-2,1.6579151E-2,-3.3742428E-2,9.549999E-3,3.3397663E-2,1.8564655E-2,-1.8983114E-3,2.9155549E-2,1.3646591E-2,-3.3956688E-2,2.4315324E-2,1.4498692E-2,-3.6487564E-2,2.3164291E-2,-7.203324E-4,2.239316E-2,-9.559173E-3,2.5160365E-2,3.0458314E-2,-5.55616E-3,2.8984841E-2,-3.555646E-2,2.1413837E-2,-4.846999E-3,2.8367616E-2,2.8995242E-2,3.4317847E-2,2.615664E-2,-2.7355796E-3,3.027522E-2,3.55353E-2,-2.4823674E-3,3.4347255E-2,3.7019305E-2,3.836312E-2],"split_indices":[66,171,58,59,173,63,58,137,133,171,136,177,173,173,62,177,102,101,0,133,59,11,133,133,97,172,171,162,136,62,98,98,173,13,9,89,173,0,60,13,0,81,63,4,171,31,180,0,162,179,180,86,178,35,19,92,59,47,63,13,173,179,58,0,0,0,0,0,0,0,0,0,0,0,0,0,0,0,0,0,0,0,0,0,0,0,0,0,0,0,0,0,0,0,0,0,0,0,0,0,0,0,0,0,0,0,0,0,0,0,0,0,0,0,0,0,0,0,0,0,0],"split_type":[0,0,0,0,0,0,0,0,0,0,0,0,0,0,0,0,0,0,0,0,0,0,0,0,0,0,0,0,0,0,0,0,0,0,0,0,0,0,0,0,0,0,0,0,0,0,0,0,0,0,0,0,0,0,0,0,0,0,0,0,0,0,0,0,0,0,0,0,0,0,0,0,0,0,0,0,0,0,0,0,0,0,0,0,0,0,0,0,0,0,0,0,0,0,0,0,0,0,0,0,0,0,0,0,0,0,0,0,0,0,0,0,0,0,0,0,0,0,0,0,0],"sum_hessian":[3.1655408E4,1.7973207E4,1.3682201E4,1.2267277E4,5.705929E3,2.393053E3,1.1289148E4,1.1609793E4,6.5748395E2,2.531198E3,3.1747314E3,3.9837552E2,1.9946775E3,3.3465427E3,7.9426055E3,1.1063006E4,5.4678754E2,5.924177E2,6.50662E1,5.323654E2,1.9988325E3,2.9535994E3,2.2113199E2,2.0953323E2,1.8884227E2,1.6322594E2,1.8314515E3,3.0405933E2,3.0424834E3,1.4704758E3,6.4721294E3,9.299551E3,1.7634551E3,3.8187415E2,1.6491338E2,1.5224634E2,4.4017142E2,1.0171652E1,5.489455E1,5.2283276E2,9.532668E0,1.8272145E3,1.7161804E2,1.5177501E3,1.4358494E3,1.0543684E2,1.1569516E2,1.0745319E1,1.9878792E2,1.7723563E2,1.1606645E1,2.5712088E1,1.3751384E2,8.33804E2,9.976475E2,2.872747E2,1.6784647E1,3.3825E2,2.7042334E3,4.5249886E1,1.425226E3,6.3779315E2,5.8343364E3,8.51708E3,7.824708E2,1.157988E3,6.0546704E2,3.6025867E2,2.1615469E1,1.4046225E2,2.4451138E1,2.6866297E1,1.2538004E2,1.2222808E2,3.1794333E2,1.1784268E1,4.311028E1,5.080773E2,1.47554245E1,3.7917538E2,1.4480391E3,2.5332426E1,1.4628563E2,1.2823583E3,2.3539182E2,1.01714246E3,4.187069E2,9.9437836E1,5.999001E0,7.6077085E0,1.0808745E2,1.2211724E2,7.667067E1,1.3409256E2,4.314308E1,5.998633E0,5.6080117E0,1.396562E1,1.1746469E1,1.12869934E2,2.4643908E1,8.1426855E2,1.9535421E1,3.998949E2,5.977526E2,1.1355868E1,2.7591882E2,7.748672E0,9.035975E0,5.6783066E0,3.3257172E2,3.1785007E2,2.3863833E3,3.4643612E1,1.0606271E1,2.7573914E2,1.1494868E3,5.1767335E0,6.326164E2,1.8298542E3,4.004482E3],"tree_param":{"num_deleted":"0","num_feature":"183","num_nodes":"121","size_leaf_vector":"1"}},{"base_weights":[-5.411096E-5,-1.2554827E0,1.6351345E0,-1.6814322E0,-5.6058234E-1,1.1435525E0,1.7483475E0,-1.7189294E0,-2.4387601E-1,-1.1065452E0,-1.394766E-1,-4.294632E-1,1.1676857E0,1.5940498E0,1.8126974E0,-1.8008485E0,-1.2769855E0,-3.182818E-2,-1.4153177E0,-1.3400743E0,-6.6703635E-1,-2.5438443E-1,1.0514464E0,6.7118335E-1,-1.3749771E0,8.0112714E-1,1.2348399E0,1.1729188E0,1.620707E0,6.0078925E-1,1.8165908E0,-1.8058134E0,-5.178886E-2,-1.4708575E0,-6.139845E-1,3.1077898E-1,-8.235525E-1,3.6522013E-3,-3.6976185E-2,-1.4760482E0,-7.5107133E-1,-1.174269E0,-1.20018445E-1,-5.2430767E-1,2.096018E-1,1.2345704E0,7.311741E-1,-1.27952E-2,3.372996E-2,-3.5762068E-2,-6.769904E-4,8.9932513E-1,-7.319462E-1,1.1052928E0,1.4565446E0,1.2459E0,-1.3880816E-1,1.632372E0,7.9339206E-1,-1.1390743E-1,3.2197647E-2,1.7414274E0,1.8710771E0,-3.678754E-2,-3.2890186E-2,-2.268516E-2,2.3794323E-2,-3.2552667E-2,-1.9833956E-2,-2.2243854E-2,-1.5179241E-3,-1.7569946E-2,1.1143421E-2,-3.1887367E-2,-1.1042518E-3,-3.0590886E-2,-9.75523E-3,-6.449534E-3,-2.7278263E-2,-3.5765808E-2,-2.0247836E-2,-1.0279308E-2,7.540096E-3,-1.4554482E-2,3.673067E-3,6.4784694E-3,-1.5485774E-2,1.5168707E-2,2.8248297E-2,2.0449487E-2,-1.2451922E-2,8.473442E-3,2.2397902E-2,-3.7522793E-2,2.2893304E-2,1.9191256E-2,2.72162E-2,2.934579E-2,-2.3994283E-3,1.8597392E-2,3.0983828E-2,-3.3671677E-2,2.8970744E-2,3.2709327E-2,-2.8122156E-3,2.494657E-2,-8.022942E-3,3.4465678E-2,-3.5170227E-2,3.522108E-2,2.7502136E-2,3.510889E-2,3.7630074E-2],"categories":[],"categories_nodes":[],"categories_segments":[],"categories_sizes":[],"default_left":[0,0,0,1,0,0,0,0,0,0,1,0,0,0,0,1,0,0,0,0,0,0,0,0,0,0,0,0,0,0,0,0,0,0,0,0,0,0,0,1,0,0,0,0,0,0,0,0,0,0,0,0,0,0,0,0,0,1,0,0,0,0,0,0,0,0,0,0,0,0,0,0,0,0,0,0,0,0,0,0,0,0,0,0,0,0,0,0,0,0,0,0,0,0,0,0,0,0,0,0,0,0,0,0,0,0,0,0,0,0,0,0,0],"id":3,"left_children":[1,3,5,7,9,11,13,15,17,19,21,23,25,27,29,31,33,35,37,39,41,43,45,47,49,51,53,55,57,59,61,63,65,67,69,71,73,-1,-1,75,77,79,81,83,85,87,89,-1,-1,-1,-1,91,93,95,97,99,101,103,105,107,-1,109,111,-1,-1,-1,-1,-1,-1,-1,-1,-1,-1,-1,-1,-1,-1,-1,-1,-1,-1,-1,-1,-1,-1,-1,-1,-1,-1,-1,-1,-1,-1,-1,-1,-1,-1,-1,-1,-1,-1,-1,-1,-1,-1,-1,-1,-1,-1,-1,-1,-1,-1],"loss_changes":[6.4845305E4,5.287883E3,7.6121484E2,5.9651953E2,1.5612991E3,9.818042E1,1.0746484E2,3.882422E2,7.006765E1,3.0244507E2,5.251038E2,4.2119534E1,6.114966E1,3.475293E1,3.5753906E1,7.878906E1,2.1635156E2,6.556534E1,3.046672E1,1.5324805E2,2.8504266E2,4.3837732E2,1.8703949E1,2.6319168E1,1.1743919E1,6.0172623E1,5.955127E1,1.9400726E1,2.8294922E1,1.9621904E1,2.846289E1,4.5779297E1,3.743956E1,9.6397705E1,1.0290535E2,4.9849068E1,4.2996765E1,0E0,0E0,8.189429E1,9.5046036E1,5.09209E1,9.731443E1,3.1883057E2,1.4502657E2,1.6762634E1,5.016076E1,0E0,0E0,0E0,0E0,3.839258E1,5.4356777E1,4.8886353E1,1.3612427E1,1.64599E1,3.0299568E1,1.7097656E1,2.501027E1,5.298662E1,0E0,2.1044922E1,1.7910156E0,0E0,0E0,0E0,0E0,0E0,0E0,0E0,0E0,0E0,0E0,0E0,0E0,0E0,0E0,0E0,0E0,0E0,0E0,0E0,0E0,0E0,0E0,0E0,0E0,0E0,0E0,0E0,0E0,0E0,0E0,0E0,0E0,0E0,0E0,0E0,0E0,0E0,0E0,0E0,0E0,0E0,0E0,0E0,0E0,0E0,0E0,0E0,0E0,0E0,0E0],"parents":[2147483647,0,0,1,1,2,2,3,3,4,4,5,5,6,6,7,7,8,8,9,9,10,10,11,11,12,12,13,13,14,14,15,15,16,16,17,17,18,18,19,19,20,20,21,21,22,22,23,23,24,24,25,25,26,26,27,27,28,28,29,29,30,30,31,31,32,32,33,33,34,34,35,35,36,36,39,39,40,40,41,41,42,42,43,43,44,44,45,45,46,46,51,51,52,52,53,53,54,54,55,55,56,56,57,57,58,58,59,59,61,61,62,62],"right_children":[2,4,6,8,10,12,14,16,18,20,22,24,26,28,30,32,34,36,38,40,42,44,46,48,50,52,54,56,58,60,62,64,66,68,70,72,74,-1,-1,76,78,80,82,84,86,88,90,-1,-1,-1,-1,92,94,96,98,100,102,104,106,108,-1,110,112,-1,-1,-1,-1,-1,-1,-1,-1,-1,-1,-1,-1,-1,-1,-1,-1,-1,-1,-1,-1,-1,-1,-1,-1,-1,-1,-1,-1,-1,-1,-1,-1,-1,-1,-1,-1,-1,-1,-1,-1,-1,-1,-1,-1,-1,-1,-1,-1,-1,-1],"split_conditions":[5.1E1,8E0,2E-1,7E-1,5E0,2.3E1,4E-1,2.3E1,9.55161E3,4.9E1,1.7E0,-4E-1,8E0,4E-1,2.6E1,1.26E1,3E0,-2E0,-9.75E-1,5.79E2,1.14E1,1.1E2,2.65E2,9.9E-1,8E-1,8.695652E-2,4.8E1,2.98E2,5.391632E-1,4.3E0,6.3E1,1.09E2,1.65E2,1.17E2,1.4493534E1,1.3E1,2.1114492E1,3.6522013E-3,-3.6976185E-2,6E-1,1.43E1,1.866337E0,8.7E1,8.3E1,1.0209E3,-3.405868E0,-2.2282643E0,-1.27952E-2,3.372996E-2,-3.5762068E-2,-6.769904E-4,3.6265135E0,2.55E-1,2.4E-1,3.7E0,7.8E1,2.6759375E2,1.68E2,2.8E0,1.0083E3,3.2197647E-2,7.4155817E0,1.3E1,-3.678754E-2,-3.2890186E-2,-2.268516E-2,2.3794323E-2,-3.2552667E-2,-1.9833956E-2,-2.2243854E-2,-1.5179241E-3,-1.7569946E-2,1.1143421E-2,-3.1887367E-2,-1.1042518E-3,-3.0590886E-2,-9.75523E-3,-6.449534E-3,-2.7278263E-2,-3.5765808E-2,-2.0247836E-2,-1.0279308E-2,7.540096E-3,-1.4554482E-2,3.673067E-3,6.4784694E-3,-1.5485774E-2,1.5168707E-2,2.8248297E-2,2.0449487E-2,-1.2451922E-2,8.473442E-3,2.2397902E-2,-3.7522793E-2,2.2893304E-2,1.9191256E-2,2.72162E-2,2.934579E-2,-2.3994283E-3,1.8597392E-2,3.0983828E-2,-3.3671677E-2,2.8970744E-2,3.2709327E-2,-2.8122156E-3,2.494657E-2,-8.022942E-3,3.4465678E-2,-3.5170227E-2,3.522108E-2,2.7502136E-2,3.510889E-2,3.7630074E-2],"split_indices":[66,171,73,135,170,62,73,170,45,171,135,8,170,135,62,97,171,53,98,102,174,177,95,76,8,173,171,37,162,21,170,177,177,177,11,93,52,0,0,135,85,11,171,170,4,19,48,0,0,0,0,12,98,80,59,170,50,57,21,4,0,12,171,0,0,0,0,0,0,0,0,0,0,0,0,0,0,0,0,0,0,0,0,0,0,0,0,0,0,0,0,0,0,0,0,0,0,0,0,0,0,0,0,0,0,0,0,0,0,0,0,0,0],"split_type":[0,0,0,0,0,0,0,0,0,0,0,0,0,0,0,0,0,0,0,0,0,0,0,0,0,0,0,0,0,0,0,0,0,0,0,0,0,0,0,0,0,0,0,0,0,0,0,0,0,0,0,0,0,0,0,0,0,0,0,0,0,0,0,0,0,0,0,0,0,0,0,0,0,0,0,0,0,0,0,0,0,0,0,0,0,0,0,0,0,0,0,0,0,0,0,0,0,0,0,0,0,0,0,0,0,0,0,0,0,0,0,0,0],"sum_hessian":[3.1585766E4,1.7867867E4,1.3717898E4,1.1076685E4,6.791183E3,2.5701294E3,1.114777E4,1.0794847E4,2.8183792E2,2.9563782E3,3.8348047E3,3.8518803E1,2.5316106E3,3.28893E3,7.8588394E3,9.104018E3,1.6908291E3,2.3958257E2,4.2255363E1,1.9290946E3,1.0272834E3,3.4981514E3,3.3665353E2,1.7884422E1,2.0634382E1,3.942155E2,2.1373953E3,1.9869484E2,3.090235E3,2.5745771E1,7.8330938E3,9.078158E3,2.5859072E1,1.3072104E3,3.8361856E2,1.6755621E2,7.202635E1,9.091292E0,3.316407E1,1.5659196E3,3.6317508E2,5.3233575E2,4.9494772E2,2.2116267E3,1.2865247E3,2.1217183E2,1.24481705E2,7.9242587E0,9.960163E0,1.5463192E1,5.17119E0,3.7093463E2,2.3280884E1,1.3531538E3,7.8424133E2,1.8834236E2,1.0352479E1,3.0461904E3,4.404476E1,1.5532675E1,1.0213097E1,3.3065432E3,4.5265503E3,7.5054287E3,1.5727297E3,1.3903518E1,1.1955554E1,9.8298334E2,3.2422717E2,1.9854024E2,1.8507832E2,2.8246363E1,1.3930984E2,3.5353596E1,3.6672756E1,1.4848932E3,8.1026344E1,2.147075E2,1.4846759E2,1.0883715E2,4.2349863E2,2.761973E2,2.1875041E2,1.7180868E3,4.9353976E2,1.153292E3,1.3323262E2,5.9283024E1,1.5288881E2,1.02701324E2,2.1780386E1,1.1858454E2,2.523501E2,1.4496017E1,8.784866E0,8.6497595E2,4.8817786E2,7.790642E2,5.177093E0,9.438677E1,9.395559E1,5.2477922E0,5.1046867E0,3.0410168E3,5.1734614E0,3.194491E1,1.2099853E1,7.2854424E0,8.247232E0,3.1345222E3,1.7202095E2,3.892019E2,4.1373486E3],"tree_param":{"num_deleted":"0","num_feature":"183","num_nodes":"113","size_leaf_vector":"1"}},{"base_weights":[-9.046482E-3,-1.2267883E0,1.6037581E0,-1.4256203E0,-4.040206E-1,1.0966849E0,1.713863E0,-1.4842888E0,1.9011584E-1,-1.1054008E0,-1.298166E-1,-1.17945075E-1,1.118419E0,1.5568297E0,1.7794971E0,-1.7513604E0,-1.2402115E0,-3.462792E-1,6.274954E-1,-2.741889E-1,-1.3661777E0,-3.917732E-1,3.704069E-1,9.0230423E-1,-1.3188486E0,1.3978752E0,1.0336924E0,1.1290646E0,1.5836846E0,9.339013E-1,1.7839241E0,-1.7754927E0,-1.2663149E0,-1.5375024E0,-8.9619714E-1,-5.88298E-1,8.6078644E-1,-2.985888E-1,9.144541E-1,-5.047736E-1,1.3488458E0,-1.4562067E0,8.402121E-2,2.2736362E-1,-6.3143075E-1,-3.6304644E-1,4.9470323E-1,-9.189824E-3,2.9753838E-2,-4.0017502E-4,-3.505388E-2,8.4799063E-1,1.5126251E0,2.2924756E-1,1.085695E0,1.755059E-1,1.2444847E0,1.4580398E0,1.6502254E0,-8.710554E-3,1.1887397E0,1.42725E0,1.7926335E0,-7.3676603E-3,-3.5684254E-2,-3.0563729E-2,-1.1916817E-2,-3.3573598E-2,-2.7263144E-2,-5.0286567E-3,-2.2971962E-2,-5.2535115E-3,-2.994506E-2,-4.229757E-3,2.6425242E-2,-1.739292E-2,2.1942163E-2,1.9189877E-3,2.2277135E-2,-1.670275E-2,1.4156305E-2,3.4095116E-2,-3.6164485E-3,2.4803344E-2,-2.9844176E-2,2.5065111E-2,-1.4768358E-2,5.10939E-4,2.5377896E-2,-3.263158E-2,-9.528226E-3,7.54285E-3,-2.2237275E-2,-3.4983434E-2,1.0636827E-2,-0E0,2.2393333E-2,3.1167604E-2,5.490837E-3,8.595833E-3,-3.6021527E-2,1.6608907E-2,2.3464091E-2,-3.5545167E-2,2.5342714E-2,-4.8333257E-3,2.6879935E-2,-1.4323978E-2,2.9487094E-2,2.7231988E-2,3.361276E-2,2.9740268E-2,-5.7982747E-3,2.0804118E-2,3.2933775E-2,3.254328E-2,3.61628E-2],"categories":[],"categories_nodes":[],"categories_segments":[],"categories_sizes":[],"default_left":[0,0,0,1,0,0,0,0,0,0,0,0,0,0,0,0,0,0,0,1,0,0,0,0,0,0,0,0,0,0,0,0,0,0,0,0,0,0,0,0,0,0,0,1,0,0,0,0,0,0,0,0,1,0,0,0,0,0,0,0,0,0,0,0,0,0,0,0,0,0,0,0,0,0,0,0,0,0,0,0,0,0,0,0,0,0,0,0,0,0,0,0,0,0,0,0,0,0,0,0,0,0,0,0,0,0,0,0,0,0,0,0,0,0,0,0,0],"id":4,"left_children":[1,3,5,7,9,11,13,15,17,19,21,23,25,27,29,31,33,35,37,39,41,43,45,47,49,51,53,55,57,59,61,63,65,67,69,71,73,75,77,79,81,83,85,87,89,91,93,-1,-1,-1,-1,95,97,99,101,103,105,107,109,-1,111,113,115,-1,-1,-1,-1,-1,-1,-1,-1,-1,-1,-1,-1,-1,-1,-1,-1,-1,-1,-1,-1,-1,-1,-1,-1,-1,-1,-1,-1,-1,-1,-1,-1,-1,-1,-1,-1,-1,-1,-1,-1,-1,-1,-1,-1,-1,-1,-1,-1,-1,-1,-1,-1,-1,-1],"loss_changes":[6.1812043E4,2.932916E3,7.537969E2,1.3694199E3,6.712657E2,6.407739E1,1.1153516E2,9.059785E2,1.1915782E2,2.1214087E2,3.292532E2,5.433103E1,5.4572998E1,3.5700195E1,2.7398438E1,7.53125E1,7.434541E2,6.71439E1,7.4652336E1,8.878975E1,9.7724365E1,2.448587E2,7.892225E1,1.990313E1,1.1259373E1,3.3166504E1,7.606799E1,2.14169E1,2.3117676E1,1.5609604E1,2.1332031E1,7.684766E1,5.4878174E1,9.355859E1,5.495913E2,5.588829E1,1.9375254E1,5.4193897E1,3.4671463E1,8.3576065E1,1.653923E1,7.011975E1,4.3784233E1,9.6694084E1,1.8338547E2,7.0110054E1,6.239067E1,0E0,0E0,0E0,0E0,2.2416008E1,2.507129E1,4.6380703E1,3.7157593E1,5.042419E1,2.65E1,3.9406494E1,1.5069336E1,0E0,1.6696568E1,1.4238373E1,1.6226562E1,0E0,0E0,0E0,0E0,0E0,0E0,0E0,0E0,0E0,0E0,0E0,0E0,0E0,0E0,0E0,0E0,0E0,0E0,0E0,0E0,0E0,0E0,0E0,0E0,0E0,0E0,0E0,0E0,0E0,0E0,0E0,0E0,0E0,0E0,0E0,0E0,0E0,0E0,0E0,0E0,0E0,0E0,0E0,0E0,0E0,0E0,0E0,0E0,0E0,0E0,0E0,0E0,0E0,0E0],"parents":[2147483647,0,0,1,1,2,2,3,3,4,4,5,5,6,6,7,7,8,8,9,9,10,10,11,11,12,12,13,13,14,14,15,15,16,16,17,17,18,18,19,19,20,20,21,21,22,22,23,23,24,24,25,25,26,26,27,27,28,28,29,29,30,30,31,31,32,32,33,33,34,34,35,35,36,36,37,37,38,38,39,39,40,40,41,41,42,42,43,43,44,44,45,45,46,46,51,51,52,52,53,53,54,54,55,55,56,56,57,57,58,58,60,60,61,61,62,62],"right_children":[2,4,6,8,10,12,14,16,18,20,22,24,26,28,30,32,34,36,38,40,42,44,46,48,50,52,54,56,58,60,62,64,66,68,70,72,74,76,78,80,82,84,86,88,90,92,94,-1,-1,-1,-1,96,98,100,102,104,106,108,110,-1,112,114,116,-1,-1,-1,-1,-1,-1,-1,-1,-1,-1,-1,-1,-1,-1,-1,-1,-1,-1,-1,-1,-1,-1,-1,-1,-1,-1,-1,-1,-1,-1,-1,-1,-1,-1,-1,-1,-1,-1,-1,-1,-1,-1,-1,-1,-1,-1,-1,-1,-1,-1,-1,-1,-1,-1],"split_conditions":[5.1E1,1E-1,2E-1,6E-1,4E1,2.3E1,4E-1,2.8E1,1E0,-5E-1,1E0,-4E-1,-8.660254E-1,5E-1,2.9E1,1.15E-1,5E-2,3.4E-1,4E-2,2.7E0,1.2E0,-5E-1,2.020202E-2,9.7E-1,-4E0,-4E0,5E-1,1.0526316E-1,-2.5881904E-1,2.57E-1,6.3E1,1.25E0,2.1E-1,-6E-1,-7.0710677E-1,8.5E1,8.09E1,4.4E0,1.4897606E-1,3.68E0,1.5893888E1,1.25E0,2.4E0,2E0,5E-1,8E-1,2.09E1,-9.189824E-3,2.9753838E-2,-4.0017502E-4,-3.505388E-2,-2E-1,4.9E0,2.8413956E2,7.3E1,8.3E1,-1.7E0,2.5E1,5E-2,-8.710554E-3,3.51E-1,3.92E2,-5E-1,-7.3676603E-3,-3.5684254E-2,-3.0563729E-2,-1.1916817E-2,-3.3573598E-2,-2.7263144E-2,-5.0286567E-3,-2.2971962E-2,-5.2535115E-3,-2.994506E-2,-4.229757E-3,2.6425242E-2,-1.739292E-2,2.1942163E-2,1.9189877E-3,2.2277135E-2,-1.670275E-2,1.4156305E-2,3.4095116E-2,-3.6164485E-3,2.4803344E-2,-2.9844176E-2,2.5065111E-2,-1.4768358E-2,5.10939E-4,2.5377896E-2,-3.263158E-2,-9.528226E-3,7.54285E-3,-2.2237275E-2,-3.4983434E-2,1.0636827E-2,-0E0,2.2393333E-2,3.1167604E-2,5.490837E-3,8.595833E-3,-3.6021527E-2,1.6608907E-2,2.3464091E-2,-3.5545167E-2,2.5342714E-2,-4.8333257E-3,2.6879935E-2,-1.4323978E-2,2.9487094E-2,2.7231988E-2,3.361276E-2,2.9740268E-2,-5.7982747E-3,2.0804118E-2,3.2933775E-2,3.254328E-2,3.61628E-2],"split_indices":[66,60,58,135,62,62,58,62,132,1,61,8,1,135,62,98,173,98,173,135,59,1,173,76,13,13,132,173,0,165,10,180,16,98,1,33,43,136,161,180,11,180,60,137,132,82,46,0,0,0,0,82,89,51,62,92,21,62,173,0,165,176,98,0,0,0,0,0,0,0,0,0,0,0,0,0,0,0,0,0,0,0,0,0,0,0,0,0,0,0,0,0,0,0,0,0,0,0,0,0,0,0,0,0,0,0,0,0,0,0,0,0,0,0,0,0,0],"split_type":[0,0,0,0,0,0,0,0,0,0,0,0,0,0,0,0,0,0,0,0,0,0,0,0,0,0,0,0,0,0,0,0,0,0,0,0,0,0,0,0,0,0,0,0,0,0,0,0,0,0,0,0,0,0,0,0,0,0,0,0,0,0,0,0,0,0,0,0,0,0,0,0,0,0,0,0,0,0,0,0,0,0,0,0,0,0,0,0,0,0,0,0,0,0,0,0,0,0,0,0,0,0,0,0,0,0,0,0,0,0,0,0,0,0,0,0,0],"sum_hessian":[3.147087E4,1.793182E4,1.353905E4,1.4441097E4,3.4907239E3,2.4174912E3,1.1121559E4,1.3935241E4,5.0585522E2,9.801709E2,2.5105527E3,4.2338608E1,2.3751526E3,3.2859573E3,7.835601E3,6.6510356E3,7.2842056E3,2.2720026E2,2.7865497E2,2.3465529E2,7.455156E2,1.6479648E3,8.62588E2,2.2980492E1,1.9358118E1,5.4869586E2,1.8264568E3,1.9686783E2,3.0890894E3,4.2029453E1,7.793572E3,6.3330825E3,3.17953E2,3.9054375E3,3.378768E3,1.8975041E2,3.7449833E1,6.582687E1,2.1282808E2,2.061221E2,2.8533186E1,7.02E2,4.3515656E1,4.5978354E2,1.1881813E3,1.2460254E2,7.379855E2,6.9219956E0,1.6058496E1,5.166711E0,1.4191406E1,9.633201E1,4.523639E2,1.1134571E2,1.7151111E3,2.1621979E1,1.7524585E2,1.0779946E3,2.0110947E3,6.421375E0,3.5608078E1,1.8997424E2,7.6035977E3,3.9342693E1,6.29374E3,2.2762106E2,9.033195E1,2.152903E3,1.7525344E3,9.5122705E2,2.427541E3,1.4073335E2,4.9017067E1,1.1348052E1,2.6101782E1,4.7032017E1,1.8794859E1,4.2080303E1,1.7074779E2,1.6229843E2,4.3823666E1,2.3107618E1,5.425567E0,8.772345E0,6.9322766E2,1.78032E1,2.5712454E1,3.8609146E2,7.369209E1,1.5808495E2,1.0300963E3,6.2844738E1,6.1757805E1,1.1221053E1,7.2676447E2,2.3622414E1,7.2709595E1,4.3591455E2,1.644934E1,1.0209855E2,9.247159E0,4.4085324E2,1.2742578E3,7.4949455E0,1.4127033E1,1.0845255E1,1.644006E2,7.6636553E0,1.070331E3,1.963863E2,1.8147084E3,2.9682505E1,5.925575E0,7.097869E1,1.1899555E2,6.611291E2,6.9424688E3],"tree_param":{"num_deleted":"0","num_feature":"183","num_nodes":"117","size_leaf_vector":"1"}},{"base_weights":[7.8727026E-4,-1.1915116E0,1.578003E0,-1.5780176E0,-3.794441E-1,1.0750778E0,1.687064E0,-1.6239924E0,-4.0775657E-2,-8.0450284E-1,1.111376E-1,-4.5443946E-1,1.1008323E0,1.5389532E0,1.7496347E0,-1.740383E0,-1.206511E0,-4.41134E-1,7.68766E-1,-9.058445E-1,4.7045192E-1,-2.2703968E-1,4.77035E-1,-1.3762469E0,7.081888E-1,7.122805E-1,1.1688702E0,9.558822E-2,1.5466299E0,1.6745723E0,1.8057055E0,-1.7725617E0,-1.4758451E0,-1.4883597E0,-7.0225143E-1,-7.51951E-1,9.286175E-1,1.0512342E0,-1.1628877E0,-1.0469041E0,-3.3028007E-1,9.148061E-2,1.0525675E0,-1.3853248E0,-8.498413E-2,2.4743308E-1,9.2079294E-1,-3.5325523E-2,-3.6523717E-5,2.9849026E-2,-9.341196E-3,-3.3110317E-2,9.898821E-1,1.0562428E0,1.3460715E0,2.6418997E-2,-3.5905052E-2,1.5522125E0,-2.0161834E-1,1.5781592E0,1.7532253E0,1.7005409E0,3.6317695E-2,-3.549727E-2,-2.8810438E-3,-3.1434216E-2,-1.2604049E-2,-3.0466497E-2,7.859283E-3,-2.0194922E-2,-3.6072524E-3,-1.829257E-2,1.9513277E-2,-1.02521395E-2,2.4473595E-2,-7.1013933E-3,2.4960103E-2,-3.4577772E-2,-3.6872432E-4,-2.6598405E-2,-1.1924404E-2,5.838026E-3,-1.3872559E-2,-2.7069397E-2,6.798547E-3,2.5157327E-2,-1.5422234E-2,-3.1843312E-2,-3.7917378E-3,-5.6851036E-3,1.6470095E-2,5.1713345E-4,1.5187338E-2,9.566399E-3,2.3160541E-2,-3.7580796E-2,6.5879524E-3,2.1084739E-2,-7.0324144E-3,1.7153228E-2,2.5665523E-2,2.7298292E-2,3.7751915E-3,2.6332952E-2,3.181653E-2,2.7721193E-2,-3.4678664E-2,3.175128E-2,3.0200383E-5,2.6708895E-2,3.5227455E-2,2.6014227E-2,3.4974877E-2],"categories":[],"categories_nodes":[],"categories_segments":[],"categories_sizes":[],"default_left":[0,0,0,1,0,0,0,0,0,1,0,0,0,0,0,0,0,0,0,0,0,0,0,0,0,0,0,0,1,0,0,0,1,1,0,0,0,0,0,0,0,0,0,0,0,0,0,0,0,0,0,0,1,0,1,0,0,0,0,1,0,0,0,0,0,0,0,0,0,0,0,0,0,0,0,0,0,0,0,0,0,0,0,0,0,0,0,0,0,0,0,0,0,0,0,0,0,0,0,0,0,0,0,0,0,0,0,0,0,0,0,0,0],"id":5,"left_children":[1,3,5,7,9,11,13,15,17,19,21,23,25,27,29,31,33,35,37,39,41,43,45,47,49,51,53,55,57,59,61,63,65,67,69,71,73,75,77,79,81,83,85,87,89,91,93,-1,-1,-1,-1,95,97,99,101,-1,-1,103,105,107,109,111,-1,-1,-1,-1,-1,-1,-1,-1,-1,-1,-1,-1,-1,-1,-1,-1,-1,-1,-1,-1,-1,-1,-1,-1,-1,-1,-1,-1,-1,-1,-1,-1,-1,-1,-1,-1,-1,-1,-1,-1,-1,-1,-1,-1,-1,-1,-1,-1,-1,-1,-1],"loss_changes":[5.9176293E4,5.623992E3,7.4097656E2,8.578594E2,1.2055132E3,9.5782715E1,1.00134766E2,5.704336E2,1.14930984E2,4.006504E2,3.322622E2,4.4629097E1,6.18313E1,3.641504E1,2.953125E1,7.551172E1,3.645017E2,1.0173191E2,6.521913E1,2.3249463E2,5.0229694E1,2.2934161E2,1.310588E2,1.2188316E1,1.7941677E1,7.4011185E1,3.868091E1,4.55837E1,3.2625977E1,2.2358398E1,1.3349609E0,3.0332031E1,8.032764E1,1.0923779E2,1.4809802E2,5.5427795E1,1.9530983E1,2.9010834E1,9.765995E0,2.9290894E2,1.2829819E2,5.05052E1,3.469934E1,3.7188446E1,2.254128E2,9.648365E1,4.5389526E1,0E0,0E0,0E0,0E0,6.619244E1,2.2912811E1,5.4630615E1,1.6630249E1,0E0,0E0,2.7510254E1,2.9984251E1,2.236084E1,3.5986328E0,5.3286133E0,0E0,0E0,0E0,0E0,0E0,0E0,0E0,0E0,0E0,0E0,0E0,0E0,0E0,0E0,0E0,0E0,0E0,0E0,0E0,0E0,0E0,0E0,0E0,0E0,0E0,0E0,0E0,0E0,0E0,0E0,0E0,0E0,0E0,0E0,0E0,0E0,0E0,0E0,0E0,0E0,0E0,0E0,0E0,0E0,0E0,0E0,0E0,0E0,0E0,0E0,0E0],"parents":[2147483647,0,0,1,1,2,2,3,3,4,4,5,5,6,6,7,7,8,8,9,9,10,10,11,11,12,12,13,13,14,14,15,15,16,16,17,17,18,18,19,19,20,20,21,21,22,22,23,23,24,24,25,25,26,26,27,27,28,28,29,29,30,30,31,31,32,32,33,33,34,34,35,35,36,36,37,37,38,38,39,39,40,40,41,41,42,42,43,43,44,44,45,45,46,46,51,51,52,52,53,53,54,54,57,57,58,58,59,59,60,60,61,61],"right_children":[2,4,6,8,10,12,14,16,18,20,22,24,26,28,30,32,34,36,38,40,42,44,46,48,50,52,54,56,58,60,62,64,66,68,70,72,74,76,78,80,82,84,86,88,90,92,94,-1,-1,-1,-1,96,98,100,102,-1,-1,104,106,108,110,112,-1,-1,-1,-1,-1,-1,-1,-1,-1,-1,-1,-1,-1,-1,-1,-1,-1,-1,-1,-1,-1,-1,-1,-1,-1,-1,-1,-1,-1,-1,-1,-1,-1,-1,-1,-1,-1,-1,-1,-1,-1,-1,-1,-1,-1,-1,-1,-1,-1,-1,-1],"split_conditions":[1E0,1.4E1,2E-1,8E-1,1.2E1,2.3E1,4E-1,1.3E1,3.48E2,6.666667E-1,1.36E1,1.5E2,8E0,5.1E1,6.2E1,1.29E2,3E0,8.8E1,1.535E3,5.01E2,2.7E0,5E-1,4.6E1,7E-1,-6E-1,4.2E1,4.3E1,4.4E1,1.54E2,6.2E1,1.3E1,6.16E1,7E-3,8.3E-1,9.2E1,1.2E0,4E-1,2.34E3,3.49E1,5.9E1,2E0,-7.0710677E-1,8.8E1,2.96E2,9.6E1,2.96E2,4E1,-3.5325523E-2,-3.6523717E-5,2.9849026E-2,-9.341196E-3,2.59E1,2.68E2,7E-2,5.37E1,2.6418997E-2,-3.5905052E-2,-6E0,9.01613E3,3.02E1,4E-1,-7.0710677E-1,3.6317695E-2,-3.549727E-2,-2.8810438E-3,-3.1434216E-2,-1.2604049E-2,-3.0466497E-2,7.859283E-3,-2.0194922E-2,-3.6072524E-3,-1.829257E-2,1.9513277E-2,-1.02521395E-2,2.4473595E-2,-7.1013933E-3,2.4960103E-2,-3.4577772E-2,-3.6872432E-4,-2.6598405E-2,-1.1924404E-2,5.838026E-3,-1.3872559E-2,-2.7069397E-2,6.798547E-3,2.5157327E-2,-1.5422234E-2,-3.1843312E-2,-3.7917378E-3,-5.6851036E-3,1.6470095E-2,5.1713345E-4,1.5187338E-2,9.566399E-3,2.3160541E-2,-3.7580796E-2,6.5879524E-3,2.1084739E-2,-7.0324144E-3,1.7153228E-2,2.5665523E-2,2.7298292E-2,3.7751915E-3,2.6332952E-2,3.181653E-2,2.7721193E-2,-3.4678664E-2,3.175128E-2,3.0200383E-5,2.6708895E-2,3.5227455E-2,2.6014227E-2,3.4974877E-2],"split_indices":[67,171,58,135,170,62,58,170,102,132,174,177,170,10,170,177,171,170,90,102,135,132,171,59,8,172,171,10,57,171,171,179,167,164,177,59,82,182,81,171,86,0,40,37,171,176,172,0,0,0,0,36,44,16,36,0,0,63,45,46,135,0,0,0,0,0,0,0,0,0,0,0,0,0,0,0,0,0,0,0,0,0,0,0,0,0,0,0,0,0,0,0,0,0,0,0,0,0,0,0,0,0,0,0,0,0,0,0,0,0,0,0,0],"split_type":[0,0,0,0,0,0,0,0,0,0,0,0,0,0,0,0,0,0,0,0,0,0,0,0,0,0,0,0,0,0,0,0,0,0,0,0,0,0,0,0,0,0,0,0,0,0,0,0,0,0,0,0,0,0,0,0,0,0,0,0,0,0,0,0,0,0,0,0,0,0,0,0,0,0,0,0,0,0,0,0,0,0,0,0,0,0,0,0,0,0,0,0,0,0,0,0,0,0,0,0,0,0,0,0,0,0,0,0,0,0,0,0,0],"sum_hessian":[3.1466146E4,1.7919814E4,1.3546333E4,1.214046E4,5.7793545E3,2.4161646E3,1.1130168E4,1.1787797E4,3.5266318E2,3.096228E3,2.6831265E3,3.967077E1,2.3764937E3,3.313645E3,7.816523E3,9.215248E3,2.5725488E3,2.3635336E2,1.1630981E2,2.8685823E3,2.2764566E2,1.394437E3,1.2886893E3,2.2072514E1,1.7598253E1,3.5605652E2,2.0204371E3,1.7670853E1,3.295974E3,3.3562021E3,4.460321E3,8.210446E3,1.00480164E3,1.6488168E3,9.23732E2,1.930675E2,4.328585E1,1.019143E2,1.4395506E1,2.3031362E3,5.654462E2,1.386864E2,8.895927E1,1.5130208E2,1.2431349E3,8.504477E2,4.3824164E2,1.6914656E1,5.1578574E0,1.0443993E1,7.15426E0,9.676156E1,2.5929495E2,1.2398966E3,7.805406E2,1.09372425E1,6.7336106E0,3.2856516E3,1.0322704E1,1.517897E3,1.838305E3,4.0933044E2,4.0509905E3,8.198707E3,1.1739825E1,9.016139E2,1.03187744E2,1.618971E3,2.9845833E1,5.805487E2,3.431833E2,1.7693521E2,1.6132301E1,7.1730537E0,3.6112797E1,1.2348443E1,8.956586E1,9.23178E0,5.1637254E0,1.4133939E3,8.8974225E2,2.0844145E2,3.570048E2,1.9635773E1,1.1905063E2,8.028622E1,8.673052E0,1.2863535E2,2.2666729E1,1.0201655E3,2.229694E2,5.9441675E2,2.5603098E2,1.5415674E2,2.840849E2,1.5241683E1,8.151988E1,2.4770087E2,1.1594087E1,6.641747E2,5.757219E2,7.6777405E2,1.2766573E1,4.6804367E2,2.817608E3,5.084591E0,5.238113E0,1.5088264E3,9.070546E0,3.8553673E1,1.7997513E3,4.7273075E1,3.6205737E2],"tree_param":{"num_deleted":"0","num_feature":"183","num_nodes":"113","size_leaf_vector":"1"}},{"base_weights":[-4.815224E-3,-1.1796255E0,1.5474892E0,-1.5209013E0,-6.7938864E-1,1.0627022E0,1.6552169E0,-1.5569568E0,-2.2923818E-1,-8.8476217E-1,1.3292392E-1,-3.136909E-1,1.0870147E0,1.5107305E0,1.7170385E0,-1.5932317E0,-6.510856E-1,-6.4053696E-1,6.1755514E-1,-9.9901444E-1,3.608814E-1,-1.1359227E0,2.3292786E-1,8.089411E-1,-1.3428601E0,7.3962325E-1,1.1511545E0,1.5147021E0,-8.978144E-3,1.5760196E0,1.7488018E0,-1.7206508E0,-1.4329616E0,-1.6834826E0,-3.883476E-1,1.4671186E-1,-1.0434424E0,-8.206689E-1,9.7922176E-1,-7.624294E-1,-1.4978465E0,-1.1800425E-1,7.8892416E-1,8.500365E-1,-1.4384307E0,6.81714E-2,9.250428E-1,1.3342178E0,-6.7962343E-3,-3.454027E-2,-0E0,2.2396436E-1,9.6443003E-1,1.1893052E0,6.348043E-1,1.1606126E0,1.5360806E0,8.927554E-1,1.5975778E0,1.5688264E0,1.765761E0,-3.457814E-2,-7.928831E-3,-3.460651E-2,-2.6450831E-2,-4.753202E-3,-3.5970658E-2,-3.2180205E-2,-3.7433899E-3,-3.4199025E-2,1.2083181E-2,1.3187385E-2,-2.6733395E-2,1.6501987E-2,-3.4624886E-2,2.5863703E-2,-2.880167E-3,-2.514108E-3,-1.9742304E-2,-7.865727E-3,-3.0855022E-2,-8.962154E-3,1.675556E-2,-1.7299889E-2,1.8406395E-2,3.1940725E-2,-4.1499147E-3,-3.184108E-3,-3.4412593E-2,1.3770227E-2,-2.7656092E-3,4.023266E-3,2.5443882E-2,1.7189737E-2,3.150566E-2,9.3027335E-3,-2.5899626E-2,6.3654026E-3,2.24443E-2,2.3969147E-2,-3.511552E-2,-1.974113E-2,1.774157E-2,2.4853209E-2,-1.4299309E-2,3.08565E-2,7.96014E-3,-1.0478936E-2,2.2954414E-2,3.3350375E-2,2.845996E-2,1.7700762E-2,3.2522548E-2,3.3076137E-2,3.553649E-2],"categories":[],"categories_nodes":[],"categories_segments":[],"categories_sizes":[],"default_left":[0,0,0,1,0,0,0,0,0,1,0,0,0,1,0,0,0,0,0,0,0,0,1,0,0,0,0,0,0,0,0,0,0,0,0,0,0,0,0,0,0,0,0,0,0,0,0,0,0,0,0,0,0,0,0,0,0,0,0,0,0,0,0,0,0,0,0,0,0,0,0,0,0,0,0,0,0,0,0,0,0,0,0,0,0,0,0,0,0,0,0,0,0,0,0,0,0,0,0,0,0,0,0,0,0,0,0,0,0,0,0,0,0,0,0],"id":6,"left_children":[1,3,5,7,9,11,13,15,17,19,21,23,25,27,29,31,33,35,37,39,41,43,45,47,49,51,53,55,-1,57,59,61,63,65,67,69,71,73,75,77,79,81,83,85,87,89,91,93,-1,-1,-1,95,97,99,101,103,105,107,109,111,113,-1,-1,-1,-1,-1,-1,-1,-1,-1,-1,-1,-1,-1,-1,-1,-1,-1,-1,-1,-1,-1,-1,-1,-1,-1,-1,-1,-1,-1,-1,-1,-1,-1,-1,-1,-1,-1,-1,-1,-1,-1,-1,-1,-1,-1,-1,-1,-1,-1,-1,-1,-1,-1,-1],"loss_changes":[5.706793E4,3.0396562E3,7.0199805E2,4.9254492E2,1.2056458E3,8.2535645E1,9.558594E1,3.3719727E2,1.0097038E2,8.212822E2,1.8530104E2,5.1165756E1,5.2694824E1,2.6574219E1,3.146875E1,1.994414E2,1.07196304E2,6.2072456E1,5.0147808E1,6.221758E2,9.9627304E1,6.537398E1,1.5415207E2,1.3397365E1,1.1765957E1,4.3589798E1,3.9125244E1,2.2980469E1,0E0,1.9374512E1,1.6085938E1,5.935742E1,1.4162402E2,1.2749161E1,7.783903E1,5.7643234E1,6.543422E1,3.080783E1,2.7204811E1,5.127866E2,8.344751E1,7.283375E1,5.6535797E1,1.2072881E1,3.310959E1,1.4029349E2,6.4935394E1,1.04320526E-1,0E0,0E0,0E0,4.3187523E1,2.6357132E1,5.3058594E1,5.9067642E1,3.0587158E1,2.3103027E1,1.73222E1,1.4216309E1,1.9895386E1,3.8261719E0,0E0,0E0,0E0,0E0,0E0,0E0,0E0,0E0,0E0,0E0,0E0,0E0,0E0,0E0,0E0,0E0,0E0,0E0,0E0,0E0,0E0,0E0,0E0,0E0,0E0,0E0,0E0,0E0,0E0,0E0,0E0,0E0,0E0,0E0,0E0,0E0,0E0,0E0,0E0,0E0,0E0,0E0,0E0,0E0,0E0,0E0,0E0,0E0,0E0,0E0,0E0,0E0,0E0,0E0],"parents":[2147483647,0,0,1,1,2,2,3,3,4,4,5,5,6,6,7,7,8,8,9,9,10,10,11,11,12,12,13,13,14,14,15,15,16,16,17,17,18,18,19,19,20,20,21,21,22,22,23,23,24,24,25,25,26,26,27,27,29,29,30,30,31,31,32,32,33,33,34,34,35,35,36,36,37,37,38,38,39,39,40,40,41,41,42,42,43,43,44,44,45,45,46,46,47,47,51,51,52,52,53,53,54,54,55,55,56,56,57,57,58,58,59,59,60,60],"right_children":[2,4,6,8,10,12,14,16,18,20,22,24,26,28,30,32,34,36,38,40,42,44,46,48,50,52,54,56,-1,58,60,62,64,66,68,70,72,74,76,78,80,82,84,86,88,90,92,94,-1,-1,-1,96,98,100,102,104,106,108,110,112,114,-1,-1,-1,-1,-1,-1,-1,-1,-1,-1,-1,-1,-1,-1,-1,-1,-1,-1,-1,-1,-1,-1,-1,-1,-1,-1,-1,-1,-1,-1,-1,-1,-1,-1,-1,-1,-1,-1,-1,-1,-1,-1,-1,-1,-1,-1,-1,-1,-1,-1,-1,-1,-1,-1],"split_conditions":[5.1E1,4E0,2E-1,6E-1,1E-1,2.3E1,4E-1,1E-1,1.18E2,5E-1,1E-1,-4E-1,8E0,1.68E2,8.8E1,2.4E1,2.2E1,-9E1,6.8E1,1.0201E3,2E-1,1.318E1,7.8E1,4E0,1.0187E3,4.2E1,1.0228E3,4E-1,-8.978144E-3,2.9E1,-5.15E-1,4.5E1,6.6E1,-7.9793806E0,8.3E1,1.6E0,-6E-1,-6E0,-5E-1,-7.0710677E-1,1.66E0,3.4E-1,-1.9E1,5.6E1,2.02E1,-7.0710677E-1,2.167481E1,1.64E2,-6.7962343E-3,-3.454027E-2,-0E0,1.1E1,1.8E0,1.13E2,0E0,3.3333333E0,1.4359876E1,-7.5260496E-1,-2.5881904E-1,1.2E0,2.5E0,-3.457814E-2,-7.928831E-3,-3.460651E-2,-2.6450831E-2,-4.753202E-3,-3.5970658E-2,-3.2180205E-2,-3.7433899E-3,-3.4199025E-2,1.2083181E-2,1.3187385E-2,-2.6733395E-2,1.6501987E-2,-3.4624886E-2,2.5863703E-2,-2.880167E-3,-2.514108E-3,-1.9742304E-2,-7.865727E-3,-3.0855022E-2,-8.962154E-3,1.675556E-2,-1.7299889E-2,1.8406395E-2,3.1940725E-2,-4.1499147E-3,-3.184108E-3,-3.4412593E-2,1.3770227E-2,-2.7656092E-3,4.023266E-3,2.5443882E-2,1.7189737E-2,3.150566E-2,9.3027335E-3,-2.5899626E-2,6.3654026E-3,2.24443E-2,2.3969147E-2,-3.511552E-2,-1.974113E-2,1.774157E-2,2.4853209E-2,-1.4299309E-2,3.08565E-2,7.96014E-3,-1.0478936E-2,2.2954414E-2,3.3350375E-2,2.845996E-2,1.7700762E-2,3.2522548E-2,3.3076137E-2,3.553649E-2],"split_indices":[66,170,73,135,59,62,73,59,177,135,135,8,170,57,62,62,62,101,41,4,136,169,41,170,4,172,4,135,0,62,98,172,41,18,41,135,5,13,1,1,180,98,64,35,94,1,52,177,0,0,0,74,175,87,64,180,18,18,1,42,135,0,0,0,0,0,0,0,0,0,0,0,0,0,0,0,0,0,0,0,0,0,0,0,0,0,0,0,0,0,0,0,0,0,0,0,0,0,0,0,0,0,0,0,0,0,0,0,0,0,0,0,0,0,0],"split_type":[0,0,0,0,0,0,0,0,0,0,0,0,0,0,0,0,0,0,0,0,0,0,0,0,0,0,0,0,0,0,0,0,0,0,0,0,0,0,0,0,0,0,0,0,0,0,0,0,0,0,0,0,0,0,0,0,0,0,0,0,0,0,0,0,0,0,0,0,0,0,0,0,0,0,0,0,0,0,0,0,0,0,0,0,0,0,0,0,0,0,0,0,0,0,0,0,0,0,0,0,0,0,0,0,0,0,0,0,0,0,0,0,0,0,0],"sum_hessian":[3.1291041E4,1.7811387E4,1.3479655E4,1.058664E4,7.2247466E3,2.452941E3,1.1026714E4,1.0298875E4,2.8776492E2,5.766788E3,1.4579587E3,4.229843E1,2.4106426E3,3.3123315E3,7.7143823E3,9.901507E3,3.9736783E2,1.9393149E2,9.383344E1,5.2825435E3,4.8424442E2,1.0568406E2,1.3522747E3,2.028648E1,2.2011953E1,3.7791034E2,2.0327322E3,3.3059094E3,6.4220552E0,1.4280552E3,6.286327E3,5.5103066E3,4.3912007E3,7.943796E1,3.1792987E2,6.5783264E1,1.2814822E2,1.8544138E1,7.528931E1,3.5849905E3,1.6975531E3,2.287803E2,2.5546411E2,1.3687213E1,9.199685E1,1.0932677E3,2.59007E2,1.3869938E1,6.416541E0,1.6857986E1,5.153967E0,1.154754E2,2.6243494E2,1.8914823E3,1.4124983E2,1.916475E2,3.114262E3,4.511855E1,1.3829366E3,5.4991394E2,5.736413E3,5.4757847E3,3.4521637E1,1.1848341E3,3.2063665E3,6.145325E0,7.329263E1,4.3923836E1,2.7400604E2,1.2419401E1,5.3363865E1,1.8592035E1,1.0955619E2,6.5997825E0,1.1944355E1,5.8793236E1,1.6496069E1,9.356136E2,2.649377E3,6.678434E1,1.6307687E3,1.7052202E2,5.8258286E1,1.833474E1,2.3712936E2,7.777732E0,5.9094815E0,1.6973492E1,7.502335E1,2.725294E2,8.207382E2,8.455681E1,1.7445018E2,6.3483334E0,7.521605E0,1.00308426E2,1.5166973E1,5.2222908E1,2.1021202E2,1.8862476E3,5.234746E0,1.8567984E1,1.2268184E2,1.839896E2,7.6579223E0,3.0954744E3,1.878762E1,6.6608257E0,3.8457726E1,9.8085645E2,4.0208017E2,4.392586E1,5.059881E2,5.3024335E2,5.20617E3],"tree_param":{"num_deleted":"0","num_feature":"183","num_nodes":"115","size_leaf_vector":"1"}},{"base_weights":[1.1421911E-2,-1.1508446E0,1.5266309E0,-1.5225888E0,-3.6133614E-1,1.0463217E0,1.6293249E0,-1.6213897E0,-8.1588995E-1,-8.1610453E-1,1.9525459E-2,8.45788E-1,1.1577163E0,1.4913163E0,1.6879214E0,-1.683071E0,-1.3019369E0,-2.228259E-2,-1.0738851E0,-1.3050904E0,-6.229674E-1,6.017685E-1,-2.1895026E-1,5.8036065E-1,1.0703048E0,9.659508E-1,1.3109511E0,1.4974443E0,-3.256871E-1,1.6985418E0,1.2755202E0,-1.7011929E0,-9.788786E-1,-1.5776204E0,-9.8140043E-1,-1.9512682E-1,1.3801489E0,-1.2060822E0,4.0678736E-2,-1.3865899E0,4.4839653E-1,-9.409747E-1,-3.5588375E-1,1.4741014E-1,8.652612E-1,-3.5497594E-1,7.126025E-1,6.4763546E-1,-3.690857E-2,1.0968468E0,-1.1926231E-2,6.282009E-1,1.1701825E0,1.3279365E0,-1.2151795E-2,1.5027189E0,-3.6327671E-3,2.8190933E-2,-3.616336E-2,1.6380054E0,1.7468853E0,-7.6298187E-3,1.3254532E0,-3.477363E-2,-3.2207802E-2,-3.3267036E-2,-1.1126392E-2,-3.2468274E-2,-2.5124287E-3,-3.0751092E-2,-1.1152579E-2,-1.5034631E-2,3.4084357E-3,3.203133E-2,8.060663E-3,-2.943638E-2,-1.7150605E-2,1.4471989E-2,-1.2171393E-2,-3.0657893E-2,-1.1168954E-2,-3.2043796E-2,1.8258443E-2,-2.1661341E-2,-6.990086E-3,-9.596176E-3,1.599155E-2,-1.0268567E-2,8.952782E-3,2.2534218E-2,6.1665736E-3,-2.8383665E-2,-4.934201E-3,-2.5417456E-2,1.6738817E-2,1.3890501E-2,-3.47968E-2,1.4351334E-2,2.4346216E-2,1.3995494E-2,-3.6156535E-2,2.80906E-2,1.9098036E-2,2.177133E-2,2.8318739E-2,2.4283482E-2,3.0631835E-2,3.2818366E-2,-4.808082E-3,3.4959767E-2,1.6343929E-2,2.8658649E-2,1.2760434E-2],"categories":[],"categories_nodes":[],"categories_segments":[],"categories_sizes":[],"default_left":[0,0,0,0,0,0,0,0,0,0,0,0,0,0,0,1,0,1,1,1,0,0,1,1,0,0,0,1,0,0,0,0,0,1,0,0,0,0,0,0,0,0,1,0,0,0,0,1,0,0,0,0,0,0,0,0,0,0,0,1,1,0,0,0,0,0,0,0,0,0,0,0,0,0,0,0,0,0,0,0,0,0,0,0,0,0,0,0,0,0,0,0,0,0,0,0,0,0,0,0,0,0,0,0,0,0,0,0,0,0,0,0,0],"id":7,"left_children":[1,3,5,7,9,11,13,15,17,19,21,23,25,27,29,31,33,35,37,39,41,43,45,47,49,51,53,55,57,59,61,63,65,67,69,71,73,75,77,79,81,83,85,87,89,91,93,95,-1,97,-1,99,101,103,-1,105,-1,-1,-1,107,109,-1,111,-1,-1,-1,-1,-1,-1,-1,-1,-1,-1,-1,-1,-1,-1,-1,-1,-1,-1,-1,-1,-1,-1,-1,-1,-1,-1,-1,-1,-1,-1,-1,-1,-1,-1,-1,-1,-1,-1,-1,-1,-1,-1,-1,-1,-1,-1,-1,-1,-1,-1],"loss_changes":[5.540114E4,5.2242754E3,6.716094E2,8.435137E2,9.874381E2,5.262036E1,8.812695E1,2.067207E2,3.0426306E2,2.4438E2,4.3104868E2,5.0708862E1,4.391504E1,3.8034668E1,3.2083984E1,1.11583984E2,1.5044995E2,8.883497E1,1.6546008E2,1.05698975E2,1.5791003E2,1.0776788E2,2.7925653E2,6.6087006E1,2.1350769E1,4.671161E1,2.8768555E1,3.0079102E1,3.3627186E1,1.9294922E1,1.7336884E1,2.6382812E1,6.412341E1,6.109204E1,1.8736023E2,6.664891E1,7.852051E0,9.140625E1,5.358661E1,8.4025635E1,3.3141094E1,7.09494E1,1.4572716E2,6.618401E1,8.259674E1,2.209633E2,7.027666E1,4.4584274E1,0E0,1.9942932E1,0E0,4.6926285E1,2.0062378E1,1.6085938E1,0E0,2.5694336E1,0E0,0E0,0E0,1.9301758E1,2.680664E0,0E0,1.340802E1,0E0,0E0,0E0,0E0,0E0,0E0,0E0,0E0,0E0,0E0,0E0,0E0,0E0,0E0,0E0,0E0,0E0,0E0,0E0,0E0,0E0,0E0,0E0,0E0,0E0,0E0,0E0,0E0,0E0,0E0,0E0,0E0,0E0,0E0,0E0,0E0,0E0,0E0,0E0,0E0,0E0,0E0,0E0,0E0,0E0,0E0,0E0,0E0,0E0,0E0],"parents":[2147483647,0,0,1,1,2,2,3,3,4,4,5,5,6,6,7,7,8,8,9,9,10,10,11,11,12,12,13,13,14,14,15,15,16,16,17,17,18,18,19,19,20,20,21,21,22,22,23,23,24,24,25,25,26,26,27,27,28,28,29,29,30,30,31,31,32,32,33,33,34,34,35,35,36,36,37,37,38,38,39,39,40,40,41,41,42,42,43,43,44,44,45,45,46,46,47,47,49,49,51,51,52,52,53,53,55,55,59,59,60,60,62,62],"right_children":[2,4,6,8,10,12,14,16,18,20,22,24,26,28,30,32,34,36,38,40,42,44,46,48,50,52,54,56,58,60,62,64,66,68,70,72,74,76,78,80,82,84,86,88,90,92,94,96,-1,98,-1,100,102,104,-1,106,-1,-1,-1,108,110,-1,112,-1,-1,-1,-1,-1,-1,-1,-1,-1,-1,-1,-1,-1,-1,-1,-1,-1,-1,-1,-1,-1,-1,-1,-1,-1,-1,-1,-1,-1,-1,-1,-1,-1,-1,-1,-1,-1,-1,-1,-1,-1,-1,-1,-1,-1,-1,-1,-1,-1,-1],"split_conditions":[1E0,1.4E1,2E-1,1E-1,1.0526316E-1,-2.5881904E-1,4E-1,1.18E2,-5E-1,2.7E1,-7.0710677E-1,3.3E1,-4.4087284E-16,6.1172044E-1,7.3595476E0,5E-1,1E0,1.7E0,7.5E-1,8E-1,1.44E1,-9E0,6.666667E-1,-2.8E0,1.4630116E1,4E1,1.15380125E1,1.54E2,1.21E1,6.9E1,-7.2E-1,1E0,2.9411765E-2,8.6E1,-2.5881904E-1,7E-1,5.0544434E1,4E0,6.85572E-3,1.76E2,1.6E0,1E-1,7.5E-1,1.45E1,7.0376835E0,2.5E-1,-7.8E0,2.52E2,-3.690857E-2,-8.478425E-1,-1.1926231E-2,3.6E1,-4E-1,9E0,-1.2151795E-2,4.347826E-2,-3.6327671E-3,2.8190933E-2,-3.616336E-2,3.04E1,2.201E2,-7.6298187E-3,4E-1,-3.477363E-2,-3.2207802E-2,-3.3267036E-2,-1.1126392E-2,-3.2468274E-2,-2.5124287E-3,-3.0751092E-2,-1.1152579E-2,-1.5034631E-2,3.4084357E-3,3.203133E-2,8.060663E-3,-2.943638E-2,-1.7150605E-2,1.4471989E-2,-1.2171393E-2,-3.0657893E-2,-1.1168954E-2,-3.2043796E-2,1.8258443E-2,-2.1661341E-2,-6.990086E-3,-9.596176E-3,1.599155E-2,-1.0268567E-2,8.952782E-3,2.2534218E-2,6.1665736E-3,-2.8383665E-2,-4.934201E-3,-2.5417456E-2,1.6738817E-2,1.3890501E-2,-3.47968E-2,1.4351334E-2,2.4346216E-2,1.3995494E-2,-3.6156535E-2,2.80906E-2,1.9098036E-2,2.177133E-2,2.8318739E-2,2.4283482E-2,3.0631835E-2,3.2818366E-2,-4.808082E-3,3.4959767E-2,1.6343929E-2,2.8658649E-2,1.2760434E-2],"split_indices":[67,171,58,60,173,0,58,177,1,171,1,171,19,162,12,132,171,133,132,133,81,14,132,53,19,171,12,57,36,171,98,171,173,33,0,20,47,171,162,177,86,60,132,81,12,132,42,35,0,19,0,171,6,171,0,173,0,0,0,46,43,0,8,0,0,0,0,0,0,0,0,0,0,0,0,0,0,0,0,0,0,0,0,0,0,0,0,0,0,0,0,0,0,0,0,0,0,0,0,0,0,0,0,0,0,0,0,0,0,0,0,0,0],"split_type":[0,0,0,0,0,0,0,0,0,0,0,0,0,0,0,0,0,0,0,0,0,0,0,0,0,0,0,0,0,0,0,0,0,0,0,0,0,0,0,0,0,0,0,0,0,0,0,0,0,0,0,0,0,0,0,0,0,0,0,0,0,0,0,0,0,0,0,0,0,0,0,0,0,0,0,0,0,0,0,0,0,0,0,0,0,0,0,0,0,0,0,0,0,0,0,0,0,0,0,0,0,0,0,0,0,0,0,0,0,0,0,0,0],"sum_hessian":[3.1456658E4,1.7801723E4,1.3654936E4,1.2102256E4,5.699466E3,2.4074128E3,1.1247522E4,1.061656E4,1.4856971E3,2.5972888E3,3.1021768E3,8.631144E2,1.5442985E3,3.360622E3,7.886901E3,8.894575E3,1.7219839E3,3.6485547E2,1.1208417E3,7.336227E2,1.8636661E3,9.0107666E2,2.2011E3,3.9736887E2,4.6574554E2,6.894472E2,8.548512E2,3.3495564E3,1.106578E1,7.685617E3,2.0128365E2,8.669905E3,2.2467053E2,9.234873E2,7.984966E2,3.2565225E2,3.92032E1,1.0020029E3,1.18838776E2,7.012939E2,3.2328804E1,8.4940784E2,1.0142583E3,3.3145877E2,5.696179E2,1.9212803E3,2.7981982E2,3.873993E2,9.9695635E0,4.5884006E2,6.9054646E0,2.6152072E2,4.279265E2,8.477062E2,7.145066E0,3.3392314E3,1.0325038E1,5.089867E0,5.975912E0,3.4288801E3,4.256737E3,5.6352997E0,1.9564835E2,6.1227983E3,2.5471064E3,8.454656E1,1.4012396E2,8.9507153E2,2.8415789E1,3.4407333E2,4.5442322E2,1.2878069E2,1.9687157E2,3.1356333E1,7.8468704E0,5.665524E2,4.3545047E2,5.7936737E1,6.090204E1,5.951748E2,1.0611909E2,5.478838E0,2.6849966E1,6.8406964E2,1.6533821E2,9.1662054E2,9.763775E1,1.0321889E2,2.2823987E2,3.8682285E2,1.8279506E2,1.7620717E2,1.7450731E3,1.5914981E1,2.6390482E2,3.8067392E2,6.725388E0,1.1248106E2,3.46359E2,2.5478847E2,6.7322435E0,2.0202257E2,2.2590395E2,2.3177115E2,6.15935E2,3.079744E2,3.0312568E3,3.4237505E3,5.129628E0,4.2507056E3,6.0314345E0,1.6813121E2,2.7517122E1],"tree_param":{"num_deleted":"0","num_feature":"183","num_nodes":"113","size_leaf_vector":"1"}},{"base_weights":[1.1404002E-4,-1.142355E0,1.4955826E0,-1.4950088E0,-3.6135495E-1,1.023472E0,1.5997685E0,-1.5533477E0,-5.0893205E-1,-7.9792136E-1,8.3825946E-2,6.519135E-1,1.0941638E0,1.4475093E0,1.6633753E0,-1.6422627E0,-1.2025558E0,3.7265822E-1,-7.646186E-1,-8.720657E-1,2.4460159E-1,-1.0451906E0,1.9572073E-1,1.6803792E-1,9.290839E-1,-3.3007234E-2,1.1066514E0,1.1761794E0,1.485977E0,1.5229251E0,1.6943972E0,-1.6724083E0,-9.058851E-1,-1.4649839E0,-8.136658E-1,5.764166E-1,-9.399703E-1,-9.8352426E-1,3.087907E-1,-1.3137505E0,-7.2044057E-1,-3.5635382E-2,4.655941E-1,-1.4235195E0,5.4421652E-2,6.6670525E-1,7.939455E-3,-1.2967455E0,3.6247706E-1,4.084353E-1,1.0945334E0,1.0074768E0,1.290875E0,-3.8549513E-2,1.232197E0,1.136E0,1.5130914E0,6.377087E-1,1.5400118E0,1.3445041E0,1.7046055E0,-3.398386E-2,-2.9837618E-2,4.443688E-3,-2.303989E-2,-3.0103859E-2,-5.5092612E-5,-2.1977019E-2,-1.750771E-3,1.4188209E-2,-3.2239232E-2,-3.571455E-2,1.2478901E-2,4.7642183E-3,-2.25053E-2,-1.6869793E-2,1.6761988E-2,-2.863633E-2,-6.0969936E-3,-2.5157217E-2,-1.1308704E-2,-3.323872E-3,1.9742768E-2,-3.2871332E-2,-9.773132E-3,-2.2092989E-2,1.686738E-2,2.9802995E-3,1.7700631E-2,-1.7889511E-3,2.1597644E-2,-1.2676261E-3,-3.6284745E-2,1.9218788E-2,-2.495813E-3,-1.1427439E-2,1.725545E-2,2.3725267E-2,2.862544E-3,2.3432614E-2,1.4964186E-2,2.6120616E-2,-8.772043E-3,-3.650658E-2,1.8137794E-2,5.2371603E-3,2.5846712E-2,-1.6777102E-2,2.4401095E-2,2.5668569E-2,3.0790195E-2,-8.161321E-3,2.7900795E-2,2.5348859E-2,3.1536378E-2,9.4804745E-3,2.94774E-2,3.4125943E-2,2.0701583E-2],"categories":[],"categories_nodes":[],"categories_segments":[],"categories_sizes":[],"default_left":[0,0,0,0,0,0,0,0,0,1,0,0,0,0,0,1,0,0,1,0,0,0,0,0,0,0,0,0,0,0,0,0,0,1,0,1,0,0,0,0,0,0,0,0,0,0,1,0,0,0,0,0,1,0,0,0,0,0,0,0,0,0,0,0,0,0,0,0,0,0,0,0,0,0,0,0,0,0,0,0,0,0,0,0,0,0,0,0,0,0,0,0,0,0,0,0,0,0,0,0,0,0,0,0,0,0,0,0,0,0,0,0,0,0,0,0,0,0,0],"id":8,"left_children":[1,3,5,7,9,11,13,15,17,19,21,23,25,27,29,31,33,35,37,39,41,43,45,47,49,-1,51,53,55,57,59,61,63,65,67,69,71,73,75,77,79,-1,81,83,85,87,89,91,93,95,97,99,101,103,105,107,109,111,113,115,117,-1,-1,-1,-1,-1,-1,-1,-1,-1,-1,-1,-1,-1,-1,-1,-1,-1,-1,-1,-1,-1,-1,-1,-1,-1,-1,-1,-1,-1,-1,-1,-1,-1,-1,-1,-1,-1,-1,-1,-1,-1,-1,-1,-1,-1,-1,-1,-1,-1,-1,-1,-1,-1,-1,-1,-1,-1,-1],"loss_changes":[5.3426047E4,4.8817793E3,6.6424023E2,7.0153906E2,1.0721726E3,6.3498535E1,1.0471094E2,3.5735547E2,1.5444655E2,2.1555957E2,3.4523474E2,5.264714E1,7.229712E1,3.2186035E1,3.115625E1,2.0234766E2,2.3692188E2,4.1775803E1,1.2501041E2,1.730083E2,8.382039E1,1.0272479E2,2.1983148E2,4.1685425E1,2.0980347E1,0E0,3.590747E1,2.8201294E1,2.520996E1,2.0348633E1,2.0238281E1,3.9853516E1,1.01388916E2,8.17478E1,1.9514148E2,4.0127537E1,2.9070847E1,7.670737E1,5.592432E1,7.838818E1,1.6057428E2,0E0,5.567005E1,3.671942E1,5.9404953E1,7.9853455E1,1.858936E2,1.064646E1,3.7787674E1,2.8187279E1,1.622197E1,5.5830444E1,1.9352905E1,3.3932457E1,2.2494263E1,3.5976074E1,1.3859375E1,2.347427E1,1.1731201E1,2.0080261E1,4.9921875E0,0E0,0E0,0E0,0E0,0E0,0E0,0E0,0E0,0E0,0E0,0E0,0E0,0E0,0E0,0E0,0E0,0E0,0E0,0E0,0E0,0E0,0E0,0E0,0E0,0E0,0E0,0E0,0E0,0E0,0E0,0E0,0E0,0E0,0E0,0E0,0E0,0E0,0E0,0E0,0E0,0E0,0E0,0E0,0E0,0E0,0E0,0E0,0E0,0E0,0E0,0E0,0E0,0E0,0E0,0E0,0E0,0E0,0E0],"parents":[2147483647,0,0,1,1,2,2,3,3,4,4,5,5,6,6,7,7,8,8,9,9,10,10,11,11,12,12,13,13,14,14,15,15,16,16,17,17,18,18,19,19,20,20,21,21,22,22,23,23,24,24,26,26,27,27,28,28,29,29,30,30,31,31,32,32,33,33,34,34,35,35,36,36,37,37,38,38,39,39,40,40,42,42,43,43,44,44,45,45,46,46,47,47,48,48,49,49,50,50,51,51,52,52,53,53,54,54,55,55,56,56,57,57,58,58,59,59,60,60],"right_children":[2,4,6,8,10,12,14,16,18,20,22,24,26,28,30,32,34,36,38,40,42,44,46,48,50,-1,52,54,56,58,60,62,64,66,68,70,72,74,76,78,80,-1,82,84,86,88,90,92,94,96,98,100,102,104,106,108,110,112,114,116,118,-1,-1,-1,-1,-1,-1,-1,-1,-1,-1,-1,-1,-1,-1,-1,-1,-1,-1,-1,-1,-1,-1,-1,-1,-1,-1,-1,-1,-1,-1,-1,-1,-1,-1,-1,-1,-1,-1,-1,-1,-1,-1,-1,-1,-1,-1,-1,-1,-1,-1,-1,-1,-1,-1,-1,-1,-1,-1],"split_conditions":[5.1E1,1.5E1,2E-1,1E-1,1E1,8E0,4E-1,1.3E1,-7.0710677E-1,6.666667E-1,5E-1,4.7E1,2.2E1,-8E0,8.8E1,2.5E-1,2E0,4E0,7.5E-1,4.975683E1,2.19E3,2.5768696E1,-7.0710677E-1,2.71E1,2.9616504E0,-3.3007234E-2,4.8E1,2.2493156E1,7.5E-1,2.6E1,-6.9E-1,4.55E2,-8.660254E-1,7.6E-1,1.83E2,5.1E0,2.3E0,-7.828579E0,-1.6E0,5.8E0,1.04E1,-3.5635382E-2,1E2,9.9E1,7E1,1E0,5E-1,2.8E1,2.49E-1,7.0710677E-1,6.5605903E0,-2.5881904E-1,1.1E0,1.501E3,1.06E1,3.717683E1,5E0,3.1E0,8E0,2.769192E1,5.991077E-1,-3.398386E-2,-2.9837618E-2,4.443688E-3,-2.303989E-2,-3.0103859E-2,-5.5092612E-5,-2.1977019E-2,-1.750771E-3,1.4188209E-2,-3.2239232E-2,-3.571455E-2,1.2478901E-2,4.7642183E-3,-2.25053E-2,-1.6869793E-2,1.6761988E-2,-2.863633E-2,-6.0969936E-3,-2.5157217E-2,-1.1308704E-2,-3.323872E-3,1.9742768E-2,-3.2871332E-2,-9.773132E-3,-2.2092989E-2,1.686738E-2,2.9802995E-3,1.7700631E-2,-1.7889511E-3,2.1597644E-2,-1.2676261E-3,-3.6284745E-2,1.9218788E-2,-2.495813E-3,-1.1427439E-2,1.725545E-2,2.3725267E-2,2.862544E-3,2.3432614E-2,1.4964186E-2,2.6120616E-2,-8.772043E-3,-3.650658E-2,1.8137794E-2,5.2371603E-3,2.5846712E-2,-1.6777102E-2,2.4401095E-2,2.5668569E-2,3.0790195E-2,-8.161321E-3,2.7900795E-2,2.5348859E-2,3.1536378E-2,9.4804745E-3,2.94774E-2,3.4125943E-2,2.0701583E-2],"split_indices":[66,171,58,59,170,170,58,170,1,132,132,172,62,63,62,132,171,63,132,47,182,52,1,46,12,0,171,52,132,62,98,176,1,164,176,89,82,18,21,21,81,0,62,170,40,172,136,62,165,1,19,1,134,90,9,47,170,21,170,52,162,0,0,0,0,0,0,0,0,0,0,0,0,0,0,0,0,0,0,0,0,0,0,0,0,0,0,0,0,0,0,0,0,0,0,0,0,0,0,0,0,0,0,0,0,0,0,0,0,0,0,0,0,0,0,0,0,0,0],"split_type":[0,0,0,0,0,0,0,0,0,0,0,0,0,0,0,0,0,0,0,0,0,0,0,0,0,0,0,0,0,0,0,0,0,0,0,0,0,0,0,0,0,0,0,0,0,0,0,0,0,0,0,0,0,0,0,0,0,0,0,0,0,0,0,0,0,0,0,0,0,0,0,0,0,0,0,0,0,0,0,0,0,0,0,0,0,0,0,0,0,0,0,0,0,0,0,0,0,0,0,0,0,0,0,0,0,0,0,0,0,0,0,0,0,0,0,0,0,0,0],"sum_hessian":[3.1268229E4,1.7726312E4,1.3541916E4,1.2211343E4,5.514969E3,2.450309E3,1.1091606E4,1.1528603E4,6.8274036E2,2.784138E3,2.7308313E3,3.9353152E2,2.0567776E3,3.2757004E3,7.8159062E3,9.194193E3,2.3344097E3,1.5330527E2,5.2943506E2,2.5995193E3,1.846187E2,2.4541035E2,2.485421E3,1.4403923E2,2.494923E2,8.68561E0,2.0480918E3,4.1098956E2,2.864711E3,1.4236638E3,6.392242E3,8.831254E3,3.6293942E2,1.3920271E3,9.423826E2,1.3325694E2,2.0048328E1,4.3990082E2,8.9534256E1,6.6220074E2,1.9373186E3,1.741533E1,1.6720337E2,1.824378E2,6.2972557E1,7.0759076E2,1.7778301E3,1.615489E1,1.27884346E2,6.114619E1,1.883461E2,1.3359243E3,7.1216754E2,1.805251E1,3.9293704E2,2.0933362E2,2.6553774E3,2.7795921E1,1.3958679E3,1.8525026E2,6.206992E3,7.682446E3,1.1488079E3,6.494551E1,2.9799393E2,1.3546777E3,3.7349323E1,6.7616797E2,2.662147E2,1.263027E2,6.9542413E0,1.2961128E1,7.0872E0,4.5585987E1,3.9431482E2,2.7936125E1,6.159813E1,5.923617E2,6.9839096E1,4.3194812E2,1.5053705E3,7.583186E1,9.1371506E1,1.4697733E2,3.546047E1,2.5290485E1,3.7682076E1,2.1052925E2,4.9706152E2,1.6305192E3,1.4731094E2,5.1637006E0,1.099119E1,5.7049393E1,7.083495E1,1.9219786E1,4.1926403E1,1.7146255E2,1.6883537E1,8.156164E2,5.20308E2,7.062809E2,5.8866687E0,5.9613314E0,1.2091178E1,2.334128E1,3.6959576E2,8.130844E0,2.0120277E2,2.7944397E2,2.3759333E3,1.181294E1,1.5982982E1,1.7060895E2,1.2252589E3,2.4672262E1,1.60578E2,6.1896553E3,1.7336906E1],"tree_param":{"num_deleted":"0","num_feature":"183","num_nodes":"119","size_leaf_vector":"1"}},{"base_weights":[-5.9924754E-3,-1.1215057E0,1.4698552E0,-1.3994235E0,-4.9472752E-1,1.2906737E0,1.6461504E0,-1.4696578E0,-3.6920187E-1,-2.762676E-1,-1.1371764E0,1.0291111E0,1.3530246E0,4.310979E-1,1.6494753E0,-1.6368468E0,-1.2635505E0,-6.240295E-1,5.5591786E-1,-1.2196103E0,-1.6373336E-1,-1.4618316E0,-8.087705E-1,7.694577E-1,1.1906087E0,8.5109603E-1,1.3743274E0,-1.4665837E-2,2.5511391E-2,1.5749826E0,1.6922253E0,-1.6452186E0,-3.6042058E-1,-1.3564955E0,-7.0223504E-1,-8.616289E-1,1.6595224E-1,7.0444703E-1,-3.3221286E-2,-1.4784884E0,-5.0130445E-1,-3.9557207E-1,2.574154E-1,-1.5026308E0,-4.1246668E-1,-9.141552E-1,8.4770507E-1,5.4538006E-1,1.2389219E0,1.2132668E0,-1.7332722E-2,-1.0749952E0,1.0409187E0,1.2635952E0,1.4490361E0,1.6047363E0,1.3562899E0,1.5702374E-2,1.693966E0,-3.3164594E-2,-2.0816559E-2,1.9818382E-2,-2.592194E-2,-3.3006787E-2,-2.4786694E-2,-1.8993147E-2,-4.3068426E-3,-2.3310248E-2,-2.1582441E-3,-1.2522852E-2,1.6281463E-2,2.6841812E-2,5.4634395E-3,-3.2166567E-2,-5.489553E-3,-2.3483062E-2,4.7985595E-3,-1.3340978E-2,2.4014662E-4,-1.7565992E-3,9.660905E-3,-3.0752415E-2,-5.191959E-4,-3.463538E-2,1.8499287E-2,-2.6298702E-2,-7.517545E-3,-7.2766445E-3,2.778932E-2,1.3596919E-2,-1.6021816E-2,-6.3559264E-3,2.5980903E-2,8.734814E-3,2.5254317E-2,1.3092551E-2,-3.9165862E-2,-1.1336399E-2,2.1937534E-2,2.2104532E-2,2.8547019E-2,2.9065115E-2,-1.5961687E-4,2.6502844E-2,3.2437146E-2,3.9955447E-3,2.7714528E-2,3.0832013E-2,3.4060203E-2],"categories":[],"categories_nodes":[],"categories_segments":[],"categories_sizes":[],"default_left":[0,0,0,1,0,0,0,0,0,0,0,0,0,0,0,0,0,0,0,0,0,0,1,0,1,0,0,0,0,1,0,0,0,0,0,0,0,0,0,0,0,0,0,1,0,0,0,0,0,0,0,0,0,0,1,0,0,0,0,0,0,0,0,0,0,0,0,0,0,0,0,0,0,0,0,0,0,0,0,0,0,0,0,0,0,0,0,0,0,0,0,0,0,0,0,0,0,0,0,0,0,0,0,0,0,0,0,0,0],"id":9,"left_children":[1,3,5,7,9,11,13,15,17,19,21,23,25,27,29,31,33,35,37,39,41,43,45,47,49,51,53,-1,-1,55,57,59,61,63,65,67,69,71,-1,73,75,77,79,81,83,85,87,89,91,93,-1,95,97,99,101,103,105,-1,107,-1,-1,-1,-1,-1,-1,-1,-1,-1,-1,-1,-1,-1,-1,-1,-1,-1,-1,-1,-1,-1,-1,-1,-1,-1,-1,-1,-1,-1,-1,-1,-1,-1,-1,-1,-1,-1,-1,-1,-1,-1,-1,-1,-1,-1,-1,-1,-1,-1,-1],"loss_changes":[5.1093438E4,3.078004E3,4.195957E2,8.8526953E2,7.618345E2,1.0650391E2,2.6269531E1,3.9264062E2,1.8492519E2,4.3008878E2,1.4548987E2,5.2596436E1,5.5820312E1,2.04615E1,1.838086E1,6.679883E1,2.6692676E2,1.1553424E2,5.6897995E1,7.937091E1,3.5392767E2,2.8792725E1,1.2076782E2,5.113513E1,3.7798218E1,8.1794266E1,4.0344727E1,0E0,0E0,1.3550293E1,5.1328125E0,4.741797E1,5.514622E1,1.4939795E2,8.7887634E1,1.0799069E2,7.3839836E1,4.3369675E1,0E0,4.890332E1,5.8243942E1,2.5873315E2,1.0033774E2,3.4169434E1,4.9937607E1,1.3886304E2,2.7896227E1,6.1451195E1,1.5368744E1,2.920935E1,0E0,3.2335945E1,1.8796066E1,5.1994873E1,1.8948242E1,7.9038086E0,9.8376465E0,0E0,2.8945312E0,0E0,0E0,0E0,0E0,0E0,0E0,0E0,0E0,0E0,0E0,0E0,0E0,0E0,0E0,0E0,0E0,0E0,0E0,0E0,0E0,0E0,0E0,0E0,0E0,0E0,0E0,0E0,0E0,0E0,0E0,0E0,0E0,0E0,0E0,0E0,0E0,0E0,0E0,0E0,0E0,0E0,0E0,0E0,0E0,0E0,0E0,0E0,0E0,0E0,0E0],"parents":[2147483647,0,0,1,1,2,2,3,3,4,4,5,5,6,6,7,7,8,8,9,9,10,10,11,11,12,12,13,13,14,14,15,15,16,16,17,17,18,18,19,19,20,20,21,21,22,22,23,23,24,24,25,25,26,26,29,29,30,30,31,31,32,32,33,33,34,34,35,35,36,36,37,37,39,39,40,40,41,41,42,42,43,43,44,44,45,45,46,46,47,47,48,48,49,49,51,51,52,52,53,53,54,54,55,55,56,56,58,58],"right_children":[2,4,6,8,10,12,14,16,18,20,22,24,26,28,30,32,34,36,38,40,42,44,46,48,50,52,54,-1,-1,56,58,60,62,64,66,68,70,72,-1,74,76,78,80,82,84,86,88,90,92,94,-1,96,98,100,102,104,106,-1,108,-1,-1,-1,-1,-1,-1,-1,-1,-1,-1,-1,-1,-1,-1,-1,-1,-1,-1,-1,-1,-1,-1,-1,-1,-1,-1,-1,-1,-1,-1,-1,-1,-1,-1,-1,-1,-1,-1,-1,-1,-1,-1,-1,-1,-1,-1,-1,-1,-1,-1],"split_conditions":[5.1E1,1.2E1,5.3E1,1E0,1.0207E3,1.4E1,2.6E1,2.8E1,6E-1,1E0,3E0,5.1E1,1E0,7.7E-1,1E2,4.5E1,1E-1,3.26E2,4.7E0,1E1,2E-1,1.2E0,2E-1,6.41E2,1.542E3,-1E0,9.5E1,-1.4665837E-2,2.5511391E-2,-4.1E0,-1.6E1,8E-1,1.6875E0,6.9E1,1.27E2,7.7E1,2.44E-1,-4.4E0,-3.3221286E-2,8.4E1,2.06E-1,9E1,-5E-1,2E0,2.223E1,1.125489E1,1E-1,6.472136E0,-3.4E-1,-5E0,-1.7332722E-2,7E-2,3.2901684E-5,1.95E2,1.03E2,6.3E1,-3E2,1.5702374E-2,2E-1,-3.3164594E-2,-2.0816559E-2,1.9818382E-2,-2.592194E-2,-3.3006787E-2,-2.4786694E-2,-1.8993147E-2,-4.3068426E-3,-2.3310248E-2,-2.1582441E-3,-1.2522852E-2,1.6281463E-2,2.6841812E-2,5.4634395E-3,-3.2166567E-2,-5.489553E-3,-2.3483062E-2,4.7985595E-3,-1.3340978E-2,2.4014662E-4,-1.7565992E-3,9.660905E-3,-3.0752415E-2,-5.191959E-4,-3.463538E-2,1.8499287E-2,-2.6298702E-2,-7.517545E-3,-7.2766445E-3,2.778932E-2,1.3596919E-2,-1.6021816E-2,-6.3559264E-3,2.5980903E-2,8.734814E-3,2.5254317E-2,1.3092551E-2,-3.9165862E-2,-1.1336399E-2,2.1937534E-2,2.2104532E-2,2.8547019E-2,2.9065115E-2,-1.5961687E-4,2.6502844E-2,3.2437146E-2,3.9955447E-3,2.7714528E-2,3.0832013E-2,3.4060203E-2],"split_indices":[66,170,66,137,4,170,62,62,136,137,172,172,137,15,62,172,60,176,82,101,60,60,136,102,90,63,62,0,0,53,14,60,180,41,177,92,165,53,0,41,165,177,0,137,169,11,5,18,16,13,0,163,162,176,31,10,101,0,136,0,0,0,0,0,0,0,0,0,0,0,0,0,0,0,0,0,0,0,0,0,0,0,0,0,0,0,0,0,0,0,0,0,0,0,0,0,0,0,0,0,0,0,0,0,0,0,0,0,0],"split_type":[0,0,0,0,0,0,0,0,0,0,0,0,0,0,0,0,0,0,0,0,0,0,0,0,0,0,0,0,0,0,0,0,0,0,0,0,0,0,0,0,0,0,0,0,0,0,0,0,0,0,0,0,0,0,0,0,0,0,0,0,0,0,0,0,0,0,0,0,0,0,0,0,0,0,0,0,0,0,0,0,0,0,0,0,0,0,0,0,0,0,0,0,0,0,0,0,0,0,0,0,0,0,0,0,0,0,0,0,0],"sum_hessian":[3.103281E4,1.767417E4,1.335864E4,1.2243797E4,5.430374E3,6.6294966E3,6.7291436E3,1.1461871E4,7.8192505E2,4.0535728E3,1.3768014E3,1.2798048E3,5.349692E3,1.8802729E1,6.710341E3,6.324317E3,5.137554E3,6.1339636E2,1.685287E2,4.3088217E2,3.6226907E3,6.9046576E2,6.863357E2,4.9321118E2,7.8659357E2,2.1966531E2,5.1300264E3,7.9097304E0,1.0892999E1,2.461431E3,4.24891E3,6.282743E3,4.1574078E1,4.4063394E3,7.312151E2,4.715932E2,1.4180315E2,1.5862857E2,9.900142E0,3.158515E2,1.15030655E2,2.3366716E3,1.286019E3,6.641176E2,2.6348124E1,6.45761E2,4.057472E1,3.3546622E2,1.57745E2,7.7847845E2,8.1151285E0,1.9240992E1,2.0042432E2,2.0744932E3,3.0555332E3,2.1606714E3,3.007596E2,9.113172E0,4.239797E3,6.14847E3,1.3427258E2,1.6941132E1,2.4632946E1,1.2520948E3,3.1542444E3,4.8407095E2,2.4714413E2,3.3560492E2,1.3598827E2,6.3759586E1,7.804356E1,6.3056E1,9.557256E1,2.8472772E2,3.1123795E1,6.006129E1,5.4969364E1,1.4022692E3,9.3440234E2,5.0834595E2,7.7767316E2,6.4863904E2,1.5478567E1,1.3153169E1,1.3194956E1,3.6922354E2,2.7653745E2,1.2581844E1,2.7992874E1,3.0552423E2,2.994196E1,5.644644E0,1.5210034E2,4.7315193E1,7.3116327E2,6.553662E0,1.268733E1,6.3740563E0,1.9405026E2,1.0588434E3,1.01564966E3,3.0467808E3,8.752554E0,1.2953522E2,2.0311361E3,7.7427917E0,2.930168E2,2.4779503E2,3.9920017E3],"tree_param":{"num_deleted":"0","num_feature":"183","num_nodes":"109","size_leaf_vector":"1"}},{"base_weights":[-1.522616E-4,-1.1016778E0,1.4534492E0,-1.5151168E0,-4.5036617E-1,9.940582E-1,1.5552508E0,-1.5468414E0,-2.8328627E-1,-9.593015E-1,-9.698687E-2,-4.4237167E-1,1.0176443E0,1.4088079E0,1.6168579E0,-1.5932229E0,-1.1032366E0,-9.9158484E-1,2.1310894E-2,-1.2111973E0,-5.596107E-1,3.456554E-1,-3.4825063E-1,-1.3667293E0,8.687953E-1,1.1118547E0,7.8765583E-1,1.000901E0,1.4323797E0,1.560496E-1,1.6200416E0,-1.6306809E0,-1.2994474E0,-1.2119499E-1,-1.2990942E0,8.6524874E-1,-1.4781255E0,2.0281705E-1,-3.482274E-2,-1.3234831E0,-5.193871E-1,-8.831068E-1,1.7774892E-1,4.225777E-1,-1.6405619E0,-1.0876826E0,-1.1162272E-1,-0E0,-3.485477E-2,2.8387586E-2,-3.8463108E-3,1.4336188E0,1.0203873E0,8.195768E-1,-1.1105068E0,1.0709112E0,-3.8924827E-3,1.4431057E0,6.615415E-1,2.395385E-2,-1.6891181E-2,1.5236757E0,1.6524818E0,-3.265546E-2,-3.770466E-3,-2.9664358E-2,-1.7507918E-2,7.099459E-3,-2.7701123E-2,-4.1803598E-4,-2.7016768E-2,-3.5395366E-3,2.6980301E-2,2.1803783E-2,-3.523915E-2,1.0326637E-2,-1.4579086E-2,6.7433408E-3,-2.7004106E-2,5.2045146E-3,-2.483562E-2,-2.1512384E-2,-4.824376E-3,2.4456372E-2,-5.5224844E-4,6.439551E-3,2.5526766E-2,-1.1397445E-3,-3.6033396E-2,-2.4545088E-4,-2.7331047E-2,-2.498384E-2,-1.6927587E-4,3.0081928E-2,1.6833423E-2,2.0658543E-2,-3.5460453E-2,1.8348513E-3,1.7769758E-2,-3.6108382E-2,-3.138424E-3,-1.0978542E-2,2.2753675E-2,-8.244293E-3,2.8934618E-2,3.3850275E-2,-3.950383E-3,2.6555123E-2,3.1168988E-2,3.020459E-2,3.336129E-2],"categories":[],"categories_nodes":[],"categories_segments":[],"categories_sizes":[],"default_left":[0,0,0,1,0,0,0,0,0,0,0,0,0,0,0,0,0,0,0,0,0,0,0,0,0,0,0,0,0,0,0,1,0,0,0,0,0,0,0,0,0,0,0,1,0,0,0,0,0,0,0,0,1,0,0,0,0,0,0,0,0,0,0,0,0,0,0,0,0,0,0,0,0,0,0,0,0,0,0,0,0,0,0,0,0,0,0,0,0,0,0,0,0,0,0,0,0,0,0,0,0,0,0,0,0,0,0,0,0,0,0],"id":10,"left_children":[1,3,5,7,9,11,13,15,17,19,21,23,25,27,29,31,33,35,37,39,41,43,45,47,49,51,53,55,57,59,61,63,65,67,69,71,73,75,-1,77,79,81,83,85,87,89,91,-1,-1,-1,-1,93,95,97,99,101,-1,103,105,-1,-1,107,109,-1,-1,-1,-1,-1,-1,-1,-1,-1,-1,-1,-1,-1,-1,-1,-1,-1,-1,-1,-1,-1,-1,-1,-1,-1,-1,-1,-1,-1,-1,-1,-1,-1,-1,-1,-1,-1,-1,-1,-1,-1,-1,-1,-1,-1,-1,-1,-1],"loss_changes":[4.953567E4,4.7384043E3,6.2193164E2,4.2008398E2,1.2291525E3,8.2575195E1,9.589844E1,2.1390625E2,5.871382E1,2.811504E2,4.4895288E2,4.9426163E1,5.057959E1,2.9481445E1,3.526953E1,1.0211328E2,1.9144214E2,7.523487E1,6.123595E1,1.3251709E2,2.589986E2,2.2388536E2,4.5029102E2,1.2129375E1,1.0331659E1,4.7976074E1,4.3075928E1,1.5410812E1,2.4143066E1,1.9670206E1,2.1107422E1,2.4917969E1,8.2583984E1,1.01065216E2,5.4792236E1,9.214865E0,4.9533936E1,5.1165455E1,0E0,6.608203E1,1.3646329E2,9.281818E1,7.1309364E1,1.2035808E2,1.3654587E1,1.8698944E2,2.2891833E2,0E0,0E0,0E0,0E0,1.3975525E1,4.793286E1,3.4202087E1,7.39954E0,1.9160263E1,0E0,2.0998047E1,3.943802E1,0E0,0E0,1.0876953E1,9.837891E0,0E0,0E0,0E0,0E0,0E0,0E0,0E0,0E0,0E0,0E0,0E0,0E0,0E0,0E0,0E0,0E0,0E0,0E0,0E0,0E0,0E0,0E0,0E0,0E0,0E0,0E0,0E0,0E0,0E0,0E0,0E0,0E0,0E0,0E0,0E0,0E0,0E0,0E0,0E0,0E0,0E0,0E0,0E0,0E0,0E0,0E0,0E0,0E0],"parents":[2147483647,0,0,1,1,2,2,3,3,4,4,5,5,6,6,7,7,8,8,9,9,10,10,11,11,12,12,13,13,14,14,15,15,16,16,17,17,18,18,19,19,20,20,21,21,22,22,23,23,24,24,25,25,26,26,27,27,28,28,29,29,30,30,31,31,32,32,33,33,34,34,35,35,36,36,37,37,39,39,40,40,41,41,42,42,43,43,44,44,45,45,46,46,51,51,52,52,53,53,54,54,55,55,57,57,58,58,61,61,62,62],"right_children":[2,4,6,8,10,12,14,16,18,20,22,24,26,28,30,32,34,36,38,40,42,44,46,48,50,52,54,56,58,60,62,64,66,68,70,72,74,76,-1,78,80,82,84,86,88,90,92,-1,-1,-1,-1,94,96,98,100,102,-1,104,106,-1,-1,108,110,-1,-1,-1,-1,-1,-1,-1,-1,-1,-1,-1,-1,-1,-1,-1,-1,-1,-1,-1,-1,-1,-1,-1,-1,-1,-1,-1,-1,-1,-1,-1,-1,-1,-1,-1,-1,-1,-1,-1,-1,-1,-1,-1,-1,-1,-1,-1,-1],"split_conditions":[5.1E1,8E0,2E-1,7E-1,6.818182E-2,2.3E1,4E-1,1E-1,2.631579E-2,4.9E1,-5E-1,9.8E-1,1.0178E3,4E-1,2.5E1,1.29E2,-7.0710677E-1,-8.660254E-1,9.55161E3,1.77E2,1.46E1,1.0249E3,4.3E1,9.7E0,-4E-1,-8.660254E-1,9.7E-1,3.4510916E2,1E0,5E-1,9.6E1,9.9E1,2E0,1.0189E3,-9.694091E0,5.6E1,1E0,-2E0,-3.482274E-2,-4.2E0,2.2E0,1E-1,1.8181819E0,2E-1,1.8403988E-2,1.9517947E-5,1E-1,-0E0,-3.485477E-2,2.8387586E-2,-3.8463108E-3,8.3E0,-6E-1,-2.2E1,0E0,-6.2E0,-3.8924827E-3,5.1E1,4E-2,2.395385E-2,-1.6891181E-2,1.5384616E-1,3E0,-3.265546E-2,-3.770466E-3,-2.9664358E-2,-1.7507918E-2,7.099459E-3,-2.7701123E-2,-4.1803598E-4,-2.7016768E-2,-3.5395366E-3,2.6980301E-2,2.1803783E-2,-3.523915E-2,1.0326637E-2,-1.4579086E-2,6.7433408E-3,-2.7004106E-2,5.2045146E-3,-2.483562E-2,-2.1512384E-2,-4.824376E-3,2.4456372E-2,-5.5224844E-4,6.439551E-3,2.5526766E-2,-1.1397445E-3,-3.6033396E-2,-2.4545088E-4,-2.7331047E-2,-2.498384E-2,-1.6927587E-4,3.0081928E-2,1.6833423E-2,2.0658543E-2,-3.5460453E-2,1.8348513E-3,1.7769758E-2,-3.6108382E-2,-3.138424E-3,-1.0978542E-2,2.2753675E-2,-8.244293E-3,2.8934618E-2,3.3850275E-2,-3.950383E-3,2.6555123E-2,3.1168988E-2,3.020459E-2,3.336129E-2],"split_indices":[66,171,58,135,173,62,58,60,173,171,1,76,4,135,62,177,1,1,45,177,174,4,62,9,5,1,76,51,76,82,62,33,171,4,18,10,85,53,0,7,86,60,180,136,162,162,135,0,0,0,0,97,53,87,8,53,0,10,163,0,0,173,135,0,0,0,0,0,0,0,0,0,0,0,0,0,0,0,0,0,0,0,0,0,0,0,0,0,0,0,0,0,0,0,0,0,0,0,0,0,0,0,0,0,0,0,0,0,0,0,0],"split_type":[0,0,0,0,0,0,0,0,0,0,0,0,0,0,0,0,0,0,0,0,0,0,0,0,0,0,0,0,0,0,0,0,0,0,0,0,0,0,0,0,0,0,0,0,0,0,0,0,0,0,0,0,0,0,0,0,0,0,0,0,0,0,0,0,0,0,0,0,0,0,0,0,0,0,0,0,0,0,0,0,0,0,0,0,0,0,0,0,0,0,0,0,0,0,0,0,0,0,0,0,0,0,0,0,0,0,0,0,0,0,0],"sum_hessian":[3.0935018E4,1.7598984E4,1.3336033E4,1.0764453E4,6.834531E3,2.4213171E3,1.0914716E4,1.0493857E4,2.7059592E2,2.7999941E3,4.0345366E3,3.8760292E1,2.382557E3,3.2395793E3,7.6751367E3,9.497971E3,9.9588684E2,8.079387E1,1.8980205E2,1.71615E3,1.083844E3,1.4606278E3,2.573909E3,2.2753342E1,1.6006952E1,1.6871704E3,6.953864E2,1.7958504E2,3.0599944E3,1.6867968E1,7.6582686E3,8.419542E3,1.0784292E3,1.6594724E2,8.299396E2,1.6570463E1,6.4223404E1,1.7293405E2,1.6867996E1,1.4755929E3,2.405572E2,7.5329474E2,3.3054926E2,1.406976E3,5.365182E1,6.230229E2,1.950886E3,5.150495E0,1.7602846E1,1.0378442E1,5.62851E0,3.699593E2,1.3172112E3,6.844963E2,1.0890109E1,1.6982777E2,9.757274E0,3.0170115E3,4.2982883E1,8.216985E0,8.650982E0,1.9416152E3,5.7166533E3,8.407145E3,1.2397209E1,7.504668E2,3.279623E2,1.2099979E2,4.4947445E1,3.242052E1,7.9751904E2,5.3886404E0,1.1181822E1,6.073426E0,5.8149982E1,1.2980988E2,4.3124184E1,2.312502E1,1.4524679E3,1.159377E2,1.246195E2,5.7885535E2,1.744394E2,5.3553204E1,2.7699606E2,1.260002E3,1.4697404E2,5.136653E0,4.8515167E1,1.2858006E2,4.944428E2,1.611999E2,1.7896862E3,3.290702E2,4.0889122E1,1.3119875E3,5.223576E0,5.952973E1,6.2496655E2,5.722068E0,5.168041E0,6.3782835E0,1.6344948E2,5.6099706E0,3.0114016E3,1.9148584E1,2.38343E1,2.9901056E2,1.6426046E3,5.746905E2,5.141963E3],"tree_param":{"num_deleted":"0","num_feature":"183","num_nodes":"111","size_leaf_vector":"1"}},{"base_weights":[3.0832235E-3,-1.0861946E0,1.4295759E0,-1.4442058E0,-3.3958533E-1,9.851114E-1,1.5288705E0,-1.4880518E0,-3.782879E-2,-8.019732E-1,3.082044E-3,-3.5794476E-1,1.0055411E0,1.3867714E0,1.5893012E0,-1.5933186E0,-1.095754E0,-1.0766033E0,1.9661155E-1,-8.731602E-1,4.018693E-1,5.1501656E-1,-1.9223547E-1,9.982796E-1,-3.421636E-2,8.799668E-1,1.1775293E0,1.1390171E0,1.4313717E0,2.5410208E-1,1.5928093E0,-1.6272644E0,-1.3501812E0,-1.349858E0,-6.3302606E-1,2.4486188E-2,-1.3113759E0,-3.371115E-2,2.9275468E-1,-1.1217467E0,-5.5714625E-1,1.2170568E0,9.794633E-3,-2.7025014E-1,7.203473E-1,-2.8376848E-1,8.519245E-1,3.07931E-2,-4.7084154E-3,1.042464E0,6.2382156E-1,8.128427E-1,1.279472E0,1.1755908E0,-3.6892556E-2,1.4424245E0,7.429728E-1,3.0412598E-2,-5.37421E-1,1.5184509E0,1.6426268E0,-3.2589123E-2,-1.0796998E-2,-1.8584069E-2,-2.9524647E-2,-3.131448E-2,-2.2078283E-2,-2.3357475E-2,-6.711973E-3,-3.1856563E-2,2.0325873E-2,2.1400813E-3,2.3028309E-2,-2.4730137E-2,-1.0254024E-2,-1.9634925E-2,-1.5062216E-3,2.8177032E-2,-2.117128E-3,-3.3580422E-2,6.9716834E-3,2.1967354E-4,-3.0388104E-2,1.7133458E-2,1.4680406E-3,-2.3907984E-2,-3.814524E-3,-3.3463452E-2,1.873322E-2,2.1286067E-2,-3.701514E-2,-2.4770694E-3,1.6456872E-2,9.633666E-3,2.2943212E-2,2.5980363E-2,1.371014E-3,-1.721364E-2,2.418025E-2,2.8919687E-2,-5.451411E-3,2.1963682E-2,-7.4942117E-3,2.1566493E-2,-3.5382807E-2,2.849059E-2,3.1823255E-2,2.7619468E-2,3.2941334E-2],"categories":[],"categories_nodes":[],"categories_segments":[],"categories_sizes":[],"default_left":[0,0,0,1,0,0,0,0,0,1,0,0,0,0,0,0,0,0,0,0,0,0,1,0,0,0,0,1,0,0,0,0,0,0,0,0,0,0,0,0,0,0,0,0,0,0,0,0,0,0,0,0,1,0,0,1,0,0,0,0,0,0,0,0,0,0,0,0,0,0,0,0,0,0,0,0,0,0,0,0,0,0,0,0,0,0,0,0,0,0,0,0,0,0,0,0,0,0,0,0,0,0,0,0,0,0,0,0,0],"id":11,"left_children":[1,3,5,7,9,11,13,15,17,19,21,23,25,27,29,31,33,35,37,39,41,43,45,47,-1,49,51,53,55,57,59,61,63,65,67,-1,69,-1,71,73,75,77,79,81,83,85,87,-1,-1,89,91,93,95,97,-1,99,101,-1,103,105,107,-1,-1,-1,-1,-1,-1,-1,-1,-1,-1,-1,-1,-1,-1,-1,-1,-1,-1,-1,-1,-1,-1,-1,-1,-1,-1,-1,-1,-1,-1,-1,-1,-1,-1,-1,-1,-1,-1,-1,-1,-1,-1,-1,-1,-1,-1,-1,-1],"loss_changes":[4.7865137E4,4.6680527E3,5.86875E2,7.2774805E2,8.972594E2,6.733447E1,9.109766E1,4.7075195E2,8.7487015E1,2.0695459E2,3.2540707E2,7.003746E1,5.0642334E1,3.4143555E1,3.520117E1,7.198242E1,2.8413208E2,3.7350555E1,5.3349216E1,1.7801135E2,4.306978E1,1.4516158E2,2.2529214E2,1.3298189E1,0E0,5.7156616E1,3.631909E1,5.695508E1,1.9702637E1,2.2254942E1,2.5416016E1,1.7761719E1,5.7382324E1,8.107251E1,1.3655054E2,0E0,4.134584E1,0E0,4.4334908E1,8.815259E1,2.0528891E2,1.1395142E1,5.330038E1,6.583661E1,6.271591E1,1.8337943E2,4.2145386E1,0E0,0E0,5.5628967E1,8.102586E1,2.4053284E1,1.8420654E1,3.4914978E1,0E0,1.708252E1,1.8668623E1,0E0,2.9420923E1,1.8404785E1,2.7080078E0,0E0,0E0,0E0,0E0,0E0,0E0,0E0,0E0,0E0,0E0,0E0,0E0,0E0,0E0,0E0,0E0,0E0,0E0,0E0,0E0,0E0,0E0,0E0,0E0,0E0,0E0,0E0,0E0,0E0,0E0,0E0,0E0,0E0,0E0,0E0,0E0,0E0,0E0,0E0,0E0,0E0,0E0,0E0,0E0,0E0,0E0,0E0,0E0],"parents":[2147483647,0,0,1,1,2,2,3,3,4,4,5,5,6,6,7,7,8,8,9,9,10,10,11,11,12,12,13,13,14,14,15,15,16,16,17,17,18,18,19,19,20,20,21,21,22,22,23,23,25,25,26,26,27,27,28,28,29,29,30,30,31,31,32,32,33,33,34,34,36,36,38,38,39,39,40,40,41,41,42,42,43,43,44,44,45,45,46,46,49,49,50,50,51,51,52,52,53,53,55,55,56,56,58,58,59,59,60,60],"right_children":[2,4,6,8,10,12,14,16,18,20,22,24,26,28,30,32,34,36,38,40,42,44,46,48,-1,50,52,54,56,58,60,62,64,66,68,-1,70,-1,72,74,76,78,80,82,84,86,88,-1,-1,90,92,94,96,98,-1,100,102,-1,104,106,108,-1,-1,-1,-1,-1,-1,-1,-1,-1,-1,-1,-1,-1,-1,-1,-1,-1,-1,-1,-1,-1,-1,-1,-1,-1,-1,-1,-1,-1,-1,-1,-1,-1,-1,-1,-1,-1,-1,-1,-1,-1,-1,-1,-1,-1,-1,-1,-1],"split_conditions":[5.1E1,1.4E1,2E-1,8E-1,5E0,2.2E1,4E-1,1.4E1,-4.4E1,4E-1,-7.0710677E-1,-5E-1,4.4E1,-5E0,2.5E1,1.25E2,3E0,-2.8E0,3E-1,4.8E1,-4E-1,1.03E1,1.7E0,-1.8369701E-16,-3.421636E-2,-2.5881904E-1,8E0,3.561447E2,5.391632E-1,1.5E-2,5.6E1,6.2E0,1.0133E3,-1.0506577E0,1.21E1,2.4486188E-2,2E0,-3.371115E-2,2.25E-1,1.76E2,1.15E1,6E0,1.05E1,1.0207E3,1.0197E3,1E-1,6.4E1,3.07931E-2,-4.7084154E-3,1.0274E3,6.4E1,4.4943376E0,5.61E1,8E0,-3.6892556E-2,1.68E2,2E0,3.0412598E-2,4E-2,6.1E1,-4.15E-1,-3.2589123E-2,-1.0796998E-2,-1.8584069E-2,-2.9524647E-2,-3.131448E-2,-2.2078283E-2,-2.3357475E-2,-6.711973E-3,-3.1856563E-2,2.0325873E-2,2.1400813E-3,2.3028309E-2,-2.4730137E-2,-1.0254024E-2,-1.9634925E-2,-1.5062216E-3,2.8177032E-2,-2.117128E-3,-3.3580422E-2,6.9716834E-3,2.1967354E-4,-3.0388104E-2,1.7133458E-2,1.4680406E-3,-2.3907984E-2,-3.814524E-3,-3.3463452E-2,1.873322E-2,2.1286067E-2,-3.701514E-2,-2.4770694E-3,1.6456872E-2,9.633666E-3,2.2943212E-2,2.5980363E-2,1.371014E-3,-1.721364E-2,2.418025E-2,2.8919687E-2,-5.451411E-3,2.1963682E-2,-7.4942117E-3,2.1566493E-2,-3.5382807E-2,2.849059E-2,3.1823255E-2,2.7619468E-2,3.2941334E-2],"split_indices":[66,171,58,135,170,62,58,170,168,133,1,8,171,63,62,177,171,7,86,171,5,174,135,3,0,1,170,50,162,98,170,60,4,19,174,0,59,0,98,177,174,63,174,4,4,135,33,0,0,4,62,77,36,9,0,57,87,0,163,171,98,0,0,0,0,0,0,0,0,0,0,0,0,0,0,0,0,0,0,0,0,0,0,0,0,0,0,0,0,0,0,0,0,0,0,0,0,0,0,0,0,0,0,0,0,0,0,0,0],"split_type":[0,0,0,0,0,0,0,0,0,0,0,0,0,0,0,0,0,0,0,0,0,0,0,0,0,0,0,0,0,0,0,0,0,0,0,0,0,0,0,0,0,0,0,0,0,0,0,0,0,0,0,0,0,0,0,0,0,0,0,0,0,0,0,0,0,0,0,0,0,0,0,0,0,0,0,0,0,0,0,0,0,0,0,0,0,0,0,0,0,0,0,0,0,0,0,0,0,0,0,0,0,0,0,0,0,0,0,0,0],"sum_hessian":[3.0802258E4,1.7465598E4,1.3336661E4,1.1804218E4,5.6613794E3,2.4375564E3,1.08991045E4,1.1447204E4,3.5701382E2,2.4092888E3,3.2520906E3,3.6202065E1,2.4013542E3,3.2597078E3,7.639397E3,9.022772E3,2.4244316E3,6.515497E1,2.9185886E2,2.275112E3,1.3417664E2,8.977995E2,2.354291E3,1.8172619E1,1.8029444E1,1.3918306E3,1.00952374E3,5.016758E2,2.758032E3,2.0286484E1,7.6191104E3,7.9120244E3,1.1107484E3,1.5636372E3,8.607943E2,5.602848E0,5.9552124E1,1.3329952E1,2.785289E2,1.2718043E3,1.00330774E3,4.2809494E1,9.136714E1,1.8592914E2,7.1187036E2,2.1653005E3,1.8899033E2,1.2514175E1,5.6584435E0,8.494704E2,5.4236017E2,2.2272127E2,7.868025E2,4.9623245E2,5.4433436E0,2.713228E3,4.4803898E1,7.496468E0,1.2790015E1,3.0701006E3,4.54901E3,7.8955195E3,1.6504486E1,2.5806033E2,8.526881E2,8.296646E2,7.3397266E2,3.0645322E2,5.543411E2,5.344806E1,6.104066E0,2.3001233E2,4.8516563E1,1.0691534E3,2.0265091E2,5.326681E2,4.7063965E2,3.7398163E1,5.411328E0,1.45560875E1,7.681105E1,1.5250536E2,3.3423786E1,5.875763E2,1.24294044E2,1.9933069E2,1.96597E3,5.4892187E0,1.8350111E2,8.43768E2,5.702436E0,1.1399295E2,4.2836722E2,1.1326562E2,1.0945565E2,7.741511E2,1.2651346E1,7.5652175E0,4.8866724E2,2.7078225E3,5.40553E0,3.407988E1,1.072402E1,5.5512905E0,7.2387247E0,1.3492528E3,1.7208478E3,8.148547E1,4.4675244E3],"tree_param":{"num_deleted":"0","num_feature":"183","num_nodes":"109","size_leaf_vector":"1"}},{"base_weights":[1.2599226E-3,-1.0685666E0,1.404386E0,-1.3338727E0,-4.7689945E-1,9.3330055E-1,1.5074563E0,-1.380943E0,5.508233E-2,-6.2833124E-1,4.6231693E-1,-3.7470365E-1,9.5429534E-1,1.3659523E0,1.567548E0,-1.4511812E0,-7.3262185E-1,-2.9039583E-1,8.04429E-1,-8.039223E-1,7.556361E-2,-3.8248718E-1,5.9586406E-1,8.0106795E-1,-1.2787603E0,1.2506201E0,8.647864E-1,1.2255737E0,1.4425026E0,1.446727E0,1.6045954E0,-1.583035E0,-1.2849994E0,-8.7011427E-1,3.130918E-1,4.2931506E-1,-6.7219883E-1,1.1858499E0,3.148687E-1,-5.533608E-1,-1.3044827E0,-8.3182317E-1,2.06755E-1,-9.011291E-1,3.9973432E-1,-2.9432747E-1,7.361172E-1,-7.7967397E-3,3.0978233E-2,-3.3537656E-2,3.6630654E-4,7.434644E-1,1.3717518E0,9.889219E-2,9.146008E-1,1.2370996E0,-1.3476241E-2,4.9117863E-1,1.4595622E0,6.868519E-1,1.4635969E0,1.6059953E0,7.1718004E-3,-3.1841572E-2,-2.046737E-3,-2.6383337E-2,-7.0209824E-3,-9.177261E-3,-2.3438081E-2,1.3300883E-2,-2.1091389E-2,-3.2431778E-2,1.2849448E-2,-1.7197749E-2,2.3091221E-2,2.633125E-2,-4.7381762E-3,-2.404734E-2,1.8288331E-2,-2.738018E-2,-8.091933E-3,-2.9194418E-2,-1.6147962E-2,9.768493E-3,-2.3607265E-2,-3.8608976E-3,9.4148265E-3,7.9997664E-4,-3.0703349E-2,1.5989205E-2,-3.2156635E-2,-2.6113013E-2,7.8035514E-3,1.1296402E-2,2.32257E-2,-2.0015866E-2,1.8224707E-2,2.8256742E-2,4.6807216E-3,1.8164935E-2,-1.2799616E-2,1.17111E-2,1.9557195E-2,2.5166666E-2,3.7497533E-3,-2.05744E-2,1.9160116E-2,2.5885677E-2,2.9942082E-2,-1.3642255E-2,1.9893609E-2,2.3417976E-2,2.990144E-2,3.1065175E-2,3.2637745E-2],"categories":[],"categories_nodes":[],"categories_segments":[],"categories_sizes":[],"default_left":[0,0,0,1,1,0,0,0,0,0,0,0,0,0,0,0,0,0,0,0,0,0,0,0,0,0,0,0,0,0,0,0,0,0,0,0,0,0,0,0,0,0,0,0,0,0,0,0,0,0,0,0,1,0,0,1,0,0,0,0,0,0,0,0,0,0,0,0,0,0,0,0,0,0,0,0,0,0,0,0,0,0,0,0,0,0,0,0,0,0,0,0,0,0,0,0,0,0,0,0,0,0,0,0,0,0,0,0,0,0,0,0,0,0,0],"id":12,"left_children":[1,3,5,7,9,11,13,15,17,19,21,23,25,27,29,31,33,35,37,39,41,43,45,47,49,51,53,55,57,59,61,63,65,67,69,71,73,75,77,79,81,83,85,87,89,91,93,-1,-1,-1,-1,95,97,99,101,103,-1,105,107,109,111,113,-1,-1,-1,-1,-1,-1,-1,-1,-1,-1,-1,-1,-1,-1,-1,-1,-1,-1,-1,-1,-1,-1,-1,-1,-1,-1,-1,-1,-1,-1,-1,-1,-1,-1,-1,-1,-1,-1,-1,-1,-1,-1,-1,-1,-1,-1,-1,-1,-1,-1,-1,-1,-1],"loss_changes":[4.613108E4,2.7362656E3,6.43875E2,7.872246E2,7.6830566E2,6.603247E1,9.0302734E1,5.289238E2,1.0266555E2,5.749337E2,8.4890305E1,4.187903E1,6.109204E1,3.298877E1,3.1609375E1,2.2783984E2,1.6427563E2,7.486855E1,2.2845528E1,4.6594507E2,1.10734215E2,4.2161827E1,8.12036E1,1.6086279E1,1.1627369E1,3.213562E1,6.886047E1,2.622461E1,3.321875E1,2.1925781E1,9.420898E0,7.803711E1,1.4784375E2,1.24419495E2,6.4757065E1,4.2283936E1,6.1909492E1,1.341333E1,5.2267822E1,3.0048853E2,9.434448E1,5.4709793E1,8.590367E1,3.7366524E1,3.4625034E1,6.211361E1,3.9989136E1,0E0,0E0,0E0,0E0,3.2232372E1,1.9935547E1,6.744897E1,3.4638306E1,2.5264648E1,0E0,2.840765E1,1.0598145E1,1.808374E1,1.4246338E1,5.1152344E0,0E0,0E0,0E0,0E0,0E0,0E0,0E0,0E0,0E0,0E0,0E0,0E0,0E0,0E0,0E0,0E0,0E0,0E0,0E0,0E0,0E0,0E0,0E0,0E0,0E0,0E0,0E0,0E0,0E0,0E0,0E0,0E0,0E0,0E0,0E0,0E0,0E0,0E0,0E0,0E0,0E0,0E0,0E0,0E0,0E0,0E0,0E0,0E0,0E0,0E0,0E0,0E0,0E0],"parents":[2147483647,0,0,1,1,2,2,3,3,4,4,5,5,6,6,7,7,8,8,9,9,10,10,11,11,12,12,13,13,14,14,15,15,16,16,17,17,18,18,19,19,20,20,21,21,22,22,23,23,24,24,25,25,26,26,27,27,28,28,29,29,30,30,31,31,32,32,33,33,34,34,35,35,36,36,37,37,38,38,39,39,40,40,41,41,42,42,43,43,44,44,45,45,46,46,51,51,52,52,53,53,54,54,55,55,57,57,58,58,59,59,60,60,61,61],"right_children":[2,4,6,8,10,12,14,16,18,20,22,24,26,28,30,32,34,36,38,40,42,44,46,48,50,52,54,56,58,60,62,64,66,68,70,72,74,76,78,80,82,84,86,88,90,92,94,-1,-1,-1,-1,96,98,100,102,104,-1,106,108,110,112,114,-1,-1,-1,-1,-1,-1,-1,-1,-1,-1,-1,-1,-1,-1,-1,-1,-1,-1,-1,-1,-1,-1,-1,-1,-1,-1,-1,-1,-1,-1,-1,-1,-1,-1,-1,-1,-1,-1,-1,-1,-1,-1,-1,-1,-1,-1,-1,-1,-1,-1,-1,-1,-1],"split_conditions":[1E0,1.2E1,2E-1,6.666667E-1,5E-1,2.3E1,4E-1,1.53E2,1.7E0,1E-1,4.3E1,-5E-1,-8.660254E-1,-2.5881904E-1,2.6E1,2.3E1,2E-1,-5E-1,-1E0,1.0201E3,4.9E1,8.8E0,2.5E0,1.248E0,1.2E0,-4E0,5E-1,1.3536916E1,6.6E1,2.9E1,9.0279455E0,4.5E1,1E0,-8.660254E-1,2.7E0,4E0,7.82E1,8.660254E-1,-1.45E1,2.9E0,1.01E2,-5.8276377E0,1E1,-1.6E1,3.3E-1,6.3E1,1.62E2,-7.7967397E-3,3.0978233E-2,-3.3537656E-2,3.6630654E-4,4.3E1,4.9E0,2.4E0,8E0,5.5E0,-1.3476241E-2,1.1235763E-2,2.2222222E-1,-7.35242E-1,2E-1,1E2,7.1718004E-3,-3.1841572E-2,-2.046737E-3,-2.6383337E-2,-7.0209824E-3,-9.177261E-3,-2.3438081E-2,1.3300883E-2,-2.1091389E-2,-3.2431778E-2,1.2849448E-2,-1.7197749E-2,2.3091221E-2,2.633125E-2,-4.7381762E-3,-2.404734E-2,1.8288331E-2,-2.738018E-2,-8.091933E-3,-2.9194418E-2,-1.6147962E-2,9.768493E-3,-2.3607265E-2,-3.8608976E-3,9.4148265E-3,7.9997664E-4,-3.0703349E-2,1.5989205E-2,-3.2156635E-2,-2.6113013E-2,7.8035514E-3,1.1296402E-2,2.32257E-2,-2.0015866E-2,1.8224707E-2,2.8256742E-2,4.6807216E-3,1.8164935E-2,-1.2799616E-2,1.17111E-2,1.9557195E-2,2.5166666E-2,3.7497533E-3,-2.05744E-2,1.9160116E-2,2.5885677E-2,2.9942082E-2,-1.3642255E-2,1.9893609E-2,2.3417976E-2,2.990144E-2,3.1065175E-2,3.2637745E-2],"split_indices":[67,170,58,132,132,62,58,177,133,59,62,8,1,0,170,62,59,1,13,4,92,17,38,99,6,13,132,18,40,62,12,172,61,1,82,38,94,0,39,133,177,18,172,168,163,92,177,0,0,0,0,93,89,86,170,42,0,162,173,18,136,62,0,0,0,0,0,0,0,0,0,0,0,0,0,0,0,0,0,0,0,0,0,0,0,0,0,0,0,0,0,0,0,0,0,0,0,0,0,0,0,0,0,0,0,0,0,0,0,0,0,0,0,0,0],"split_type":[0,0,0,0,0,0,0,0,0,0,0,0,0,0,0,0,0,0,0,0,0,0,0,0,0,0,0,0,0,0,0,0,0,0,0,0,0,0,0,0,0,0,0,0,0,0,0,0,0,0,0,0,0,0,0,0,0,0,0,0,0,0,0,0,0,0,0,0,0,0,0,0,0,0,0,0,0,0,0,0,0,0,0,0,0,0,0,0,0,0,0,0,0,0,0,0,0,0,0,0,0,0,0,0,0,0,0,0,0,0,0,0,0,0,0],"sum_hessian":[3.072946E4,1.7435652E4,1.3293808E4,1.2036854E4,5.3987993E3,2.3884326E3,1.0905375E4,1.1642383E4,3.944705E2,4.649576E3,7.4922327E2,3.738971E1,2.351043E3,3.2582478E3,7.6471274E3,1.0503098E4,1.1392848E3,2.7032095E2,1.2414952E2,3.7212793E3,9.282969E2,1.01913994E2,6.4730927E2,1.625394E1,2.1135769E1,5.42146E2,1.8088969E3,1.1562411E3,2.1020068E3,1.8046052E3,5.842522E3,5.8513364E3,4.6517617E3,1.0071291E3,1.3215565E2,9.356381E1,1.7675714E2,6.886761E1,5.5281918E1,2.48146E3,1.2398192E3,1.16489944E2,8.118069E2,6.126731E1,4.064668E1,8.785824E1,5.5945105E2,6.4027977E0,9.851143E0,1.600691E1,5.1288595E0,1.0605921E2,4.3608676E2,1.1077214E2,1.6981248E3,1.1496659E3,6.57511E0,3.765827E1,2.0643484E3,4.0228607E1,1.7643766E3,5.8355967E3,6.925498E0,5.8156733E3,3.5662674E1,4.487087E3,1.6467474E2,4.2746768E2,5.7966144E2,1.0557418E2,2.658148E1,8.142617E0,8.5421196E1,1.6081808E2,1.5939066E1,6.3205658E1,5.661945E0,1.532577E1,3.9956146E1,3.8140546E2,2.1000547E3,9.4314087E2,2.966783E2,2.4186134E1,9.230381E1,3.2281006E2,4.8899683E2,2.4975054E1,3.629226E1,3.4440773E1,6.2059064E0,3.5155838E1,5.27024E1,4.006113E2,1.5883974E2,8.818193E0,9.724101E1,4.2056943E2,1.5517363E1,5.2819862E1,5.795228E1,2.7573062E2,1.4223942E3,1.1265809E3,2.3084955E1,8.515524E0,2.914275E1,3.8916968E2,1.6751788E3,7.102384E0,3.3126225E1,1.7532645E2,1.5890502E3,1.9429852E3,3.8926116E3],"tree_param":{"num_deleted":"0","num_feature":"183","num_nodes":"115","size_leaf_vector":"1"}},{"base_weights":[1.9524611E-3,-1.0508195E0,1.3852822E0,-1.4552346E0,-4.233924E-1,9.427903E-1,1.4865855E0,-1.4878207E0,-2.5027898E-1,-8.362975E-1,5.7854403E-2,8.168879E-1,1.1348469E0,1.3445376E0,1.5461912E0,-1.5615594E0,-1.0993973E0,-9.569658E-1,4.361076E-2,-9.3251514E-1,2.4630171E-1,-3.5831477E-2,9.9924034E-1,8.6263883E-1,-3.852731E-1,1.1488814E0,-1.4530263E-2,9.175033E-1,1.3697214E0,1.5556561E0,1.1618874E0,-1.5663365E0,6.662551E-3,-6.7802536E-1,-1.3126245E0,7.7900773E-1,-1.4259584E0,-3.4332857E-2,1.8884431E-1,-1.1779552E0,-5.163829E-1,-8.989371E-2,8.7891614E-1,1.0802138E-1,-7.095173E-1,-3.448998E-2,1.0594617E0,8.8450396E-1,-9.6002245E-1,6.728983E-1,-1.6520859E0,4.1484103E-1,1.1830688E0,1.0195687E0,-2.0094683E-2,1.2277997E0,1.419949E0,1.5038621E0,1.6069672E0,8.0397034E-1,1.3993199E0,-3.2002293E-2,-2.7992954E-2,-1.9655943E-2,2.189928E-2,-1.8890902E-2,5.48698E-4,-2.8341465E-2,-1.04487045E-2,3.080474E-2,-9.075766E-3,-3.4219656E-2,1.6802177E-3,-3.344377E-2,5.9965258E-3,-1.4765099E-2,-2.729177E-2,-2.2649435E-2,-6.185213E-3,-5.4188585E-3,2.995443E-2,2.056158E-2,-3.2252003E-2,-3.1342243E-3,8.93361E-3,-1.763737E-2,3.8636157E-3,1.4380644E-2,