{"learner":{"attributes":{"best_iteration":"199","best_score":"0.8148921531170841","scikit_learn":"{\"_estimator_type\": \"classifier\"}"},"feature_names":["hour_sin","hour_cos","month_sin","month_cos","pressure_msl","pressure_change_1h","pressure_change_3h","pressure_change_6h","pressure_accel_3h","temperature_2m","relative_humidity_2m","dew_point","dew_point_depression","humidity_change_1h","humidity_change_3h","vapour_pressure_deficit","vpd_change_3h","wind_speed_10m","wind_u","wind_v","wind_speed_change_1h","wind_speed_change_3h","is_sea_breeze","is_migjorn","is_garbi","is_ponent","llevantada_strength","llevantada_moisture","garbi_strength","tramuntana_strength","tramuntana_moisture","wind_dir_change_3h","temp_925","rh_925","wind_925_speed","wind_925_dir","wind_850_speed","wind_850_dir","temp_850","temp_500","rh_850","rh_700","temp_700","wind_300_speed","wind_300_dir","gph_300","vt_index","tt_index","li_index","li_unstable","moisture_flux_850","moisture_flux_925","theta_e_deficit","inversion_925","deep_layer_shear","jet_speed_300","wind_shear_speed","wind_shear_dir","precipitation","rain_accum_3h","rain_accum_6h","rained_last_3h","cloud_cover","cloud_change_1h","cloud_change_3h","is_overcast","weather_code","model_predicts_precip","wc_is_thunderstorm","wc_is_rain","wc_is_drizzle","nwp_dry_conflict","nwp_wet_conflict","cape_change_3h","shortwave_radiation","radar_dbz","radar_rain_rate","radar_has_echo","radar_frames_with_echo","radar_approaching","radar_max_intensity_1h","radar_nearest_echo_km","radar_max_dbz_20km","radar_coverage_20km","radar_upwind_nearest_echo_km","radar_upwind_max_dbz","radar_storm_velocity_kmh","radar_storm_approaching","radar_quadrant_max_dbz_N","radar_quadrant_max_dbz_E","radar_quadrant_max_dbz_S","radar_quadrant_max_dbz_W","radar_quadrant_coverage_N","radar_quadrant_coverage_E","radar_quadrant_coverage_S","radar_quadrant_coverage_W","radar_echo_bearing_sin","radar_echo_bearing_cos","sentinel_temp_diff","sentinel_humidity_diff","sentinel_precip","sentinel_raining","local_rain_xema","local_rain_xema_3h","ensemble_rain_agreement","ensemble_precip_spread","ensemble_temp_spread","ensemble_max_precip","ensemble_min_precip","ensemble_models_rain","forecast_temp_bias","forecast_humidity_bias","aemet_prob_precip","aemet_prob_storm","aemet_precip_today","lightning_count_30km","lightning_count_15km","lightning_nearest_km","lightning_cloud_ground","lightning_max_current_ka","lightning_approaching","lightning_has_activity","aemet_radar_dbz","aemet_radar_has_echo","aemet_radar_nearest_echo_km","aemet_radar_max_dbz_20km","aemet_radar_coverage_20km","aemet_radar_echoes_found","smc_prob_precip_1h","smc_prob_precip_6h","smc_precip_intensity","orographic_forcing","frontal_passage","convective_composite","thermal_buildup","low_level_convergence","dry_intrusion_700","soil_moisture_0_to_7cm","soil_moisture_7_to_28cm","soil_moisture_change_24h","convective_inhibition","sst_med","cloud_cover_low","cloud_cover_mid","cloud_cover_high","cloud_low_fraction","wet_bulb_temperature_2m","wet_bulb_depression","direct_radiation","diffuse_radiation","diffuse_fraction","wind_gusts_10m","gust_factor","visibility","freezing_level_height"],"feature_types":["float","float","float","float","float","float","float","float","float","float","float","float","float","float","float","float","float","float","float","float","float","float","float","float","float","float","float","float","float","float","float","float","float","float","float","float","float","float","float","float","float","float","float","float","float","float","float","float","float","float","float","float","float","float","float","float","float","float","float","float","float","float","float","float","float","float","float","float","float","float","float","float","float","float","float","float","float","float","float","float","float","float","float","float","float","float","float","float","float","float","float","float","float","float","float","float","float","float","float","float","float","float","float","float","float","float","float","float","float","float","float","float","float","float","float","float","float","float","float","float","float","float","float","float","float","float","float","float","float","float","float","float","float","float","float","float","float","float","float","float","float","float","float","float","float","float","float","float","float","float","float","float","float","float","float"],"gradient_booster":{"model":{"cats":{"enc":[],"feature_segments":[],"sorted_idx":[]},"gbtree_model_param":{"num_parallel_tree":"1","num_trees":"230"},"iteration_indptr":[0,1,2,3,4,5,6,7,8,9,10,11,12,13,14,15,16,17,18,19,20,21,22,23,24,25,26,27,28,29,30,31,32,33,34,35,36,37,38,39,40,41,42,43,44,45,46,47,48,49,50,51,52,53,54,55,56,57,58,59,60,61,62,63,64,65,66,67,68,69,70,71,72,73,74,75,76,77,78,79,80,81,82,83,84,85,86,87,88,89,90,91,92,93,94,95,96,97,98,99,100,101,102,103,104,105,106,107,108,109,110,111,112,113,114,115,116,117,118,119,120,121,122,123,124,125,126,127,128,129,130,131,132,133,134,135,136,137,138,139,140,141,142,143,144,145,146,147,148,149,150,151,152,153,154,155,156,157,158,159,160,161,162,163,164,165,166,167,168,169,170,171,172,173,174,175,176,177,178,179,180,181,182,183,184,185,186,187,188,189,190,191,192,193,194,195,196,197,198,199,200,201,202,203,204,205,206,207,208,209,210,211,212,213,214,215,216,217,218,219,220,221,222,223,224,225,226,227,228,229,230],"tree_info":[0,0,0,0,0,0,0,0,0,0,0,0,0,0,0,0,0,0,0,0,0,0,0,0,0,0,0,0,0,0,0,0,0,0,0,0,0,0,0,0,0,0,0,0,0,0,0,0,0,0,0,0,0,0,0,0,0,0,0,0,0,0,0,0,0,0,0,0,0,0,0,0,0,0,0,0,0,0,0,0,0,0,0,0,0,0,0,0,0,0,0,0,0,0,0,0,0,0,0,0,0,0,0,0,0,0,0,0,0,0,0,0,0,0,0,0,0,0,0,0,0,0,0,0,0,0,0,0,0,0,0,0,0,0,0,0,0,0,0,0,0,0,0,0,0,0,0,0,0,0,0,0,0,0,0,0,0,0,0,0,0,0,0,0,0,0,0,0,0,0,0,0,0,0,0,0,0,0,0,0,0,0,0,0,0,0,0,0,0,0,0,0,0,0,0,0,0,0,0,0,0,0,0,0,0,0,0,0,0,0,0,0,0,0,0,0,0,0,0,0,0,0,0,0,0,0,0,0,0,0],"trees":[{"base_weights":[3.3261606E-3,-1.3216904E0,1.7424835E0,-1.7229538E0,-4.551767E-1,1.1947659E0,1.8579528E0,-1.7883291E0,-5.8169603E-1,-1.0399497E0,-2.5730744E-2,-4.617629E-1,1.2225654E0,1.6923295E0,1.9258641E0,-1.8854334E0,-1.400748E0,-1.8393931E0,-3.8115028E-1,-1.1361932E0,-4.0342055E-2,-1.7731941E-1,9.1496277E-1,-9.297065E-2,7.577954E-1,8.0704194E-1,1.2956886E0,1.1696806E0,1.7208635E0,1.7823474E0,1.9579184E0,-1.906295E0,-7.321935E-1,-1.6513397E0,-1.0116726E0,-9.721555E-2,-3.0440814E-3,5.78856E-1,-6.710919E-1,-1.6870284E0,-9.771032E-1,6.3372844E-1,-4.9997398E-1,-4.7910723E-1,2.4651402E-1,4.895669E-2,1.0775958E0,-3.051639E-2,7.685212E-2,-2.17291E-1,1.0709006E0,7.578449E-1,1.3376343E0,6.214305E-1,1.3990394E0,1.7349017E0,1.0353683E0,1.7970036E0,6.001684E-1,1.6901358E0,1.9663757E0,-9.7167276E-2,-8.359275E-2,-6.674879E-2,3.4922713E-3,-8.460438E-2,-6.7995675E-3,-6.2295444E-2,-1.50272045E-2,4.446512E-2,-3.787985E-2,-4.2103987E-2,4.1460987E-2,-9.204578E-2,-5.097845E-2,-8.0243416E-2,-3.9838575E-2,4.6447035E-2,-5.3700812E-2,5.027771E-2,-4.1712698E-2,-1.6871475E-2,-6.557521E-2,4.0548217E-2,1.8467195E-4,1.8876672E-2,-8.922026E-2,-3.7531555E-2,5.611025E-2,-9.013971E-2,5.2597295E-3,-2.083052E-2,5.719449E-2,4.574738E-2,-8.6921684E-2,6.870597E-2,3.852294E-2,5.0669473E-2,-8.548508E-2,-2.4093753E-2,7.588035E-2,7.99436E-2,8.940166E-2,-3.051639E-2,6.334583E-2,5.5666715E-2,9.086621E-2,-8.309076E-2,8.315986E-2,9.6014805E-2,7.1290195E-2,9.841486E-2,4.7439944E-2],"categories":[],"categories_nodes":[],"categories_segments":[],"categories_sizes":[],"default_left":[0,0,0,0,0,0,0,0,0,1,1,0,0,0,0,1,0,0,0,0,0,0,0,0,0,0,0,0,0,1,0,0,0,1,0,0,0,0,1,0,0,0,0,0,0,0,0,0,0,0,0,0,0,0,0,0,0,0,0,0,0,0,0,0,0,0,0,0,0,0,0,0,0,0,0,0,0,0,0,0,0,0,0,0,0,0,0,0,0,0,0,0,0,0,0,0,0,0,0,0,0,0,0,0,0,0,0,0,0,0,0,0,0],"id":0,"left_children":[1,3,5,7,9,11,13,15,17,19,21,23,25,27,29,31,33,35,37,39,41,43,45,-1,47,49,51,53,55,57,59,61,63,65,67,-1,-1,69,71,73,75,77,79,81,83,85,87,-1,-1,89,91,93,95,97,99,101,103,105,107,109,111,-1,-1,-1,-1,-1,-1,-1,-1,-1,-1,-1,-1,-1,-1,-1,-1,-1,-1,-1,-1,-1,-1,-1,-1,-1,-1,-1,-1,-1,-1,-1,-1,-1,-1,-1,-1,-1,-1,-1,-1,-1,-1,-1,-1,-1,-1,-1,-1,-1,-1,-1,-1],"loss_changes":[7.296444E4,6.2475684E3,8.6340625E2,9.151289E2,1.4286542E3,1.10556885E2,1.23546875E2,4.3423438E2,1.6732146E2,2.3159082E2,4.6802942E2,6.9804115E1,7.0081055E1,4.6859375E1,3.2984375E1,2.2175E2,2.25375E2,1.673706E1,1.6090149E2,1.9063525E2,6.6201324E1,3.6174203E2,6.3985962E1,0E0,2.4555298E1,9.604881E1,4.3775635E1,2.0802582E1,2.7983398E1,2.422461E1,1.11171875E1,7.561328E1,8.081487E1,8.704321E1,1.5206451E2,0E0,0E0,5.6372204E1,1.14452286E2,4.8256104E1,1.9176624E2,4.4634514E1,6.479203E1,1.9418643E2,1.6113898E2,4.460431E1,3.214203E1,0E0,0E0,3.7839066E1,3.1154694E1,5.9072357E1,3.6985107E1,5.0305275E1,2.7979828E1,1.8914062E1,2.5723633E1,1.7905273E1,4.99845E1,9.558899E0,1.0216797E1,0E0,0E0,0E0,0E0,0E0,0E0,0E0,0E0,0E0,0E0,0E0,0E0,0E0,0E0,0E0,0E0,0E0,0E0,0E0,0E0,0E0,0E0,0E0,0E0,0E0,0E0,0E0,0E0,0E0,0E0,0E0,0E0,0E0,0E0,0E0,0E0,0E0,0E0,0E0,0E0,0E0,0E0,0E0,0E0,0E0,0E0,0E0,0E0,0E0,0E0,0E0,0E0],"parents":[2147483647,0,0,1,1,2,2,3,3,4,4,5,5,6,6,7,7,8,8,9,9,10,10,11,11,12,12,13,13,14,14,15,15,16,16,17,17,18,18,19,19,20,20,21,21,22,22,24,24,25,25,26,26,27,27,28,28,29,29,30,30,31,31,32,32,33,33,34,34,37,37,38,38,39,39,40,40,41,41,42,42,43,43,44,44,45,45,46,46,49,49,50,50,51,51,52,52,53,53,54,54,55,55,56,56,57,57,58,58,59,59,60,60],"right_children":[2,4,6,8,10,12,14,16,18,20,22,24,26,28,30,32,34,36,38,40,42,44,46,-1,48,50,52,54,56,58,60,62,64,66,68,-1,-1,70,72,74,76,78,80,82,84,86,88,-1,-1,90,92,94,96,98,100,102,104,106,108,110,112,-1,-1,-1,-1,-1,-1,-1,-1,-1,-1,-1,-1,-1,-1,-1,-1,-1,-1,-1,-1,-1,-1,-1,-1,-1,-1,-1,-1,-1,-1,-1,-1,-1,-1,-1,-1,-1,-1,-1,-1,-1,-1,-1,-1,-1,-1,-1,-1,-1,-1,-1,-1],"split_conditions":[1E-1,1.4E1,2E-1,1E-1,5E0,2.3E1,4E-1,1.3E1,2E-1,2E-1,6.666667E-1,3.1818182E0,8E0,4E-1,8.8E1,6E-1,2E0,3.3E2,-7.0710677E-1,8.2E1,2.59E1,1.3441929E1,2.9E0,-9.297065E-2,6E-1,2.7E1,5E-1,-2.5881904E-1,5.234309E-1,2.95E1,6.666667E-1,5.7E2,4.6511628E-2,7.6E-1,3.48E2,-9.721555E-2,-3.0440814E-3,1.0191E3,1.7E0,4.9759003E1,5.747737E0,2E0,1.9517947E-5,1.0217E3,-7.0710677E-1,9.17097E3,-9.659258E-1,-3.051639E-2,7.685212E-2,9.3E1,1.9761904E0,3.282766E2,1.0228E3,8E1,7.109527E0,0E0,1.564E1,2.9E1,3.84E2,2.1E1,5.8720744E-1,-9.7167276E-2,-8.359275E-2,-6.674879E-2,3.4922713E-3,-8.460438E-2,-6.7995675E-3,-6.2295444E-2,-1.50272045E-2,4.446512E-2,-3.787985E-2,-4.2103987E-2,4.1460987E-2,-9.204578E-2,-5.097845E-2,-8.0243416E-2,-3.9838575E-2,4.6447035E-2,-5.3700812E-2,5.027771E-2,-4.1712698E-2,-1.6871475E-2,-6.557521E-2,4.0548217E-2,1.8467195E-4,1.8876672E-2,-8.922026E-2,-3.7531555E-2,5.611025E-2,-9.013971E-2,5.2597295E-3,-2.083052E-2,5.719449E-2,4.574738E-2,-8.6921684E-2,6.870597E-2,3.852294E-2,5.0669473E-2,-8.548508E-2,-2.4093753E-2,7.588035E-2,7.99436E-2,8.940166E-2,-3.051639E-2,6.334583E-2,5.5666715E-2,9.086621E-2,-8.309076E-2,8.315986E-2,9.6014805E-2,7.1290195E-2,9.841486E-2,4.7439944E-2],"split_indices":[58,143,58,59,142,62,58,142,107,107,104,152,142,107,62,107,143,73,1,41,46,11,38,0,20,144,104,0,134,46,104,74,145,136,74,0,0,4,105,47,11,63,134,4,1,45,0,0,0,41,152,51,4,33,11,63,141,62,148,144,134,0,0,0,0,0,0,0,0,0,0,0,0,0,0,0,0,0,0,0,0,0,0,0,0,0,0,0,0,0,0,0,0,0,0,0,0,0,0,0,0,0,0,0,0,0,0,0,0,0,0,0,0],"split_type":[0,0,0,0,0,0,0,0,0,0,0,0,0,0,0,0,0,0,0,0,0,0,0,0,0,0,0,0,0,0,0,0,0,0,0,0,0,0,0,0,0,0,0,0,0,0,0,0,0,0,0,0,0,0,0,0,0,0,0,0,0,0,0,0,0,0,0,0,0,0,0,0,0,0,0,0,0,0,0,0,0,0,0,0,0,0,0,0,0,0,0,0,0,0,0,0,0,0,0,0,0,0,0,0,0,0,0,0,0,0,0,0,0],"sum_hessian":[3.166091E4,1.7970135E4,1.3690774E4,1.2281664E4,5.688471E3,2.3858657E3,1.1304909E4,1.1615625E4,6.660396E2,2.4079421E3,3.2805288E3,3.9061176E1,2.3468047E3,3.2954065E3,8.009502E3,9.285196E3,2.3304285E3,9.04051E1,5.756345E2,2.1962478E3,2.1169426E2,2.8260422E3,4.544866E2,1.799533E1,2.1065845E1,3.531921E2,1.9936125E3,1.7295404E2,3.1224524E3,1.4732139E3,6.5362886E3,9.11949E3,1.6570659E2,1.4153462E3,9.150822E2,8.522789E1,5.177209E0,1.3321475E2,4.4241977E2,4.8987262E2,1.7063752E3,8.558449E1,1.26109764E2,1.6507454E3,1.175297E3,7.215955E1,3.8232703E2,7.6765604E0,1.3389286E1,7.2302414E1,2.8088968E2,1.457828E2,1.8478297E3,5.2236176E1,1.2071786E2,3.0581482E3,6.430435E1,1.4545759E3,1.8637924E1,2.0662344E2,6.329665E3,7.8682793E3,1.2512103E3,9.4296844E1,7.140975E1,1.378106E3,3.72402E1,6.8767773E2,2.2740453E2,1.0843553E2,2.4779226E1,3.9761023E2,4.4809547E1,3.9653986E2,9.333275E1,3.7890143E2,1.3274739E3,7.3409096E1,1.2175393E1,2.2494028E1,1.0361574E2,1.4119504E3,2.3879488E2,3.5269223E2,8.2260474E2,6.1912216E1,1.0247341E1,8.676301E0,3.7365073E2,1.1497017E1,6.0805397E1,1.2853769E1,2.6803592E2,1.3778488E2,7.997925E0,1.7346454E3,1.13184296E2,4.523799E1,6.998184E0,6.926755E0,1.1379111E2,8.682328E2,2.1899153E3,7.6765604E0,5.6627796E1,4.373838E1,1.4108375E3,5.7485085E0,1.2889416E1,1.069E2,9.972344E1,6.316704E3,1.2960845E1],"tree_param":{"num_deleted":"0","num_feature":"155","num_nodes":"113","size_leaf_vector":"1"}},{"base_weights":[-4.837088E-3,-1.2584537E0,1.6509318E0,-1.6399297E0,-4.3968603E-1,1.1352714E0,1.763624E0,-1.6893548E0,-2.0192544E-1,-9.7409433E-1,-4.266398E-2,8.3525586E-1,1.2375606E0,1.6069134E0,1.8290305E0,-1.8071761E0,-1.2558383E0,-5.597177E-1,5.444522E-1,-1.1246902E0,-3.5547966E-1,-1.5183255E-1,1.0669526E0,-1.2416126E0,8.8648653E-1,8.951018E-1,1.3020673E0,1.197402E0,1.6377561E0,1.7501596E0,1.8883573E0,-1.8527299E0,-1.5969667E0,-1.5352507E0,-7.421916E-1,-1.7533792E0,-1.293289E-1,8.455886E-1,-9.806492E-1,-1.1667217E0,7.46471E-1,-9.274525E-1,3.1662267E-1,4.3244997E-1,-3.7673873E-1,5.1121163E-1,1.2896569E0,-4.709766E-3,-9.011368E-2,9.381791E-1,-5.512395E-1,1.0775538E-1,1.1894534E0,1.4191562E0,1.0586624E0,7.6183414E-1,1.41682E0,1.524537E0,1.6990266E0,1.3986574E0,1.7709508E0,1.7728199E0,9.490552E-2,-9.2756845E-2,-3.5556193E-2,-8.4048875E-2,-3.6749806E-2,-8.6845145E-2,-6.504528E-2,1.2090568E-2,-4.73884E-2,-9.421881E-2,-2.9977332E-4,-5.095932E-2,9.706089E-3,-2.6924724E-2,5.8912106E-2,-8.9970484E-2,2.6242018E-2,-6.4843945E-2,-3.5254914E-2,8.3078906E-2,-8.274662E-3,-8.47184E-2,-3.5049494E-2,-4.1438643E-2,2.7564524E-2,-3.1761587E-2,2.9321885E-2,-6.601421E-2,-1.3032071E-2,-5.379286E-2,5.439424E-2,6.711451E-2,-1.82229E-2,1.611524E-2,5.2190673E-2,-9.092527E-2,4.1973714E-2,3.3921894E-2,-4.5111805E-2,1.9085774E-2,7.001536E-2,8.1126444E-2,6.600409E-2,5.517863E-2,-8.739418E-2,1.7192943E-2,6.953301E-2,2.4730226E-2,8.02213E-2,6.3143164E-2,7.986028E-2,8.5206546E-2,1.7932957E-2,-3.1642683E-2,7.41541E-2,1.5733456E-2,8.872578E-2,5.7605505E-2,9.0328515E-2],"categories":[],"categories_nodes":[],"categories_segments":[],"categories_sizes":[],"default_left":[0,0,0,1,0,0,0,0,0,0,1,0,0,0,0,0,0,0,0,1,0,0,0,0,1,0,0,0,0,0,0,0,0,0,0,0,0,0,0,0,0,0,0,0,0,0,0,0,0,0,0,0,0,0,1,0,0,0,0,0,0,0,0,0,0,0,0,0,0,0,0,0,0,0,0,0,0,0,0,0,0,0,0,0,0,0,0,0,0,0,0,0,0,0,0,0,0,0,0,0,0,0,0,0,0,0,0,0,0,0,0,0,0,0,0,0,0,0,0,0,0],"id":1,"left_children":[1,3,5,7,9,11,13,15,17,19,21,23,25,27,29,31,33,35,37,39,41,43,45,47,49,51,53,55,57,59,61,63,65,67,69,71,73,75,77,79,81,83,85,87,89,91,93,-1,-1,95,97,99,101,103,105,107,109,111,113,115,117,119,-1,-1,-1,-1,-1,-1,-1,-1,-1,-1,-1,-1,-1,-1,-1,-1,-1,-1,-1,-1,-1,-1,-1,-1,-1,-1,-1,-1,-1,-1,-1,-1,-1,-1,-1,-1,-1,-1,-1,-1,-1,-1,-1,-1,-1,-1,-1,-1,-1,-1,-1,-1,-1,-1,-1,-1,-1,-1,-1],"loss_changes":[6.560779E4,5.617545E3,7.891328E2,8.7158594E2,1.2132067E3,7.380786E1,1.1125781E2,6.0333594E2,1.0951213E2,2.2652661E2,3.9766858E2,6.757718E1,3.8851074E1,3.9427734E1,3.3185547E1,8.599219E1,3.6295923E2,1.418956E2,6.1864346E1,1.550354E2,1.844151E2,3.9296762E2,3.5552765E1,9.559355E0,4.594281E1,6.7449585E1,4.1861816E1,2.1165009E1,1.8351562E1,2.2021484E1,1.3193359E0,1.9466797E1,1.1934961E2,7.5082275E1,1.8163843E2,1.657109E1,5.9209877E1,5.208133E1,2.8593182E1,1.14068115E2,3.6818882E1,4.3555283E1,5.977597E1,1.3701994E2,2.3600757E2,7.97952E1,1.8794495E1,0E0,0E0,3.7907104E1,3.9970844E1,4.709912E1,3.5471863E1,1.8317627E1,6.5042175E1,2.065115E1,2.5810303E1,1.8359863E1,1.27265625E1,3.4409668E1,1.5856445E1,5.265625E0,0E0,0E0,0E0,0E0,0E0,0E0,0E0,0E0,0E0,0E0,0E0,0E0,0E0,0E0,0E0,0E0,0E0,0E0,0E0,0E0,0E0,0E0,0E0,0E0,0E0,0E0,0E0,0E0,0E0,0E0,0E0,0E0,0E0,0E0,0E0,0E0,0E0,0E0,0E0,0E0,0E0,0E0,0E0,0E0,0E0,0E0,0E0,0E0,0E0,0E0,0E0,0E0,0E0,0E0,0E0,0E0,0E0,0E0,0E0],"parents":[2147483647,0,0,1,1,2,2,3,3,4,4,5,5,6,6,7,7,8,8,9,9,10,10,11,11,12,12,13,13,14,14,15,15,16,16,17,17,18,18,19,19,20,20,21,21,22,22,23,23,24,24,25,25,26,26,27,27,28,28,29,29,30,30,31,31,32,32,33,33,34,34,35,35,36,36,37,37,38,38,39,39,40,40,41,41,42,42,43,43,44,44,45,45,46,46,49,49,50,50,51,51,52,52,53,53,54,54,55,55,56,56,57,57,58,58,59,59,60,60,61,61],"right_children":[2,4,6,8,10,12,14,16,18,20,22,24,26,28,30,32,34,36,38,40,42,44,46,48,50,52,54,56,58,60,62,64,66,68,70,72,74,76,78,80,82,84,86,88,90,92,94,-1,-1,96,98,100,102,104,106,108,110,112,114,116,118,120,-1,-1,-1,-1,-1,-1,-1,-1,-1,-1,-1,-1,-1,-1,-1,-1,-1,-1,-1,-1,-1,-1,-1,-1,-1,-1,-1,-1,-1,-1,-1,-1,-1,-1,-1,-1,-1,-1,-1,-1,-1,-1,-1,-1,-1,-1,-1,-1,-1,-1,-1,-1,-1,-1,-1,-1,-1,-1,-1],"split_conditions":[1E-1,1.4E1,2E-1,6E-1,5E0,-5E-1,4E-1,1.3E1,3.48E2,8.7E1,1.7E0,3.7E1,8E0,7.5E-1,6.3E1,1.1E2,3E0,2.631579E-2,9.54677E3,2.9E0,1.14E1,-7.0710677E-1,2E-1,6.9E0,3.0139536E2,4E1,1.0179E3,-2.5881904E-1,-2.5881904E-1,6.3E1,1.3E1,6.2E0,1E-1,-1.0506577E0,-8.660254E-1,1.2E1,8.5E1,2.361185E1,2.3E1,1E-1,-3.5E1,8.2E1,3E-1,8.7E0,5E-1,2.4E1,3.7E1,-4.709766E-3,-9.011368E-2,-1.9E1,2.6E2,2.6E-1,1.8E0,-8.660254E-1,2.61E2,7.5E1,-2.1729143E0,-3E0,2.5E0,-3.5E-1,-6.4E1,-8.660254E-1,9.490552E-2,-9.2756845E-2,-3.5556193E-2,-8.4048875E-2,-3.6749806E-2,-8.6845145E-2,-6.504528E-2,1.2090568E-2,-4.73884E-2,-9.421881E-2,-2.9977332E-4,-5.095932E-2,9.706089E-3,-2.6924724E-2,5.8912106E-2,-8.9970484E-2,2.6242018E-2,-6.4843945E-2,-3.5254914E-2,8.3078906E-2,-8.274662E-3,-8.47184E-2,-3.5049494E-2,-4.1438643E-2,2.7564524E-2,-3.1761587E-2,2.9321885E-2,-6.601421E-2,-1.3032071E-2,-5.379286E-2,5.439424E-2,6.711451E-2,-1.82229E-2,1.611524E-2,5.2190673E-2,-9.092527E-2,4.1973714E-2,3.3921894E-2,-4.5111805E-2,1.9085774E-2,7.001536E-2,8.1126444E-2,6.600409E-2,5.517863E-2,-8.739418E-2,1.7192943E-2,6.953301E-2,2.4730226E-2,8.02213E-2,6.3143164E-2,7.986028E-2,8.5206546E-2,1.7932957E-2,-3.1642683E-2,7.41541E-2,1.5733456E-2,8.872578E-2,5.7605505E-2,9.0328515E-2],"split_indices":[58,143,58,107,142,0,58,142,74,143,107,41,142,104,142,149,143,145,45,107,146,1,108,17,51,144,4,0,0,10,143,60,60,19,1,13,10,52,63,60,64,41,107,146,104,142,63,0,0,64,37,138,147,1,35,142,19,63,6,16,63,0,0,0,0,0,0,0,0,0,0,0,0,0,0,0,0,0,0,0,0,0,0,0,0,0,0,0,0,0,0,0,0,0,0,0,0,0,0,0,0,0,0,0,0,0,0,0,0,0,0,0,0,0,0,0,0,0,0,0,0],"split_type":[0,0,0,0,0,0,0,0,0,0,0,0,0,0,0,0,0,0,0,0,0,0,0,0,0,0,0,0,0,0,0,0,0,0,0,0,0,0,0,0,0,0,0,0,0,0,0,0,0,0,0,0,0,0,0,0,0,0,0,0,0,0,0,0,0,0,0,0,0,0,0,0,0,0,0,0,0,0,0,0,0,0,0,0,0,0,0,0,0,0,0,0,0,0,0,0,0,0,0,0,0,0,0,0,0,0,0,0,0,0,0,0,0,0,0,0,0,0,0,0,0],"sum_hessian":[3.1605576E4,1.7987312E4,1.3618263E4,1.22696E4,5.7177124E3,2.444517E3,1.1173746E4,1.1861663E4,4.0793704E2,2.4364473E3,3.2812654E3,6.241167E2,1.8204004E3,3.298301E3,7.8754453E3,9.324144E3,2.5375193E3,2.7600983E2,1.3192722E2,1.9586523E3,4.7779486E2,2.9882249E3,2.9304037E2,1.4418282E1,6.096984E2,2.9114893E2,1.5292515E3,2.3403123E2,3.0642698E3,3.394662E3,4.480783E3,7.656614E3,1.6675298E3,1.6420803E3,8.9543896E2,7.226903E1,2.037408E2,1.1059999E2,2.1327219E1,1.9160426E3,4.260974E1,2.5800024E2,2.1979462E2,8.301682E2,2.158057E3,8.490676E1,2.0813362E2,5.174602E0,9.243679E0,5.889404E2,2.075798E1,7.969162E1,2.1145729E2,1.0290094E3,5.0024207E2,8.0050446E1,1.5398079E2,1.0856537E3,1.978616E3,1.9365997E2,3.2010022E3,3.6382877E2,4.116954E3,7.639793E3,1.6820574E1,1.5184681E3,1.4906161E2,8.789294E2,7.6315094E2,1.546302E2,7.408088E2,6.710287E1,5.1661587E0,5.3823395E1,1.499174E2,2.1252903E1,8.9347084E1,1.3730875E1,7.5963445E0,1.4930444E3,4.2299814E2,2.0912674E1,2.1697067E1,5.723853E1,2.007617E2,3.6871216E1,1.829234E2,1.0416442E2,7.260038E2,2.3521175E2,1.922845E3,2.235214E1,6.2554623E1,2.0195642E2,6.177208E0,8.695713E1,5.019833E2,1.0737711E1,1.0020269E1,5.1192978E1,2.8498638E1,4.4452698E1,1.670046E2,3.3171075E2,6.9729865E2,4.929956E2,7.2464576E0,4.9111984E1,3.093846E1,2.6733973E1,1.2724682E2,2.4025789E2,8.453958E2,1.970765E3,7.8509316E0,7.420468E0,1.862395E2,8.103261E0,3.192899E3,2.0727324E1,3.4310144E2],"tree_param":{"num_deleted":"0","num_feature":"155","num_nodes":"121","size_leaf_vector":"1"}},{"base_weights":[-1.7998761E-3,-1.2047081E0,1.5760099E0,-1.5660396E0,-4.3284023E-1,1.0818636E0,1.6809758E0,-1.6464531E0,-7.8116244E-1,-8.88389E-1,-7.034981E-2,7.105082E-1,1.1555964E0,1.5288436E0,1.7449521E0,-1.6954811E0,-1.105424E0,2.4003085E-1,-9.949685E-1,-1.4850734E0,-7.287223E-1,-4.9838883E-1,1.72405E-1,3.408286E-1,1.1162571E0,6.154594E-1,1.1930863E0,1.1953498E0,1.5617388E0,8.9140815E-1,1.7497323E0,-1.7189956E0,-1.1052141E0,-1.5364461E0,-6.8466717E-1,4.135109E-1,-8.753129E-2,-1.1453935E0,4.3982333E-1,-1.5314561E0,4.742218E-2,-8.299741E-1,2.9135928E-1,3.1845894E-1,-7.039887E-1,7.4515976E-2,1.1985781E0,-9.125855E-2,4.6705827E-1,1.2654299E0,5.0009024E-1,-5.973262E-1,8.6229503E-1,1.0403341E0,1.3652909E0,1.2862201E0,-3.3654693E-1,1.5672865E0,1.9786145E-1,1.167642E0,-2.8873978E-2,1.6729448E0,1.7959548E0,-8.868716E-2,-7.965614E-2,-6.744053E-2,-2.6215604E-2,-1.8918043E-2,-8.246865E-2,-8.5714735E-2,-2.2824986E-2,-8.5352935E-2,2.6692873E-2,-8.850332E-2,-4.566447E-2,-5.406138E-2,5.0803788E-2,-7.895892E-2,5.076108E-3,-4.45863E-2,1.476303E-2,-5.6197345E-2,2.701569E-2,2.198903E-2,-8.767016E-2,-5.5828054E-2,-1.7112046E-2,2.2750659E-2,-1.1782324E-2,3.9819505E-2,7.831846E-2,4.2784046E-2,-7.660693E-3,-1.4029266E-2,6.640186E-2,-4.624955E-2,4.9632516E-2,3.5551768E-2,-8.944225E-2,5.334389E-2,-3.9666477E-3,-5.4160565E-2,5.3286742E-2,6.89662E-2,1.0063242E-3,-3.1824265E-2,6.690215E-2,-9.1400765E-2,3.9581854E-2,6.792786E-2,8.016981E-2,7.020437E-2,-3.4403913E-2,7.131852E-2,-1.4711109E-2,7.688333E-2,8.582994E-2,7.910541E-2,9.0179E-2],"categories":[],"categories_nodes":[],"categories_segments":[],"categories_sizes":[],"default_left":[0,0,0,0,0,0,0,0,0,0,0,0,0,0,0,1,0,0,1,1,0,0,1,0,1,0,0,0,1,1,0,0,0,0,0,0,0,0,0,0,0,1,0,0,0,0,0,0,0,0,0,0,0,0,0,0,0,0,0,0,0,0,0,0,0,0,0,0,0,0,0,0,0,0,0,0,0,0,0,0,0,0,0,0,0,0,0,0,0,0,0,0,0,0,0,0,0,0,0,0,0,0,0,0,0,0,0,0,0,0,0,0,0,0,0,0,0,0,0],"id":2,"left_children":[1,3,5,7,9,11,13,15,17,19,21,23,25,27,29,31,33,35,37,39,41,43,45,47,49,51,53,55,57,59,61,63,65,67,69,71,-1,73,75,77,-1,79,81,83,85,87,89,-1,91,93,95,97,99,101,103,105,107,109,111,113,-1,115,117,-1,-1,-1,-1,-1,-1,-1,-1,-1,-1,-1,-1,-1,-1,-1,-1,-1,-1,-1,-1,-1,-1,-1,-1,-1,-1,-1,-1,-1,-1,-1,-1,-1,-1,-1,-1,-1,-1,-1,-1,-1,-1,-1,-1,-1,-1,-1,-1,-1,-1,-1,-1,-1,-1,-1,-1],"loss_changes":[5.9744266E4,4.980584E3,7.042031E2,7.6628906E2,9.4054114E2,6.439795E1,1.0630078E2,2.9052344E2,2.4759912E2,2.391687E2,3.2987766E2,5.925267E1,3.940576E1,3.441992E1,3.0398438E1,1.3821094E2,1.6554517E2,6.855291E1,2.0275848E2,6.1530273E1,2.0617957E2,1.9321146E2,2.0326346E2,5.816191E1,1.6602066E1,3.9899147E1,4.7284424E1,4.28132E1,2.2439453E1,1.9454311E1,2.4517578E1,6.3859375E1,5.4360504E1,5.847632E1,1.0880252E2,4.7210213E1,0E0,1.2109912E2,7.958605E1,4.1004517E1,0E0,1.2634912E2,6.419777E1,5.885919E1,1.3652155E2,2.1850749E2,2.4587357E1,0E0,4.826077E1,1.5162949E1,2.8094057E1,3.6854206E1,2.1319427E1,5.4582764E1,1.62771E1,2.9520996E1,3.1402647E1,2.027002E1,1.5456373E1,1.5368229E1,0E0,1.4550781E1,4.7773438E0,0E0,0E0,0E0,0E0,0E0,0E0,0E0,0E0,0E0,0E0,0E0,0E0,0E0,0E0,0E0,0E0,0E0,0E0,0E0,0E0,0E0,0E0,0E0,0E0,0E0,0E0,0E0,0E0,0E0,0E0,0E0,0E0,0E0,0E0,0E0,0E0,0E0,0E0,0E0,0E0,0E0,0E0,0E0,0E0,0E0,0E0,0E0,0E0,0E0,0E0,0E0,0E0,0E0,0E0,0E0,0E0],"parents":[2147483647,0,0,1,1,2,2,3,3,4,4,5,5,6,6,7,7,8,8,9,9,10,10,11,11,12,12,13,13,14,14,15,15,16,16,17,17,18,18,19,19,20,20,21,21,22,22,23,23,24,24,25,25,26,26,27,27,28,28,29,29,30,30,31,31,32,32,33,33,34,34,35,35,37,37,38,38,39,39,41,41,42,42,43,43,44,44,45,45,46,46,48,48,49,49,50,50,51,51,52,52,53,53,54,54,55,55,56,56,57,57,58,58,59,59,61,61,62,62],"right_children":[2,4,6,8,10,12,14,16,18,20,22,24,26,28,30,32,34,36,38,40,42,44,46,48,50,52,54,56,58,60,62,64,66,68,70,72,-1,74,76,78,-1,80,82,84,86,88,90,-1,92,94,96,98,100,102,104,106,108,110,112,114,-1,116,118,-1,-1,-1,-1,-1,-1,-1,-1,-1,-1,-1,-1,-1,-1,-1,-1,-1,-1,-1,-1,-1,-1,-1,-1,-1,-1,-1,-1,-1,-1,-1,-1,-1,-1,-1,-1,-1,-1,-1,-1,-1,-1,-1,-1,-1,-1,-1,-1,-1,-1,-1,-1,-1,-1,-1,-1],"split_conditions":[5.1E1,1.4E1,2E-1,2E-1,9E-2,-7E0,4E-1,1.48E2,-7.0710677E-1,2.3E1,4E0,1.62E2,1E-2,5E-2,2.9E1,1E0,9.89011E-2,1.0225E3,1E0,2.7E0,1E0,-8.660254E-1,5E-1,5.551115E-17,-5.5E0,3.9E1,4E1,4.7928613E-1,1.54E2,2.48878E-1,1E2,1E0,1.5E1,1.0092E3,-5E-1,-8E0,-8.753129E-2,1.7E1,-5E-1,1.4E1,4.742218E-2,4E-1,-1E1,1.0249E3,4.8E1,-2.5881904E-1,1.6E0,-9.125855E-2,2.322408E-2,-9E-1,3E-1,-9E-1,5.897436E-1,-5.7E1,4.11E-1,6.6E1,5.991077E-1,-6E0,-2.6E1,2E0,-2.8873978E-2,2.7272728E-1,7.3E1,-8.868716E-2,-7.965614E-2,-6.744053E-2,-2.6215604E-2,-1.8918043E-2,-8.246865E-2,-8.5714735E-2,-2.2824986E-2,-8.5352935E-2,2.6692873E-2,-8.850332E-2,-4.566447E-2,-5.406138E-2,5.0803788E-2,-7.895892E-2,5.076108E-3,-4.45863E-2,1.476303E-2,-5.6197345E-2,2.701569E-2,2.198903E-2,-8.767016E-2,-5.5828054E-2,-1.7112046E-2,2.2750659E-2,-1.1782324E-2,3.9819505E-2,7.831846E-2,4.2784046E-2,-7.660693E-3,-1.4029266E-2,6.640186E-2,-4.624955E-2,4.9632516E-2,3.5551768E-2,-8.944225E-2,5.334389E-2,-3.9666477E-3,-5.4160565E-2,5.3286742E-2,6.89662E-2,1.0063242E-3,-3.1824265E-2,6.690215E-2,-9.1400765E-2,3.9581854E-2,6.792786E-2,8.016981E-2,7.020437E-2,-3.4403913E-2,7.131852E-2,-1.4711109E-2,7.688333E-2,8.582994E-2,7.910541E-2,9.0179E-2],"split_indices":[66,143,58,60,145,63,58,149,1,143,144,149,145,145,62,109,145,4,105,105,61,1,108,105,53,144,143,134,57,133,62,143,64,4,0,31,0,62,0,13,0,105,63,4,62,1,105,0,134,8,7,7,150,140,138,40,134,63,140,13,0,145,33,0,0,0,0,0,0,0,0,0,0,0,0,0,0,0,0,0,0,0,0,0,0,0,0,0,0,0,0,0,0,0,0,0,0,0,0,0,0,0,0,0,0,0,0,0,0,0,0,0,0,0,0,0,0,0,0],"split_type":[0,0,0,0,0,0,0,0,0,0,0,0,0,0,0,0,0,0,0,0,0,0,0,0,0,0,0,0,0,0,0,0,0,0,0,0,0,0,0,0,0,0,0,0,0,0,0,0,0,0,0,0,0,0,0,0,0,0,0,0,0,0,0,0,0,0,0,0,0,0,0,0,0,0,0,0,0,0,0,0,0,0,0,0,0,0,0,0,0,0,0,0,0,0,0,0,0,0,0,0,0,0,0,0,0,0,0,0,0,0,0,0,0,0,0,0,0,0,0],"sum_hessian":[3.147616E4,1.7860088E4,1.3616073E4,1.2164438E4,5.6956494E3,2.3877173E3,1.1228356E4,1.1032856E4,1.1315818E3,2.5230972E3,3.172552E3,3.9753323E2,1.9901841E3,3.331849E3,7.896507E3,1.011401E4,9.1884717E2,1.9579991E2,9.3578186E2,5.3074457E2,1.9923527E3,1.1478887E3,2.0246633E3,2.0910406E2,1.8842918E2,1.3047295E2,1.8597112E3,3.0276584E2,3.0290833E3,4.5138527E1,7.851368E3,9.724531E3,3.8947876E2,4.524597E2,4.6638748E2,1.808793E2,1.4920604E1,8.4722894E2,8.855292E1,5.212219E2,9.522673E0,1.81271E3,1.7964262E2,2.3061612E2,9.172726E2,1.8494136E3,1.7524977E2,1.073025E1,1.9837381E2,1.5072334E2,3.7705837E1,2.1755562E1,1.0871738E2,9.895573E2,8.701538E2,2.8602484E2,1.6740986E1,3.0165908E3,1.249248E1,3.822351E1,6.915016E0,2.9650322E3,4.886336E3,6.767262E3,2.9572688E3,2.7335535E2,1.1612339E2,4.0665363E1,4.117943E2,8.334294E1,3.8304456E2,8.961289E0,1.7191801E2,2.2760564E2,6.196233E2,2.4042234E1,6.451068E1,5.0651373E2,1.4708184E1,1.7186864E3,9.4023575E1,2.6286655E1,1.5335597E2,2.1864876E2,1.1967374E1,4.274285E2,4.8984406E2,8.3047235E2,1.01894116E3,8.535228E1,8.9897484E1,1.2182671E2,7.65471E1,5.6684613E0,1.4505489E2,9.407368E0,2.829847E1,1.0521562E1,1.1234E1,8.92908E1,1.9426575E1,1.1157881E1,9.783995E2,8.6107104E2,9.08275E0,7.1601815E0,2.7886465E2,6.9807286E0,9.760259E0,4.5100198E2,2.5655889E3,5.0901494E0,7.4023304E0,3.2554527E1,5.6689854E0,7.3277496E2,2.2322573E3,1.7586441E2,4.7104717E3],"tree_param":{"num_deleted":"0","num_feature":"155","num_nodes":"119","size_leaf_vector":"1"}},{"base_weights":[1.3557143E-4,-1.157891E0,1.5067394E0,-1.5021206E0,-6.5613204E-1,1.0251026E0,1.6137853E0,-1.5262663E0,1.9771259E-1,-8.4658974E-1,1.2050535E-1,6.112633E-1,1.1010035E0,1.4940455E0,1.6889962E0,-1.559879E0,-6.8266803E-1,3.6143696E-1,-8.439765E-2,-9.681085E-1,2.0341316E-1,6.173105E-1,-1.544264E-1,7.5033677E-1,-1.0006353E0,1.2661672E0,9.4501257E-1,1.3233835E0,1.5537308E0,1.6170187E0,8.692794E-2,-1.6842971E0,-1.417669E0,-1.6654938E0,-4.7535583E-1,1.0896046E0,-3.2868825E-2,-1.1876932E0,-4.1843843E-1,-3.6445203E-1,5.833138E-1,-9.270505E-1,7.2413194E-1,-6.081853E-1,1.9049361E-1,8.879394E-2,9.442424E-1,-1.5344985E0,6.477698E-2,1.3445544E0,9.40754E-1,1.01534136E-1,1.0160241E0,8.304724E-1,1.3723786E0,1.2429137E0,1.5776888E0,4.8901126E-1,1.6225084E0,-8.455818E-2,-1.94169E-2,-7.2392955E-2,-2.5492623E-2,-9.013889E-2,6.728397E-4,-1.49237765E-2,-8.976958E-2,2.7764676E-2,8.62335E-2,1.7655985E-2,-6.471662E-2,-7.064285E-2,-4.535918E-2,-3.2015327E-2,7.0379204E-3,-4.136285E-2,4.3106135E-2,-2.824013E-2,3.551422E-2,-8.809785E-2,5.1130213E-2,4.6219062E-2,-7.843244E-3,-6.10312E-2,-1.6779734E-2,-4.81218E-4,5.265499E-2,-5.7078917E-2,4.722291E-2,-3.7474304E-2,4.9961716E-2,-9.407162E-2,-5.8802613E-3,6.89377E-2,3.1734023E-2,5.2496564E-2,-2.8424343E-2,-5.444014E-2,3.990158E-2,-3.304045E-2,5.2044388E-2,-4.101525E-2,4.8760377E-2,4.737426E-2,7.207524E-2,-1.4991564E-2,6.406679E-2,2.8579244E-2,7.910571E-2,7.2333455E-2,-3.1143999E-2,8.1296586E-2,1.5431657E-2],"categories":[],"categories_nodes":[],"categories_segments":[],"categories_sizes":[],"default_left":[0,0,0,1,0,0,0,0,0,1,0,0,0,0,0,0,0,0,0,0,0,0,0,0,0,0,0,0,0,0,0,0,0,0,0,0,0,0,0,0,0,0,0,0,0,0,0,0,0,1,0,0,0,0,0,0,0,0,0,0,0,0,0,0,0,0,0,0,0,0,0,0,0,0,0,0,0,0,0,0,0,0,0,0,0,0,0,0,0,0,0,0,0,0,0,0,0,0,0,0,0,0,0,0,0,0,0,0,0,0,0,0,0],"id":3,"left_children":[1,3,5,7,9,11,13,15,17,19,21,23,25,27,29,31,33,35,-1,37,39,41,43,45,47,49,51,53,55,57,-1,59,61,63,65,67,69,71,73,75,77,79,81,83,85,87,89,91,-1,93,95,97,99,101,103,105,107,109,111,-1,-1,-1,-1,-1,-1,-1,-1,-1,-1,-1,-1,-1,-1,-1,-1,-1,-1,-1,-1,-1,-1,-1,-1,-1,-1,-1,-1,-1,-1,-1,-1,-1,-1,-1,-1,-1,-1,-1,-1,-1,-1,-1,-1,-1,-1,-1,-1,-1,-1,-1,-1,-1,-1],"loss_changes":[5.447029E4,3.0477227E3,6.9762305E2,4.3011328E2,1.0628928E3,7.6745605E1,9.7115234E1,2.914043E2,4.6000015E1,7.364824E2,1.9350691E2,8.709566E1,5.2322998E1,4.1365234E1,2.1144531E1,1.7292578E2,7.996918E1,3.934611E1,0E0,6.2355615E2,1.2950899E2,8.390675E1,1.4289813E2,4.5390945E1,3.9980057E1,2.4267334E1,6.4292786E1,2.5665527E1,2.1385742E1,1.6282715E1,0E0,4.6198242E1,1.2619336E2,1.6048141E1,7.6230194E1,1.5130272E1,4.4110218E1,2.3184717E2,1.8350372E2,1.373503E2,5.2826813E1,5.5636436E1,8.360484E1,6.524965E1,8.966915E1,8.713348E1,2.6345901E1,1.2174469E1,0E0,1.861914E1,3.3537827E1,7.1185814E1,4.213147E1,2.5638412E1,2.8241455E1,1.4239624E1,1.1979004E1,1.6998692E1,1.1799316E1,0E0,0E0,0E0,0E0,0E0,0E0,0E0,0E0,0E0,0E0,0E0,0E0,0E0,0E0,0E0,0E0,0E0,0E0,0E0,0E0,0E0,0E0,0E0,0E0,0E0,0E0,0E0,0E0,0E0,0E0,0E0,0E0,0E0,0E0,0E0,0E0,0E0,0E0,0E0,0E0,0E0,0E0,0E0,0E0,0E0,0E0,0E0,0E0,0E0,0E0,0E0,0E0,0E0,0E0],"parents":[2147483647,0,0,1,1,2,2,3,3,4,4,5,5,6,6,7,7,8,8,9,9,10,10,11,11,12,12,13,13,14,14,15,15,16,16,17,17,19,19,20,20,21,21,22,22,23,23,24,24,25,25,26,26,27,27,28,28,29,29,31,31,32,32,33,33,34,34,35,35,36,36,37,37,38,38,39,39,40,40,41,41,42,42,43,43,44,44,45,45,46,46,47,47,49,49,50,50,51,51,52,52,53,53,54,54,55,55,56,56,57,57,58,58],"right_children":[2,4,6,8,10,12,14,16,18,20,22,24,26,28,30,32,34,36,-1,38,40,42,44,46,48,50,52,54,56,58,-1,60,62,64,66,68,70,72,74,76,78,80,82,84,86,88,90,92,-1,94,96,98,100,102,104,106,108,110,112,-1,-1,-1,-1,-1,-1,-1,-1,-1,-1,-1,-1,-1,-1,-1,-1,-1,-1,-1,-1,-1,-1,-1,-1,-1,-1,-1,-1,-1,-1,-1,-1,-1,-1,-1,-1,-1,-1,-1,-1,-1,-1,-1,-1,-1,-1,-1,-1,-1,-1,-1,-1,-1,-1],"split_conditions":[5.1E1,4E0,2E-1,1.6E0,1E-1,8E0,5.3E1,1E-1,3.01E2,5E-1,-5E-1,8.695652E-2,-5E-1,2.5E1,6.1E1,1E0,2.5014963E1,-5E-1,-8.439765E-2,1.1E2,9E-1,2.5E-1,3E0,2.5E-1,2.39E2,1.0197E3,-2.1E1,1.8E0,6.666667E-1,-8.7E0,8.692794E-2,4.5E1,2.5E2,1.0221E3,3.74E-1,4.4E0,2E-2,1.1E1,2.9E1,2.09E2,-1.9E1,8.4E1,1.0195E3,2E-1,9.659258E-1,2.5370371E0,1.8258202E1,5.65E2,6.477698E-2,4.06E3,5.6E-1,2.103E1,-2.8E1,-7E0,-9E0,3.555124E1,-5.4E1,5.9E0,7.4E0,-8.455818E-2,-1.94169E-2,-7.2392955E-2,-2.5492623E-2,-9.013889E-2,6.728397E-4,-1.49237765E-2,-8.976958E-2,2.7764676E-2,8.62335E-2,1.7655985E-2,-6.471662E-2,-7.064285E-2,-4.535918E-2,-3.2015327E-2,7.0379204E-3,-4.136285E-2,4.3106135E-2,-2.824013E-2,3.551422E-2,-8.809785E-2,5.1130213E-2,4.6219062E-2,-7.843244E-3,-6.10312E-2,-1.6779734E-2,-4.81218E-4,5.265499E-2,-5.7078917E-2,4.722291E-2,-3.7474304E-2,4.9961716E-2,-9.407162E-2,-5.8802613E-3,6.89377E-2,3.1734023E-2,5.2496564E-2,-2.8424343E-2,-5.444014E-2,3.990158E-2,-3.304045E-2,5.2044388E-2,-4.101525E-2,4.8760377E-2,4.737426E-2,7.207524E-2,-1.4991564E-2,6.406679E-2,2.8579244E-2,7.910571E-2,7.2333455E-2,-3.1143999E-2,8.1296586E-2,1.5431657E-2],"split_indices":[66,142,58,107,59,142,66,59,44,104,1,145,1,142,142,66,52,1,0,149,107,104,66,15,149,4,64,107,104,42,0,144,149,4,137,107,136,144,64,148,64,41,4,59,1,152,52,148,0,154,135,141,63,14,63,50,140,9,147,0,0,0,0,0,0,0,0,0,0,0,0,0,0,0,0,0,0,0,0,0,0,0,0,0,0,0,0,0,0,0,0,0,0,0,0,0,0,0,0,0,0,0,0,0,0,0,0,0,0,0,0,0,0],"split_type":[0,0,0,0,0,0,0,0,0,0,0,0,0,0,0,0,0,0,0,0,0,0,0,0,0,0,0,0,0,0,0,0,0,0,0,0,0,0,0,0,0,0,0,0,0,0,0,0,0,0,0,0,0,0,0,0,0,0,0,0,0,0,0,0,0,0,0,0,0,0,0,0,0,0,0,0,0,0,0,0,0,0,0,0,0,0,0,0,0,0,0,0,0,0,0,0,0,0,0,0,0,0,0,0,0,0,0,0,0,0,0,0,0],"sum_hessian":[3.121864E4,1.765137E4,1.3567272E4,1.0467792E4,7.1835767E3,2.4691624E3,1.109811E4,1.032134E4,1.4645139E2,5.7688887E3,1.4146879E3,3.8428323E2,2.0848792E3,4.29015E3,6.8079604E3,9.924921E3,3.9641965E2,1.3554402E2,1.0907359E1,5.170653E3,5.9823553E2,5.0366937E2,9.1101855E2,3.5431012E2,2.9973095E1,1.00889764E3,1.0759814E3,1.1180599E3,3.17209E3,2.7907434E3,4.0172168E3,5.287444E3,4.637477E3,6.774378E1,3.2867587E2,4.7083958E1,8.846007E1,3.6937239E3,1.4769292E3,2.397064E2,3.5852914E2,3.2027027E1,4.7164233E2,3.9323093E2,5.177876E2,8.0759315E1,2.735508E2,2.4623394E1,5.3496995E0,8.1027496E2,1.9862265E2,8.384962E1,9.9213184E2,1.0289419E2,1.0151657E3,2.3109111E2,2.940999E3,1.404042E1,2.7767031E3,5.259196E3,2.824789E1,4.487536E3,1.499409E2,6.2610107E1,5.1336718E0,2.9098654E2,3.768934E1,2.6673828E1,2.041013E1,6.8225044E1,2.023502E1,2.0465643E3,1.6471594E3,1.0574192E3,4.1951007E2,1.7433447E2,6.5371925E1,3.5279808E1,3.2324933E2,2.252755E1,9.4994755E0,3.8434546E2,8.729687E1,1.1993166E2,2.732993E2,4.2099332E2,9.679429E1,3.294139E1,4.781793E1,8.148006E0,2.654028E2,1.946006E1,5.1633334E0,7.719994E2,3.827556E1,1.8556929E2,1.3053353E1,3.069095E1,5.3158665E1,1.4063612E1,9.7806824E2,7.8622828E0,9.5031906E1,1.4430812E2,8.7085754E2,5.3868947E0,2.2570422E2,1.3548503E1,2.9274507E3,7.429948E0,6.6104717E0,2.769174E3,7.5289397E0],"tree_param":{"num_deleted":"0","num_feature":"155","num_nodes":"113","size_leaf_vector":"1"}},{"base_weights":[-7.8069884E-3,-1.1042912E0,1.4449176E0,-1.3892437E0,-5.125332E-1,9.80872E-1,1.5469812E0,-1.4377652E0,1.2959523E-1,-2.9082036E-1,-1.1707404E0,4.4999436E-1,1.0223827E0,1.3982866E0,1.6094663E0,-1.483061E0,-5.54905E-1,-2.9225105E-1,8.405544E-1,-1.2605644E0,-1.5616764E-1,-1.253743E0,3.1188816E-1,-7.01674E-1,7.410996E-1,1.1644253E0,9.002182E-1,9.93683E-1,1.4238689E0,1.5330738E0,1.66067E0,-1.5303665E0,-9.6750146E-1,3.62519E-1,-8.147908E-1,8.17636E-1,-5.399517E-1,9.497901E-1,-7.993068E-2,-4.1878903E-1,-1.4384736E0,-3.4704718E-1,3.728098E-1,-1.3474172E0,-1.2003421E-1,-8.7883346E-2,7.0996934E-1,6.230776E-1,-1.5421144E0,8.912745E-1,-8.889179E-2,1.2914848E0,9.334082E-1,4.8996282E-1,1.0422037E0,6.6405857E-1,1.3356894E0,1.263702E0,1.4796627E0,1.5531061E0,1.2192122E0,1.5847174E0,8.353125E-2,-7.876746E-2,-5.92465E-2,-5.6337047E-2,-7.4041667E-3,2.7484223E-2,-8.4113106E-2,-4.9535234E-2,-4.4221367E-4,-8.269606E-2,7.597151E-2,-6.124716E-2,-2.0822173E-3,5.400979E-2,-3.808241E-2,-6.629377E-2,1.5703361E-2,-7.922517E-2,-3.4284193E-2,-3.0478617E-2,4.108214E-3,1.2813706E-3,3.1532504E-2,-7.318084E-2,-3.89386E-2,-5.282722E-2,2.0611439E-2,4.8861817E-2,-3.95212E-2,-1.7511945E-2,6.425396E-2,-9.698871E-2,-8.21935E-3,-3.56035E-2,4.9573574E-2,2.9178804E-2,6.610879E-2,4.9215402E-2,-9.128073E-2,1.0595109E-3,4.5942392E-2,5.9475303E-2,4.3909635E-2,-8.9906074E-2,4.151922E-2,-1.3099481E-2,7.1540125E-2,-8.839627E-3,6.4076506E-2,7.4218184E-2,-2.0131186E-2,6.78901E-2,7.898869E-2,1.2198112E-2,6.404853E-2,3.2236364E-2,7.970332E-2],"categories":[],"categories_nodes":[],"categories_segments":[],"categories_sizes":[],"default_left":[0,0,0,1,0,0,0,0,0,0,1,0,0,0,0,0,0,0,0,0,0,0,0,0,0,0,0,0,0,0,0,0,0,0,0,0,0,0,0,0,0,0,0,0,0,0,0,0,0,0,0,0,0,0,0,0,0,0,0,0,0,0,0,0,0,0,0,0,0,0,0,0,0,0,0,0,0,0,0,0,0,0,0,0,0,0,0,0,0,0,0,0,0,0,0,0,0,0,0,0,0,0,0,0,0,0,0,0,0,0,0,0,0,0,0,0,0,0,0],"id":4,"left_children":[1,3,5,7,9,11,13,15,17,19,21,23,25,27,29,31,33,35,37,39,41,43,45,47,49,51,53,55,57,59,61,63,65,67,69,71,73,75,-1,77,79,81,83,85,87,-1,89,91,93,95,-1,97,99,101,103,105,107,109,111,113,115,117,-1,-1,-1,-1,-1,-1,-1,-1,-1,-1,-1,-1,-1,-1,-1,-1,-1,-1,-1,-1,-1,-1,-1,-1,-1,-1,-1,-1,-1,-1,-1,-1,-1,-1,-1,-1,-1,-1,-1,-1,-1,-1,-1,-1,-1,-1,-1,-1,-1,-1,-1,-1,-1,-1,-1,-1,-1],"loss_changes":[4.917922E4,2.96592E3,6.271914E2,8.7547266E2,8.342965E2,5.2218506E1,9.857031E1,4.5916016E2,1.10812584E2,5.585929E2,1.7780566E2,5.9463802E1,3.7308105E1,3.1759766E1,2.7083984E1,2.6521484E2,1.3464528E2,6.417133E1,3.8106552E1,7.7334595E1,3.7975378E2,1.4462964E2,6.4684296E1,4.1040913E1,5.4791496E1,2.862268E1,6.920984E1,2.0955902E1,2.4967285E1,1.7233398E1,4.8242188E-1,1.5360938E2,1.20114624E2,4.863241E1,6.218051E1,7.645656E1,6.477022E1,3.038903E1,0E0,6.2024406E1,4.5970642E1,3.1148734E2,8.919357E1,8.1920654E1,5.300831E1,0E0,2.7031986E1,9.955566E0,1.1693016E1,2.2207344E1,0E0,1.3325562E1,5.3274628E1,6.2308464E1,2.0251831E1,4.3047062E1,1.4901382E1,2.0654297E1,2.055957E1,1.2649902E1,1.0985382E1,3.5843506E0,0E0,0E0,0E0,0E0,0E0,0E0,0E0,0E0,0E0,0E0,0E0,0E0,0E0,0E0,0E0,0E0,0E0,0E0,0E0,0E0,0E0,0E0,0E0,0E0,0E0,0E0,0E0,0E0,0E0,0E0,0E0,0E0,0E0,0E0,0E0,0E0,0E0,0E0,0E0,0E0,0E0,0E0,0E0,0E0,0E0,0E0,0E0,0E0,0E0,0E0,0E0,0E0,0E0,0E0,0E0,0E0,0E0],"parents":[2147483647,0,0,1,1,2,2,3,3,4,4,5,5,6,6,7,7,8,8,9,9,10,10,11,11,12,12,13,13,14,14,15,15,16,16,17,17,18,18,19,19,20,20,21,21,22,22,23,23,24,24,25,25,26,26,27,27,28,28,29,29,30,30,31,31,32,32,33,33,34,34,35,35,36,36,37,37,39,39,40,40,41,41,42,42,43,43,44,44,46,46,47,47,48,48,49,49,51,51,52,52,53,53,54,54,55,55,56,56,57,57,58,58,59,59,60,60,61,61],"right_children":[2,4,6,8,10,12,14,16,18,20,22,24,26,28,30,32,34,36,38,40,42,44,46,48,50,52,54,56,58,60,62,64,66,68,70,72,74,76,-1,78,80,82,84,86,88,-1,90,92,94,96,-1,98,100,102,104,106,108,110,112,114,116,118,-1,-1,-1,-1,-1,-1,-1,-1,-1,-1,-1,-1,-1,-1,-1,-1,-1,-1,-1,-1,-1,-1,-1,-1,-1,-1,-1,-1,-1,-1,-1,-1,-1,-1,-1,-1,-1,-1,-1,-1,-1,-1,-1,-1,-1,-1,-1,-1,-1,-1,-1,-1,-1,-1,-1,-1,-1],"split_conditions":[5.1E1,1E1,2E-1,8E-1,1.0207E3,5E-1,4E-1,1E-1,1.18E2,3.3333334E-1,5E-1,4.6E1,-5E-1,5E-1,5.6E1,1.53E2,-7.0710677E-1,1.1074251E-5,3.39E-1,-8.660254E-1,1E-1,2E-1,3.4E1,5.4E0,2.53E1,2.1816432E0,1E0,8.3E1,2.3E1,7.3595476E0,8.2E1,9.6E1,5E0,1.1184249E1,7.037037E-1,1.2246469E-16,2.3545454E0,-3.3E0,-7.993068E-2,1E0,1.2E1,9E1,0E0,9.9E1,5.7E1,-8.7883346E-2,8E-1,1.0212E3,3.9943156E-1,1.49E-1,-8.889179E-2,1.0638298E-2,1.0246E3,4E-1,2.79E-1,6.6E0,-1.4E0,-4.9E1,6.1E0,-3.5453331E0,-3.5E-1,5.9E1,8.353125E-2,-7.876746E-2,-5.92465E-2,-5.6337047E-2,-7.4041667E-3,2.7484223E-2,-8.4113106E-2,-4.9535234E-2,-4.4221367E-4,-8.269606E-2,7.597151E-2,-6.124716E-2,-2.0822173E-3,5.400979E-2,-3.808241E-2,-6.629377E-2,1.5703361E-2,-7.922517E-2,-3.4284193E-2,-3.0478617E-2,4.108214E-3,1.2813706E-3,3.1532504E-2,-7.318084E-2,-3.89386E-2,-5.282722E-2,2.0611439E-2,4.8861817E-2,-3.95212E-2,-1.7511945E-2,6.425396E-2,-9.698871E-2,-8.21935E-3,-3.56035E-2,4.9573574E-2,2.9178804E-2,6.610879E-2,4.9215402E-2,-9.128073E-2,1.0595109E-3,4.5942392E-2,5.9475303E-2,4.3909635E-2,-8.9906074E-2,4.151922E-2,-1.3099481E-2,7.1540125E-2,-8.839627E-3,6.4076506E-2,7.4218184E-2,-2.0131186E-2,6.78901E-2,7.898869E-2,1.2198112E-2,6.404853E-2,3.2236364E-2,7.970332E-2],"split_indices":[66,142,58,107,4,104,58,59,149,104,107,149,1,107,142,149,1,134,138,1,59,59,142,32,34,18,65,142,142,12,41,144,142,18,150,0,152,53,0,65,14,149,64,142,142,0,20,4,133,138,0,145,4,20,138,34,21,63,147,48,16,142,0,0,0,0,0,0,0,0,0,0,0,0,0,0,0,0,0,0,0,0,0,0,0,0,0,0,0,0,0,0,0,0,0,0,0,0,0,0,0,0,0,0,0,0,0,0,0,0,0,0,0,0,0,0,0,0,0],"split_type":[0,0,0,0,0,0,0,0,0,0,0,0,0,0,0,0,0,0,0,0,0,0,0,0,0,0,0,0,0,0,0,0,0,0,0,0,0,0,0,0,0,0,0,0,0,0,0,0,0,0,0,0,0,0,0,0,0,0,0,0,0,0,0,0,0,0,0,0,0,0,0,0,0,0,0,0,0,0,0,0,0,0,0,0,0,0,0,0,0,0,0,0,0,0,0,0,0,0,0,0,0,0,0,0,0,0,0,0,0,0,0,0,0,0,0,0,0,0,0],"sum_hessian":[3.0872236E4,1.7593422E4,1.3278814E4,1.1874103E4,5.71932E3,2.3961218E3,1.0882692E4,1.1506625E4,3.6747748E2,4.279419E3,1.439901E3,1.7480515E2,2.2213167E3,3.2274243E3,7.6552686E3,1.0944327E4,5.622984E2,2.3091359E2,1.3656387E2,5.206548E2,3.758764E3,1.3637739E3,7.6127045E1,3.491617E1,1.3988898E2,1.0227733E3,1.1985435E3,1.9453029E2,3.032894E3,3.085219E3,4.5700493E3,1.0022538E4,9.217889E2,1.23952705E2,4.3834573E2,4.16382E1,1.8927539E2,1.3133383E2,5.2300467E0,9.152431E1,4.2913046E2,2.76247E3,9.96294E2,1.2594348E3,1.0433907E2,1.1689387E1,6.443765E1,1.3607256E1,2.1308912E1,1.3266554E2,7.2234387E0,6.566126E2,3.6616077E2,3.0948038E2,8.8906305E2,1.0070512E2,9.3825165E1,7.901261E2,2.242768E3,2.8961074E3,1.8911153E2,5.493014E2,4.020748E3,8.864373E3,1.1581646E3,7.713864E2,1.5040248E2,1.14273E2,9.6797E0,3.5952E2,7.882573E1,8.876834E0,3.2761364E1,7.9008514E1,1.1026688E2,1.2243218E2,8.901646E0,4.059968E1,5.0924625E1,3.5837375E2,7.0756714E1,1.7139519E3,1.0485181E3,4.2522073E2,5.7107324E2,1.0442902E3,2.1514467E2,3.752216E1,6.681691E1,5.504733E1,9.390325E0,5.637918E0,7.9693384E0,1.6163137E1,5.1457763E0,7.385094E0,1.2528045E2,2.8251345E1,6.2836127E2,3.601952E2,5.965576E0,1.4847707E2,1.6100331E2,4.6477472E2,4.2428833E2,5.7135377E0,9.499158E1,5.1141114E0,8.871105E1,9.481798E0,7.806443E2,2.2374446E3,5.323508E0,3.5462723E2,2.5414802E3,1.1653664E1,1.7745787E2,6.2037807E0,5.430976E2],"tree_param":{"num_deleted":"0","num_feature":"155","num_nodes":"119","size_leaf_vector":"1"}},{"base_weights":[1.8373699E-3,-1.04725E0,1.3929954E0,-1.4108751E0,-3.016077E-1,1.2211006E0,1.5645941E0,-1.4542335E0,-2.8452058E-3,-6.819719E-1,1.3174726E-1,7.0206577E-1,1.2485095E0,1.5736474E0,1.17278E0,-1.5559465E0,-1.0425062E0,-3.7717527E-1,7.502337E-1,-7.734959E-1,4.562383E-1,-3.19162E-1,3.8743418E-1,3.614402E-1,1.1426239E0,1.0330176E0,1.3020823E0,1.5107051E0,1.6147225E0,1.2819246E0,3.3001572E-1,-1.5997272E0,-1.361386E0,-1.310325E0,-5.528575E-1,-6.763367E-1,9.310206E-1,9.7724295E-1,-1.0437812E0,-9.10618E-1,-2.1649337E-1,-3.1433952E-1,7.69171E-1,8.956183E-2,-8.066469E-1,1.685746E-1,7.623525E-1,-8.0416286E-1,7.4172956E-1,9.4057165E-2,1.2816678E0,1.0498321E0,-9.006718E-2,1.1804646E0,1.3973945E0,-1.7016187E-2,1.5145482E0,2.5805578E-2,1.616381E0,1.53015E-2,1.3337786E0,-4.161335E-2,5.4457575E-2,-8.011374E-2,4.670925E-3,-7.1750484E-2,-3.431976E-2,-6.741426E-2,2.6860312E-2,-5.3650614E-2,-1.3205168E-2,-6.9828145E-2,-1.6202128E-2,4.2059805E-4,6.946382E-2,-7.518656E-2,5.6156397E-2,-8.132504E-2,-2.7661787E-3,-5.9815098E-2,-2.286311E-2,1.0353295E-2,-4.699662E-2,3.998812E-2,-6.502266E-2,2.5645796E-2,6.896892E-2,-7.817747E-2,1.3376794E-2,-4.0354067E-3,-5.7486594E-2,2.8900016E-2,-1.03233615E-2,4.3364283E-2,-6.3092187E-3,3.5802454E-2,-6.1037816E-2,4.2542066E-2,-4.4959337E-2,4.847255E-2,-8.526077E-2,-1.522664E-2,6.7544036E-2,4.21439E-2,6.23686E-2,6.538119E-2,5.2949924E-2,7.0069864E-2,-2.559337E-2,5.8949362E-2,7.666167E-2,6.852669E-2,8.1002705E-2,6.96645E-2,1.3940008E-2],"categories":[],"categories_nodes":[],"categories_segments":[],"categories_sizes":[],"default_left":[0,0,0,1,0,0,0,0,0,1,0,0,0,0,0,0,0,0,0,0,0,0,0,0,0,0,0,0,0,0,0,0,0,1,0,0,0,0,0,0,0,0,0,0,0,0,0,0,0,0,0,0,0,0,0,0,0,0,0,0,0,0,0,0,0,0,0,0,0,0,0,0,0,0,0,0,0,0,0,0,0,0,0,0,0,0,0,0,0,0,0,0,0,0,0,0,0,0,0,0,0,0,0,0,0,0,0,0,0,0,0,0,0,0,0],"id":5,"left_children":[1,3,5,7,9,11,13,15,17,19,21,23,25,27,29,31,33,35,37,39,41,43,45,47,49,51,53,55,57,59,61,63,65,67,69,71,73,75,77,79,81,83,85,87,89,91,93,95,97,99,101,103,-1,105,107,-1,109,-1,111,-1,113,-1,-1,-1,-1,-1,-1,-1,-1,-1,-1,-1,-1,-1,-1,-1,-1,-1,-1,-1,-1,-1,-1,-1,-1,-1,-1,-1,-1,-1,-1,-1,-1,-1,-1,-1,-1,-1,-1,-1,-1,-1,-1,-1,-1,-1,-1,-1,-1,-1,-1,-1,-1,-1,-1],"loss_changes":[4.4652797E4,4.72859E3,3.8579688E2,7.156113E2,9.4282983E2,9.2478516E1,2.121582E1,4.7443164E2,9.928189E1,3.1769983E2,3.0842242E2,4.9304276E1,7.051172E1,1.3862305E1,1.3465805E1,7.5197266E1,2.9498682E2,9.2740295E1,4.8618774E1,2.1505676E2,5.5086205E1,1.930187E2,1.398453E2,8.436713E1,2.0781448E1,6.1319946E1,5.601758E1,1.880371E1,6.0117188E0,6.2482452E0,1.7665867E1,3.238086E1,8.239526E1,1.0304053E2,1.19689316E2,4.8154915E1,1.8525642E1,3.9411186E1,7.554538E0,2.9229016E2,1.7140091E2,7.387515E1,2.443499E1,1.554362E2,1.09789734E2,1.6588057E2,5.88042E1,3.0632446E1,2.6379555E1,3.0023344E1,1.4486069E1,4.950891E1,0E0,3.2396484E1,2.217041E1,0E0,1.3904785E1,0E0,9.7265625E-1,0E0,7.454544E0,0E0,0E0,0E0,0E0,0E0,0E0,0E0,0E0,0E0,0E0,0E0,0E0,0E0,0E0,0E0,0E0,0E0,0E0,0E0,0E0,0E0,0E0,0E0,0E0,0E0,0E0,0E0,0E0,0E0,0E0,0E0,0E0,0E0,0E0,0E0,0E0,0E0,0E0,0E0,0E0,0E0,0E0,0E0,0E0,0E0,0E0,0E0,0E0,0E0,0E0,0E0,0E0,0E0,0E0],"parents":[2147483647,0,0,1,1,2,2,3,3,4,4,5,5,6,6,7,7,8,8,9,9,10,10,11,11,12,12,13,13,14,14,15,15,16,16,17,17,18,18,19,19,20,20,21,21,22,22,23,23,24,24,25,25,26,26,27,27,28,28,29,29,30,30,31,31,32,32,33,33,34,34,35,35,36,36,37,37,38,38,39,39,40,40,41,41,42,42,43,43,44,44,45,45,46,46,47,47,48,48,49,49,50,50,51,51,53,53,54,54,56,56,58,58,60,60],"right_children":[2,4,6,8,10,12,14,16,18,20,22,24,26,28,30,32,34,36,38,40,42,44,46,48,50,52,54,56,58,60,62,64,66,68,70,72,74,76,78,80,82,84,86,88,90,92,94,96,98,100,102,104,-1,106,108,-1,110,-1,112,-1,114,-1,-1,-1,-1,-1,-1,-1,-1,-1,-1,-1,-1,-1,-1,-1,-1,-1,-1,-1,-1,-1,-1,-1,-1,-1,-1,-1,-1,-1,-1,-1,-1,-1,-1,-1,-1,-1,-1,-1,-1,-1,-1,-1,-1,-1,-1,-1,-1,-1,-1,-1,-1,-1,-1],"split_conditions":[5.1E1,1.4E1,5.3E1,8E-1,1.2E1,5E-1,7.620146E0,1.7E1,3.48E2,6.666667E-1,9.812229E0,9.2E1,1.4E1,6.3E1,5E-1,1.09E2,3E0,8.8E1,4.2E3,5.01E2,-1E0,-1.6287802E-15,4.6E1,1.15E2,-1.5E0,6.363636E-1,3.3E1,-6.3E1,5.6E1,-1E1,6E1,6.16E1,1E-1,8.3E-1,1.21E1,2.631579E-2,2E-1,7.247509E0,1.28E1,5.9E1,1.13E1,-3E0,-1.4334857E0,2.5E-1,1.009E3,-2.5881904E-1,1.0206E3,1.33E1,7.1428573E-1,-4E-3,1.45E-1,8.5E1,-9.006718E-2,-5E-1,1.031E3,-1.7016187E-2,7E0,2.5805578E-2,7E-1,1.53015E-2,5E-1,-4.161335E-2,5.4457575E-2,-8.011374E-2,4.670925E-3,-7.1750484E-2,-3.431976E-2,-6.741426E-2,2.6860312E-2,-5.3650614E-2,-1.3205168E-2,-6.9828145E-2,-1.6202128E-2,4.2059805E-4,6.946382E-2,-7.518656E-2,5.6156397E-2,-8.132504E-2,-2.7661787E-3,-5.9815098E-2,-2.286311E-2,1.0353295E-2,-4.699662E-2,3.998812E-2,-6.502266E-2,2.5645796E-2,6.896892E-2,-7.817747E-2,1.3376794E-2,-4.0354067E-3,-5.7486594E-2,2.8900016E-2,-1.03233615E-2,4.3364283E-2,-6.3092187E-3,3.5802454E-2,-6.1037816E-2,4.2542066E-2,-4.4959337E-2,4.847255E-2,-8.526077E-2,-1.522664E-2,6.7544036E-2,4.21439E-2,6.23686E-2,6.538119E-2,5.2949924E-2,7.0069864E-2,-2.559337E-2,5.8949362E-2,7.666167E-2,6.852669E-2,8.1002705E-2,6.96645E-2,1.3940008E-2],"split_indices":[66,143,66,107,142,104,12,142,74,104,11,142,142,143,6,149,143,142,154,74,21,18,143,149,21,145,143,63,40,73,143,151,60,136,146,145,21,11,17,143,17,13,48,104,4,1,4,141,150,139,138,144,0,1,4,0,142,0,60,0,8,0,0,0,0,0,0,0,0,0,0,0,0,0,0,0,0,0,0,0,0,0,0,0,0,0,0,0,0,0,0,0,0,0,0,0,0,0,0,0,0,0,0,0,0,0,0,0,0,0,0,0,0,0,0],"split_type":[0,0,0,0,0,0,0,0,0,0,0,0,0,0,0,0,0,0,0,0,0,0,0,0,0,0,0,0,0,0,0,0,0,0,0,0,0,0,0,0,0,0,0,0,0,0,0,0,0,0,0,0,0,0,0,0,0,0,0,0,0,0,0,0,0,0,0,0,0,0,0,0,0,0,0,0,0,0,0,0,0,0,0,0,0,0,0,0,0,0,0,0,0,0,0,0,0,0,0,0,0,0,0,0,0,0,0,0,0,0,0,0,0,0,0],"sum_hessian":[3.0593688E4,1.7441236E4,1.3152451E4,1.1723195E4,5.7180415E3,6.5749033E3,6.5775474E3,1.1372879E4,3.503168E2,3.0450225E3,2.673019E3,3.3130637E2,6.243597E3,6.425802E3,1.5174576E2,9.117479E3,2.2554001E3,2.3442433E2,1.1589247E2,2.818772E3,2.2625047E2,9.670198E2,1.7059993E3,1.8799896E2,1.433074E2,1.2475571E3,4.99604E3,2.5533481E3,3.8724536E3,1.337804E2,1.796536E1,7.4363813E3,1.6810972E3,1.45674E3,7.986602E2,1.9124858E2,4.317575E1,1.033286E2,1.2563874E1,2.261279E3,5.574929E2,6.525065E1,1.6099983E2,5.2633435E2,4.4068542E2,1.0782717E3,6.2772754E2,4.590884E1,1.4209012E2,1.7058727E1,1.2624868E2,1.2408608E3,6.6963434E0,2.201446E3,2.7945938E3,5.0548177E0,2.5482932E3,6.39882E0,3.8660547E3,7.1952662E0,1.2658514E2,7.007852E0,1.0957508E1,7.425322E3,1.1059782E1,1.514618E3,1.664791E2,1.4277296E3,2.9010443E1,2.840026E2,5.1465765E2,6.175314E1,1.2949544E2,1.4738742E1,2.8437008E1,5.1834702E0,9.814513E1,7.4344354E0,5.1294394E0,1.3860161E3,8.752629E2,3.5198703E2,2.0550589E2,3.0678236E1,3.457241E1,1.1479598E2,4.6203846E1,5.0346252E1,4.759881E2,1.4192044E2,2.9876498E2,5.153738E2,5.628979E2,5.615472E2,6.618031E1,9.668428E0,3.624041E1,1.3373961E2,8.350512E0,1.1823202E1,5.235525E0,5.0758924E0,1.2117278E2,6.0880975E2,6.320511E2,1.0703452E3,1.1311008E3,2.789065E3,5.5288343E0,1.3807617E2,2.410217E3,6.281918E1,3.8032356E3,1.19432465E2,7.152672E0],"tree_param":{"num_deleted":"0","num_feature":"155","num_nodes":"115","size_leaf_vector":"1"}},{"base_weights":[-3.3054363E-3,-1.0156916E0,1.3399653E0,-1.354301E0,-3.172356E-1,8.748886E-1,1.4424435E0,-1.399654E0,-2.4950655E-2,-4.2488188E-1,6.2429285E-1,-4.3846345E-1,8.9923143E-1,1.3075947E0,1.5008247E0,-1.464161E0,-8.853781E-1,-4.2532298E-1,5.141563E-1,-5.769313E-1,1.4276052E-1,-2.996718E-1,7.7880967E-1,7.311612E-1,-1.4989936E0,8.563091E-1,1.282485E0,1.1847258E0,1.3758764E0,1.3609362E0,1.5323157E0,-1.5111135E0,-1.1488736E0,-1.3834027E0,-6.8446904E-1,-2.7557047E-2,-1.3117388E0,6.4922786E-1,-8.1993006E-2,-8.1055295E-1,-2.6593563E-1,2.8499025E-1,-6.098604E-1,-6.30672E-1,1.0872111E0,4.3006873E-1,1.0355679E0,-2.1963147E-2,1.2412128E0,-8.8694785E-3,-9.3010955E-2,8.985618E-1,4.3827915E-1,-1.5341398E-2,1.3204125E0,5.633853E-1,1.2188091E0,4.9062066E-2,1.383347E0,6.6544896E-1,1.3833882E0,1.3988062E0,1.5489742E0,-7.738799E-2,-6.893935E-2,-7.335707E-2,-4.6738576E-2,-7.6035544E-2,-5.400551E-3,-2.4720972E-2,-6.254016E-2,-2.2929035E-2,4.570266E-2,-8.6120054E-2,-1.286833E-2,-7.6387525E-2,3.7139475E-2,-6.5666564E-2,-3.3771943E-2,-3.2685872E-2,7.8018378E-3,-5.4187406E-2,1.8530995E-2,-1.7830169E-2,-8.679425E-2,-1.0716556E-2,-8.8867374E-2,8.040319E-2,-9.568589E-4,-9.590959E-3,5.1338434E-2,-3.8507707E-2,5.4859694E-2,8.106179E-2,3.3464666E-2,1.1789468E-2,4.638495E-2,-4.870417E-2,3.302793E-2,2.526005E-2,6.779759E-2,-3.647482E-3,5.2265596E-2,6.1418444E-2,-2.800405E-2,-3.9729867E-2,5.380258E-2,2.1434357E-2,6.954141E-2,-3.774376E-2,4.6410684E-2,6.976456E-2,3.239231E-2,2.1458711E-2,7.035234E-2,7.080128E-2,7.7993244E-2],"categories":[],"categories_nodes":[],"categories_segments":[],"categories_sizes":[],"default_left":[0,0,0,1,1,0,0,0,0,0,0,0,1,0,0,0,0,0,0,0,1,0,0,0,0,1,0,0,0,0,0,0,0,0,1,0,0,0,0,0,0,0,0,0,0,0,0,0,0,0,0,0,0,0,0,0,0,0,0,0,1,0,0,0,0,0,0,0,0,0,0,0,0,0,0,0,0,0,0,0,0,0,0,0,0,0,0,0,0,0,0,0,0,0,0,0,0,0,0,0,0,0,0,0,0,0,0,0,0,0,0,0,0,0,0,0,0],"id":6,"left_children":[1,3,5,7,9,11,13,15,17,19,21,23,25,27,29,31,33,35,37,39,41,43,45,47,49,51,53,55,57,59,61,63,65,67,69,71,73,75,-1,77,79,81,83,85,87,89,91,-1,93,-1,-1,95,97,-1,99,101,103,105,107,109,111,113,115,-1,-1,-1,-1,-1,-1,-1,-1,-1,-1,-1,-1,-1,-1,-1,-1,-1,-1,-1,-1,-1,-1,-1,-1,-1,-1,-1,-1,-1,-1,-1,-1,-1,-1,-1,-1,-1,-1,-1,-1,-1,-1,-1,-1,-1,-1,-1,-1,-1,-1,-1,-1,-1,-1],"loss_changes":[4.0944008E4,4.0598281E3,6.151992E2,6.969238E2,5.6853217E2,7.5221924E1,8.12168E1,3.6938867E2,8.278072E1,4.3447577E2,8.245845E1,5.471289E1,3.6472412E1,2.5055664E1,3.0185547E1,1.4504297E2,1.2380347E2,7.7460434E1,4.8499035E1,2.8808838E2,1.1402348E2,3.8786377E1,4.359726E1,1.3253261E1,1.0451073E1,3.6013428E1,1.4315704E1,2.3591553E1,2.0182617E1,2.022998E1,1.09375E1,3.948242E1,8.6423706E1,6.234204E1,9.521332E1,6.2500668E1,2.8844612E1,3.252414E1,0E0,1.5285596E2,2.7906213E2,1.0529522E2,4.7451912E1,3.1777166E1,9.593952E0,7.863109E1,3.2409912E1,0E0,1.957653E0,0E0,0E0,3.592627E1,6.0913754E1,0E0,5.6185303E0,1.9207144E1,1.9355225E1,1.1827233E1,1.3832764E1,1.745128E1,1.0481689E1,4.640259E0,5.234375E0,0E0,0E0,0E0,0E0,0E0,0E0,0E0,0E0,0E0,0E0,0E0,0E0,0E0,0E0,0E0,0E0,0E0,0E0,0E0,0E0,0E0,0E0,0E0,0E0,0E0,0E0,0E0,0E0,0E0,0E0,0E0,0E0,0E0,0E0,0E0,0E0,0E0,0E0,0E0,0E0,0E0,0E0,0E0,0E0,0E0,0E0,0E0,0E0,0E0,0E0,0E0,0E0,0E0,0E0],"parents":[2147483647,0,0,1,1,2,2,3,3,4,4,5,5,6,6,7,7,8,8,9,9,10,10,11,11,12,12,13,13,14,14,15,15,16,16,17,17,18,18,19,19,20,20,21,21,22,22,23,23,24,24,25,25,26,26,27,27,28,28,29,29,30,30,31,31,32,32,33,33,34,34,35,35,36,36,37,37,39,39,40,40,41,41,42,42,43,43,44,44,45,45,46,46,48,48,51,51,52,52,54,54,55,55,56,56,57,57,58,58,59,59,60,60,61,61,62,62],"right_children":[2,4,6,8,10,12,14,16,18,20,22,24,26,28,30,32,34,36,38,40,42,44,46,48,50,52,54,56,58,60,62,64,66,68,70,72,74,76,-1,78,80,82,84,86,88,90,92,-1,94,-1,-1,96,98,-1,100,102,104,106,108,110,112,114,116,-1,-1,-1,-1,-1,-1,-1,-1,-1,-1,-1,-1,-1,-1,-1,-1,-1,-1,-1,-1,-1,-1,-1,-1,-1,-1,-1,-1,-1,-1,-1,-1,-1,-1,-1,-1,-1,-1,-1,-1,-1,-1,-1,-1,-1,-1,-1,-1,-1,-1,-1,-1,-1,-1],"split_conditions":[1E-1,1.4E1,2E-1,7E-1,6.666667E-1,2.3E1,4E-1,1E-1,3E-1,1E-1,7.9E0,-4E-1,2.2E0,-2.5881904E-1,8.8E1,1.27E2,1.9E1,9.46452E3,1.0191E3,1.224394E1,2.23E2,2.5009741E2,4.1E1,1.5E2,1.13E1,-3.2E0,3E0,4E-1,-1.3E1,2.9E1,3.4E0,2E0,-2.5881904E-1,4.6E-1,-4.5E0,2.7695024E1,1.1E1,4.2942745E1,-8.1993006E-2,4E-1,3.3E1,8.2E0,2.52E2,-2.31E1,-2E0,2.8E0,8.4E0,-2.1963147E-2,1.2E1,-8.8694785E-3,-9.3010955E-2,8.3E0,6.7E1,-1.5341398E-2,1E1,1.21E1,1.3536916E1,1.1555954E1,5.6E1,-7.5260496E-1,2.95E1,-1E1,7.6E1,-7.738799E-2,-6.893935E-2,-7.335707E-2,-4.6738576E-2,-7.6035544E-2,-5.400551E-3,-2.4720972E-2,-6.254016E-2,-2.2929035E-2,4.570266E-2,-8.6120054E-2,-1.286833E-2,-7.6387525E-2,3.7139475E-2,-6.5666564E-2,-3.3771943E-2,-3.2685872E-2,7.8018378E-3,-5.4187406E-2,1.8530995E-2,-1.7830169E-2,-8.679425E-2,-1.0716556E-2,-8.8867374E-2,8.040319E-2,-9.568589E-4,-9.590959E-3,5.1338434E-2,-3.8507707E-2,5.4859694E-2,8.106179E-2,3.3464666E-2,1.1789468E-2,4.638495E-2,-4.870417E-2,3.302793E-2,2.526005E-2,6.779759E-2,-3.647482E-3,5.2265596E-2,6.1418444E-2,-2.800405E-2,-3.9729867E-2,5.380258E-2,2.1434357E-2,6.954141E-2,-3.774376E-2,4.6410684E-2,6.976456E-2,3.239231E-2,2.1458711E-2,7.035234E-2,7.080128E-2,7.7993244E-2],"split_indices":[58,143,58,107,104,62,58,60,60,59,32,8,107,0,62,149,62,45,4,11,44,50,143,149,9,53,143,107,13,62,107,143,0,16,53,52,14,50,0,107,143,9,35,39,31,107,146,0,62,0,0,151,62,0,9,56,18,18,37,18,46,13,10,0,0,0,0,0,0,0,0,0,0,0,0,0,0,0,0,0,0,0,0,0,0,0,0,0,0,0,0,0,0,0,0,0,0,0,0,0,0,0,0,0,0,0,0,0,0,0,0,0,0,0,0,0,0],"split_type":[0,0,0,0,0,0,0,0,0,0,0,0,0,0,0,0,0,0,0,0,0,0,0,0,0,0,0,0,0,0,0,0,0,0,0,0,0,0,0,0,0,0,0,0,0,0,0,0,0,0,0,0,0,0,0,0,0,0,0,0,0,0,0,0,0,0,0,0,0,0,0,0,0,0,0,0,0,0,0,0,0,0,0,0,0,0,0,0,0,0,0,0,0,0,0,0,0,0,0,0,0,0,0,0,0,0,0,0,0,0,0,0,0,0,0,0,0],"sum_hessian":[3.010593E4,1.7167543E4,1.2938386E4,1.1561486E4,5.606057E3,2.338064E3,1.0600322E4,1.1179937E4,3.8154996E2,5.0314585E3,5.7459894E2,4.21628E1,2.2959011E3,3.210292E3,7.3900303E3,9.932086E3,1.247851E3,2.1917464E2,1.6237534E2,3.9685872E3,1.0628711E3,8.2096954E1,4.92502E2,2.0152992E1,2.200981E1,2.0678125E3,2.2808844E2,1.1538412E3,2.056451E3,1.3666283E3,6.023402E3,8.641142E3,1.2909437E3,3.5686084E2,8.909901E2,1.5207648E2,6.709815E1,1.5349516E2,8.880175E0,2.2651023E3,1.703485E3,8.9457007E2,1.68301E2,6.6777E1,1.5319957E1,2.101419E2,2.823601E2,6.0993776E0,1.4053615E1,5.1039743E0,1.6905834E1,1.8767318E3,1.9108078E2,5.0895576E0,2.2299887E2,6.106624E1,1.0927749E3,1.163122E1,2.0448196E3,4.3835922E1,1.3227925E3,6.7828143E2,5.3451206E3,6.758107E3,1.883035E3,5.166347E2,7.7430896E2,3.2193112E2,3.492971E1,6.686538E2,2.2233635E2,1.04747375E2,4.7329105E1,4.7765705E1,1.9332449E1,5.6493487E0,1.4784581E2,4.7777493E2,1.7873273E3,8.875432E2,8.1594183E2,5.1915043E1,8.42655E2,1.385458E2,2.9755188E1,4.9924335E1,1.6852661E1,1.0169299E1,5.1506577E0,1.0314935E2,1.06992546E2,8.88544E0,2.7347467E2,7.235964E0,6.8176513E0,7.955892E1,1.797173E3,2.546216E1,1.6561862E2,1.00686655E1,2.129302E2,2.6593441E1,3.44728E1,1.0872975E3,5.4774456E0,6.456333E0,5.174886E0,1.6456686E1,2.0283629E3,6.4918866E0,3.7344032E1,1.3007106E3,2.2081806E1,6.2655067E0,6.720159E2,4.1531525E2,4.929805E3],"tree_param":{"num_deleted":"0","num_feature":"155","num_nodes":"117","size_leaf_vector":"1"}},{"base_weights":[1.1549891E-2,-9.697049E-1,1.2994889E0,-1.3665859E0,-3.6565852E-1,8.5940576E-1,1.3967959E0,-1.3981836E0,-2.099774E-1,-8.1087583E-1,-3.0238487E-2,-2.4707797E-1,8.82261E-1,1.2678345E0,1.4524448E0,-1.4750863E0,-9.9877834E-1,-7.5844586E-2,-8.503104E-2,-1.161897E0,-5.361586E-1,4.9784896E-1,-2.4159457E-1,6.4609545E-1,-1.4187251E0,9.6744615E-1,6.343018E-1,1.274157E0,-5.456871E-1,1.3146013E0,1.4869787E0,-1.4790639E0,1.1023021E-1,-1.1756487E-1,-1.1162341E0,-3.4867147E-1,5.5209565E-1,-1.2712066E0,2.971262E-1,-8.634708E-1,-2.4583791E-1,5.661455E-1,-1.4470617E0,-1.2243218E0,-1.2721236E-1,-3.8282387E-2,1.2938544E0,-9.0541415E-2,-6.548217E-3,7.4456686E-1,1.0965096E0,-3.2479253E-1,7.039984E-1,1.0206172E0,1.3100604E0,5.5678017E-2,-1.02371335E-1,3.3863214E-1,1.3305646E0,1.3463688E0,1.501946E0,-7.574286E-2,-6.556857E-2,8.316483E-2,-7.464587E-2,-7.881703E-2,5.969949E-3,-6.360214E-2,-2.7616633E-2,-7.1718805E-2,3.0887707E-3,-4.2958762E-2,5.1517796E-2,-6.521108E-2,2.6467139E-2,2.6630959E-2,-8.0162615E-2,-4.629769E-2,1.4394845E-2,-2.1324947E-2,2.814508E-2,7.3712277E-3,4.1034203E-2,6.0261483E-3,-8.493977E-2,-6.767813E-2,-4.976382E-3,-2.7028417E-2,6.7572505E-3,3.4887914E-2,7.555776E-2,-7.757923E-3,4.085234E-2,4.6047803E-2,6.196872E-2,-5.990109E-2,3.1479713E-2,1.1337043E-2,4.0017005E-2,9.4443485E-3,5.5177897E-2,5.3212017E-2,6.691654E-2,-4.9452446E-2,4.881454E-2,6.687889E-2,-2.6448345E-2,5.274425E-2,7.049031E-2,7.536929E-2,6.1409917E-2],"categories":[],"categories_nodes":[],"categories_segments":[],"categories_sizes":[],"default_left":[0,0,0,1,0,0,0,0,0,0,0,0,0,0,0,0,0,0,0,1,0,0,0,0,0,0,0,0,0,0,0,0,0,0,0,0,0,0,0,0,0,0,0,0,0,0,0,0,0,0,0,0,0,0,0,0,0,0,1,0,0,0,0,0,0,0,0,0,0,0,0,0,0,0,0,0,0,0,0,0,0,0,0,0,0,0,0,0,0,0,0,0,0,0,0,0,0,0,0,0,0,0,0,0,0,0,0,0,0,0,0],"id":7,"left_children":[1,3,5,7,9,11,13,15,17,19,21,23,25,27,29,31,33,35,-1,37,39,41,43,45,47,49,51,53,55,57,59,61,63,65,67,69,71,73,75,77,79,81,83,85,87,-1,89,-1,-1,91,93,95,97,99,101,-1,-1,103,105,107,109,-1,-1,-1,-1,-1,-1,-1,-1,-1,-1,-1,-1,-1,-1,-1,-1,-1,-1,-1,-1,-1,-1,-1,-1,-1,-1,-1,-1,-1,-1,-1,-1,-1,-1,-1,-1,-1,-1,-1,-1,-1,-1,-1,-1,-1,-1,-1,-1,-1,-1],"loss_changes":[3.7815918E4,4.07079E3,5.526738E2,3.7409766E2,1.0057411E3,5.960266E1,7.391797E1,3.046914E2,5.4438496E1,2.7827234E2,4.28986E2,5.1397724E1,4.7777466E1,3.748242E1,3.295996E1,5.3035156E1,1.6679736E2,4.3397068E1,0E0,2.0294153E2,1.5413345E2,1.4664969E2,3.0827432E2,2.6620266E1,1.0271217E1,4.8148926E1,3.976895E1,2.7479492E1,3.1700377E1,2.260254E1,1.0118164E1,4.7802734E1,5.677183E1,6.637233E1,1.24222534E2,7.8928085E1,5.2668304E1,7.098828E1,4.067882E1,5.5255554E1,1.2630959E2,1.1297421E2,1.515995E1,4.1294006E1,2.6690335E2,0E0,1.2625465E0,0E0,0E0,4.12753E1,2.5720215E1,3.466512E1,2.5065765E1,2.730597E1,1.7734863E1,0E0,0E0,2.249145E1,1.9906494E1,8.959595E0,5.8085938E0,0E0,0E0,0E0,0E0,0E0,0E0,0E0,0E0,0E0,0E0,0E0,0E0,0E0,0E0,0E0,0E0,0E0,0E0,0E0,0E0,0E0,0E0,0E0,0E0,0E0,0E0,0E0,0E0,0E0,0E0,0E0,0E0,0E0,0E0,0E0,0E0,0E0,0E0,0E0,0E0,0E0,0E0,0E0,0E0,0E0,0E0,0E0,0E0,0E0,0E0],"parents":[2147483647,0,0,1,1,2,2,3,3,4,4,5,5,6,6,7,7,8,8,9,9,10,10,11,11,12,12,13,13,14,14,15,15,16,16,17,17,19,19,20,20,21,21,22,22,23,23,24,24,25,25,26,26,27,27,28,28,29,29,30,30,31,31,32,32,33,33,34,34,35,35,36,36,37,37,38,38,39,39,40,40,41,41,42,42,43,43,44,44,46,46,49,49,50,50,51,51,52,52,53,53,54,54,57,57,58,58,59,59,60,60],"right_children":[2,4,6,8,10,12,14,16,18,20,22,24,26,28,30,32,34,36,-1,38,40,42,44,46,48,50,52,54,56,58,60,62,64,66,68,70,72,74,76,78,80,82,84,86,88,-1,90,-1,-1,92,94,96,98,100,102,-1,-1,104,106,108,110,-1,-1,-1,-1,-1,-1,-1,-1,-1,-1,-1,-1,-1,-1,-1,-1,-1,-1,-1,-1,-1,-1,-1,-1,-1,-1,-1,-1,-1,-1,-1,-1,-1,-1,-1,-1,-1,-1,-1,-1,-1,-1,-1,-1,-1,-1,-1,-1,-1,-1],"split_conditions":[1E0,8E0,2E-1,7E-1,5E0,2.4E1,4E-1,2.3E1,3.1E2,2.7E1,-7.0710677E-1,-7E0,1.0183E3,6.1172044E-1,9E1,5.8E0,1.0119E3,1.18E2,-8.503104E-2,6E-1,1.16E1,1.0247E3,5E-1,-1.2E1,8E-1,-2.5881904E-1,8E0,7E0,-3.9E0,2.5E1,2.7E0,1.09E2,-2.5881904E-1,3.4497327E-1,1.35E2,2.631579E-2,4E1,1.2E0,2E1,4.2E0,9.3E1,-9E0,-2.5E0,4.6E-2,1.1E1,-3.8282387E-2,1E-3,-9.0541415E-2,-6.548217E-3,4E-1,-3.55758E-1,9.1E1,-4E0,8.38E1,1.3E0,5.5678017E-2,-1.02371335E-1,2E-1,1.7E1,2.3E1,5.8677244E0,-7.574286E-2,-6.556857E-2,8.316483E-2,-7.464587E-2,-7.881703E-2,5.969949E-3,-6.360214E-2,-2.7616633E-2,-7.1718805E-2,3.0887707E-3,-4.2958762E-2,5.1517796E-2,-6.521108E-2,2.6467139E-2,2.6630959E-2,-8.0162615E-2,-4.629769E-2,1.4394845E-2,-2.1324947E-2,2.814508E-2,7.3712277E-3,4.1034203E-2,6.0261483E-3,-8.493977E-2,-6.767813E-2,-4.976382E-3,-2.7028417E-2,6.7572505E-3,3.4887914E-2,7.555776E-2,-7.757923E-3,4.085234E-2,4.6047803E-2,6.196872E-2,-5.990109E-2,3.1479713E-2,1.1337043E-2,4.0017005E-2,9.4443485E-3,5.5177897E-2,5.3212017E-2,6.691654E-2,-4.9452446E-2,4.881454E-2,6.687889E-2,-2.6448345E-2,5.274425E-2,7.049031E-2,7.536929E-2,6.1409917E-2],"split_indices":[67,143,58,107,142,62,58,142,44,143,1,14,4,134,62,60,4,149,0,107,146,4,104,14,8,0,142,142,53,62,107,149,1,133,149,145,73,59,64,20,143,14,20,139,144,0,139,0,0,107,19,144,64,43,107,0,0,21,38,142,12,0,0,0,0,0,0,0,0,0,0,0,0,0,0,0,0,0,0,0,0,0,0,0,0,0,0,0,0,0,0,0,0,0,0,0,0,0,0,0,0,0,0,0,0,0,0,0,0,0,0],"split_type":[0,0,0,0,0,0,0,0,0,0,0,0,0,0,0,0,0,0,0,0,0,0,0,0,0,0,0,0,0,0,0,0,0,0,0,0,0,0,0,0,0,0,0,0,0,0,0,0,0,0,0,0,0,0,0,0,0,0,0,0,0,0,0,0,0,0,0,0,0,0,0,0,0,0,0,0,0,0,0,0,0,0,0,0,0,0,0,0,0,0,0,0,0,0,0,0,0,0,0,0,0,0,0,0,0,0,0,0,0,0,0],"sum_hessian":[2.9920455E4,1.6982217E4,1.2938239E4,1.0247682E4,6.7345347E3,2.344734E3,1.0593505E4,9.974879E3,2.72802E2,2.8929214E3,3.841613E3,4.7164925E1,2.2975688E3,3.2010212E3,7.392484E3,8.361907E3,1.612972E3,2.5130661E2,2.14954E1,1.2684983E3,1.6244231E3,1.0975305E3,2.7440825E3,2.6969027E1,2.0195898E1,1.7076195E3,5.8994946E2,3.1902515E3,1.0769628E1,1.4894054E3,5.9030786E3,8.341109E3,2.0797632E1,1.9004079E2,1.4229313E3,1.756112E2,7.56954E1,1.18027E3,8.822828E1,7.6247644E2,8.6194666E2,1.0610321E3,3.6498356E1,2.8498917E2,2.4590935E3,8.376557E0,1.859247E1,1.5110996E1,5.0849023E0,6.2898E2,1.0786395E3,3.962163E1,5.503278E2,3.9972284E2,2.7905288E3,5.207663E0,5.5619645E0,2.4427523E1,1.4649778E3,5.773E2,5.325779E3,6.8667847E3,1.474325E3,1.0576445E1,1.0221188E1,2.5825558E1,1.6421523E2,1.1137607E3,3.091706E2,4.755878E1,1.2805243E2,1.8904787E1,5.679061E1,1.1593435E3,2.0926516E1,7.918777E1,9.040518E0,7.2349603E2,3.898043E1,7.0504565E2,1.5690099E2,4.0188892E2,6.591432E2,5.067325E0,3.1431032E1,2.5535603E2,2.9633135E1,9.5452167E2,1.5045718E3,6.2149477E0,1.23775215E1,4.670388E1,5.8227606E2,4.8760822E2,5.910313E2,2.0611948E1,1.9009684E1,9.317059E1,4.5715723E2,3.6652683E1,3.6307013E2,2.9217258E2,2.4983562E3,7.695886E0,1.6731636E1,1.4598066E3,5.171121E0,1.06617165E2,4.7068283E2,5.21723E3,1.0854864E2],"tree_param":{"num_deleted":"0","num_feature":"155","num_nodes":"111","size_leaf_vector":"1"}},{"base_weights":[7.265014E-4,-9.4582283E-1,1.2512908E0,-1.2698932E0,-2.6885575E-1,1.057702E0,1.3508583E0,-1.3142067E0,-1.3756402E-1,-6.430079E-1,1.0404475E-1,1.0036613E0,1.329476E0,1.0912851E0,1.3831139E0,-1.4260956E0,-9.2944765E-1,2.713138E-3,-8.149674E-2,-7.2278154E-1,1.5676585E-1,-8.997151E-1,2.014958E-1,7.155017E-1,1.0722148E0,8.0297685E-1,1.3583883E0,1.5930504E-1,1.1230584E0,1.2856377E0,1.4272112E0,-1.4695836E0,-1.2334101E0,-1.2402176E0,-5.3006166E-1,-3.4310097E-1,7.4224997E-1,-8.787875E-1,-3.1662056E-1,-1.306123E0,3.3804992E-1,-1.2503912E0,9.66564E-2,5.9947167E-2,7.8335655E-1,-5.95107E-2,7.7446914E-1,8.8371503E-1,1.1600556E0,-4.744863E-2,1.2071497E0,5.5049515E-1,1.3719901E0,-9.575994E-2,6.542545E-1,-2.4110189E-2,1.140913E0,8.8962895E-1,1.311883E0,1.3414798E0,1.4692236E0,3.4366555E-3,-7.3612496E-2,-4.210184E-2,-6.875442E-2,-4.5867257E-2,-6.939005E-2,6.8292976E-3,-3.8406696E-2,2.4040824E-2,-3.197672E-2,-4.4233564E-2,4.5138486E-2,-4.917901E-2,-1.4869376E-2,-5.3043883E-2,-8.2834595E-4,-8.144424E-2,3.8835078E-3,5.3956836E-2,1.0389633E-3,-7.445735E-2,8.9192775E-4,-5.0166078E-2,4.1946758E-2,-2.6434956E-3,4.250991E-2,1.8170066E-2,5.0405152E-2,-5.8672626E-2,2.8945709E-2,4.0014267E-2,-5.2280482E-2,-5.6460137E-3,4.690165E-2,-1.2605925E-2,5.8485843E-2,5.5054765E-2,-4.448355E-2,2.210173E-2,7.1532734E-2,6.878251E-2,-2.8710216E-2,6.0743894E-2,7.182028E-2,-3.7757922E-2,5.3296536E-2,5.8413263E-2,2.1812186E-2,4.8193242E-2,-3.7891474E-2,5.2515503E-2,6.722417E-2,6.6520334E-3,6.742384E-2,7.353465E-2,2.6457652E-2],"categories":[],"categories_nodes":[],"categories_segments":[],"categories_sizes":[],"default_left":[0,0,0,1,0,0,0,0,0,0,0,0,0,0,0,0,0,0,0,0,0,0,0,0,0,0,0,0,0,0,0,0,0,0,0,0,0,0,0,0,0,0,0,1,0,0,0,0,0,0,0,0,0,0,0,0,1,0,0,0,0,0,0,0,0,0,0,0,0,0,0,0,0,0,0,0,0,0,0,0,0,0,0,0,0,0,0,0,0,0,0,0,0,0,0,0,0,0,0,0,0,0,0,0,0,0,0,0,0,0,0,0,0,0,0,0,0],"id":8,"left_children":[1,3,5,7,9,11,13,15,17,19,21,23,25,27,29,31,33,35,-1,37,39,41,43,45,47,49,51,53,55,57,59,61,63,65,67,69,71,73,75,77,79,81,83,85,87,89,91,93,95,97,99,101,103,-1,105,-1,107,109,111,113,115,-1,-1,-1,-1,-1,-1,-1,-1,-1,-1,-1,-1,-1,-1,-1,-1,-1,-1,-1,-1,-1,-1,-1,-1,-1,-1,-1,-1,-1,-1,-1,-1,-1,-1,-1,-1,-1,-1,-1,-1,-1,-1,-1,-1,-1,-1,-1,-1,-1,-1,-1,-1,-1,-1,-1,-1],"loss_changes":[3.477461E4,3.6678613E3,2.4228125E2,5.670586E2,7.555692E2,6.1637207E1,6.818652E1,4.6689258E2,8.9569336E1,1.7262488E2,2.6544574E2,7.005322E1,9.507202E0,2.7185059E1,2.981543E1,6.853906E1,3.038164E2,1.0036655E2,0E0,1.5535962E2,6.554851E1,8.414111E1,2.0358253E2,3.1833984E1,4.680664E1,1.3786768E1,6.4346924E0,3.3857685E1,2.6340576E1,2.2766357E1,1.6129883E1,2.8418945E1,8.503955E1,6.423169E1,1.7094266E2,6.558727E1,3.3466537E1,1.0773926E2,1.5260092E2,1.2454155E1,5.150437E1,5.4001465E1,5.256531E1,1.7759964E2,4.5154297E1,3.6211212E1,3.1125153E1,5.035742E1,2.7337646E1,1.4154632E1,3.791481E0,1.2855822E1,4.668091E0,0E0,1.6224129E1,0E0,1.64458E1,1.8825668E1,1.6913574E1,1.3968018E1,3.7373047E0,0E0,0E0,0E0,0E0,0E0,0E0,0E0,0E0,0E0,0E0,0E0,0E0,0E0,0E0,0E0,0E0,0E0,0E0,0E0,0E0,0E0,0E0,0E0,0E0,0E0,0E0,0E0,0E0,0E0,0E0,0E0,0E0,0E0,0E0,0E0,0E0,0E0,0E0,0E0,0E0,0E0,0E0,0E0,0E0,0E0,0E0,0E0,0E0,0E0,0E0,0E0,0E0,0E0,0E0,0E0,0E0],"parents":[2147483647,0,0,1,1,2,2,3,3,4,4,5,5,6,6,7,7,8,8,9,9,10,10,11,11,12,12,13,13,14,14,15,15,16,16,17,17,19,19,20,20,21,21,22,22,23,23,24,24,25,25,26,26,27,27,28,28,29,29,30,30,31,31,32,32,33,33,34,34,35,35,36,36,37,37,38,38,39,39,40,40,41,41,42,42,43,43,44,44,45,45,46,46,47,47,48,48,49,49,50,50,51,51,52,52,54,54,56,56,57,57,58,58,59,59,60,60],"right_children":[2,4,6,8,10,12,14,16,18,20,22,24,26,28,30,32,34,36,-1,38,40,42,44,46,48,50,52,54,56,58,60,62,64,66,68,70,72,74,76,78,80,82,84,86,88,90,92,94,96,98,100,102,104,-1,106,-1,108,110,112,114,116,-1,-1,-1,-1,-1,-1,-1,-1,-1,-1,-1,-1,-1,-1,-1,-1,-1,-1,-1,-1,-1,-1,-1,-1,-1,-1,-1,-1,-1,-1,-1,-1,-1,-1,-1,-1,-1,-1,-1,-1,-1,-1,-1,-1,-1,-1,-1,-1,-1,-1,-1,-1,-1,-1,-1,-1],"split_conditions":[1E0,1.5E1,7E-1,6E-1,1E1,9.7E1,-7E0,1.3E1,4.27E3,2.26E2,5E-1,1.4E1,5E-1,1.9787155E1,4.5E1,1.09E2,2E0,3.48E2,-8.149674E-2,7.3E1,6.9E1,2.5772846E1,1.6926266E1,2.0236685E0,-2.5881904E-1,1.0161E3,2.7E0,2.2E1,2E0,7E0,4.7E-1,-6.4E0,1.0141E3,-5E-1,-7.0710677E-1,1.51E-1,8.092029E0,5.74E2,7.4E0,8E0,4.3E0,2.96E2,7E1,1.2E0,-2.5881904E-1,2.8E0,3E0,2.5E-1,-4.8E1,6.5E1,4.45E1,9.997E2,8.5E1,-9.575994E-2,1.544E4,-2.4110189E-2,3.92E3,2.72E1,-8.660254E-1,5.4E1,1.13E0,3.4366555E-3,-7.3612496E-2,-4.210184E-2,-6.875442E-2,-4.5867257E-2,-6.939005E-2,6.8292976E-3,-3.8406696E-2,2.4040824E-2,-3.197672E-2,-4.4233564E-2,4.5138486E-2,-4.917901E-2,-1.4869376E-2,-5.3043883E-2,-8.2834595E-4,-8.144424E-2,3.8835078E-3,5.3956836E-2,1.0389633E-3,-7.445735E-2,8.9192775E-4,-5.0166078E-2,4.1946758E-2,-2.6434956E-3,4.250991E-2,1.8170066E-2,5.0405152E-2,-5.8672626E-2,2.8945709E-2,4.0014267E-2,-5.2280482E-2,-5.6460137E-3,4.690165E-2,-1.2605925E-2,5.8485843E-2,5.5054765E-2,-4.448355E-2,2.210173E-2,7.1532734E-2,6.878251E-2,-2.8710216E-2,6.0743894E-2,7.182028E-2,-3.7757922E-2,5.3296536E-2,5.8413263E-2,2.1812186E-2,4.8193242E-2,-3.7891474E-2,5.2515503E-2,6.722417E-2,6.6520334E-3,6.742384E-2,7.353465E-2,2.6457652E-2],"split_indices":[67,143,59,107,142,143,63,142,154,149,104,142,104,52,143,149,143,74,0,143,41,52,11,152,0,4,9,142,143,142,145,7,4,1,1,137,11,74,146,13,147,37,40,107,0,147,7,104,63,10,55,4,144,0,153,0,154,9,0,41,15,0,0,0,0,0,0,0,0,0,0,0,0,0,0,0,0,0,0,0,0,0,0,0,0,0,0,0,0,0,0,0,0,0,0,0,0,0,0,0,0,0,0,0,0,0,0,0,0,0,0,0,0,0,0,0,0],"split_type":[0,0,0,0,0,0,0,0,0,0,0,0,0,0,0,0,0,0,0,0,0,0,0,0,0,0,0,0,0,0,0,0,0,0,0,0,0,0,0,0,0,0,0,0,0,0,0,0,0,0,0,0,0,0,0,0,0,0,0,0,0,0,0,0,0,0,0,0,0,0,0,0,0,0,0,0,0,0,0,0,0,0,0,0,0,0,0,0,0,0,0,0,0,0,0,0,0,0,0,0,0,0,0,0,0,0,0,0,0,0,0,0,0,0,0,0,0],"sum_hessian":[2.937535E4,1.6720104E4,1.2655246E4,1.1306538E4,5.4135654E3,4.302512E3,8.352733E3,1.0880482E4,4.2605557E2,2.70202E3,2.7115454E3,3.5931057E3,7.094066E2,9.274117E2,7.425322E3,8.42694E3,2.4535415E3,3.9030005E2,3.5755535E1,2.457152E3,2.4486789E2,2.3913736E2,2.4724082E3,6.930055E2,2.9001003E3,3.860655E1,6.7080005E2,3.087725E1,8.965344E2,2.3229404E3,5.1023813E3,6.8694097E3,1.5575309E3,1.3785271E3,1.0750144E3,2.662159E2,1.2408413E2,1.7742533E3,6.8289874E2,2.6253813E1,2.1861407E2,1.7676852E2,6.2368828E1,1.9896605E3,4.8274765E2,4.887911E1,6.4412634E2,9.2573663E2,1.9743638E3,1.2641849E1,2.59647E1,1.19149885E1,6.588851E2,5.35617E0,2.552108E1,9.514307E0,8.870201E2,1.4678847E2,2.1761519E3,1.6896884E3,3.412693E3,1.1777741E1,6.8576323E3,4.1600464E2,1.1415262E3,4.3492416E2,9.43603E2,2.8288602E2,7.9212836E2,7.018417E1,1.9603174E2,1.0682197E1,1.1340193E2,1.5025646E3,2.716888E2,1.9538765E2,4.875111E2,2.1203394E1,5.050419E0,6.472101E1,1.5389307E2,1.4868239E2,2.8086143E1,2.4933558E1,3.743527E1,1.741805E3,2.478554E2,1.6935582E2,3.1339185E2,1.7559458E1,3.1319649E1,6.357244E2,8.401951E0,4.7695297E1,8.780413E2,1.3174774E1,1.961189E3,5.1680474E0,7.4738016E0,6.6443925E0,1.9320309E1,6.7952924E0,5.119696E0,1.9781625E2,4.6106882E2,5.5257807E0,1.99953E1,8.531063E2,3.3913776E1,1.4091438E2,5.8740816E0,2.4518248E2,1.9309694E3,9.924542E0,1.6797638E3,3.4066975E3,5.995489E0],"tree_param":{"num_deleted":"0","num_feature":"155","num_nodes":"117","size_leaf_vector":"1"}},{"base_weights":[-3.7968752E-3,-9.100157E-1,1.2097319E0,-1.2388E0,-2.63124E-1,7.721144E-1,1.3109435E0,-1.3093233E0,-4.3792748E-1,-5.815292E-1,1.6640861E-1,3.9712617E-1,8.4200835E-1,1.1651504E0,1.3733422E0,-1.3817053E0,-9.3648785E-1,-6.073097E-1,5.8292395E-1,-6.685366E-1,4.319738E-1,-7.7684915E-1,2.508943E-1,5.035385E-1,-9.5793873E-1,-1.1680589E0,8.5566294E-1,1.1714834E0,-6.1356395E-1,1.2595674E0,1.4125082E0,-1.4026295E0,-6.2747574E-1,-6.8445295E-1,-1.2288516E0,-1.1040605E0,-1.8910147E-1,7.883963E-1,-1.0545797E0,-1.0779321E0,-4.8136672E-1,1.5077999E-1,1.0115987E0,-1.2144547E0,2.610654E-1,-1.22540526E-1,4.3675098E-1,2.4247515E-1,8.5637355E-1,-1.4978911E0,5.4171193E-2,-7.881329E-3,-8.727452E-2,9.2364985E-1,4.8851785E-1,1.0340374E0,1.2453309E0,4.3069232E-2,-1.0255865E-1,-3.294398E-2,1.2663751E0,1.4274706E0,1.2601582E0,-7.195534E-2,-5.8766525E-2,-4.6791837E-2,2.5053728E-2,-5.0694954E-2,-2.0677244E-2,-6.52334E-2,2.7313009E-2,-6.8908624E-2,-3.3347394E-2,-5.081993E-2,2.473072E-3,4.6396997E-2,-3.613254E-2,4.862964E-3,-8.479913E-2,-6.630495E-2,-3.164464E-2,-4.993848E-2,-1.667292E-2,-8.135558E-2,1.3728154E-2,1.4449057E-2,6.9513544E-2,-6.9644704E-2,5.6909355E-3,-7.889022E-2,2.842537E-2,-1.0286989E-2,6.920013E-2,-4.5823626E-2,2.4994668E-2,-1.432135E-2,3.558277E-2,-2.6268248E-2,4.8475474E-2,-5.29577E-3,-9.5515065E-2,4.063707E-2,5.455141E-2,-9.6425794E-2,2.7249454E-2,5.286798E-2,-7.956768E-3,1.0787275E-2,6.2612735E-2,4.0503666E-2,6.422635E-2,7.2109915E-2,6.672552E-2,2.4798239E-2,6.436771E-2],"categories":[],"categories_nodes":[],"categories_segments":[],"categories_sizes":[],"default_left":[0,0,0,0,0,0,0,0,1,1,0,0,0,1,0,1,0,0,0,0,0,0,0,0,0,0,0,0,0,0,1,0,0,0,0,0,0,0,0,0,0,0,0,0,0,1,0,0,0,0,0,0,0,0,0,1,0,0,0,0,0,0,0,0,0,0,0,0,0,0,0,0,0,0,0,0,0,0,0,0,0,0,0,0,0,0,0,0,0,0,0,0,0,0,0,0,0,0,0,0,0,0,0,0,0,0,0,0,0,0,0,0,0,0,0],"id":9,"left_children":[1,3,5,7,9,11,13,15,17,19,21,23,25,27,29,31,33,35,37,39,41,43,45,47,49,51,53,55,57,59,61,63,65,67,69,71,73,75,77,79,81,83,85,87,89,91,93,95,97,99,-1,-1,-1,101,103,105,107,-1,-1,-1,109,111,113,-1,-1,-1,-1,-1,-1,-1,-1,-1,-1,-1,-1,-1,-1,-1,-1,-1,-1,-1,-1,-1,-1,-1,-1,-1,-1,-1,-1,-1,-1,-1,-1,-1,-1,-1,-1,-1,-1,-1,-1,-1,-1,-1,-1,-1,-1,-1,-1,-1,-1,-1,-1],"loss_changes":[3.1645537E4,3.5033262E3,5.436621E2,6.1613477E2,7.5956506E2,6.0174316E1,8.902539E1,2.6935547E2,1.5348247E2,2.815481E2,1.8857498E2,5.314993E1,5.4456543E1,3.4581055E1,2.9098633E1,1.3153613E2,1.19458984E2,1.5757141E2,4.3350574E1,2.2442236E2,4.0911835E1,8.876377E1,1.5076369E2,3.0970474E1,3.1307365E1,7.4243755E0,4.7739746E1,2.8842285E1,2.5735382E1,2.4401123E1,9.764648E0,6.583301E1,8.0126366E1,7.803229E1,1.02478516E2,4.0466827E1,8.18543E1,2.4513535E1,1.1016201E1,1.006488E2,1.5396057E2,3.803619E1,2.1934845E1,3.2775696E1,3.383832E1,9.066975E1,1.2430899E2,4.9078117E1,2.304718E1,1.2068459E1,0E0,0E0,0E0,2.922644E1,4.252767E1,2.9523804E1,1.3413818E1,0E0,0E0,0E0,1.360791E1,4.258789E0,9.020203E0,0E0,0E0,0E0,0E0,0E0,0E0,0E0,0E0,0E0,0E0,0E0,0E0,0E0,0E0,0E0,0E0,0E0,0E0,0E0,0E0,0E0,0E0,0E0,0E0,0E0,0E0,0E0,0E0,0E0,0E0,0E0,0E0,0E0,0E0,0E0,0E0,0E0,0E0,0E0,0E0,0E0,0E0,0E0,0E0,0E0,0E0,0E0,0E0,0E0,0E0,0E0,0E0],"parents":[2147483647,0,0,1,1,2,2,3,3,4,4,5,5,6,6,7,7,8,8,9,9,10,10,11,11,12,12,13,13,14,14,15,15,16,16,17,17,18,18,19,19,20,20,21,21,22,22,23,23,24,24,25,25,26,26,27,27,28,28,29,29,30,30,31,31,32,32,33,33,34,34,35,35,36,36,37,37,38,38,39,39,40,40,41,41,42,42,43,43,44,44,45,45,46,46,47,47,48,48,49,49,53,53,54,54,55,55,56,56,60,60,61,61,62,62],"right_children":[2,4,6,8,10,12,14,16,18,20,22,24,26,28,30,32,34,36,38,40,42,44,46,48,50,52,54,56,58,60,62,64,66,68,70,72,74,76,78,80,82,84,86,88,90,92,94,96,98,100,-1,-1,-1,102,104,106,108,-1,-1,-1,110,112,114,-1,-1,-1,-1,-1,-1,-1,-1,-1,-1,-1,-1,-1,-1,-1,-1,-1,-1,-1,-1,-1,-1,-1,-1,-1,-1,-1,-1,-1,-1,-1,-1,-1,-1,-1,-1,-1,-1,-1,-1,-1,-1,-1,-1,-1,-1,-1,-1,-1,-1,-1,-1],"split_conditions":[1E-1,1.4E1,2E-1,3E-1,1.6E1,8E0,4E-1,2.2E1,1E0,6.666667E-1,5E-1,9.89011E-2,2.2E1,1.54E2,9.6E1,3E-1,1.0193E3,1.4E1,3.6E0,2.7E1,1.8E0,1.5112989E1,4E0,9.5E1,2.36E2,-7.0978284E-1,1.0205E3,-2.5881904E-1,2.375587E1,1.8E1,2.6E1,5.7E2,1.43E2,1E0,7.5E0,1.99E1,1E1,5.345906E1,2.9411765E-2,1.11E2,7.5E0,1.4827869E1,1.0143E3,9.5E1,-1E0,-1.1E1,7.2E0,1.15E2,8.3E1,1.4E1,5.4171193E-2,-7.881329E-3,-8.727452E-2,8E-2,-2.8E1,5.5E0,-1.2E1,4.3069232E-2,-1.0255865E-1,-3.294398E-2,-5.2E-1,3.3E-1,3.3333334E-1,-7.195534E-2,-5.8766525E-2,-4.6791837E-2,2.5053728E-2,-5.0694954E-2,-2.0677244E-2,-6.52334E-2,2.7313009E-2,-6.8908624E-2,-3.3347394E-2,-5.081993E-2,2.473072E-3,4.6396997E-2,-3.613254E-2,4.862964E-3,-8.479913E-2,-6.630495E-2,-3.164464E-2,-4.993848E-2,-1.667292E-2,-8.135558E-2,1.3728154E-2,1.4449057E-2,6.9513544E-2,-6.9644704E-2,5.6909355E-3,-7.889022E-2,2.842537E-2,-1.0286989E-2,6.920013E-2,-4.5823626E-2,2.4994668E-2,-1.432135E-2,3.558277E-2,-2.6268248E-2,4.8475474E-2,-5.29577E-3,-9.5515065E-2,4.063707E-2,5.455141E-2,-9.6425794E-2,2.7249454E-2,5.286798E-2,-7.956768E-3,1.0787275E-2,6.2612735E-2,4.0503666E-2,6.422635E-2,7.2109915E-2,6.672552E-2,2.4798239E-2,6.436771E-2],"split_indices":[58,143,58,60,142,142,58,142,107,104,104,145,62,57,62,107,4,142,60,143,20,11,144,144,149,19,4,0,51,62,46,74,149,143,21,9,73,47,145,149,146,52,4,33,63,39,9,148,41,62,0,0,0,16,63,42,13,0,0,0,16,15,104,0,0,0,0,0,0,0,0,0,0,0,0,0,0,0,0,0,0,0,0,0,0,0,0,0,0,0,0,0,0,0,0,0,0,0,0,0,0,0,0,0,0,0,0,0,0,0,0,0,0,0,0],"split_type":[0,0,0,0,0,0,0,0,0,0,0,0,0,0,0,0,0,0,0,0,0,0,0,0,0,0,0,0,0,0,0,0,0,0,0,0,0,0,0,0,0,0,0,0,0,0,0,0,0,0,0,0,0,0,0,0,0,0,0,0,0,0,0,0,0,0,0,0,0,0,0,0,0,0,0,0,0,0,0,0,0,0,0,0,0,0,0,0,0,0,0,0,0,0,0,0,0,0,0,0,0,0,0,0,0,0,0,0,0,0,0,0,0,0,0],"sum_hessian":[2.8773953E4,1.6472916E4,1.2301037E4,1.0921146E4,5.55177E3,2.312386E3,9.988651E3,1.0036585E4,8.845615E2,3.1882522E3,2.3635178E3,3.6456595E2,1.94782E3,3.000148E3,6.9885034E3,8.402378E3,1.6342073E3,7.59111E2,1.2545052E2,2.93659E3,2.5166197E2,1.9352213E2,2.1699956E3,3.3867242E2,2.5893518E1,1.2522582E1,1.9352974E3,2.9899001E3,1.024767E1,1.7988063E3,5.1896973E3,8.1746025E3,2.2777516E2,8.7961224E2,7.545951E2,3.461145E2,4.129965E2,1.119791E2,1.347142E1,9.1968207E2,2.0169081E3,1.7041911E2,8.124287E1,1.3607602E2,5.744611E1,7.210399E2,1.4489558E3,1.957829E2,1.4288953E2,2.0726465E1,5.167054E0,5.0797753E0,7.442807E0,1.6314094E3,3.0388806E2,1.0506936E3,1.9392065E3,5.221654E0,5.026016E0,5.969973E0,1.7928363E3,4.7173784E3,4.7231848E2,7.0391733E3,1.1354288E3,1.7909834E2,4.867681E1,3.9551828E2,4.8409393E2,7.239941E2,3.0600994E1,2.1125534E2,1.3485916E2,9.180175E1,3.2119473E2,1.0292606E2,9.0530405E0,5.066104E0,8.405316E0,5.890218E2,3.3066022E2,4.469587E2,1.5699493E3,1.0249742E1,1.6016937E2,2.8631937E1,5.2610928E1,1.1998407E2,1.6091948E1,7.590222E0,4.9855885E1,6.8418536E2,3.6854504E1,6.3922142E1,1.3850337E3,9.211686E1,1.0366604E2,1.0471588E1,1.3241794E2,5.0799184E0,1.5646546E1,9.851084E2,6.4630096E2,6.1406274E0,2.977474E2,1.030744E3,1.9949663E1,1.3264657E1,1.9259419E3,7.054785E1,1.7222885E3,4.0587583E3,6.5862036E2,1.7018642E1,4.5529984E2],"tree_param":{"num_deleted":"0","num_feature":"155","num_nodes":"115","size_leaf_vector":"1"}},{"base_weights":[1.3803644E-3,-8.7849206E-1,1.1803938E0,-1.2843968E0,-3.590728E-1,1.0118243E0,1.3553877E0,-1.3185554E0,-4.5765227E-1,-8.0816734E-1,-2.7232265E-2,8.5574925E-1,1.1032432E0,-2.2944148E-1,1.358908E0,-1.3719342E0,-1.0268642E0,-9.441443E-1,-4.4972263E-2,-1.0048062E0,-4.1061217E-1,3.494101E-1,-2.4282125E-1,9.937938E-1,5.241854E-1,6.793538E-1,1.1433139E0,5.183818E-2,-5.455802E-2,1.2956657E0,1.4066088E0,-1.4133474E0,-1.176487E0,-1.2185725E0,-6.932264E-1,-1.1528914E0,4.5168748E-1,-1.0976884E0,2.2138067E-1,-5.747894E-1,-1.1797228E0,-8.7294024E-1,7.306341E-2,4.187997E-1,-1.4903105E0,-3.8305873E-1,4.8761532E-1,6.244734E-1,1.0544302E0,5.6726974E-1,-1.5164342E0,-5.7130676E-2,7.273403E-1,8.366226E-1,1.1708716E0,8.9570636E-1,1.3158559E0,1.8886333E-2,1.4082098E0,-3.717768E-2,-7.089206E-2,-5.9510123E-2,9.2569165E-2,-6.380843E-2,-1.6382953E-2,-4.4241384E-2,4.019237E-3,2.9726217E-2,-6.873128E-2,9.3223326E-2,-4.1742686E-2,-1.255593E-2,-7.78137E-2,-4.0139936E-2,2.8460601E-2,-3.472164E-2,3.6178667E-2,-3.0489653E-2,-6.293271E-2,-7.000602E-2,-3.5538923E-2,8.5209146E-2,-2.4066456E-3,1.1168445E-2,3.889432E-2,-8.186123E-2,-1.0572257E-3,-5.204118E-2,-1.0106313E-2,-1.97357E-3,3.71107E-2,3.656752E-2,-6.1974347E-2,2.5255743E-2,5.4647334E-2,-4.184989E-2,3.0242333E-2,-2.117519E-2,-1.0435269E-1,-2.7387997E-2,3.9496467E-2,-2.6559697E-3,4.661925E-2,5.093364E-2,6.1752778E-2,5.1027298E-2,1.9914968E-2,6.613649E-2,2.1601144E-2,7.0489205E-2,2.0266455E-2],"categories":[],"categories_nodes":[],"categories_segments":[],"categories_sizes":[],"default_left":[0,0,0,1,0,0,0,0,0,0,0,0,0,0,0,0,0,0,0,0,0,0,0,0,1,0,0,0,0,0,0,0,0,0,0,0,0,0,0,1,0,0,0,0,0,0,0,0,0,0,0,0,0,0,0,0,1,0,0,0,0,0,0,0,0,0,0,0,0,0,0,0,0,0,0,0,0,0,0,0,0,0,0,0,0,0,0,0,0,0,0,0,0,0,0,0,0,0,0,0,0,0,0,0,0,0,0,0,0,0,0],"id":10,"left_children":[1,3,5,7,9,11,13,15,17,19,21,23,25,27,29,31,33,35,37,39,41,43,45,47,49,51,53,-1,-1,55,57,59,61,63,65,67,69,71,73,75,77,79,81,83,85,87,89,91,93,95,97,-1,99,101,103,105,107,-1,109,-1,-1,-1,-1,-1,-1,-1,-1,-1,-1,-1,-1,-1,-1,-1,-1,-1,-1,-1,-1,-1,-1,-1,-1,-1,-1,-1,-1,-1,-1,-1,-1,-1,-1,-1,-1,-1,-1,-1,-1,-1,-1,-1,-1,-1,-1,-1,-1,-1,-1,-1,-1],"loss_changes":[2.934755E4,3.4149219E3,3.5502734E2,2.5601562E2,1.0591653E3,8.678418E1,3.350293E1,1.3430664E2,7.262547E1,2.35547E2,3.320771E2,1.03732056E2,6.4981445E1,1.6338991E1,1.5751953E1,5.779492E1,8.563037E1,4.9013382E1,5.564148E1,1.5107227E2,2.2405896E2,1.9055396E2,2.6661505E2,3.521045E1,5.9922256E1,3.033818E1,2.8782715E1,0E0,0E0,1.9249512E1,4.8237305E0,1.7035156E1,5.5973267E1,4.3500366E1,7.381462E1,5.7042267E1,4.214844E1,1.4986778E1,5.678588E1,9.15524E1,6.3585205E1,4.2576538E1,9.7150444E1,1.0045572E2,1.1514145E1,2.5944135E2,5.6364037E1,4.660086E1,2.8497437E1,3.5295303E1,7.681465E0,0E0,2.6790207E1,2.536557E1,3.0265625E1,7.2912903E0,1.4026855E1,0E0,4.541504E0,0E0,0E0,0E0,0E0,0E0,0E0,0E0,0E0,0E0,0E0,0E0,0E0,0E0,0E0,0E0,0E0,0E0,0E0,0E0,0E0,0E0,0E0,0E0,0E0,0E0,0E0,0E0,0E0,0E0,0E0,0E0,0E0,0E0,0E0,0E0,0E0,0E0,0E0,0E0,0E0,0E0,0E0,0E0,0E0,0E0,0E0,0E0,0E0,0E0,0E0,0E0,0E0],"parents":[2147483647,0,0,1,1,2,2,3,3,4,4,5,5,6,6,7,7,8,8,9,9,10,10,11,11,12,12,13,13,14,14,15,15,16,16,17,17,18,18,19,19,20,20,21,21,22,22,23,23,24,24,25,25,26,26,29,29,30,30,31,31,32,32,33,33,34,34,35,35,36,36,37,37,38,38,39,39,40,40,41,41,42,42,43,43,44,44,45,45,46,46,47,47,48,48,49,49,50,50,52,52,53,53,54,54,55,55,56,56,58,58],"right_children":[2,4,6,8,10,12,14,16,18,20,22,24,26,28,30,32,34,36,38,40,42,44,46,48,50,52,54,-1,-1,56,58,60,62,64,66,68,70,72,74,76,78,80,82,84,86,88,90,92,94,96,98,-1,100,102,104,106,108,-1,110,-1,-1,-1,-1,-1,-1,-1,-1,-1,-1,-1,-1,-1,-1,-1,-1,-1,-1,-1,-1,-1,-1,-1,-1,-1,-1,-1,-1,-1,-1,-1,-1,-1,-1,-1,-1,-1,-1,-1,-1,-1,-1,-1,-1,-1,-1,-1,-1,-1,-1,-1,-1],"split_conditions":[5.1E1,6E0,5.3E1,3.3333334E-1,5E0,9.1E1,2.6E1,2.3E1,-1.7669289E0,4.9E1,-5E-1,-2.5881904E-1,6.666667E-1,1.009E3,6.9E1,1.09E2,1E0,9.4E1,1.56E-1,-5E-1,1.14E1,1.0249E3,9.9E-1,8E0,1.4E1,-3.1E0,2E0,5.183818E-2,-5.455802E-2,2E0,5.7E1,9.985E2,4.7E0,1.1172717E1,3.6E0,-6E-1,9.8E1,-1.2E1,-7E0,6E-1,-2E0,8.2E1,1.4512196E0,1.5467355E1,4.3E1,4.3E1,2.1E1,1.594203E-1,4.1E1,6E-2,3.0769232E-1,-5.7130676E-2,1.08E-1,2.0175438E0,2.9E1,8E0,1.38E2,1.8886333E-2,8.942009E0,-3.717768E-2,-7.089206E-2,-5.9510123E-2,9.2569165E-2,-6.380843E-2,-1.6382953E-2,-4.4241384E-2,4.019237E-3,2.9726217E-2,-6.873128E-2,9.3223326E-2,-4.1742686E-2,-1.255593E-2,-7.78137E-2,-4.0139936E-2,2.8460601E-2,-3.472164E-2,3.6178667E-2,-3.0489653E-2,-6.293271E-2,-7.000602E-2,-3.5538923E-2,8.5209146E-2,-2.4066456E-3,1.1168445E-2,3.889432E-2,-8.186123E-2,-1.0572257E-3,-5.204118E-2,-1.0106313E-2,-1.97357E-3,3.71107E-2,3.656752E-2,-6.1974347E-2,2.5255743E-2,5.4647334E-2,-4.184989E-2,3.0242333E-2,-2.117519E-2,-1.0435269E-1,-2.7387997E-2,3.9496467E-2,-2.6559697E-3,4.661925E-2,5.093364E-2,6.1752778E-2,5.1027298E-2,1.9914968E-2,6.613649E-2,2.1601144E-2,7.0489205E-2,2.0266455E-2],"split_indices":[66,143,66,104,142,62,62,142,19,143,1,1,104,4,143,149,143,142,138,1,146,4,145,142,38,7,142,0,0,142,40,4,7,19,21,5,142,64,64,107,7,41,152,11,64,62,143,145,41,15,145,0,137,152,143,14,57,0,12,0,0,0,0,0,0,0,0,0,0,0,0,0,0,0,0,0,0,0,0,0,0,0,0,0,0,0,0,0,0,0,0,0,0,0,0,0,0,0,0,0,0,0,0,0,0,0,0,0,0,0,0],"split_type":[0,0,0,0,0,0,0,0,0,0,0,0,0,0,0,0,0,0,0,0,0,0,0,0,0,0,0,0,0,0,0,0,0,0,0,0,0,0,0,0,0,0,0,0,0,0,0,0,0,0,0,0,0,0,0,0,0,0,0,0,0,0,0,0,0,0,0,0,0,0,0,0,0,0,0,0,0,0,0,0,0,0,0,0,0,0,0,0,0,0,0,0,0,0,0,0,0,0,0,0,0,0,0,0,0,0,0,0,0,0,0],"sum_hessian":[2.8288002E4,1.6199118E4,1.2088885E4,9.092242E3,7.106876E3,6.161215E3,5.92767E3,8.730796E3,3.614469E2,3.019167E3,4.087709E3,2.2800503E3,3.8811643E3,1.29328165E1,5.914737E3,7.3768105E3,1.3539849E3,1.6518578E2,1.9626111E2,2.0188323E3,1.00033466E3,1.4876471E3,2.600062E3,1.608191E3,6.718593E2,3.3696948E2,3.5441948E3,5.107987E0,7.8248296E0,2.5560925E3,3.3586445E3,6.08147E3,1.2953402E3,8.5801654E2,4.9596838E2,1.4390973E2,2.1276052E1,3.9075577E1,1.5718553E2,5.851502E2,1.4336821E3,5.111483E2,4.8918634E2,1.4343729E3,5.3274216E1,2.1817898E3,4.1827225E2,2.2862784E2,1.3795631E3,6.587225E2,1.3136828E1,8.008414E0,3.2896106E2,2.9509103E2,3.2491038E3,1.2525025E2,2.4308423E3,5.6829967E0,3.3529614E3,4.1786938E1,6.0396836E3,1.2901361E3,5.2040777E0,8.0540375E2,5.26128E1,3.9750363E2,9.846473E1,1.5964717E1,1.27945015E2,9.963469E0,1.1312584E1,1.4350165E1,2.472541E1,3.944509E1,1.1774044E2,5.3627496E2,4.8875244E1,1.756172E2,1.258065E3,1.18302345E2,3.9284595E2,3.2987545E1,4.561988E2,9.300819E2,5.0429095E2,4.8265312E1,5.008906E0,4.695338E2,1.712256E3,1.3638057E2,2.818917E2,2.1685497E2,1.1772883E1,9.148773E1,1.2880754E3,1.6543625E1,6.4217883E2,5.1638093E0,7.9730196E0,1.4954287E1,3.1400677E2,2.8616085E1,2.6647495E2,9.692243E2,2.2798796E3,9.912021E1,2.6130041E1,2.4114778E3,1.9364475E1,3.347202E3,5.759722E0],"tree_param":{"num_deleted":"0","num_feature":"155","num_nodes":"111","size_leaf_vector":"1"}},{"base_weights":[3.5954313E-3,-8.518988E-1,1.144685E0,-1.218764E0,-3.015327E-1,7.279424E-1,1.2443259E0,-1.2678293E0,-4.4400245E-1,-6.644089E-1,-3.5457805E-2,5.881413E-1,9.263203E-1,1.0450587E0,1.2888516E0,-1.3411933E0,-8.920381E-1,-1.0042375E0,-1.2592334E-1,-1.053215E0,-4.6811542E-1,-1.162154E-1,8.460127E-1,7.5253546E-1,3.291228E-1,5.7647043E-1,1.0161939E0,3.9792067E-1,1.0769676E0,1.1487393E0,1.3294234E0,-1.3510784E0,-5.89056E-1,-1.169477E0,-5.433366E-1,-1.6668302E-1,-1.3032039E0,-1.0503359E0,6.9066666E-2,-1.1490597E0,1.7028554E-1,-1.1362373E0,-3.1630594E-1,2.2718638E-1,-3.123944E-1,-4.057775E-2,8.9385164E-1,7.751149E-1,-1.0387055E-1,-2.3377715E-1,5.9589547E-1,-5.3159434E-1,6.844258E-1,1.036193E0,-2.1003509E-1,-5.9841204E-2,6.082545E-1,8.548946E-1,1.1215171E0,9.5508915E-1,1.2665681E0,1.2734418E0,1.3811313E0,-6.8894595E-2,-5.9009023E-2,-5.4730933E-2,1.9372439E-2,-6.078405E-2,5.8396705E-3,-3.7779767E-2,1.2298125E-2,4.0256303E-2,-4.7031607E-2,-7.375738E-2,-2.4458267E-2,3.1591076E-3,-7.97325E-2,1.0161126E-2,-7.7132575E-2,-5.8808666E-2,2.357394E-2,-5.6877162E-2,3.182331E-2,1.9106943E-2,-5.9248965E-2,-2.5837824E-2,7.900253E-3,1.8244864E-2,-3.345355E-2,-2.2855723E-2,2.1906847E-2,6.8046115E-2,3.8103484E-2,-5.638969E-2,3.973932E-2,-2.9914785E-2,2.5630007E-2,3.7516706E-2,-2.8964977E-3,-6.378602E-2,5.3889245E-2,5.0608455E-3,4.5318212E-2,4.8672255E-2,6.789152E-2,4.315334E-2,-5.317048E-2,4.2277202E-2,-2.0778097E-2,-3.3268955E-2,4.541761E-2,5.759826E-2,2.8909681E-2,4.9240675E-2,-1.4189817E-2,3.3493992E-2,6.434244E-2,6.381672E-2,-2.4831024E-4,6.9130115E-2,1.9982208E-2],"categories":[],"categories_nodes":[],"categories_segments":[],"categories_sizes":[],"default_left":[0,0,0,1,0,0,0,0,0,0,1,0,0,0,0,0,0,0,0,1,0,0,0,0,0,0,1,0,0,0,0,0,0,0,0,0,0,0,0,0,0,0,0,0,0,0,0,0,0,0,1,0,0,1,0,0,0,0,0,1,0,0,1,0,0,0,0,0,0,0,0,0,0,0,0,0,0,0,0,0,0,0,0,0,0,0,0,0,0,0,0,0,0,0,0,0,0,0,0,0,0,0,0,0,0,0,0,0,0,0,0,0,0,0,0,0,0,0,0,0,0],"id":11,"left_children":[1,3,5,7,9,11,13,15,17,19,21,23,25,27,29,31,33,35,37,39,41,43,45,47,49,51,53,55,57,59,61,63,65,67,69,71,73,75,77,79,81,83,85,87,89,-1,91,93,-1,95,97,99,101,103,105,-1,107,109,111,113,115,117,119,-1,-1,-1,-1,-1,-1,-1,-1,-1,-1,-1,-1,-1,-1,-1,-1,-1,-1,-1,-1,-1,-1,-1,-1,-1,-1,-1,-1,-1,-1,-1,-1,-1,-1,-1,-1,-1,-1,-1,-1,-1,-1,-1,-1,-1,-1,-1,-1,-1,-1,-1,-1,-1,-1,-1,-1,-1,-1],"loss_changes":[2.7113156E4,3.2045078E3,4.930713E2,3.613164E2,6.130498E2,6.306189E1,8.361914E1,2.455E2,1.0113764E2,2.0437231E2,2.609268E2,5.719763E1,2.9072815E1,3.5757202E1,4.2816406E1,5.470703E1,1.410293E2,5.116014E1,6.580562E1,1.05861206E2,1.8075E2,2.2633401E2,2.5126755E1,5.4249023E1,7.928209E1,2.3868782E1,1.876587E1,2.8984194E1,1.5425781E1,3.8939453E1,1.5564453E1,3.1996094E1,4.9409386E1,4.8714966E1,1.0941133E2,4.241085E1,2.0273956E1,3.8789543E1,6.538136E1,3.7316162E1,4.103121E1,2.4982727E1,1.3870767E2,1.5097136E2,2.3242723E2,0E0,1.7186829E1,3.156012E1,0E0,4.6562122E1,3.6242928E1,2.2847673E1,2.3035263E1,1.3402954E1,1.2691383E1,0E0,1.8687037E1,2.3761429E1,2.21969E1,2.5158447E1,1.22126465E1,1.0972656E1,3.8110352E0,0E0,0E0,0E0,0E0,0E0,0E0,0E0,0E0,0E0,0E0,0E0,0E0,0E0,0E0,0E0,0E0,0E0,0E0,0E0,0E0,0E0,0E0,0E0,0E0,0E0,0E0,0E0,0E0,0E0,0E0,0E0,0E0,0E0,0E0,0E0,0E0,0E0,0E0,0E0,0E0,0E0,0E0,0E0,0E0,0E0,0E0,0E0,0E0,0E0,0E0,0E0,0E0,0E0,0E0,0E0,0E0,0E0,0E0],"parents":[2147483647,0,0,1,1,2,2,3,3,4,4,5,5,6,6,7,7,8,8,9,9,10,10,11,11,12,12,13,13,14,14,15,15,16,16,17,17,18,18,19,19,20,20,21,21,22,22,23,23,24,24,25,25,26,26,27,27,28,28,29,29,30,30,31,31,32,32,33,33,34,34,35,35,36,36,37,37,38,38,39,39,40,40,41,41,42,42,43,43,44,44,46,46,47,47,49,49,50,50,51,51,52,52,53,53,54,54,56,56,57,57,58,58,59,59,60,60,61,61,62,62],"right_children":[2,4,6,8,10,12,14,16,18,20,22,24,26,28,30,32,34,36,38,40,42,44,46,48,50,52,54,56,58,60,62,64,66,68,70,72,74,76,78,80,82,84,86,88,90,-1,92,94,-1,96,98,100,102,104,106,-1,108,110,112,114,116,118,120,-1,-1,-1,-1,-1,-1,-1,-1,-1,-1,-1,-1,-1,-1,-1,-1,-1,-1,-1,-1,-1,-1,-1,-1,-1,-1,-1,-1,-1,-1,-1,-1,-1,-1,-1,-1,-1,-1,-1,-1,-1,-1,-1,-1,-1,-1,-1,-1,-1,-1,-1,-1,-1,-1,-1,-1,-1,-1],"split_conditions":[5.1E1,9E0,2E-1,1E-1,5E0,4.4E1,3E-1,2.3E1,2E0,2.3E1,1.7E0,-2.5881904E-1,6.818182E-2,4E-1,2.3E1,2E-1,1E0,-5.2E0,-2.3E1,6E-1,4.4624047E0,-5E-1,1.7704918E0,1.0274E3,1E0,5E0,5.61E1,-8E0,-5E0,5.8E1,6.8E1,5.7E2,6.545454E-1,8E0,1E-1,1.0131E3,8E-1,-3.9E1,1.0227E3,1.3E0,2.4015097E1,5.8075733E0,8E1,1.0209E3,9.9E-1,-4.057775E-2,1.62E-1,-8.1E0,-1.0387055E-1,3E-2,6.92E1,9.72973E-1,2.4E-1,2.2E0,1.51E1,-5.9841204E-2,6.066667E-1,6.201579E0,1.59E1,3.06E2,5E-1,6.1E0,3.44E2,-6.8894595E-2,-5.9009023E-2,-5.4730933E-2,1.9372439E-2,-6.078405E-2,5.8396705E-3,-3.7779767E-2,1.2298125E-2,4.0256303E-2,-4.7031607E-2,-7.375738E-2,-2.4458267E-2,3.1591076E-3,-7.97325E-2,1.0161126E-2,-7.7132575E-2,-5.8808666E-2,2.357394E-2,-5.6877162E-2,3.182331E-2,1.9106943E-2,-5.9248965E-2,-2.5837824E-2,7.900253E-3,1.8244864E-2,-3.345355E-2,-2.2855723E-2,2.1906847E-2,6.8046115E-2,3.8103484E-2,-5.638969E-2,3.973932E-2,-2.9914785E-2,2.5630007E-2,3.7516706E-2,-2.8964977E-3,-6.378602E-2,5.3889245E-2,5.0608455E-3,4.5318212E-2,4.8672255E-2,6.789152E-2,4.315334E-2,-5.317048E-2,4.2277202E-2,-2.0778097E-2,-3.3268955E-2,4.541761E-2,5.759826E-2,2.8909681E-2,4.9240675E-2,-1.4189817E-2,3.3493992E-2,6.434244E-2,6.381672E-2,-2.4831024E-4,6.9130115E-2,1.9982208E-2],"split_indices":[66,143,58,107,142,143,58,142,142,143,107,1,145,107,142,59,143,53,64,107,11,1,152,4,65,144,36,64,63,143,143,74,145,21,59,4,8,63,4,59,52,52,143,4,145,0,138,42,0,16,43,150,15,107,17,0,135,11,17,44,107,147,44,0,0,0,0,0,0,0,0,0,0,0,0,0,0,0,0,0,0,0,0,0,0,0,0,0,0,0,0,0,0,0,0,0,0,0,0,0,0,0,0,0,0,0,0,0,0,0,0,0,0,0,0,0,0,0,0,0,0],"split_type":[0,0,0,0,0,0,0,0,0,0,0,0,0,0,0,0,0,0,0,0,0,0,0,0,0,0,0,0,0,0,0,0,0,0,0,0,0,0,0,0,0,0,0,0,0,0,0,0,0,0,0,0,0,0,0,0,0,0,0,0,0,0,0,0,0,0,0,0,0,0,0,0,0,0,0,0,0,0,0,0,0,0,0,0,0,0,0,0,0,0,0,0,0,0,0,0,0,0,0,0,0,0,0,0,0,0,0,0,0,0,0,0,0,0,0,0,0,0,0,0,0],"sum_hessian":[2.7772281E4,1.5872536E4,1.1899744E4,9.523157E3,6.3493794E3,2.29796E3,9.601784E3,8.955259E3,5.678981E2,2.6852834E3,3.664096E3,1.350619E3,9.4734094E2,1.7585284E3,7.843256E3,7.490154E3,1.4651052E3,2.0476768E2,3.631304E2,8.9924304E2,1.7860404E3,3.3574758E3,3.0661996E2,8.2482605E2,5.2579297E2,1.9536653E2,7.519744E2,8.34146E1,1.6751139E3,1.7683032E3,6.0749526E3,7.392073E3,9.808063E1,8.144557E2,6.506495E2,5.436268E1,1.5040501E2,6.2579315E1,3.0055106E2,8.3404926E2,6.519378E1,3.2936105E2,1.4566793E3,1.2204572E3,2.1370188E3,8.094637E0,2.9852533E2,8.190525E2,5.773567E0,1.6898256E2,3.5681042E2,1.6913553E1,1.7845299E2,7.4013965E2,1.1834786E1,9.117841E0,7.429675E1,2.8364E2,1.3914739E3,6.726933E2,1.09561E3,2.930164E3,3.1447886E3,6.382956E3,1.0091173E3,6.461115E1,3.3469475E1,7.863422E2,2.811345E1,5.128917E2,1.3775775E2,2.4025532E1,3.0337147E1,1.23404236E2,2.7000778E1,2.0776491E1,4.1802826E1,2.7832025E2,2.2230806E1,8.2065454E2,1.3394721E1,1.6697044E1,4.849673E1,9.967541E0,3.193935E2,1.0240308E3,4.326486E2,1.058519E3,1.6193814E2,1.7920027E3,3.45016E2,6.3473244E1,2.3505208E2,7.7519984E0,8.113005E2,1.1375758E2,5.522497E1,2.886374E2,6.817303E1,1.1750125E1,5.1634283E0,4.9716045E1,1.2873694E2,6.229469E2,1.1719272E2,5.185536E0,6.6492505E0,6.0537743E1,1.3759011E1,9.1825075E0,2.7445752E2,1.3163981E3,7.5075775E1,6.5721075E2,1.5482528E1,3.7295204E1,1.0583148E3,2.923629E3,6.5350847E0,3.1395725E3,5.216071E0],"tree_param":{"num_deleted":"0","num_feature":"155","num_nodes":"121","size_leaf_vector":"1"}},{"base_weights":[2.1504061E-3,-8.2247853E-1,1.1079599E0,-1.1392441E0,-2.2957285E-1,6.6249E-1,1.2134507E0,-1.2034892E0,-1.8428871E-1,-5.182785E-1,9.064768E-2,-5.254125E-1,6.827652E-1,1.09455E0,1.291229E0,-1.2363585E0,-2.0836988E-1,-3.0854496E-1,8.795315E-1,-1.0881351E0,-4.0846044E-1,-3.8564738E-3,8.248941E-1,6.79067E-1,-1.4261793E0,9.7755694E-1,5.952276E-1,9.2176867E-1,1.1589887E0,2.2794656E-1,1.2962009E0,-1.2970135E0,-8.071085E-1,-6.9925356E-1,1.607415E-1,-8.478229E-1,-2.177986E-2,-2.4024475E-1,1.1142858E0,-4.1623563E-1,-1.3146615E0,-4.9778157E-1,3.3348614E-1,-1.3514173E-1,5.5485773E-1,1.9173521E-1,9.7131133E-1,7.09084E-2,-2.2834826E-2,-8.9812234E-2,-6.763438E-3,4.354758E-1,1.1083187E0,4.460307E-1,7.867952E-1,-5.2829362E-2,9.360027E-1,1.0378475E0,1.219041E0,6.391063E-2,-3.4077293E-1,1.3065549E0,9.142819E-1,-5.5208214E-2,-6.7360386E-2,-5.3411018E-2,-1.3333276E-2,-7.048844E-2,-4.1710865E-3,1.7741801E-2,-7.611478E-2,2.191736E-2,-5.3537603E-2,4.2036757E-2,-1.1318692E-2,5.1891834E-2,-7.63958E-2,-1.52396085E-2,6.435606E-2,3.9172765E-2,-4.732499E-2,9.478564E-3,-6.969444E-2,-2.969156E-2,1.1122923E-2,2.2934478E-2,-7.5684294E-2,-2.6106125E-2,9.238295E-3,-6.1511148E-2,3.1558257E-2,3.5931256E-2,-6.823029E-2,-3.6137585E-2,5.1175933E-2,2.9765854E-2,-6.2438365E-2,2.1642656E-3,5.7341695E-2,1.7473107E-2,5.5230327E-2,3.5514954E-2,6.1167903E-2,-4.859812E-2,4.7439914E-2,1.621404E-2,5.3595614E-2,5.944697E-3,6.141693E-2,3.0632306E-2,-1.0870882E-1,6.235958E-2,6.745785E-2,1.7282607E-2,5.42457E-2],"categories":[],"categories_nodes":[],"categories_segments":[],"categories_sizes":[],"default_left":[0,0,0,0,0,0,0,1,1,0,1,0,0,0,0,0,0,0,0,0,0,0,0,0,0,0,0,0,0,0,0,0,0,1,0,0,0,0,0,0,0,0,0,0,0,0,0,0,0,0,0,1,0,0,1,0,0,0,0,0,0,0,0,0,0,0,0,0,0,0,0,0,0,0,0,0,0,0,0,0,0,0,0,0,0,0,0,0,0,0,0,0,0,0,0,0,0,0,0,0,0,0,0,0,0,0,0,0,0,0,0,0,0,0,0],"id":12,"left_children":[1,3,5,7,9,11,13,15,17,19,21,23,25,27,29,31,33,35,37,39,41,43,45,47,49,51,53,55,57,59,61,63,65,67,69,71,73,75,77,79,81,83,85,87,89,91,93,-1,-1,-1,-1,95,97,99,101,-1,103,105,107,-1,109,111,113,-1,-1,-1,-1,-1,-1,-1,-1,-1,-1,-1,-1,-1,-1,-1,-1,-1,-1,-1,-1,-1,-1,-1,-1,-1,-1,-1,-1,-1,-1,-1,-1,-1,-1,-1,-1,-1,-1,-1,-1,-1,-1,-1,-1,-1,-1,-1,-1,-1,-1,-1,-1],"loss_changes":[2.4896514E4,2.9368838E3,5.470781E2,6.25001E2,5.036932E2,5.421472E1,8.554004E1,3.1197754E2,8.5315926E1,1.7869568E2,1.793452E2,4.22677E1,5.5992188E1,4.031494E1,2.965332E1,2.3943848E2,5.573136E1,8.917061E1,1.8101128E1,6.962085E1,1.5948535E2,1.67983E2,2.7019104E1,1.4919861E1,1.0125858E1,3.49133E1,4.8054016E1,2.970166E1,1.8271484E1,1.7138645E1,2.0993164E1,7.665723E1,1.615028E2,5.7457855E1,5.7832565E1,5.7952866E1,6.683807E1,2.2122126E1,1.4240059E1,7.588793E1,4.1506775E1,1.4862836E2,6.0435135E1,2.2977237E2,6.006604E1,4.7432976E1,2.19066E1,0E0,0E0,0E0,0E0,2.7401262E1,1.6373322E1,6.0338715E1,2.3710022E1,0E0,2.5659119E1,2.1574707E1,1.8233398E1,0E0,3.4292343E1,1.2004883E1,1.4342987E1,0E0,0E0,0E0,0E0,0E0,0E0,0E0,0E0,0E0,0E0,0E0,0E0,0E0,0E0,0E0,0E0,0E0,0E0,0E0,0E0,0E0,0E0,0E0,0E0,0E0,0E0,0E0,0E0,0E0,0E0,0E0,0E0,0E0,0E0,0E0,0E0,0E0,0E0,0E0,0E0,0E0,0E0,0E0,0E0,0E0,0E0,0E0,0E0,0E0,0E0,0E0,0E0],"parents":[2147483647,0,0,1,1,2,2,3,3,4,4,5,5,6,6,7,7,8,8,9,9,10,10,11,11,12,12,13,13,14,14,15,15,16,16,17,17,18,18,19,19,20,20,21,21,22,22,23,23,24,24,25,25,26,26,27,27,28,28,29,29,30,30,31,31,32,32,33,33,34,34,35,35,36,36,37,37,38,38,39,39,40,40,41,41,42,42,43,43,44,44,45,45,46,46,51,51,52,52,53,53,54,54,56,56,57,57,58,58,60,60,61,61,62,62],"right_children":[2,4,6,8,10,12,14,16,18,20,22,24,26,28,30,32,34,36,38,40,42,44,46,48,50,52,54,56,58,60,62,64,66,68,70,72,74,76,78,80,82,84,86,88,90,92,94,-1,-1,-1,-1,96,98,100,102,-1,104,106,108,-1,110,112,114,-1,-1,-1,-1,-1,-1,-1,-1,-1,-1,-1,-1,-1,-1,-1,-1,-1,-1,-1,-1,-1,-1,-1,-1,-1,-1,-1,-1,-1,-1,-1,-1,-1,-1,-1,-1,-1,-1,-1,-1,-1,-1,-1,-1,-1,-1,-1,-1,-1,-1,-1,-1],"split_conditions":[5.1E1,1.4E1,2E-1,1E-1,1.2E1,2.3E1,5.3E1,5E-1,1.7E0,1E-1,1.2E0,-5E-1,-8.660254E-1,2.5E1,2.9E1,3.5E1,-1.7669289E0,1.4E1,-7.0710677E-1,4.95E1,3.1E0,2.426E1,1.4487162E-1,-1.8369701E-16,7E-1,-4E0,4.5E1,-5.7E1,-2.5881904E-1,1.3263338E0,7.2997746E0,-7.0710677E-1,3E0,-3E0,7.5E0,-8.660254E-1,-5.5067167E0,4E0,3.905125E-1,-4.288738E0,1.326E1,9.6E1,1.2226845E1,1.76E1,2.4840033E1,2E-1,6.4E1,7.09084E-2,-2.2834826E-2,-8.9812234E-2,-6.763438E-3,2.18E2,1E0,3.5E1,2E0,-5.2829362E-2,8.4E0,4E-1,6.6E1,6.391063E-2,1.9E-1,6.9E1,5.1E2,-5.5208214E-2,-6.7360386E-2,-5.3411018E-2,-1.3333276E-2,-7.048844E-2,-4.1710865E-3,1.7741801E-2,-7.611478E-2,2.191736E-2,-5.3537603E-2,4.2036757E-2,-1.1318692E-2,5.1891834E-2,-7.63958E-2,-1.52396085E-2,6.435606E-2,3.9172765E-2,-4.732499E-2,9.478564E-3,-6.969444E-2,-2.969156E-2,1.1122923E-2,2.2934478E-2,-7.5684294E-2,-2.6106125E-2,9.238295E-3,-6.1511148E-2,3.1558257E-2,3.5931256E-2,-6.823029E-2,-3.6137585E-2,5.1175933E-2,2.9765854E-2,-6.2438365E-2,2.1642656E-3,5.7341695E-2,1.7473107E-2,5.5230327E-2,3.5514954E-2,6.1167903E-2,-4.859812E-2,4.7439914E-2,1.621404E-2,5.3595614E-2,5.944697E-3,6.141693E-2,3.0632306E-2,-1.0870882E-1,6.235958E-2,6.745785E-2,1.7282607E-2,5.42457E-2],"split_indices":[66,143,58,59,142,62,66,107,105,107,107,8,1,142,62,142,19,142,0,43,20,141,133,3,8,13,143,63,0,12,12,1,143,140,42,1,18,56,106,48,141,143,18,151,52,7,33,0,0,0,0,35,143,63,107,0,54,107,40,0,145,143,74,0,0,0,0,0,0,0,0,0,0,0,0,0,0,0,0,0,0,0,0,0,0,0,0,0,0,0,0,0,0,0,0,0,0,0,0,0,0,0,0,0,0,0,0,0,0,0,0,0,0,0,0],"split_type":[0,0,0,0,0,0,0,0,0,0,0,0,0,0,0,0,0,0,0,0,0,0,0,0,0,0,0,0,0,0,0,0,0,0,0,0,0,0,0,0,0,0,0,0,0,0,0,0,0,0,0,0,0,0,0,0,0,0,0,0,0,0,0,0,0,0,0,0,0,0,0,0,0,0,0,0,0,0,0,0,0,0,0,0,0,0,0,0,0,0,0,0,0,0,0,0,0,0,0,0,0,0,0,0,0,0,0,0,0,0,0,0,0,0,0],"sum_hessian":[2.7300299E4,1.5638475E4,1.1661823E4,1.0192137E4,5.446338E3,2.23443E3,9.427394E3,9.549336E3,6.428007E2,2.8639453E3,2.5823926E3,3.6996517E1,2.1974333E3,3.7346096E3,5.692784E3,9.24367E3,3.0566635E2,5.762926E2,6.6508125E1,4.6115378E2,2.4027915E3,2.2886777E3,2.9371497E2,1.5887422E1,2.1109097E1,5.0053192E2,1.6969015E3,1.01905273E3,2.715557E3,2.680702E1,5.665977E3,8.0972373E3,1.1464324E3,1.3092493E2,1.7474142E2,1.9926268E2,3.770299E2,1.1448673E1,5.505945E1,1.17100655E2,3.4405313E2,2.1450215E3,2.5777005E2,1.8539729E3,4.3470477E2,5.572656E1,2.3798842E2,9.527061E0,6.3603597E0,1.6041546E1,5.0675516E0,9.8264656E1,4.0226727E2,9.561117E2,7.407898E2,6.7062893E0,1.01234644E3,9.066173E2,1.8089397E3,9.040341E0,1.776668E1,5.513812E3,1.5216481E2,1.677429E3,6.419808E3,7.721912E2,3.7424115E2,6.011534E1,7.080959E1,1.574341E2,1.7307339E1,2.9226728E1,1.7003595E2,7.15971E1,3.054328E2,5.80413E0,5.644543E0,5.8321395E0,4.922731E1,3.568942E1,8.141124E1,1.70816E1,3.2697153E2,1.8929025E3,2.5211888E2,2.4216185E2,1.5608186E1,8.3888464E2,1.0150882E3,1.7147034E1,4.1755774E2,4.2082348E1,1.3644212E1,6.6737733E0,2.3131464E2,9.0392006E1,7.872646E0,1.4204359E1,3.8806293E2,8.3531055E2,1.208011E2,6.327697E2,1.0802008E2,6.1925282E0,1.00615393E3,4.1921795E1,8.646955E2,1.53655E1,1.7935741E3,1.2090562E1,5.676118E0,2.3173467E3,3.1964653E3,3.5955437E1,1.1620937E2],"tree_param":{"num_deleted":"0","num_feature":"155","num_nodes":"115","size_leaf_vector":"1"}},{"base_weights":[2.7677733E-3,-7.957529E-1,1.0796605E0,-1.169952E0,-2.8503233E-1,6.409756E-1,1.1853966E0,-1.2151086E0,-3.2448432E-1,-6.1942995E-1,8.321513E-2,-5.294206E-1,6.576976E-1,1.0400852E0,1.2496396E0,-1.2808888E0,-8.6612207E-1,-9.2266256E-1,1.3538051E-2,-8.3786833E-1,-2.7051938E-1,2.0069759E-1,-4.9610496E-1,-1.3171542E0,7.2032934E-1,5.853302E-1,9.009515E-1,8.7651944E-1,1.0983336E0,1.1625751E0,1.3033462E0,-1.301134E0,-7.856611E-1,-3.8706297E-1,-1.1259214E0,-1.2818818E0,-2.684319E-1,-7.304259E-2,1.5424374E-1,-1.0406011E0,-4.8543283E-1,-4.7755536E-1,3.4268183E-1,-4.1077953E-2,4.816491E-1,-6.8562794E-1,3.7524262E-1,-5.6693074E-3,-8.5777335E-2,5.523891E-2,1.5210167E-2,6.23019E-1,-2.6665294E-1,9.780703E-1,4.6861374E-1,-4.1906357E-2,9.0122813E-1,7.68844E-1,1.129881E0,1.1695478E0,-3.0960655E-1,1.3182504E0,1.1639596E0,-6.645816E-2,-5.558611E-2,-5.7103574E-2,4.828596E-3,-7.127262E-2,-1.18830195E-2,-5.8408774E-2,5.5588274E-3,-7.254165E-2,2.4759091E-2,1.6196908E-2,-7.334971E-2,-1.8340105E-2,2.3260005E-2,-5.4896224E-2,-8.032969E-3,-2.9954022E-2,3.300835E-2,-5.942306E-2,-1.7421344E-2,-3.0643508E-2,3.0323295E-2,-8.62348E-3,3.3712573E-2,1.4677353E-2,4.5227885E-2,-7.439461E-2,-2.3820288E-2,4.679686E-2,-2.6004894E-2,1.9082332E-2,3.6201447E-2,-7.059036E-2,3.1449102E-2,8.204659E-3,5.116586E-2,-6.825902E-2,3.7598725E-2,3.8544547E-2,5.4796513E-2,-5.2613437E-2,4.187098E-2,5.851348E-2,4.841082E-2,3.8202297E-2,5.935371E-2,-5.504622E-2,3.0992165E-2,4.0312633E-2,6.606054E-2,5.893556E-2,4.7133286E-3],"categories":[],"categories_nodes":[],"categories_segments":[],"categories_sizes":[],"default_left":[0,0,0,0,0,0,0,0,0,0,0,0,0,0,0,1,0,0,0,0,0,0,1,0,0,1,1,0,0,1,1,0,0,0,0,0,1,0,0,1,0,0,0,0,0,0,0,0,0,0,0,0,0,0,0,0,0,0,1,0,0,0,0,0,0,0,0,0,0,0,0,0,0,0,0,0,0,0,0,0,0,0,0,0,0,0,0,0,0,0,0,0,0,0,0,0,0,0,0,0,0,0,0,0,0,0,0,0,0,0,0,0,0,0,0],"id":13,"left_children":[1,3,5,7,9,11,13,15,17,19,21,23,25,27,29,31,33,35,37,39,41,43,45,47,49,51,53,55,57,59,61,63,65,67,69,71,73,-1,75,77,79,81,83,85,87,89,91,-1,-1,-1,-1,93,95,97,99,-1,101,103,105,